{"layers": [28, 56, 28, 1], "learning_rate": 0.005, "weights": [[[0.1732690630109484, 0.2629568300759588, 0.2218631433256289, 0.1122525518556341, -0.012608183916455185, 0.22245730322212343, 0.031059968693893214, -0.02091686899582912, -0.22604934379341646, -0.2062733677843963, 0.026309478291018984, -0.1109545469768787, -0.1979819454843397, -0.04669882716712018, 0.08672274492681126, -0.2470640576191453, 0.14270481457353895, 0.055344443549586175, -0.20934551185306097, 0.14829939935872283, 0.23900615905721978, -0.10825595915582173, 0.10627284042972313, -0.07488271225623316, -0.2025364715085523, -0.17817895665922995, 0.06829136695258942, 0.22773400534772598, 0.090631134459913, -0.12128066176435143, -0.09187377304947508, 0.05333494672029315, 0.057918553895438596, 0.14939370227505877, 0.1348059766005979, -0.2225537431477338, -0.005666024776085854, 0.010709822198713526, -0.23263381320174617, 0.07379043808127073, 0.26679981555767796, -0.1904657799889316, -0.09628662078248532, 0.24799637791326856, 0.0748881870589938, 0.22720612154531983, 0.18612730742073447, 0.19824698023519977, 0.007379168761129429, 0.05411372862043584, -0.15740322991789657, 0.23356721806410674, -0.12563835243701468, -0.03751486738958559, 0.2411269736103413, 0.26003965883297253], [-0.009306027105432602, -0.08366592990868302, -0.1025972933575158, 0.13494966578519707, -0.15628358504759166, 0.0354002920319339, 0.07551232745796643, 0.17875216595665416, 0.01546879007590346, -0.06524868777758075, -0.16639957798523697, -0.07373532136312783, 0.2575795161918376, 0.1596321278022249, -0.2505816431871898, 0.25864768720302167, 0.02891024251049107, 0.02323220389308417, -0.014288127888718805, -0.21993422191199155, -0.13655439192691232, -0.16110782095726964, -0.1344154894886248, -0.12005286702611051, -0.2425812775211697, -0.08270617694988969, -0.10363649202966782, -0.082002344192004, 0.19030077324351607, -0.18141103248261167, -0.009675413648940145, -0.011926898195116165, 0.13100405932592996, 0.15231107362345825, -0.14925067889552157, -0.15709055565044105, 0.20943455414915652, 0.22338324288826583, 0.1407980584402138, 0.24922079885057946, -0.25305773927214387, -0.21947735079951236, -0.061376426945187884, -0.14282295312324422, -0.146132296358157, 0.007498341742610604, -0.036724402401398376, 0.19148278898284277, 0.12121153815052643, 0.0653726054318367, 0.17719528107204313, 0.20642394448003915, -0.022739714575952308, 0.20657671084844043, -0.17626484797569977, -0.025428075295663155], [0.014087446324264397, -0.23053110513821987, -0.21319617496216445, -0.24611214846119658, 0.04829863113288235, 0.20917348459883273, -0.10807414714597985, 0.042572732662031765, 0.09139210604681064, -0.2618068774089682, 0.14940247815377178, 0.11444741564207783, -0.07645410535537439, 0.10042522872472082, -0.00807994661030731, -0.022584074934902637, 0.13534388430776623, 0.16070454340283868, -0.013031127698313993, 0.13066596271862563, 0.10626048949067507, 0.0492887029416027, -0.25570458209212144, -0.021013045810663766, 0.21514318027634904, -0.1538975712501598, 0.1009823228569327, 0.21724331556679033, -0.09846354532708698, 0.1176716695124918, -0.013617009181889905, -0.16393946452966948, -0.09227560303665866, -0.01622347605309238, 0.06546757106079448, 0.19685785391904187, 0.1324503682667582, 0.2532641379393811, -0.06322654115116191, 0.15710088365916652, 0.2534866604278315, 0.058318868822471115, 0.08767845878575325, -0.16415408952330673, -0.22399286645512256, 0.2338201413102089, -0.15453164972346184, -0.22402030339822543, 0.014701445429995463, 0.07341216209575346, 0.09851449708621529, -0.10393992040682884, 0.23554338670392483, 0.17705784040116862, 0.08885541573963057, 0.24930104095242112], [-0.24407473641100802, -0.08704010434697189, -0.26558354573559473, 0.009137034629948734, 0.24170137976772582, 0.15857255859072977, -0.12855170740793784, -0.24035094417278594, 0.016683869939962688, 0.07717248746157165, -0.04481532336185444, -0.06801338661254033, -0.1822045141344582, -0.0017935157946781998, -0.2149522604825434, 0.10640552000766254, -0.23334664072238198, 0.13588233922869844, -0.21231803171910169, 0.17229036482543494, 0.20628842551295365, 0.2654845972398149, 0.19299387001846016, -0.1919243845236401, -0.13328243342188603, -0.24937528606357132, -0.16417698560461633, -0.0684489190322678, 0.05659944324525214, -0.0815148089385218, -0.109350242508627, 0.2210978538700943, 0.07111835022736583, -0.2333617412586759, -0.27304354021998756, -0.2393102030487698, -0.2582526969461126, -0.24979266136339243, -0.17643540650383127, 0.13423722080822373, 0.018772052878883193, -0.18874966728514664, -0.004466822105219344, -0.1423055822053396, 0.15295087687855566, -0.24572722829476581, 0.19496170567461835, 0.20071073249937718, 0.2518228951054935, -0.06059812983429428, -0.06448140840110471, -0.16581955612671065, -0.04573844156967549, -0.06355133263391079, 0.08231992602784687, -0.06792679814215692], [-0.05197501218200059, -0.153291085869534, 0.21261790252469237, -0.13195828745052554, -0.00957427227495143, -0.06574825913220037, -0.2618025027478791, -0.272583313444449, 0.014545052650248311, -0.16027105262818747, 0.09388354484119513, -0.015128168886307825, 0.24534675379293164, 0.20826053580170234, 0.13123356602497283, 0.11241408946855422, 0.0475124227764043, -0.15820419415944834, 0.07281439510274544, 0.05564333355288771, -0.02292464061786184, -0.08086057143097891, 0.1990111255497499, 0.2767544913026336, 0.1116138523235939, 0.16323782791539682, 0.20104654784341036, 0.25837259296796866, 0.2402141272003203, 0.1372280879006304, -0.15378166500691923, 0.10334842694106351, -0.18152800943845532, 0.028785337673616594, -0.09903776168375654, 0.06233488047121081, 0.1668398308831701, 0.07362554554713069, -0.1343150094112583, -0.0890277394180659, 0.14180662422521598, -0.044287706987949635, 0.27202114839549146, -0.13781519706939244, 0.2614755670743329, -0.2514285522049548, 0.14158507566426282, -0.15179656335822264, 0.2511831141594135, -0.12243774670825679, -0.20707081712611142, 0.09711663624146068, -0.18285159019615058, 0.2262954703530104, -0.1547131777904739, -0.165553405231888], [-0.175867536020659, 0.07467138819343566, -0.03942652538244237, 0.15118370679900672, -0.17168183417485494, 0.24025087017335855, -0.14086795285755838, -0.07071098548080976, -0.03643855025396375, -0.1847399665466585, -0.21376421933387277, 0.19189066778186648, -0.021768439083752977, 0.03794710447053157, 0.18206079803059044, -0.17013246956896103, -0.12675662349774752, 0.06345422305019538, 0.2548756610174586, 0.05405607738643142, -0.13692537491413864, -0.10406742499078409, 0.26189393548902384, -0.0607480377822216, 0.23436879111241282, -0.019929654880889824, 0.14646770305992352, 0.19051758619988207, -0.14760573379275888, 0.24462403171430347, -0.25649130894806094, -0.04472739490660546, -0.2233010932834325, -0.16738844391441005, -0.10019815844354699, -0.08278116959646634, 0.17251877648887193, -0.12893479302876915, -0.18921980711552638, -0.2128559096703623, -0.24034462909514082, 0.2279475725858398, -0.019948404283195276, -0.12675167504953008, -0.019419356505582186, -0.13087147637130575, 0.20382724874892844, -0.24498053233294836, -0.08713890055645768, -0.11133535442688036, 0.23481749373086458, 0.1833826599046638, -0.13991606099199702, -0.15688345334408416, 0.1355467625670721, 0.204089765330632], [-0.19938926740749585, 0.10362556395490835, 0.17778178376846732, -0.19197277087208453, 0.026271061628681702, 0.18620713559472724, -0.011251679046478835, 0.013333368619126651, -0.015765029105071326, 0.0006649669563332794, -0.22157193747659676, 0.21920397043937373, -0.1058162920827363, -0.250199342224153, 0.19307567844364748, 0.20822372784620335, -0.1948433918098766, 0.2571527210133595, -0.23625043222799952, 0.1781787040459561, 0.26520781368406965, 0.060291749236000614, -0.2442988975933513, -0.030460960793511682, 0.08799580549044905, -0.13875315367481103, 0.027734376181424325, 0.12597843817253074, -0.0017652719243021475, -0.1430859973373161, 0.10853521349546313, 0.1713918140378745, -0.011379731505576196, 0.04535280331826935, 0.14754952729899945, -0.06289956604372735, -0.24253500499847566, 0.05768585408087479, -0.046074649504349835, -0.009301937442339536, 0.027105834321885902, 0.029313954729357494, -0.24338976573186288, -0.003875396377290674, -0.22229872160543573, 0.14508334701991, 0.05578032126225857, -0.22049814462898393, 0.17498585042120168, 0.01735157287435346, 0.14372488232704272, -0.1264837830879819, -0.2423467128124728, -0.10828348990848377, 0.17188612252755892, 0.2380253661126469], [0.20337643160907293, -0.2512730118186319, 0.034041918905230006, 0.11594074550207739, 0.038601537889753956, 0.18358810356203387, -0.14264056232212471, -0.1682433271572038, -0.04199770811321468, -0.218904094353652, -0.18956640578502887, -0.0045913657511378325, 0.12623706639580845, -0.16910592013702092, -0.13892729039820484, -0.173573459333897, 0.05592614954528552, -0.08796347666845125, -0.2357459384246962, 0.26088271294349885, -0.03417594291608611, 0.22114365962481847, 0.05231964394444949, 0.16822974647295935, 0.13292646328141727, -0.1441577914959385, 0.07775238496328646, -0.010135458977027945, 0.20549413599892502, 0.2642544383738281, 0.18699962986180352, -0.009952375436596772, 0.24489702148145776, 0.0006915177351123902, 0.10190850480224789, 0.22015446211667744, 0.12310179625156731, -0.18142733818311843, -0.26258209616971734, 0.14388949445079924, 0.0949211005749821, 0.16997783488221574, 0.04926395645821968, 0.2598385210368467, 0.04137844965901277, -0.10382512540959457, 0.17660824627718447, -0.010422065776941047, 0.047184515834053364, -0.2216864037210537, -0.1694264359048848, -0.23506999483555396, -0.25863506129285707, 0.16116162030445552, 0.11247261510907591, -0.26535906019484023], [-0.011720638081956891, -0.21901514301619868, -0.15652417748348496, -0.009307109319908857, -0.10177714647450897, 0.13727186782921008, 0.11837216773430753, 0.1747371432263744, -0.1040546143745533, 0.05680885578912026, -0.08771729942165252, -0.03434074825527106, 0.0011314809495223122, 0.24225209561473293, -0.025156568461691647, -0.18788120320003654, -0.16084816065022045, 0.08849204848093833, 0.11096582149306117, 0.24952457838683284, 0.15056580167027034, 0.1758779444647935, 0.10042551768836849, -0.06403176377198208, -0.08552946982907478, -0.10664854905962678, 0.14737216977872813, -0.01156991619429465, 0.2555471849704052, 0.1149426200583526, -0.22201256027276012, 0.09620995736839477, 0.1485999294620965, 0.24706730368263086, -0.05349881107264562, 0.06284073688217745, 0.14012432209954195, 0.10472283087303225, 0.017236750622735275, 0.19907785455806043, -0.2529515136186805, 0.1358088127586285, 0.25703063086865563, -0.10892009419339058, 0.22183696071034986, 0.06095776861048041, -0.07617746919403151, -0.13851894139812784, 0.222356618386642, 0.19960620790529404, 0.035272621707285734, 0.009288526914608797, -0.00850730713303105, -0.2648203895187862, -0.2178822086211883, 0.13832203864896964], [-0.011212463532083994, -0.07453843283478165, -0.05480799263685063, 0.2631828066935499, 0.19913945643637893, 0.10070164451187175, -0.13430822924653335, -0.02736201905027555, 0.21800995408502377, 0.02200527779776623, -0.25291895031873596, 0.06678888732325894, 0.028578747525007553, 0.060288011766396754, 0.1618063455802014, -0.15553876261256477, -0.24819641949947147, -0.040657189100755664, 0.13314658704280058, 0.1793985768660904, -0.14616442117354497, -0.11553875238816319, 0.0023525311601288457, 0.1878939002033213, -0.05964736566295695, -0.24620241314645316, 0.14304295176229426, -0.029940638662598884, 0.12829689744957568, 0.016393605124685684, -0.029896859094282524, 0.16885401573041497, 0.17741743295924955, 0.20640747009898242, -0.2544701409077849, 0.21698350791860388, 0.24880712392092752, -0.028687051375172634, -0.13036027685637783, 0.06346555090686129, -0.22884221484202677, 0.0005011484892810669, -0.019177055961828587, -0.14794845484693997, -0.19947822370025398, -0.09026600245207855, -0.18438110326413873, 0.14745274808611808, 0.16091064778754105, -0.05992757141276234, 0.18911236146205074, -0.17456404397584854, -0.21218887215337512, -0.06514115223800954, -0.03886831531172069, -0.15643247947551528], [-0.17002711378858057, -0.21272885484733045, -0.15270000640255565, -0.07711052677972385, 0.22219362866180253, -0.15189500597665934, 0.015991343123811785, -0.16785616348886728, 0.0884796709996361, 0.22939946068167344, 0.2427943005036407, 0.1909754634265669, 0.2017143576371227, 0.13613458190097966, -0.07537309567142081, -0.0993345692219138, -0.09138953968508823, -0.23901432267536465, -0.0688422110740946, 0.15014653457064447, -0.05239375439786659, -0.04954984247867597, -0.07118920737991274, 0.16663022710456793, 0.05496476247007387, -0.1914689206910927, -0.14327584992457343, 0.24920297792173074, 0.14124225237995114, -0.0887378342218112, -0.13868573045265298, 0.13192564682902125, -0.2622692365902016, 0.24871626683283343, -0.08925760623868279, 0.014447442421680334, 0.049375460820919426, -0.1181546508376668, 0.007856242223155951, -0.13434203190781263, 0.08136441592524063, -0.07840824432508434, 0.11014810257696622, -0.013014698393425339, 0.008205701126582698, 0.12065476317720603, -0.060838141191793565, 0.11375752991463106, -0.11187613913651667, -0.14541090491145708, 0.21509214605544746, -0.20608591412799918, 0.12019284694007676, 0.13730581214455717, -0.2198083464614629, -0.0805184238910977], [0.18548537269922627, 0.17513028615544962, 0.15972517005273423, -0.21344279761098958, 0.1475554770787995, -0.09623268988675154, 0.12286220474187481, 0.015645087055927653, 0.1271734552477385, -0.224710843699431, 0.257560471556321, 0.1426178965621976, 0.2440032608193553, -0.20873951236774488, 0.22335605691349314, 0.23968640219705184, 0.05171539109565182, 0.20728318027974818, -0.26430066093062554, -0.23389202011119165, 0.25512833299480053, -0.018130418868508136, -0.2552099458261382, 0.15461944607350642, 0.18536520537820828, 0.23003247472443483, -0.1713844378445154, 0.2586470408690311, 0.05114238622392081, 0.2616934319527422, 0.020688384035905172, -0.02502565102012433, -0.09417614225762941, 0.2148886129819788, -0.11001901689823107, -0.17038847261553916, 0.010960042680940196, 0.0901957922708061, -0.013960757290915615, 0.16921421364770795, 0.018479838918217195, 0.03747849476341358, 0.21198577611687913, 0.01669086280059645, 0.06576429501089925, 0.20145458653786252, -0.10717979406187367, -0.059458630443838506, 0.060484400284902706, 0.01641604179040662, 0.08820446262956266, 0.1980950626755662, -0.22178282541708144, 0.218869039509984, 0.241328079676979, -0.24905573590108598], [0.05640455454225368, -0.12337741195054841, 0.03326393858473092, 0.09769978863243728, -0.17364598845337448, -0.12066330536184444, 0.1578336245854019, -0.1443620967689109, -0.21418901721718953, -0.014370074312244907, 0.025229455575903448, 0.03689979366526808, -0.23349986301495956, 0.2223423134498943, -0.04817971595871598, 0.06020736920726921, -0.022571448889971507, 0.12762428212522925, -0.1275953983859519, -0.17284285849200381, -0.26233544298917727, -0.15580048661103438, 0.09478005030592773, 0.11104589429938777, 0.13717491379768, -0.23216408535335425, -0.09579264225689307, 0.24319937166890448, -0.14593272850651928, -0.26198169617076794, -0.2645876862349475, -0.021727737977775635, -0.16512800297407937, 0.07414109355747084, -0.14440373433694467, 0.10234224377588569, 0.04472361151145876, -0.20815497088713164, -0.18644871737553304, -0.007074256309127558, 0.017427395349334074, 0.15467065992753914, 0.029353249172248075, 0.15606660580575765, 0.15332428953668625, 0.19152323287227313, 0.2429399351782029, 0.08611455838299087, 0.0625450125980282, -0.10373814706533124, 0.19853442858212356, -0.020681189254900062, 0.17413094748292135, 0.1991953399700871, -0.252244021169285, 0.03231562311899305], [0.12654464818799444, -0.0031463063470918984, -0.06438338992924947, 0.12600714166011268, 0.08429401027922112, 0.04085979254109223, -0.1912555967391041, 0.12778516852236016, -0.2029759609897526, 0.23105598651258513, -0.044231430445627135, -0.10117987639904605, 0.26067621941745045, -0.158260899108559, 0.26086841048284737, 0.19413459610787331, -0.23200859587543854, -0.12543722506962834, 0.03751528679569832, -0.13440752432877132, 0.23867356548218954, -0.10235964508558859, -0.22212213761185562, 0.19196489674082184, -0.18873989320588083, -0.1929294337530736, 0.14664304744063233, 0.12645047081220762, -0.1583017369599466, 0.023460431312621433, 0.07034538234332133, -0.0004056658731164675, 0.15835975344210917, 0.10543341647100463, -0.035062232914044034, -0.06905322094521274, -0.20054713993808204, -0.2126650463656236, -0.07536404098243368, -0.2389241292332003, 0.037820149053424845, 0.06424782045676164, -0.010913345320793355, -0.12876575232519388, -0.10939887594108721, 0.13145897626856262, -0.10902822530728143, -0.206283885046307, 0.19199752536024656, -0.20044772866405952, 0.20135405310604476, 0.044691972916359124, -0.09120181573411701, -0.18027921060595664, 0.06429545713808016, 0.10280482136886765], [0.07016824973074309, -0.22667784902784724, -0.23315357057374164, -0.10300800567911306, -0.020019259045792742, -0.032261795191512316, 0.19712581992230643, 0.064749532736663, 0.07600572349912132, 0.18308571209012747, 0.14386900608811237, 0.20653519912125973, -0.12384703005289041, -0.1833471311414137, -0.16740989662933453, 0.15345973621659126, -0.15416067525463767, 0.21784117111653106, -0.01499631037628113, 0.12448970443726154, 0.029245244308082563, 0.05709335236926244, -0.23024514303590138, -0.18114383006045603, -0.06292506119196187, -0.11592149375402877, 0.04462321261085872, -0.028520683485580817, 0.1758544873779635, -0.034820421460870526, -0.03251495397152224, 0.1518587172992894, -0.07440777161637338, 0.006998351268086123, 0.05032748531754411, -0.2140390507886519, -0.004417873571199993, -0.24674542569295985, -0.24210771241223006, 0.22561065281913006, -0.07310485139081038, -0.22101708612172796, 0.12614688442509903, 0.211832641759452, -0.2551562252758216, 0.26510585911740747, 0.08967955472815525, -0.23732065514239947, -0.0399952243134869, -0.1833772895139116, 0.020233264066061574, 0.19000703298691302, 0.09541595934402919, -0.08308730928795063, -0.2239153576286827, -0.23563913832340322], [-0.2266356754621872, -0.08776464747082402, -0.2664655826314109, 0.17637487304571847, 0.011202888580900683, 0.029554041939864717, -0.01863200710194632, -0.107708707962831, -0.12746840753084476, 0.03350505121786407, -0.10484429880211557, -0.1632631815846624, 0.042567000632813434, -0.20543403256268689, -0.11417665903156979, 0.0116241023598474, -0.18441586157623996, 0.12901167286899473, -0.02853867179210215, -0.09729120314666104, -0.12082619311825327, 0.16655193935910306, -0.056155794207109644, -0.1679098974486865, -0.18738049826847056, -0.09236821278265361, -0.11053989062153208, 0.11649700121738737, -0.008236603050162383, 0.2555995304749008, 0.19342899148157738, 0.08058573684747683, 0.06822868332265647, -0.19498755030182385, 0.0739966823461099, 0.15535578880911166, 0.0635427807170465, 0.2609544906147385, 0.2453965617915077, 0.2194041415043581, 0.254659914069705, -0.1099102367262651, -0.09992824730668265, 0.11231098411730306, 0.2136093606213268, 0.09834257941704377, -0.08088790013546082, -0.23189869219113718, 0.2599303917269118, -0.21385795683463296, 0.03722576323681265, -0.18949845543559357, -0.1792061836739055, 0.21756752925023332, -0.12559086579510279, -0.18213139932277217], [0.07596818661006825, 0.08643750147277666, -0.2193280679883932, -0.08988452565047937, 0.09698420128593742, -0.16902560775414574, -0.07839581282189144, -0.08006773192310096, -0.10106708249195279, -0.25860524748594954, 0.06560206255442999, 0.13920257351721937, 0.19333754171460008, -0.1604038484872037, -0.19114899665078244, -0.12486956187918075, -0.25609739984744695, 0.1200080972745535, 0.233630370825831, -0.14424131215248134, 0.09598782525663407, 0.2779843893664999, -0.20349586536791112, -0.2714229395637258, 0.0012356445713431062, 0.12261471407616684, -0.08351064457362795, 0.1729763734527461, 0.13731778122471605, 0.15683730322310055, 0.06932688020156652, -0.041499255058911104, 0.17861953460242092, 0.03520143860413523, -0.07548003671130847, 0.17156586293048665, -0.2536438205653117, -0.0017128463019115603, -0.143327247225276, -0.12116370823112425, -0.19480002761560306, -0.19539274318713046, 0.1778295969281976, 0.10327117185376677, -0.10461865333430848, 0.20346337463635547, -0.1985235955339454, 0.05688798405909437, 0.07022639522009182, 0.13430971344525328, -0.026451901468492776, 0.19465482317938365, 0.047468665748717664, -0.06797880642768424, 0.003165588127966511, 0.08132449317431618], [0.18830633605274366, -0.029641921019858464, 0.08373432187270319, 0.11551747972174503, -0.18378366773340235, 0.24311600970204428, 0.2134583181492204, -0.05353814211580485, -0.23411834710480725, -0.18416936766223066, -0.15085797306401433, 0.05376697942781561, -0.2431451450222079, -0.02254648216630384, 0.17063836612594613, -0.08750116309675521, -0.15168350164195588, 0.1871294702251624, 0.21981778561988802, -0.03655240785471062, 0.11977807991693251, 0.12373720166019353, 0.2187086323305803, -0.0653655867521298, 0.13079665650051786, -0.0019837325301553244, 0.08336665931533271, -0.015470974365379808, 0.014870415698638395, 0.22430821557561642, 0.19157153995867532, -0.12084732677050233, -0.22004966490682804, 0.08955367329039077, 0.039157787571159564, 0.16625607345454885, 0.06653348505971396, -0.13905073298171503, -0.2286977066999457, -0.06534398603253888, -0.02439583299517281, 0.0020824519043938228, 0.196591724259423, -0.24551481594047658, 0.19159700233805438, -0.2609320445079546, -0.13068770328740098, 0.04473473327937055, -0.060195965722031314, -0.22117273971285584, -0.04852016747552823, 0.24014453625001542, 0.09627925119748554, -0.07054677044260976, -0.03259238802722725, -0.12612026034202412], [-0.23722144643713042, -0.03987344447354596, -0.18589186634052207, -0.008514443326720633, 0.060172217863611044, 0.16419307310509534, 0.20337150350512367, -0.11722590051512036, -0.22645206723535172, -0.06527437903723174, 0.02896656330939229, 0.24461713426316212, 0.25963783509327165, -0.24107273191274972, -0.11158265025812142, -0.16532407701857893, -0.13731627019355724, 0.22115438478791893, 0.09797967703078603, -0.24212152394739253, -0.2639809594695874, -0.21262581339687758, -0.17007200545069748, 0.07798142668431934, 0.18946570719900452, 0.07460596035605072, 0.25068429003417647, -0.06331416793523681, 0.008227928587684508, -0.1175440880893586, -0.255006781617601, 0.19355199561835357, -0.13162937046308415, -0.03355030277636725, -0.22290339511887425, 0.187942607730552, -0.21434254637377012, 0.15449988381214247, 0.1219279814470301, 0.2326876528813655, -0.20157124529774353, -0.19904643681059275, 0.267227371447743, 0.028191768725839395, 0.03670939691994635, 0.05586405206710643, 0.24895379689266028, -0.017753865826901943, -0.23579635071518806, -0.21245204815780916, 0.03966862884604805, 0.2621850704290324, -0.08544453270265845, -0.03046702209572158, -0.10886051022119414, 0.13836512143294444], [0.029382285631623983, -0.14768258744112275, -0.019408092301965385, 0.08464457883380161, 0.0336405836645019, -0.059287227290746286, 0.22873457832525834, 0.18758743812445933, 0.14920130045443358, 0.20416901565501222, -0.15258725118540592, 0.1897852512734854, -0.07816019943789224, -0.1648851517833383, -0.14416937533367524, 0.21938239214677407, -0.03664033670009059, -0.1862551871635128, 0.1012776677878015, -0.25127452294194136, -0.2112329459843633, 0.012907121977586922, -0.12554360470366918, 0.12116996642495348, 0.15711366765012363, 0.2199460359012751, 0.05748915306244157, 0.10965848394416033, -0.16691015502085538, -0.1058123080448044, -0.2024707170938381, -0.23335098593850387, 0.056162922006708915, 0.08443140738354427, 0.2609593666215042, -0.18826799625420612, -0.2527976827598248, -0.15641987458438683, 0.0075791317762128885, -0.10724953173431287, 0.1219245066152349, -0.1212007640046675, 0.1749192353098249, 0.20291072596781218, 0.04847891409390326, 0.03370622452961364, -0.11441125714361813, 0.0065819577833768905, -0.1259505788812608, -0.2451568374822969, -0.24173631428635886, -0.1698239393672748, 0.010459013143116702, 0.10252253311085047, -0.22824524935195545, 0.20546704795883464], [-0.0705891503600731, -0.033606902979294195, -0.14480782277635784, -0.24424215203744262, 0.037495906157036185, 0.11086303441217404, 0.19573491967048584, 0.1138709108191363, -0.05548501457625568, -0.20904708724178941, -0.2601762936202026, 0.09004396018645577, 0.14574509177832468, 0.11321132097674458, -0.10662169016730849, -0.2146320145853879, 0.13491399134356735, -0.03531983881013945, -0.2006480477574024, -0.11371911877738242, -0.08912089816149271, -0.15837814182213442, -0.11799938837018395, 0.26171691190156454, -0.23717081712450264, 0.24772903583693162, 0.057502730253493006, -0.17291497627328256, 0.24093017890074864, -0.05113352002645857, -0.11927055479378881, -0.1024603300011209, 0.028930436088100475, 0.23148121230323992, -0.14206006554670794, -0.16763076140882124, 0.027118409284563993, -0.17098049268210697, -0.055600994826546346, -0.14845582528467322, -0.040847285491143, 0.24472237746515868, -0.12195202811059275, -0.23105109364185583, 0.20008434736758463, 0.03579693776922194, -0.12498950403122139, 0.056792109785517464, 0.21591205230605165, 0.2328969802527776, 0.14883957507828222, 0.16465148087291087, 0.24330770770591958, -0.10088782770140581, -0.21418761462480074, -0.21022782179535535], [-0.05632651927556742, -0.08321365125490177, -0.16679051642249032, -0.09010581368644005, 0.0002285114452721948, 0.00675895161625778, -0.11896960657605318, 0.04887739532486857, 0.14862758837818252, -0.13606827629227292, -0.25371239108536886, 0.0566663769813584, 0.22342683153523824, 0.0004368191248583786, 0.12285711355377038, 0.14934099833578457, 0.07517731697648783, -0.20568372725356698, -0.16876429506934182, 0.018503125398648346, -0.0820721107018613, 0.12111208709677512, 0.07393060620726555, 0.030942586611669376, 0.004671765136388006, 0.21990394008781006, -0.21704105498684947, 0.06672623732790184, 0.07110007868681256, 0.148111160974136, 0.05678264846619485, 0.018648595329979256, 0.16818512155798576, 0.08805380825626069, -0.19050232795389838, 0.10777438664499694, -0.03031719160838775, 0.0832406550186281, 0.25445176446885953, -0.051925747539603495, 0.021911737310502277, -0.21750063323722213, 0.2553291164919812, -0.09320394093006892, 0.18243162206842595, 0.23024348100621922, 0.15493926340480912, -0.15548230900098156, 0.2488370221664551, -0.13440594763151914, 0.15826521447431513, 0.18840066026598157, 0.24986389775312057, -0.12681715752117154, 0.19454364921184625, -0.08046425069563154], [0.1574928123770019, -0.09115231846812044, -0.22789009579092462, 0.07888216622367805, 0.166551592424388, 0.08719005574836924, -0.1766037517640001, -0.1236344804123104, 0.0335824562424179, -0.13938662725547965, 0.07013653022674143, -0.1806966349326682, -0.024809961973749323, 0.11635055920614457, 0.23628123674156754, 0.03536938893762348, 0.13926152075273424, -0.08454019500047133, -0.172128783490757, 0.2555443944396636, -0.01729860030292593, -0.07730701210947685, -0.011597148121485212, -0.09666842726342148, -0.023947493600946557, 0.18899089606547392, -0.005432374743249924, -0.061896024567175134, -0.21359693215809808, 0.20739679817529916, -0.010808018673524045, 0.2569422727297751, -0.01686297090038097, 0.009154152346350086, 0.18694932103042683, -0.14081970182738127, -0.05611368252217852, 0.25712593915962934, 0.08176096223297308, -0.016950668289740844, 0.16260771162686932, -0.18428945043406011, -0.043309795722145106, -0.12787117837062006, 0.23563642738530677, -0.22655251611956828, 0.07899279268311016, -0.21525493126612455, -0.24913624194719194, 0.020236068645277883, -0.003052252673240663, 0.22179229289369223, 0.08778801734638697, 0.14917133821959788, -0.15922545958530243, 0.11584378476666912], [-0.04887795812018486, 0.047744192523650364, 0.2368295145556839, -0.010468796082601262, 0.24534296601993844, 0.11022516296802398, -0.13488819817992745, -0.1408670102703093, 0.2183003565356783, 0.010908773680985195, 0.005642903697855028, -0.23654645153049886, -0.18198945924613544, 0.25042008978615016, -0.2559974562938887, 0.18247708870543472, 0.09532965192021842, -0.23705930257650668, -0.0241454935152641, -0.1695024169918609, 0.24557110110339075, -0.2374456152565419, 0.18015835850215234, -0.08799885990647643, -0.12381521169309534, -0.08036299252356308, -0.137318677765478, 0.07814868815829179, 0.23203653962276766, -0.003474472692978847, 0.07986512733244622, -0.12520672645541406, -0.14179176119971182, 0.053082647467431354, -0.0342487118074678, -0.23780730604878159, 0.19474316359283905, 0.060502055417088973, -0.16735215505719309, -0.22919006096289501, -0.17130691601561276, -0.1674389275440739, 0.23250775730266343, -0.025686024575773153, 0.03391305380311921, 0.2050809307894198, -0.018814811252912927, -0.015381522052101748, -0.12306376339845068, -0.027885290554510445, 0.15265913621346405, 0.06100279313060791, 0.24307626279375982, -0.11680377189784094, -0.04046916798957623, -0.20333749114916289], [-0.04070042344329025, -0.18811805218846428, 0.23538111409714813, 0.0078873361412935, -0.17434017442718217, -0.004858086417526164, -0.07090329093074019, -0.20683820316075044, 0.07832787906388367, 0.10271802698833932, -0.14323099173500892, 0.1632323133178084, -0.02204987636068162, 0.212944974490193, -0.051205761793702065, 0.13844591382697752, 0.15014112769508614, -0.2137684505637594, 0.014370166459478972, -0.1470691302959295, -0.16753086845932988, 0.24311762107005308, -0.036198669329647715, -0.262057803970071, 0.04778134097622472, -0.217084345026183, -0.21186079474727418, 0.05102941219826501, 0.10782618325644355, 0.060144630373647145, -0.016671629833911072, -0.15567660761858743, 0.16131051549551623, 0.26716588054833323, -0.09959051908676622, 0.22398333764959855, 0.21097342757561843, 0.14481782657400216, 0.07853514353333013, -0.09124112017618421, 0.22631039860247298, 0.02295611832128641, 0.06431226605180002, -0.24002988407107456, 0.20167268539113015, 0.18210526662308651, -0.06483886559080401, 0.24508390769745825, -0.20754704094884957, 0.12617985277555072, 0.1380989253040823, -0.09252807011516373, -0.10153228119656099, 0.09518177148216445, -0.011770223533021318, -0.07631315102884295], [-0.20796963413566438, 0.11927397465990092, 0.23863711367793772, -0.04106888036668102, 0.25780115229542955, 0.14351389131648823, 0.14341566566492586, 0.080234310686921, 0.11799128578643797, 0.198258694547001, -0.09341710270119369, -0.18638683935550449, 0.19246349826547238, -0.006456660023306249, -0.005977168508512487, -0.1770818414041405, 0.035226397995267555, 0.2258940935014535, 0.2626796046512919, 0.1317348852959313, -0.19769241306393198, 0.1296166592644974, -0.16742179711947874, -0.249965117289646, -0.013125393434293642, -0.07485648387546306, -0.08878802493999455, 0.0811372786681453, 0.24018652095851312, 0.13087362722241908, -0.23689337967066382, 0.22402498267707072, -0.059380472035146764, -0.06340298342861064, -0.12155461676718124, 0.08575703044768307, 0.08251863952261468, -0.12269525071244522, -0.08960276094246877, -0.160038850267781, 0.2457596897729013, -9.087964145138017e-05, 0.051124114265438225, -0.0369667080595211, 0.16397639720268226, 0.24164585848255682, 0.021901031528636983, 0.2631824938240491, -0.017301697895159646, 0.19836649114314375, 0.1507236345116041, -0.25956182671157074, 0.21807879906545868, -0.1896455645389961, -0.20176208491761619, 0.12817363129421933], [-0.24235375929008188, -0.10804426006596846, 0.04917930616657029, -0.11737196793482632, -0.22897636419224351, -0.13670555750991134, -0.18973830177370338, -0.1097553457966973, -0.2017029446394072, -0.10141122310087414, 0.2467493673887381, -0.1361902097079948, 0.007332479360549371, 0.15733319648115385, 0.1766981878768924, -0.1143084601787924, 0.042497292232583084, -0.259163227422008, -0.09803293122703, 0.13776785751707182, 0.07073151739282174, -0.18960603508444607, -0.03800292502716299, 0.1918034802004121, 0.15511954567312325, -0.034148118455020304, 0.017846810416507874, -0.24668116923344885, 0.2506308541020875, 0.18358206533161353, 0.14622459002574634, -0.19321978595118441, 0.09457992425474443, 0.013622565733673653, 0.09133493234909634, -0.17213796540943818, 0.058309288118285174, 0.03695363916882638, 0.12367163504327289, -0.010426743883504008, 0.16415557422793936, 0.1755361299395205, -0.1562553125087931, -0.1553843499982895, 0.21558738806832695, -0.13582073617506407, 0.24132553161427917, -0.05505609545298193, 0.04274683008154351, 0.22222170367758437, -0.06208427324148466, 0.02316270655314767, 0.0660735573225329, 0.14317391142407238, -0.2436084369962475, -0.175663222652214], [0.17630419828676863, -0.1734594049946842, 0.10013460727367512, 0.22315726898483873, 0.004553355308035412, 0.20751074102052586, -0.16989751753202853, 0.2560720978578276, -0.22163934875031013, -0.16297627681166213, -0.060339535476108874, -0.07888817329133863, 0.14150369893476478, 0.09919004606850029, 0.055830358637998345, 0.011517699129783843, -0.13368416885714804, -0.251388427198494, 0.1369736664626024, 0.23503362052892296, -0.20529795835846276, -0.1841264583280356, -0.0962754981292317, -0.004921010835519157, -0.20436659351850434, -0.0979397535189254, -0.18608794459258798, -0.10649380260863595, 0.2204643749898076, -0.2096418700302847, -0.06845182193705213, 0.18584568109475647, -0.01529583091811676, 0.22398409672589653, 0.15519167781967924, 0.13929471918689407, 0.04538620911877089, 0.2180381708841162, -0.11639747563549227, -0.12661397516498413, 0.12567609035623367, 0.24520124401007304, 0.059854334761391126, -0.2637502644444386, 0.18809475583067087, -0.004347420863867357, 0.18929867470669182, 0.07443678048160185, 0.21272990662209085, 0.09766816113415377, 0.2332773366345281, -0.2539238140525404, -0.24451375074906323, 0.1252135475788197, -0.06471373584921172, 0.05101028702782395]], [[-0.15960470360469767, -0.20819994661138602, 0.05295172489627331, 0.036034069079348814, -0.1398445007570037, 0.008716194138820289, 0.06165002152696558, 0.021435629573131776, 0.2259568733251142, -0.08117625086348902, -0.029646542756009177, 0.2518284441217603, 0.07081702102566666, -0.2562900783691167, -0.04174177135568032, -0.07487487290275362, 0.08392903308961325, 0.18345929653521983, -0.2520066242137623, 0.2605546122492078, 0.08277267163154364, -0.23032422615631726, 0.045982811297803995, 0.04149962545440722, -0.164910284711401, 0.2593617676385792, -0.14302475105836693, 0.08293792639034159], [-0.24884760122698044, -0.19693311806079644, -0.23427879235742627, -0.1187561156645866, -0.026799526297311253, 0.24081101334237792, 0.12259045500281146, 0.016746544282780718, 0.18766503477511925, -0.13495218064667044, 0.11233361955123612, 0.179637135950813, -0.22475037205221526, 0.0061214899754854, 0.13858317303666876, -0.04885671554923285, 0.0468614315004498, 0.0914500612700385, -0.08952404185411345, 0.26623008240229257, 0.13018685569733285, -0.05166713800977245, -0.16302323858607243, 0.07806836773879083, -0.02194372247977522, -0.09839322214652516, 0.0026366365732691465, -0.20931159234982138], [0.07678662528311664, 0.06710344818889331, -0.17022844027453524, -0.0036885971511260384, -0.039470377610785895, 0.12169494536267152, -0.11200588397391767, -0.04389200638539156, -0.16837177008933904, 0.07563852446564333, 0.1632339827786134, -0.1321411377258356, -0.18071647413387898, 0.18515272559215654, -0.01942037132501745, -0.1952269864006635, -0.19802853310116636, -0.17876965146089252, -0.1893413308188318, -0.1544083956617972, 0.14360368056390346, 0.16111719529378354, 0.23662492473602062, 0.22274640412239863, -0.17449679843533236, -0.13516377323657883, 0.0226273803526953, 0.12186014828482045], [0.1867197018866497, -0.15287712383915936, 0.09915201688121783, -0.10051081446875976, -0.1486473037751427, -0.12177619305174313, 0.04126518546311625, -0.0031450524571369765, -0.11385962647936995, 0.23247870801655102, -0.04386816254058844, 0.09545588987472808, -0.015112061153334187, 0.13926876285610357, -0.04114358855696935, 0.23542376230324188, 0.21029122516191526, 0.10409720720315413, -0.14722725635182057, 0.23693964972508932, 0.07743565617119015, 0.23774629115830637, -0.11582331106827473, 0.06081380986451568, 0.2239464146670272, -0.18661227138540998, 0.08373225774266194, 0.006252537088935775], [-0.07992803863602187, -0.1094546302185498, -0.07391980021441846, -0.058435636720712586, 0.25800808580983947, 0.04343573729185895, 0.1265044783329185, -0.06115946685158913, -0.2456150150516667, -0.08353474132016231, 0.1566048477370869, -0.0009366611084480295, 0.08190174349066964, 0.23030130998872955, 0.1900968985628288, -0.19340018655400318, -0.22761775871675924, -0.12326124219671464, -0.06445495661048839, 0.10073450478336449, 0.17289943753279052, 0.16995358064386212, -0.15999080665298743, -0.03624450650511235, -0.22751057083946674, -0.17076896576525386, 0.17818734737865424, -0.08503941456910433], [-0.22373062612767433, 0.07597506109781844, 0.03800674233427548, -0.0368949900126497, -0.1071656502865967, -0.2028556906867182, 0.03151891992971145, -0.2551318321207235, 0.15171479789353906, -0.24256775333526384, 0.17364725090794308, -0.20941877232545372, 0.25503345314353576, 0.11847789904764884, 0.07182164319710972, -0.03818492347284133, 0.03996101540763221, -0.025077396737954553, -0.046426087927926823, -0.18020922346306206, -0.021712335740609726, 0.03881121462449744, -0.018122398963622416, -0.0779380891275753, -0.16719429659564675, 0.2425226275669512, 0.029191393783453656, 0.12788291955167294], [0.18829413788273439, 0.16617742115126075, -0.09919912974580128, -0.05767105299323729, -0.012350932832518301, 0.2348168412877027, 0.04941192438799297, -0.06651438540592566, -0.1512105777828915, 0.04228753126246276, -0.13852361786386, -0.21376979594571277, 0.1731216882212201, -0.2492988415180821, -0.18964135541467314, -0.22701795682009776, -0.04258678134717567, 0.07042538668243009, 0.08321598924017953, -0.006469549192677891, 0.013079907937292854, -0.23134145257054886, 0.16779333103181376, -0.18724478250051418, -0.1664546683921601, -0.24989110427633376, 0.00680981945467167, 0.14956001749014064], [-0.19509141264569732, 0.19636039028835284, -0.15207631136609612, -0.03238226340393413, -0.18389810692887903, 0.22636669701077725, -0.18653702609378495, -0.2554828876434948, -0.1302383289719656, -0.11450051262699841, 0.032864846561014655, -0.14152165541382258, 0.036691597758876274, -0.18685219776697948, 0.04104423452514249, 0.21490006048990504, 0.1789092443103657, 0.14548223924646955, -0.19871323616491482, -0.11727780287033805, 0.1382944268730243, -0.11628830578780988, -0.036240596824939596, 0.16286176709423428, -0.11216081365884456, -0.06891993482979267, 0.13800310014689668, -0.01138459604709814], [-0.23025273415112268, -0.21723889371414726, -0.13434443350558364, 0.20395099177940884, 0.17173154639399468, 0.01595769207125982, -0.11639305611171377, -0.22120157563608234, -0.22220584819254652, -0.19004595564709426, 0.15870359126090897, -0.02183294816041805, 0.2072302007731371, 0.02814513456891678, 0.07523788956063918, 0.20760364908830173, -0.14205764791086473, 0.25792885699892065, 0.07252580329604447, 0.09728339288406918, 0.24587967028739835, -0.0250939355086163, -0.26368088717522603, 0.0011177625918452575, 0.07779831390193859, -0.23477346053992013, -0.16692557451180165, 0.03611324788933386], [0.11217079431009283, -0.16623018568966197, -0.020372988063943248, -0.23995082535818452, 0.05901937250864316, 0.17125930254540972, -0.2599561062308399, 0.2604755321676583, 0.22622341043273225, -0.129855153498472, -0.25469703468738286, 0.15760019942028017, -0.2571967169990885, 0.2073359166917509, -0.05461364026949831, 0.2720561141626296, 0.02287052129999886, -0.10996597555451693, 0.026004381816137623, -0.06104662884039909, -0.23101349283615086, 0.0611470825977834, -0.01542503226951808, -0.257101027244683, -0.009948309139619194, 0.09786194664288361, 0.17343155665723117, 0.17681148253484216], [0.22141440376569638, 0.2320765329787674, 0.21625257251309032, -0.1950920588999512, -0.14805439734564077, -0.008303929676112081, -0.26176268849555284, 0.017383951576842083, 0.04913516885024085, -0.005234910625716462, 0.05520795480981448, -0.06339431713347975, -0.23158524190882054, -0.014922984744292562, -0.010411302294725177, -0.12778757166647317, 0.07840864314184759, -0.018432474934790544, -0.15833741044026095, 0.0316324816825588, 0.04066310317723018, -0.19562668450413787, 0.07938762446138108, -0.09562003304105238, -0.1253474032668209, 0.26456474289648935, 0.26575327032335233, 0.013766322348297754], [0.10582199161715979, 0.04067420077636467, 0.11974773204509963, -0.11871231359002475, 0.10549458175269236, 0.138554716944827, 0.13109414441723488, 0.20880244028465417, -0.24724817248201972, 0.1169099347866369, 0.09041446878270498, 0.12594190235001732, 0.2482403068761316, -0.10094452154256524, 0.033975357349848044, 0.2551783531111909, -0.16226348267968574, -0.05972556205368585, 0.2647536177395068, -0.012167738054386965, 0.11597605875366797, 0.2143616823653907, 0.05512633520298201, -0.07797141379709946, 0.2568791129474872, 0.024994168625109003, -0.0765138014703335, 0.17768353271414072], [-0.2085668598595373, 0.12255507014684491, 0.12928309786336148, -0.21894218348433359, -0.07570957594036805, 0.15643200944792987, 0.03477668555871677, -0.0082665573909525, 0.16711194350311928, -0.24958353703814656, 0.22579266823396893, -0.016684121431239103, -0.23479118561228943, 0.20986353758226728, -0.23723151408976137, 0.11659312088275772, -0.11298626440400139, 0.2641358677301521, 0.1464875372013275, -0.25592592598863767, 0.11852075201426432, -0.1344121255304863, -0.02068332400527845, -0.14082789314916833, 0.01222772558888624, -0.25160548525956034, 0.02431167676801446, 0.028423612327921743], [0.1569901270718804, 0.0048445543601600295, 0.1845762155488789, 0.045381143472227374, 0.19419350447649142, 0.1481352851066916, 0.08925052373637754, -0.10113492145552885, 0.04635031112123552, 0.18987197038069745, 0.01200211909783625, -0.06908337369477045, -0.1507622060983944, 0.189577259917683, 0.02926681479317937, -0.2598223259033563, -0.20243011654516982, -0.2665566927447546, 0.14281789684908164, 0.157747957204873, -0.19653620451167267, 0.16487356117677077, -0.10378610396066813, 0.16076992819503316, 0.2028344202306171, -0.17002862888713274, 0.16861757967149338, 0.1792036758586433], [0.02457413267256764, 0.2795305564045418, -0.07895706430977381, 0.0024915235839759273, -0.2407270605874249, 0.03486977972413571, -0.024283169938020238, -0.09634687767684103, -0.15395958270480836, 0.2358792007335761, 0.054923466063648896, 0.2110574457874786, -0.2495113087710948, 0.18545075316417398, -0.04277495997522657, 0.2445236414918599, 0.015997672395008322, -0.2570282397097383, -0.10584466441086351, 0.12129361125693594, -0.09291040696293376, 0.05526403915418776, 0.0003664426362766923, -0.15620264266729603, 0.22189297071110903, 0.04016015767841419, 0.09089276492607286, -0.1850943499467383], [-0.021994415201698002, -0.06920512374319016, -0.25453045065783203, 0.019903399200375253, -0.017122587425743734, 0.16197273960434347, 0.0738853168611111, -0.18096821730336976, 0.1569059605503464, 0.012551877537933678, -0.15040848965434497, 0.04317803212914036, 0.21444560222581316, -0.1682673701548961, -0.023720796410304435, -0.22746457925405353, 0.01671379289721037, -0.15575362961086725, 0.24150426952319515, -0.09097242570138939, 0.01775610925085331, 0.18512326996402467, 0.18786386619695503, 0.23186370306979093, -0.25927215519990127, -0.21678768905508178, 0.1829497225678206, 0.12375905319775884], [0.07591840472471685, 0.06594649795756011, 0.094051506019498, 0.1652483923357506, 0.05286860213579873, -0.03252341118171904, 0.12475784626256681, 0.09929122850979383, -0.0923585565684729, -0.07257036090516222, -0.011727435310704672, -0.1885287806827582, 0.11323703462801261, 0.10484791596228941, 0.18354737941958627, -0.1571842582554715, 0.07644733949913435, -0.24905244166157847, -0.12043479614925917, -0.11070263030699559, 0.11887224141114999, -0.2101208081339027, 0.08787905536157688, 0.11340531449400282, 0.15811506953022703, 0.13213521184702248, -0.1402961252199124, -0.2537059325657502], [0.2166970169755735, 0.23850734288818887, 0.2143109330520036, -0.2599682875057676, 0.1213770709505695, 0.0423017751340179, -0.15481404884652727, 0.22835161878465904, -0.08463124794206509, -0.005465415740817436, 0.2693731923018916, 0.09913090889527833, 0.15844560663202423, 0.13383542481972147, -0.0983881561963204, -0.11255216433004352, -0.18147800825598084, -0.18768636034481126, 0.19530401283004606, 0.07327110678614873, 0.18430931766127498, -0.001602663419426457, 0.2457135187702697, -0.13796431510812146, -0.1969796671961779, -0.1290848888720451, 0.08294679366315855, 0.12053067292314477], [-0.14176351477549848, 0.21877446793986222, -0.14416290473854215, 0.17195536323828642, 0.17617844219029163, -0.21687670948067772, -0.13075776712668177, -0.09454528961581651, -0.1868082740334136, -0.1589499116142341, -0.2276339876683593, -0.06294248631999125, 0.11642762643588543, 0.26355142836487283, -0.048694617242874064, 0.04352419786810307, -0.16227979990733488, 0.20664348772391525, -0.07950085937917503, 0.10640657301951217, -0.0099269444851916, 0.111036893191259, -0.1753086749266603, 0.014677969516878385, -0.16766246424948633, 0.08946013490232763, -0.031619331599499534, -0.002286745431643273], [0.24507320710012148, 0.22400514016601103, -0.09964927962347, 0.2111185024934135, -0.10589929638818771, 0.14560240167388055, 0.10628700380927536, 0.2058058954065753, 0.0030476615007077384, 0.06397298741517016, 0.09859543226069238, 0.2528221072602973, 0.04790281987351423, 0.030265868071857795, 0.22146137023363127, 0.18328565953007767, 0.19962343200869448, -0.07539502205672388, 0.2443043992098618, 0.14877719932279088, 0.1995518099540348, -0.14476563891334387, 0.2190082172353786, -0.06721750539548921, 0.17342427592664506, -0.06104102427699304, 0.22209695596191306, 0.22231862306339714], [0.03877422818317147, 0.05905580870176972, 0.05438447265505919, -0.18369681640836236, -0.054361009471090425, 0.09104528309942238, -0.19835460466978044, -0.03154587611035134, 0.0049634490376172955, -0.1776802162298916, -0.037343432483104746, -0.2077217149716833, 0.0309233323870107, 0.01230561498305054, 0.13882977172450095, -0.09466637420344697, 0.06570340553732586, 0.08146074477900894, -0.15457931211932313, 0.08056398948064512, 0.0845594584151598, -0.013688340816246041, -0.17760777162446653, -0.2628604324022677, -0.1866580913290331, -0.16834110679901065, 0.1517122850442215, 0.011541659073138295], [-0.14987656717377704, -0.14525089923049833, -0.16544794550029737, 0.05917170186523349, -0.21650567937636359, 0.012154642032767293, -0.0627478226944927, 0.01577519229530422, 0.060144923201924785, 0.05055794392477708, 0.240320115107727, -0.0148829445016236, 0.022042601295778622, 0.24381789379648375, 0.20060324878330787, 0.06820527474821328, -0.08083919384830947, 0.07723390793523016, 0.11534164680452717, 0.011475253425396575, -0.20608090827211306, 0.23915414891523068, -0.1976964775231372, 0.09668252525538962, 0.15192044921163916, -0.2093314332813743, -0.027394671521005328, -0.07550835609853798], [-0.01965976141379136, 0.22818656060892153, -0.2632466128308345, 0.08768459950876291, -0.1812026652546979, -0.13788486888603377, -0.26275052791328346, 0.039061483946595255, -0.028580939007867436, -0.2405802644996629, 0.11151446701102286, -0.10435015625667507, 0.05831989299790748, 0.07559262442541526, 0.00797744630715563, -0.05214336041607344, -0.012497584350228656, 0.2315995570094536, -0.23218142221327753, -0.17161202259569727, 0.08397950177863041, -0.2517483729579945, -0.2494193285143625, 0.06790435231817442, 0.044479676106738475, 0.040538389197474545, 0.09004737002925677, 0.06988401810461198], [-0.25789672183694606, 0.24315771379546813, -0.13194238646015446, -0.14803563266321226, -0.20197721633660226, 0.16171616524759624, 0.11856941707746183, -0.24437625745370184, -0.08135324852286274, -0.14357215023868922, 0.150695513385351, 0.24453906640688342, -0.08336931126339811, 0.049599904770636284, -0.00892879286406112, 0.1384841393059087, -0.1972415403993213, -0.2151979343820719, 0.030860063150032868, 0.2275160181056754, 0.18527185169191146, -0.09445919830123214, 0.2655333097346812, 0.2285309114758918, 0.21610621294559207, -0.0821034150757983, 0.10705594915552011, -0.17445059421881276], [-0.23411485437975643, 0.029947427661126142, -0.1822738645018495, 0.11581334105770161, 0.17230745695595245, 0.1301216132870862, 0.10698553040125891, 0.13361392159880375, 0.21471076632495295, 0.2485677438946182, -0.02281499975554342, 0.03913801330167417, -0.2643722668671237, 0.2731277850176023, -0.10601824167702928, -0.10950640995755906, 0.23209892704756707, -0.055644820581530446, -0.10316026558182312, -0.0991147375895596, 0.10809857679037334, 0.09753110274537524, -0.1357171401860578, -0.17442510122673632, 0.05046304283929792, 0.14607749089393535, -0.22693686377132982, -0.03100740218398257], [-0.15175674837841752, -0.06916426390215275, 0.038538411970195245, 0.03194070112879238, 0.11307352815841049, 0.1370064023877355, -0.0854226058144879, 0.07672164430751544, -0.15663516271700262, 0.20276487291251152, -0.17050647488151116, -0.08228185019048645, -0.15348039812414296, 0.13560322322182278, -0.0262645935454065, 0.13187902652316486, 0.04885427440583673, 0.23368498743392274, -0.00669487425515114, 0.11984120856391872, 0.21917582495414792, -0.22763791804400596, -0.011158466061586806, 0.24342983971815624, -0.15748949387281003, -0.19631839658698094, 0.23358385157228584, -0.20143838958760146], [-0.2302116575230518, 0.24328428945634054, 0.1374922230996914, 0.24038237305559995, -0.04621462632353118, 0.11576339407447582, 0.25959098137816816, -0.1358626276693557, 0.1635947697756002, 0.25367719284915513, -0.22596947901066222, 0.2640433296966133, 0.021602338260744536, -0.10238397509236559, 0.1878789021526927, -0.18663124439234843, 0.15736133953185877, -0.07885871783342224, 0.08331377204139662, 0.07823297309443977, -0.15952812473241326, -0.04402287127681567, 0.2607255737123662, 0.11038461793644913, 0.18577831489159902, -0.06372217565846067, 0.03810142769288964, -0.060983804812327264], [-0.24881997253883933, 0.2591141287709799, 0.17879109158046735, -0.10914385414725046, -0.11224420540434153, -0.08189495615272716, 0.12479906399824092, 0.1753531334385786, 0.00882795015285493, 0.017762831974552272, 0.08319860718398073, -0.18209023518497555, 0.07133740816950593, 0.10011941695022915, -0.12000601939630028, 0.17215085233850777, -0.017966611518454384, -0.2617465752751199, -0.027684889876349237, -0.18377573126568728, 0.22562283893709723, -0.22764963054574186, -0.05412466142592028, 0.25619337795146546, -0.192515665090018, -0.2466945758389142, -0.032689913133088284, -0.2546607555530401], [0.06023053262580876, -0.23112694987137944, -0.13789592177331056, -0.1291759566216171, -0.21584808532902905, 0.11992568941544968, -0.08980481440881899, -0.08869225983746276, 0.09287983109668725, 0.19398554988117497, -0.25615722789982337, -0.08418476844607437, 0.012378205549851529, 0.16064559560890737, -0.14520428701052895, -0.2618592396605176, -0.2599829645104665, -0.04363474503610518, 0.24015758123698178, 0.16597032056980907, 0.14635418651151863, -0.16083263220298535, 0.12185086528058126, 0.01703443979815859, -0.207416771930019, 0.005100635824988875, 0.03588619429787247, 0.09746320228587174], [-0.1174726582805192, 0.08756674737849753, 0.16428380148336674, 0.23556424481905222, -0.12411878114800949, 0.19504986414201944, -0.2560181808492269, -0.09139955707104569, 0.16125680601218698, 0.21076026174215778, 0.19087898072393716, -0.18718198712869255, -0.02442865858288186, 0.21482621823022544, -0.09959812620055872, 0.04668868581986498, 0.21813584760353077, 0.2224812226702712, 0.2145143442547433, 0.14669469618391648, -0.0131723698153271, 0.09334945028677559, 0.07232290887850094, 0.23975172685216253, -0.26480924735053113, -0.26385111933202965, -0.07795420460899428, -0.0702016422860665], [0.05444669911109798, 0.05893887866626213, -0.13590777720491476, 0.1560910647245436, 0.24436471378567665, -0.0071632570749934465, -0.1744136808965538, -0.14375662739719636, 0.09055619076644844, -0.07529770156985113, -0.16634430207382508, -0.257478401639231, -0.09651579142728722, 0.20916854464716056, -0.17697622905040342, -0.0018244011437022775, -0.08010899766814306, -0.1741149641615926, 0.23876080333927782, 0.2228468124751531, 0.22749245471108928, -0.21937482284386214, -0.04865951443387845, 0.24165248956967433, 0.19421675272842748, -0.11288793556217211, -0.1868804583086881, -0.06828463229941896], [0.03828583414284066, 0.20687247709390577, -0.24168025552488853, 0.15223377516603387, 0.2310933538276851, -0.10880505610914065, -0.24539235881405533, -0.2570661631317754, 0.22717103474454847, 0.09306293287850337, 0.1230810736360293, 0.023118615569658958, 0.04814699102714803, 0.1584934270696887, 0.18210427579487615, 0.26001727891417564, 0.1625255807820723, 0.05863368847801586, 0.14066203776593195, -0.19780808315231516, 0.08545393941269842, -0.15212995014495417, -0.03772266981442002, -0.05197067931244739, -0.15938386403610122, 0.10849033081315673, -0.11402264768996309, -0.1709582337061396], [0.19190225197006572, 0.02001035170767609, -0.24543260358524288, -0.15564777498526075, -0.0873669136198975, -0.07507263115386228, 0.03183060617321298, 0.06536389937635745, -0.18862175792489969, -0.18912520565950908, 0.25306476517486504, -0.08662042475474191, 0.03790330716433451, 0.01593223952597624, 0.10461163050558367, -0.03732681928791766, 0.04113572597908238, -0.17273843145573553, -0.007716403368622278, -0.16975717038157231, -0.18796262709431708, 0.09356907642050387, -0.02191738467706353, -0.17079750476549416, 0.17009992395342333, 0.20404022857588783, 0.09609874103386117, 0.1295774260130736], [-0.20984347925458702, 0.2350733848321816, 0.07283905282085984, -0.06701548760965498, 0.13025322999345823, 0.04400216192416735, -0.2359179296960932, 0.2413855299073715, -0.13387612949344377, 0.21687034717312814, 0.21563642992994525, -0.17893831936477275, -0.25227434519324576, 0.0891006945667024, -0.04632423168277894, 0.21341182156471966, 0.22741755921990847, 0.08749277299576985, -0.10183061736342486, 0.11502831526329771, 0.18593206746582153, 0.06660871133202328, 0.0440422644008655, -0.07396029765390215, -0.11967710831861872, -0.03140392248765722, 0.22793780947442657, -0.25755609344731517], [0.059216557834609496, 0.1798948894761438, -0.04060890221194194, 0.16309462829243196, -0.09862978380046669, -0.2537127150480607, -0.004404551804400358, -0.045471842148040315, 0.2122999200299489, -0.13755048468653017, -0.23113069286568683, -0.009125800364335067, 0.08015491463736812, 0.16626522630595564, 0.03729082767099201, -0.21570968710391197, 0.01813437869161988, -0.134818459261208, -0.05842986548567239, 0.1549099175633255, 0.11972464365773923, -0.18858770184964058, -0.06388792599559608, 0.06841723732322313, -0.25669891081495466, -0.0683798371551177, 0.0974697438393252, -0.10253884640317615], [0.17702119834758476, -0.10547189787439858, 0.24665233279005977, -0.03385295643937134, 0.2644249962511469, -0.20923595749061022, 0.01512687150676445, 0.18542144723351428, 0.24264504957193134, 0.04485244387652234, 0.18800813809394673, 0.04707243670509731, -0.23503956962111958, 0.23888476591249821, -0.06893747861448184, -0.07952321761229164, 0.18436996923596632, -0.022947078705481454, 0.25457116796258494, -0.25400546407062324, 0.10463761346692542, 0.0029348192682863, -0.2347778110404387, -0.058683307652115595, -0.03418592933341835, -0.23921009349481398, -0.05095585147247856, -0.11709281153450693], [-0.25179610630685495, 0.20281708244871896, 0.05925168161901375, 0.031077114774333905, -0.13172876663432373, -0.06273750564909547, 0.043440593450365605, -0.07171266635394691, 0.13596283372594373, 0.16793158555627993, -0.03857553841036168, 0.20437243802259283, -0.24879598490849286, 0.21619960750711356, -0.07017683370358996, 0.10983976823743136, -0.17141825222706777, 0.23979049344748204, -0.022269546416038705, -0.03085655434936302, -0.050972756978527614, 0.1184927826240661, -0.1349476811791215, 0.014995480294141328, -0.0348030466014832, -0.26284051723665064, 0.10201453433280193, 0.1944929625307043], [0.12217909606785227, 0.012527310537366247, -0.1366236287724423, 0.07215824780565104, -0.22423441749566014, -0.04121978100664237, -0.20833791934611473, 0.014792052204567141, -0.23021265030850055, -0.19149321789610593, 0.15939570514671242, 0.16506361370271755, 0.23378360480734228, -0.16501819102826534, 0.1635968397489495, -0.25793854512512043, -0.24739603052652076, -0.12822871928891366, 0.11974911875933575, -0.2496713892478722, 0.19085621366403752, 0.10895962012979876, -0.14390465768538804, -0.2342582619665966, -0.2124410798062374, -0.12208227140442193, 0.13510886268717565, -0.08704618711685566], [-0.21944964848803863, -0.2121186453343502, 0.14414247985190323, -0.07371538856358383, 0.05899772978491987, 0.22946078506810624, 0.26564869509912303, 0.13706569183849332, -0.14784296466394548, 0.13787195610502295, -0.19280595660973754, -0.07807944445662178, 0.12069040297236132, 0.1553491007344623, -0.20906389879842338, -0.1933798778930429, -0.17276655227113752, 0.11178141898601159, -0.14394210542133687, 0.19897987293161265, -0.07875989444137717, -0.0025053006445410753, -0.1253015189310396, -0.259600747304717, -0.04462657624114888, 0.09103331445016893, 0.15028397957217832, 0.21379570733087294], [-0.13262168543177136, -0.22248814167110928, 0.24306647806127513, -0.05913233259086851, 0.06780557890404601, 0.19978066159977892, -0.20567225482174362, -0.14168230488769884, 0.16665750212894195, -0.2524357197162814, 0.053087132386364234, 0.0619877996171312, -0.26063002191234913, 0.1212432037650955, -0.15780012426109855, 0.23291529001895186, -0.1573850474572506, 0.09900605968787654, -0.14912687973228161, 0.21894194862729582, 0.009258487443441283, 0.005464388242718166, 0.08449265996295846, 0.0022417674578224522, 0.014565804791752013, 0.23638971507414408, -0.06829470692147094, -0.13986820992882412], [0.01625948144068999, -0.1753934301646932, 0.22352748903642847, -0.07496706689086463, -0.09708517704067834, -0.05903031586483104, -0.08206463840783998, -0.05211050285771199, -0.1076551388505747, 0.009705627084692244, 0.15897304157016925, -0.2138310794720998, 0.240197695072304, 0.01760103659231182, 0.03406499919744353, -0.08022333467672058, -0.23320857537228018, 0.19210400520801607, -0.16863062310324106, -0.16477927213524463, -0.1553250389077035, 0.07183748064663426, -0.0598658067953214, -0.17694867690865243, -0.07758917618511746, 0.10938101354196345, 0.07979989229194706, -0.15014298298878678], [0.26071497836880275, 0.25132478317051216, 0.16318711351100992, 0.2694628340732338, 0.22278823175402812, 0.1862626754756393, -0.19858160287444077, -0.24910099918402345, 0.25003597715137166, 0.11382065956167646, 0.14356967762282263, 0.05385280686119118, 0.05839416144997642, -0.2574262502779123, -0.24663829493566086, 0.15559198729163562, -0.21780454644351244, -0.04286438099695986, -0.09547473648517849, 0.17236543768992507, -0.010337730169624349, 0.17173426238847522, 0.0028288829986639636, 0.11469855826888116, -0.17616243108401974, 0.04738831801216714, 0.0477077654865292, -0.07496368025090511], [-0.2443778268946757, -0.05940367340966162, -0.016836889279479787, -0.18767349167236275, -0.2073647528997979, -0.2060050155216791, 0.19711425705344038, -0.021613711360281812, -0.2243824560289617, 0.21530854652736686, -0.027698249622353927, 0.08663519548725172, -0.06212391013998724, 0.10896090661442849, 0.11678698578641362, 0.201486635287954, -0.11054786078916634, 0.014598283070619507, -0.22788184096016328, -0.1968215050154508, -0.014320513610230786, 0.06092633454063357, -0.11470492357380511, 0.04351813048394949, -0.0027710634726973438, -0.061947829416198724, 0.02518651205222929, 0.1876326790152166], [0.11536389148167626, -0.17693164165025224, 0.22918292648251865, -0.081671340003901, 0.2662960824971268, 0.22363787667506213, 0.12629498606265827, -0.07160642566170214, -0.07182387187973466, -0.08092236543887565, -0.03006060254299011, -0.2434354677281488, 0.07937565289294438, -0.24117674929039595, -0.23089438410131066, -0.23128099635834828, -0.09552851524454667, -0.16983982255358807, 0.2074942122920104, -0.17903359091540283, 0.07086291077611895, 0.051131313273263805, 0.023116841970918345, 0.00033638126857682416, -0.09815467029868621, 0.20624261342147693, -0.11611706503443256, -0.10879820548090793], [0.048911808994371316, 0.12817983764043678, -0.15089020828588146, 0.10877720668356834, -0.2154601958856992, 0.06161402323472953, 0.009557200918065778, 0.20743958508454147, 0.19965432757847967, -0.013583642319401717, 0.1860437354508082, 0.20122652261217452, -0.11343019502934899, 0.07444841382506859, -0.2173589424995656, 0.033167911132087655, 0.22285697859385137, -0.20394825350081042, 0.20481024723579094, -0.2455801396039486, 0.12145356817319924, -0.21244790569163008, -0.1021865502794033, 0.08383192614705409, 0.1708103639059675, 0.17085152703445466, -0.03667582297292917, 0.24969511113147091], [-0.025394902739544114, -0.10472524891967419, 0.09548622458926892, 0.1341021133373892, -0.05525899983990703, 0.0392149495193813, 0.009637516840576899, -0.11956936406482377, 0.08205080771114587, 7.334567981509554e-05, -0.21794615067427056, 0.1803568302681553, -0.048264181661232815, 0.22950168777118415, -0.18766656306674986, -0.025156661232097456, -0.05621539961251801, 0.1298213143402026, -0.08586273466940764, -0.03215756702387173, 0.2109157798866936, 0.051327037371557624, -0.0481989576680886, -0.11881753378972584, 0.053461503195712023, -0.025645528936386608, -0.26137038675704816, 0.24485069585519878], [-0.26716687005173123, -0.03810365422427626, 0.13486891048498933, 0.21044555520871908, -0.22768583592442468, -0.11357676789135907, 0.12146990689139214, -0.21886426201441353, -0.08658626753589983, -0.2402953786250635, -0.23216795479201058, -0.21150264852614228, -0.002442349985366884, 0.030865032041178346, 0.12590684460468504, 0.1767946208453192, -0.14054554254325463, 0.2584497399817376, 0.20324751502005506, -0.2456068647628944, 0.1316329130292986, -0.012999081979154448, 0.015099254576594827, -0.09636534197362834, -0.14784761266216198, -0.2356018030594287, 0.1610513177200772, 0.25424698933549195], [0.13955479654345354, -0.12884188914481723, 0.20058938761142592, -0.03780110977991324, 0.035314643129803126, 0.01203567993271727, -0.024987818811248258, -0.03955445822204537, 0.11722090380321058, 0.07497880433987436, -0.22335122735154406, 0.10103088231595328, -0.1336158273742269, -0.08807570320499411, 0.166291544322301, 0.10410522568362694, 0.07269556853644656, -0.17220707173514893, -0.0983603514510984, -0.06605087491919005, -0.04229925578985199, -0.005915368929527569, 0.06454654351780775, 0.12216140536600306, 0.013165489235718586, -0.2085110166796886, 0.18838444700962362, 0.22779456030339948], [0.09239775934800512, -0.08465929684871773, 0.15594111684916684, 0.1203266284113027, -0.043061715726613686, 0.08266873389723947, 0.2022955463499409, -0.08594183908935316, 0.019539052665127232, 0.056057636680513334, 0.04183455615987531, -0.13247921673203555, 0.20921482201173847, 0.08313814005495422, -0.17606467460938982, 0.14695630887991004, 0.08198934273030256, 0.11534704239775698, 0.1599231554623267, -0.10798465361803339, 0.04775064308163997, -0.15655623290901907, 0.1311848595299957, 0.1597856024346958, -0.21309295322859556, 0.015971719990407807, 0.04204609707757999, 0.1554874100207377], [0.2032311920601142, 0.10208227345060827, -0.21772858826873723, 0.09805812015241311, -0.0487278667034477, -0.18475844180490625, 0.24065023524753482, -0.0022805191773863642, -0.22360136103430822, 0.1899624015551451, 0.1701267737435338, 0.01550214120482385, 0.21999661795535036, -0.21854860529610617, 0.19017667915530914, 0.08747815143550172, -0.02740324613146436, 0.2464976390489407, 0.23827966701331446, 0.20207500561675432, 0.07317975008648374, 0.24814142823199092, 0.09166132912480462, 0.12859280677392576, -0.17533680208580787, -0.05574613083787042, 0.10341436922709481, -0.25346966232195006], [0.19422671431485952, -0.10860923280666655, -0.229980937440379, 0.11223012745753735, 0.2510345136521282, 0.2449276092268416, -0.16649266349328856, 0.07772523293765582, -0.15402958361782096, -0.08071115366118525, 0.02984710636030772, 0.00609970404351021, -0.09192551810580851, -0.23538972975502834, -0.014709630375309358, -0.030258789586983647, 0.13917528488826805, 0.20701348762338745, 0.06584095686370285, -0.029705572051648046, -0.05085689279828409, 0.10789984421313562, -0.1532274185040445, 0.09768320378175893, 0.010112678324641855, -0.1547748123805459, 0.03569556261129774, 0.13950117079264743], [0.19720422850040487, -0.06874440343811407, -0.10204158038819629, -0.02720403331327259, 0.18380977338913715, 0.19318398513871463, -0.183906927805928, -0.10125772770917035, -0.1670925524092854, 0.09969529689485497, 0.0005846233700529891, 0.06122317319711897, -0.13835474449044197, 0.06169359199622088, 0.16469242721845131, -0.12411761469112112, 0.08963169779844182, 0.14849824795512112, 0.14441957427882143, 0.25214669750422636, 0.2557712823827354, -0.17099329793094917, 0.1326914599778371, -0.09674052824681775, 0.07520049698175824, -0.19503583846307154, 0.21533279293213692, 0.025656991212007298], [-0.19035162725452082, 0.1977046024285975, 0.23607689208879834, -0.1835576401789284, -0.12847065206251695, -0.15926804602353317, -0.1005359874996449, -0.24566692316502736, -0.09797020947849681, -0.2551675647762598, 0.25543066094059197, -0.24251133312937667, 0.052767577615477845, -0.045087141929407167, 0.25575899352300374, -0.04453459717636625, 0.0850511876608043, -0.08782757025719885, -0.20649339237985284, -0.14332663658684122, -0.054378189804316246, -0.13481315714301223, 0.05110023920615997, 0.04683261101026981, 0.23473748686149898, -0.17928365017380768, 0.0934896564445674, 0.05803180452221513], [0.2450602196712346, -0.149060810365425, -0.23721573098263368, 0.08534314868264983, 0.10970342084643925, 0.0862206396958123, -0.23533607497687128, 0.013797950750507326, 0.11307481626842449, 0.018540613257597507, 0.26154651557376096, 0.11005043716571436, -0.18230562027693825, -0.05696155990737501, 0.11538981547333466, 0.1124796051604664, 0.12357430380145135, 0.18989137077778684, 0.07841819127445548, -0.16852003445704206, -0.09789964859883467, 0.22905579201167225, -0.12257453570163042, -0.02555297529744001, 0.15845472515868742, -0.22165812119691433, 0.02632546796716359, 0.24188396293188597], [0.22078717563006994, 0.24695542619956798, -0.21522902853081194, 0.2577840478047874, 0.25856152062562415, -0.08649709920391702, 0.1277694266752447, -0.022798043899339204, -0.16215091051095074, 0.127931738377714, -0.04042956096223473, 0.11766131987050166, 0.22993640735259255, 0.23445385842182448, 0.019480196927584004, -0.17604594702982454, 0.2542144752023683, 0.25230456183424466, -0.023496625721285695, 0.2593869538469781, -0.07331669771074337, -0.15680854406437972, -0.0345282988963555, -0.22443426221566506, -0.0923610553292451, 0.2106223785411095, -0.24357219871486402, 0.22133690419921778], [-0.25887531230330135, -0.17155900673557345, -0.22111817240624135, 0.22506091004601664, -0.17610799800610077, 0.004243587867062784, -0.19614194365912901, -0.1446980582545388, -0.22873499021135826, -0.10800279835688634, 0.09786103461070611, -0.022502254709326153, -0.1508448830084189, -0.2550362722841315, -0.07092958765161875, 0.1242242918098778, 0.03383132629810631, -0.05218539998765486, -0.06447933790804262, -0.0537493008002037, -0.10022550780263635, -0.04702809520988608, -0.0857003256201895, 0.04998861815132899, -0.023366319180190748, -0.08183238781322036, 0.22567229429038307, 0.14142645422820685]], [[0.0038846914873630774], [-0.503558265811119], [0.35782973648241434], [-0.18525581821198697], [0.21789589641142257], [0.320370412620038], [-0.0453454322725475], [-0.16984185924187678], [0.141229725121778], [-0.3015008619350758], [-0.47354144871730314], [-0.4627756426628927], [-0.24969351627782577], [-0.414293309952432], [-0.12471049883195567], [0.3590527784847405], [0.057528747624192356], [0.21036672028620326], [-0.39621058198918707], [-0.40501734638389975], [0.26616330329897564], [-0.27678200906093636], [-0.16528795300065324], [-0.20357403155077783], [0.36405760090076317], [0.3843719073996163], [-0.26672521405198873], [-0.24147635907177611]]], "biases": [[[-0.01965204811770031, -0.003934983573468343, 0.008927833944355736, 0.0007476436119145616, -0.0029287932373971166, -0.014620237027531978, 0.0026057974501232286, 0.007752642292453607, 0.0034842488461014685, 0.005974214086384462, 0.0009205961606109269, 0.005268356100711176, -0.007758998054145198, 0.004776075581565581, 0.02284780906834341, -0.004914334126752638, -0.005391189884939592, -0.008441712650657716, 0.009762301429065357, -0.01322224928167692, -0.0016423232864901224, 0.00473663497330777, -0.0025009133119859566, 0.013979337903547879, 0.0010168562610083237, -0.0029322829745159255, 0.01184387738311473, -0.00217435312658488, -0.011451218910958691, 0.013437209499561543, -0.0011281920889997018, 0.002570570444842831, -0.006599281705539279, 0.009973536523691215, 0.003987842043858765, 0.0042702427044438735, 0.015796074128457134, 0.0006276013290608311, -0.014911064490798863, 0.019313207154093445, -0.008061686215802904, 0.011678987267216482, 0.008821766349607709, -0.007886395076018867, 0.004321079390639546, -0.0064270348645607996, -0.008853115320239363, 0.00024230007897350263, 0.001385090540535873, 0.009070498612266054, 0.009112614389623012, -0.001095700133538229, -0.011576612897989152, 0.004994610177833162, -0.014000681361188401, -0.0006119343953045593]], [[7.290640656315133e-05, 0.0013521073628456485, -0.011363704254263068, 0.00810309770884958, 0.007902775857411193, -0.01047525873190964, 0.0, 0.0, 0.0004558705702902239, 0.01573925526606657, 0.02759494742176726, 0.009377573586067469, -0.006177706738486632, 0.011502192884825381, -0.0030394318282229832, 0.020471045104367525, 0.0033260082368018057, 0.005164236706750689, 0.013407980406076454, 0.007763950075364912, -0.009242297757617392, 0.009327069270632, 0.009037744389702618, 0.010498761257854913, 0.0, 0.0, 0.00768967921894381, -0.006083236033956443]], [[-0.030953285962671107]]]}