{"layers": [28, 56, 28, 1], "learning_rate": 0.005, "weights": [[[0.05798242292586142, -0.23040471235374185, -0.16639647701674623, -0.017556834210252198, -0.24609955584688278, -0.0013457983552332409, 0.0407516541398697, 0.2277431294926568, -0.047353740928128135, 0.16372190241523238, -0.1950734998967426, 0.13042954834728165, -0.1508484652119903, 0.13458652201510168, -0.18814099823194402, -0.037694131268958236, -0.08260074923785737, -0.23469324649440207, 0.10205390466667635, -0.26308639523095523, -0.11107603733556687, -0.025463569531196883, 0.023399198207214422, -0.10096206671699373, -0.08358770316862296, -0.10958064393541056, -0.14492407178366024, 0.08793314251650014, 0.020448434999400023, 0.1960118417330068, -0.2397729530721216, 0.0986778612902739, -0.033496258764975195, 0.24644137773941888, -0.20748710833935896, 0.11669444842806354, 0.1278627244780559, -0.15092595306093898, 0.1487864846946783, -0.25062702814993654, 0.1784335744645137, 0.08738465517298527, 0.16637042261018542, 0.03635316876165984, 0.1356650539531835, -0.2340780809376021, 0.07637665951145822, 0.03774885164441266, -0.21042739360601956, 0.0849618147378971, 0.09770034062069671, 0.255647456668771, -0.16899621857041727, 0.2405268922391215, -0.12043150711590603, -0.034154351978898406], [-0.039091725601468785, 0.2596830043118994, 0.21744259674940059, -0.04920205620354062, -0.2068877970317285, 0.07660427930861863, -0.06553801449378785, 0.07909742283813825, 0.18200951864680576, 0.08430162659747104, -0.2004175633617963, -0.16147417095159197, 0.14756418195175425, -0.015307473656367976, -0.14848793280178813, 0.21439131759388924, -0.15331317102044079, -0.1519828130339862, 0.2487473084368217, -0.11178416625829851, -0.06465698230806263, 0.09784074009535837, -0.18022910391247732, 0.10998339479231778, 0.20757652873509735, 0.15136767976874782, 0.1697544668435581, 0.027907929931079045, -0.19500701235074785, -0.09381862898465196, 0.08756978085183192, 0.0036438268715585642, 0.1921910467946188, 0.09125272567423676, 0.20094655163804426, 0.2115049476321847, -0.04721442366673853, 0.03762336792498622, -0.1444997538588853, -0.2584009983528725, -0.004196479850197832, 0.2536203528671197, 0.04963066523023213, 0.13966253159901565, -0.014518147598454045, -0.1343887795003185, 0.05704545317427978, 0.051856319112647264, -0.12622610109948576, -0.2573766069337611, 0.02365606873517806, -0.19998628962223833, -0.1160694984137268, -0.14686321615063996, 0.0454377488362534, 0.15773934740217815], [-0.23743135316419098, -0.20358667853242057, -0.04769426387150358, 0.20859582880067157, 0.04237945874296972, -0.12286189212894641, 0.1583527924723908, 0.06926066432408029, 0.12485642814261166, -0.044793648208367204, -0.20610818361175842, 0.05755882034368476, 0.2176585342689772, 0.06997119297259008, -0.20417065637923706, 0.1558712884748767, 0.12008003826835373, 0.033231983096835116, 0.058396622083873306, 0.08879868905475019, -0.24200573035077902, 0.11763496297054793, 0.1610278401428113, -0.07253288843239306, 0.13983476605574374, 0.19511838464158426, 0.08970851492080839, -0.2531196423160943, -0.2152326563096158, 0.26672392637193265, 0.22735741104935386, -0.08003173980211972, 0.21496114128378235, 0.24712276597813476, 0.038570530922638235, -0.12103578530113784, -0.09858541443929772, 0.007123697105436033, -0.09242073238235529, -0.10186075195480046, -0.14435050346275158, 0.004315167412238308, -0.16741425930459736, -0.00046966442723817003, 0.1513448901565147, -0.22593828476502542, -0.20640935424533918, 0.15763430028654463, 0.11884089525771802, 0.14193154586687495, -0.23745723146305062, -0.1823127045122901, 0.12526207141467538, -0.06895581772949957, -0.1595201513489605, -0.11188909976041675], [-0.0644552149936921, 0.24638634118264557, 0.18466839240052865, 0.26067803980097376, -0.16212863408963604, -0.29260878403772606, 0.06064915267360972, 0.17024273275240145, 0.06751417659478724, 0.14144017651664864, -0.16486035638216154, 0.028718917683933826, -0.15348238454985202, -0.26046237674691336, -0.20063964824379912, -0.13151782590997904, 0.26693538677910494, 0.1445659510762919, 0.0012042867938604556, -0.19353586828939467, -0.1204709843901022, -0.2611447891016668, 0.11746356487691871, 0.24834780401954407, -0.1797348217689527, 0.1623290009582458, 0.06319832531143733, -0.08819551128470521, 0.25333323983454975, 0.13825897943609394, 0.15519824197890209, -0.19346180320315529, -0.014092591014614676, -0.13228789579330835, -0.05280185874906263, -0.1745689647078007, -0.08192006000226863, 0.2101688511641067, -0.22948711371587116, -0.05156312564402737, 0.07736890833231055, -0.21652691985324352, 0.06148839953130627, -0.011495370067915178, 0.023958757149431523, 0.1612353475760046, -0.13711690868313448, 0.030279288745031732, 0.2081778215317002, 0.06160577210933308, -0.2540825607045846, 0.23733944392772235, -0.10512500744100556, 0.22072763165003606, 0.18849914406390586, 0.03809297508060017], [-0.10365300315955607, 0.19043212800642678, -0.26782169017241875, 0.13679913212784364, -0.25137493934988425, 0.1364983819389034, -0.13674670761980864, 0.17236280512432525, 0.08918852118529602, -0.23293785202088954, -0.08936079371424765, 0.23355769737045506, -0.06043737438385858, -0.09833511839443895, 0.2064959619612718, 0.13146440731645254, 0.18458291971786256, 0.22420906625528908, 0.17231904523378797, 0.19277972253420217, 0.13472922967180045, -0.23886795462234467, 0.14170028779205077, -0.01963793466812113, 0.2607659025473925, -0.11200657344902709, -0.23171687931642704, -0.15001187497569785, 0.254373929080021, 0.04343359048435206, 0.13077310112968804, 0.11027688773642484, 0.24647062471945302, -0.23996647973668955, 0.20041149854921977, -0.15168776933223752, 0.08971443786046841, -0.2394610150188035, 0.18414580965092062, 0.14110064918681633, 0.07693399432918649, -0.22860830055564868, -0.23786067585668982, 0.20141977945093836, 0.03434694985486851, 0.06168360305288445, -0.05793183458440457, -0.22815031398841132, -0.26548108375954915, -0.03594870857334171, -0.10846375751475072, -0.10172513601504422, -0.15191413761554018, 0.14310360418563633, -0.17199566963991034, -0.19804585178674133], [0.017358429883528592, 0.17044992925861574, 0.06275720958077846, 0.11577680831443599, -0.03610032618318576, 0.03157529548387683, -0.04080142573722911, -0.22176088361980173, 0.11888535205391854, -0.20285927950833688, -0.12492741712969285, 0.032307503523433034, -0.22104984706718908, -0.026783996569543334, 0.23228928810279348, 0.12433733705263594, 0.23228657768641509, 0.21684819705445035, -0.033613418762256375, 0.028852710873899012, 0.25878293066499813, -0.09020570897797672, -0.013138240910622212, 0.06836231098818901, 0.07397425057336332, -0.20483520476012715, 0.09975131422337236, -0.10552577095755294, -0.10600888741628403, 0.24476032894446764, 0.0831255322027657, 0.02418920276990444, -0.14751106025802513, -0.1343672435756407, -0.026886436980365025, 0.17101472865661876, 0.24247634641526794, 0.24983696026538527, -0.061662339232500335, 0.15691704378090865, -0.13984585625914545, -0.1645720030893708, -0.1081552699025278, -0.17772778367151132, 0.18810636072951287, -0.13343665501519483, -0.07998287970887949, -0.06768791346429304, 0.08544165491354971, -0.1362310251441622, 0.2626077044900893, 0.02203584352742871, 0.012504623122187475, 0.20828806872157318, -0.0352809313235955, -0.014175793978383644], [-0.054616586042529336, 0.13936504552289802, 0.05834893020334925, 0.254268223626155, 0.18014887881829783, -0.05162441973570009, -0.165119020109463, 0.046929607612924196, -0.06784053080956504, -0.17702161508898448, 0.0028445195581394134, -0.06381113697053808, -0.05683719990056979, 0.06603901498055481, -0.05318017618283635, 0.1717800800380032, -0.03786110061013273, -0.243927451843154, -0.06680571880371333, -0.21225916757987662, 0.08595269656522453, -0.19416429492984447, 0.012538800762103064, 0.0468930330558453, -0.25730793671299623, 0.1033495988911532, 0.08661432312676937, -0.17816557314407822, 0.0733844629014408, 0.14469770974640644, 0.23611479251036893, 0.12462398662083568, 0.06780599880204724, -0.11065473750526955, 0.1081714135821426, 0.038518559580087486, -0.1356140111908579, 0.15188219772585276, 0.05493007252517823, 0.16580437523881314, 0.16673589246796056, -0.2532045534753354, 0.019561904365507976, -0.1892136133235577, 0.03868935576673299, -0.13136763702002857, -0.01294589206342267, -0.15037317802420594, 0.17619726468521335, 0.11676628064531669, 0.24818605764627577, 0.2379889736173454, -0.1729637863168461, -0.18304297081723225, 0.14924947768566427, -0.017534582525707887], [-0.24301058890544852, 0.09812171673335585, 0.19021013000527132, -0.013480824231952016, -0.09764237727281574, 0.08821434482723484, -0.1160723617238121, -0.23136904690552004, 0.040017381676258346, -0.09588222883812214, -0.09339759438495451, 0.14702682168409353, 0.13542585274271823, -0.22659410049922102, -0.024115305784509183, -0.2183579620389259, -0.18030939336919363, 0.25115304520455717, 0.22975093128306434, -0.24508856507164933, 0.06851008737709108, -0.11758344898315079, -0.10901389240497647, -0.08103760140139074, 0.21345938231768546, -0.08891846222922908, -0.17986596874566824, 0.19298415518951156, 0.19901390490292198, 0.14683609394769281, 0.1581858628965117, 0.09713140997938724, -0.016686651264079033, 0.204112686251732, 0.06347471286039397, 0.08654177088682852, -0.09315032194697012, -0.03453028565549751, -0.020963067298878035, -0.06724034794027628, 0.08746958030050073, -0.13674832727614578, -0.1478391002318365, -0.1351094259700077, 0.18326776296661096, -0.006421709494371208, 0.017116507885633014, -0.08060141802304832, 0.2250835075175351, -0.01185357705104323, 0.20037183496396782, -0.15085616741135108, 0.06729435415504803, -0.22439825111218872, 0.21150208804113318, -0.06502477366105597], [-0.17703250193219072, 0.06687399033586183, 0.24412111285089488, 0.045461043866336204, -0.05175587148454672, -0.1931392870899914, 0.19149689803817116, -0.13140847500862016, -0.2629681559014688, 0.10837881867405896, 0.087752836459486, 0.24015947517164415, -0.09210430588790977, -0.18453823084529575, -0.05876063385867342, -0.0798948445908893, -0.26285545017676726, 0.13759753063976093, 0.17253544501118595, -0.16568742359939126, 0.13683816956094186, 0.08143769823981112, -0.09546944069526928, 0.13342613026343175, -0.21792856222155238, -0.15950053037132778, 0.18864260773026198, 0.19508669852161964, -0.11146283153839084, -0.15117288882785368, -0.08241924706595241, -0.2025716533515626, -0.19940329490855324, -0.079605038125835, -0.23129298401573095, 0.11538955122603439, 0.032253576690909114, -0.05732230618736381, -0.14604644535552375, 0.23179360829133655, -0.08582452860810608, 0.14137714249629663, -0.06884244342625812, 0.2216274936412077, 0.14712881527621974, -0.2485670554698094, -0.07898260999091208, -0.26018450232668333, 0.0610419557859227, 0.07390546861551384, 0.23140856355845285, -0.2509313826653715, -0.12532732351083178, -0.11892637907758244, -0.14068585811607348, -0.22532988240608887], [0.12434130637445362, -0.1309525957833357, -0.13068531411174986, 0.21295378814622273, 0.0006128525181194333, -0.2657093210190952, 0.12590773763988355, -0.15807693873223544, -0.2153091017169324, -0.10402848323146971, -0.13385939850310852, 0.1848223705100127, -0.10160769270724376, -0.16731311066770066, 0.22133671150343637, -0.23059280121391143, -0.00022021530216220775, 0.20094265158635322, -0.13236207351329837, -0.07303627407903565, 0.12400549525686994, -0.19768568906081002, 0.05474985054106346, -0.18833121600072306, -0.049020849891365875, -0.06471828806260937, -0.01807569156887845, -0.021894022651661793, 0.0788929179829348, 0.07800493648912765, 0.14801803552584997, -0.045545868501040726, 0.1043103553944521, 0.13537025646743955, 0.10946209398820789, -0.06186069887495646, -0.20710005656915348, 0.1490097490051141, 0.2056570979140766, -0.25915191327025333, 0.1601239049440904, -0.10509162048187395, 0.06977571971765367, 0.2527705592149999, 0.2529881147305951, -0.1575452269304291, -0.11381008993429015, 0.04025263100294352, 0.08869626653241042, -0.15990610643769412, 0.0493694303497933, 0.11824875481545255, -0.24335392353589938, 0.18409159679577436, 0.15325186882430097, -0.13757585210369588], [-0.036710806632820836, 0.02190968826604528, -0.13209765030429985, 0.26626093464426914, 0.0027828724812628547, -0.001999553312547586, 0.25729799047274715, -0.2491545979549862, 0.1362523886677403, -0.12699523166431076, 0.016344614495862664, -0.179314315867238, 0.06130373440649889, -0.11933018132310866, 0.07004132510756128, 0.25576452099046043, -0.09783613445481651, 0.08911172221169095, -0.07671715967533499, -0.2050246051706937, 0.1419786047311159, 0.14904193067229565, -0.06699000709495792, 0.19573503801708375, -0.0995269432125104, 0.2601327205828342, 0.013176004674835762, -0.2479270261014305, 0.0867654538893024, 0.04551572120246161, 0.09211569436637196, 0.029108399344525582, 0.07995111635143665, 0.22353621878387692, 0.03979338554876877, -0.08035642366218407, -0.1985722711706352, 0.15869061426976744, 0.21895123109998166, -0.17857854709917784, -0.07860972283209341, -0.008462725652878478, -0.14968025388342127, 0.0018082418156420421, 0.060391255112374975, -0.16854459112998804, -0.08388756183536902, -0.25435076839578324, -0.24428978300099333, 0.02621047172618196, -0.01823835271602231, 0.2448793120698376, -0.180844520428145, -0.053104900171186076, -0.01952062134602159, 0.057832961078470746], [0.03652887865351584, 0.2178558140560945, -0.11126617688249837, 0.20841598900510783, 0.20878139122114675, -0.1865054957970423, 0.1097471788228801, 0.20927339046563892, -0.008141902334822704, -0.05104204415177571, 0.0057737936457270544, -0.018484495136909196, 0.1886147388468838, -0.23422643688092848, -0.10002803969929594, 0.22488891275296308, 0.18232082052098547, -0.24047099533811409, -0.24843074079715388, 0.15576512212418459, 0.1069155730667844, 0.1751517492520112, 0.11169170815232976, -0.22156610304660138, -0.05448620805797966, 0.14391392828401067, 0.1407756980300564, -0.04324461557329293, 0.25346543406822475, -0.21739984671760643, 0.13061681825794602, -0.07915583786831606, -0.06535296499725374, -0.15625695498385234, 0.17446578646136307, 0.04634076491083422, 0.18597111601305732, 0.20870145993616374, 0.10514468333603971, -0.2537147116178403, 0.15023182317286465, -0.19246985714270745, 0.04110610375889595, 0.045698331058674824, -0.07469235798700408, -0.003473049404555395, -0.1594757083488183, -0.1304279157043909, -0.18606190463030323, -0.15472088395354963, -0.22710447410463555, -0.08822312297051962, 0.13757910212376284, -0.015864922468044107, -0.26302583288100173, 0.12171846102636791], [0.12169832234584899, 0.007984221873732655, -0.23276581987209652, 0.20636924489804376, -0.1940043219233457, -0.20099925376283542, 0.08354601303212816, 0.19938447177112267, -0.10268672134185058, -0.2566698834773829, 0.061804813588298646, -0.11796633161063111, -0.11550484816126036, -0.20572618817230315, -0.08135379619882102, 0.008180380969312506, -0.026064241513326813, -0.22986436652105816, 0.04741122469616349, 0.02513536867331645, 0.11474973210118888, -0.10001396606971497, 0.2292620671921946, 0.10178067727338741, -0.2002739183961117, 0.1636628565722646, -0.11218018860805837, -0.2574595752576413, 0.16616739140903647, -0.02722641744387458, 0.1775437691517598, -0.1069344480909685, -0.18949332862662854, 0.1258715190180159, 0.049394551728228875, 0.02964010541514933, -0.02414274009382375, 0.12680702472215094, -0.15072763149492321, 0.09443537939955449, -0.08883952553720256, -0.0886498007722567, 0.24047455931112693, -0.0945881220861586, 0.0740190306763085, -0.17647973923148824, 0.16130842380625526, -0.23062299266776676, -0.07409753103088904, -0.12167198049700806, 0.07997639092763037, -0.12279602919122001, -0.1701059150156989, -0.07111274420077857, 0.028191655884572342, -0.2163167233964165], [-0.020327558876361562, -0.19305051827864764, 0.15294430486916488, -0.14581678581331695, -0.01274653075614568, 0.14825272724412325, 0.26000577823071713, -0.23684031918559648, 0.2584635368474256, 0.0028819101475265896, -0.22691474225222688, -0.1155714681966038, -0.012414263040344375, 0.05456328863108073, 0.10390409144740853, -0.1048415099388404, -0.15949176690045058, 0.035219782145388956, -0.024486664618405374, 0.018772586023818205, 0.01020816649780154, -0.11217551066943088, 0.008038429059575025, 0.15889683039881974, -0.2626006967701497, 0.13072181688882167, 0.12277801156897161, -0.07408290954482463, 0.02619776892775194, -0.07698738788103093, 0.21587512396049313, -0.2541989091214814, 0.15796347917287318, -0.22735984977428805, -0.02797600798185579, 0.07350040807677088, -0.05479554389758262, 0.19105165143255737, -0.0351399631148461, -0.14791792256471326, 0.06654114694876534, -0.17240668001377218, 0.04110452536280068, 0.10310774827395014, -0.23664886287146442, 0.2303718555334392, 0.08956112427998386, -0.23865729526918178, -0.24612317332069356, 0.1874102602167475, 0.21238777945616844, -0.1154109718061648, -0.07521038576809996, 0.10862977217305297, -0.12479143761382835, 0.17431286684208497], [-0.21851353688162709, -0.17686971481183336, -0.17303903486309635, -0.009239320557896558, 0.010029530307827106, -0.2122675598794912, 0.20066779185279437, -0.02369813129592216, 0.03533027256989346, -0.054165914288682476, 0.07681195217948955, -0.11849778484091522, 0.1959585815787736, 0.10088218515170189, 0.15781738579710858, 0.06965452436511832, -0.1387313914218302, 0.14378654395811685, 0.11926173824063863, -0.000466296201392713, 0.16718697935941618, -0.15230534378118374, -0.13949367304459157, -0.23449541462076376, -0.12360082655421009, -0.19989644816639596, 0.009055965907396324, -0.05574082080327358, 0.0416050519501347, -0.1782611327069119, 0.09176650966678379, 0.06311577416353642, 0.03609635102651765, 0.04516175955285345, 0.2598349324950977, -0.2466350890831551, -0.11666525621642851, -0.1757133984523073, 0.11045694516923488, 0.16186882905755712, 0.10453157884338432, 0.2606237744027621, 0.12545183559108886, -0.23762001151429527, -0.24557938351802983, 0.00801995326966809, -0.1510229452374506, 0.04891817315444297, -0.005141692352375549, 0.21395255413528524, -0.09793551186783678, 0.18103903462590526, -0.22760793000851648, -0.1780239563360464, -0.15517522498084166, 0.111537264112753], [0.21389075409272573, -0.06123827350897354, 0.17665311731160183, -0.1771426687401877, 0.06240569012649888, -0.05504855013190671, 0.07716766437779932, -0.25507099491988905, -0.16674771749524792, 0.1528602828450445, -0.23954281663377086, -0.2466579954884462, 0.1978455975201171, -0.2123981210990762, -0.12187266458843629, -0.04104514086013117, 0.23758830808808307, 0.038821712297946676, -0.18156095894467028, 0.2123167535692107, 0.019723231088906557, -0.02654375252336047, 0.1031656973218757, -0.1043393879616728, -0.11644832034396621, 0.1655261752097198, -0.1909347630327492, -0.17470951246857838, 0.13627473460010298, 0.09539950445328355, -0.18812470830088385, -0.09549933728504115, -0.10544718754757768, -0.09353213568792038, 0.2424560967586864, 0.18245451760331888, -0.12027197765733663, -0.0642255002881674, 0.2241577670201244, -0.04850924124362935, -0.1484874807095111, -0.06793585058882826, 0.06505806101851885, -0.08973344827009802, 0.1497000224844054, -0.11756082226945705, 0.15472689890557728, 0.24765312928232075, -0.23390911249034765, 0.17371864895685957, -0.1443818297880715, -0.1762147131917248, -0.09599716242430498, -0.26048032969749957, 0.0645028158955101, -0.2658706410641477], [-0.08213178475521789, 0.0852511309748814, -0.16790643712983294, 0.22746921680540047, -0.06231263478980264, -0.050155416264617836, -0.19133152611176277, 0.17703047667125887, -0.23113564059715253, 0.06945010276471739, -0.029918653951115558, -0.10179237152066652, -0.01573085494918794, -0.21590313465453803, 0.09853666497928007, 0.05633266706309435, 0.027558750887162937, -0.07411750442877565, 0.208123897709539, 0.21601720831329635, -0.03444151728900636, -0.15745144522587387, 0.21841447948953438, -0.25760990721921356, -0.11982439321097309, -0.20420360385572867, -0.21201858430892834, 0.24587315630090983, 0.22296027775478708, 0.23605359244933266, 0.22803207259216873, 0.028532359141597467, 0.20755580990772482, 0.18528994043830113, -0.05747909067714458, 0.027826021438589258, 0.014135462434545129, -0.11354656389311665, 0.2531334833289547, -0.12951990871019245, 0.13216953227203013, -0.008383108555110255, -0.03659617683796342, 0.09143629900885378, -0.1137255373165044, -0.13508666581839243, -0.08829215003622204, -0.19098938266412355, 0.2372174260069815, -0.09759974591674125, -0.07505385266713807, 0.1643110365414655, -0.13714898108027518, -0.23617568306909248, 0.0248575628283923, -0.13031682552633056], [0.02038179895284553, 0.1991197517062956, -0.22996457888359145, -0.18737215064436005, -0.0036465909986933553, 0.011139225778532602, -0.11457918556062383, 0.17287774896655045, -0.22595905457111126, 0.15437241050045597, 0.25268898075191626, 0.05614114211701393, 0.1532125641214046, 0.12807905387883173, 0.15411431763774086, 0.045380924567934744, -0.1505095642469495, 0.18326027425580926, 0.22676031827137444, 0.20396855458855923, -0.23403558307970238, 0.22372776084700335, -0.006051397530847824, 0.1963122635134425, -0.013023373025534746, -0.1110060041567727, 0.19514593026265958, 0.20445924428337636, 0.07383805321147913, -0.16164906782161234, 0.04742453975776917, -0.2311054939193809, -0.23269461034767813, 0.23977862369749559, -0.19837644082163083, -0.22827696054966107, 0.0973578375776945, 0.0071694629169738455, -0.13504018378321475, 0.1616145081340601, -0.0813013809358574, 0.1501591344112101, 0.19142751111362827, 0.23314905325934754, -0.19871936020977948, 0.028065981994147948, 0.04645757378399856, -0.14892002979463198, 0.2243479596174342, -0.09329511076529942, 0.21714708981679526, -0.006043278682669462, -0.25381120075966734, -0.25252565281008293, 0.05173588300420584, 0.05505349377095259], [-0.21284531433256187, 0.01625753739054253, 0.14102977965690855, -0.046008340168197354, 0.2590955626833591, -0.12063843341186753, -0.25582448984158845, 0.2596526816384461, -0.12744932759719244, 0.13346466699086562, 0.11012671748529823, 0.1917225733830734, 0.04253183557793766, 0.04552190740353945, -0.215041066154394, -0.20134112196052817, 0.10615873167275441, 0.22624194530086583, 0.18152985174475583, -0.14692227825922805, -0.12999417737145655, -0.08111517578975883, -0.11938623685352773, 0.016182625475923473, -0.029881204037288916, -0.12896476884805932, -0.1855182129825935, -0.008824171953652205, 0.027391961270483045, 0.08795887367060545, -0.05164843921565071, -0.15565786752658356, 0.06831965248443977, -0.09796750836728293, 0.25574047222020424, 0.015970911979766855, 0.15988283957425026, 0.052611851062995985, 0.010755103797207066, 0.14750562269667616, -0.13988856128131755, 0.13708564817825453, -0.21562700493470263, -0.02665722137382945, -0.22706900812385186, 0.26267371741315615, 0.2164331976589814, -0.13764719784302484, -0.18201263039213478, 0.157249503851649, 0.012944541349974859, 0.0706615996562665, -0.12603482273287314, -0.2413585697876019, -0.2468498428364539, 0.00350397875941727], [0.20744035878017703, -0.02237842634110085, -0.169280999800554, 0.2668991004190264, 0.15314619923049322, 0.22567674692079182, -0.07373095341065983, 0.02004936903168253, 0.16323205749274122, 0.005343422432362965, 0.23842174598007437, 0.2545653822024404, -0.0982560236908333, 0.09711285920413987, 0.24587738305865003, 0.2274181690278122, -0.23867866014603334, -0.06038938540553496, -0.03192453983271784, -0.13865047196708571, -0.18351872419047738, 0.20360389310304816, -0.08633094603674246, -0.2661678805968903, -0.08742085627206922, 0.1925201630864487, -0.05468568784647082, -0.11363634440615261, 0.009707791803723664, -0.06516365830494666, 0.10140499631116012, -0.09232661123797253, 0.1027475438566317, 0.11921224696723615, -0.17357473247985356, -0.20811038593611514, -0.21870939867508574, -0.02296776924427249, 0.12733388654351352, 0.027268291075971895, 0.08463687492860328, 0.06208560363556054, -0.06443971813686855, -0.035699516246060464, 0.09692681479998028, 0.07551756281421451, -0.06705713729868307, 0.16270863473194158, -0.18613259892171363, 0.18581240326954457, 0.2199740611651535, -0.06412170637889367, 0.04715296285218473, -0.24540054574380948, -0.13810576555659698, 0.25105596303715516], [0.05265065327513224, 0.10554848600586714, -0.21588356732970498, -0.14419972334347625, 0.16542777676314618, 0.12725136403829168, 0.19025453992022634, 0.23172022941019804, 0.2416658727036074, -0.04693767548709851, -0.16892306993174014, 0.12049167178513809, -0.20842160928091083, 0.1987544707803025, 0.15467610441502228, 0.1503468041710332, -0.00044804513838098137, 0.26416586130577446, -0.16539023422043495, 0.029406166378808773, -0.026493925708270027, 0.1377363588894283, 0.11816148321083192, 0.09549430185191071, -0.08640510484353053, -0.16464522084947575, -0.23605075812752688, 0.2292378756141361, 0.16390753166491534, 0.05702141605645028, 0.22317977378529413, -0.13501764021102702, -0.061899663481059464, 0.19576850491757303, 0.1907234209204473, 0.06339088608076987, 0.007680167929778381, -0.057978560907031185, -0.15811260924611087, 0.22505479561934, 0.14110553263905745, -0.03324070008717278, 0.0018742349504413114, -0.20196956720807413, 0.2623666249071216, 0.06350754643712275, 0.2650497211447874, -0.05745390412167983, 0.11345131120657859, 0.022080870214975012, 0.10745757487843183, -0.04266997412401133, 0.06547447941576257, 0.041958824889517465, -0.1568722761845217, -0.19850125794472662], [-0.18844860133232266, 0.020436164088323716, 0.23928267453366825, -0.17527144519325583, 0.21140814932842233, -0.19478840014954668, -0.2328729290091636, 0.001594694083386472, -0.1483888633112867, -0.1938254421750542, -0.23770262983673812, -0.2304532228443208, 0.031025529605525015, 0.01871062724224415, -0.2364079607173054, 0.23714867191542144, 0.08254023103566183, -0.021930072540270823, -0.0008029937256189834, -0.006817581724533339, 0.2662040517443033, 0.11699788519788512, 0.15977907273636632, -0.11055037750822436, 0.153928760379983, 0.007832252075513135, -0.01613917139165838, -0.05090198897010248, 0.036608774662715116, 0.1835366391413093, 0.15887455511962528, -0.05204943840933593, 0.23840892760879884, 0.250199465942205, -0.1267133305393087, 0.12220358637425649, 0.26395679827748164, -0.26662824351002734, -0.24176090460596641, 0.0959474448540763, 0.23931700866443184, -0.029368275901001384, 0.17840178420258807, 0.04100419707347691, -0.20256606212552225, -0.20045000061530505, -0.0529202297181075, 0.16447215544733151, 0.1470886509303907, -0.07982483902694285, 0.22220563404893484, 0.009932726972872785, 0.14571677639742486, 0.21051281810614197, 0.008199951508073289, 0.16008512144378922], [-0.18009976449842108, 0.10113288937203746, -0.23951397876192873, 0.24795753599418313, -0.11684922632511646, -0.12037173745004037, -0.01152066470789237, -0.11097396193288137, 0.10839037284158481, 0.25922336164512916, -0.2667670929728564, -0.2112126535344821, -0.026856161044913007, 0.013410699510468083, -0.15713199800256686, -0.09732784397662483, 0.23483986539793433, -0.06884291944930354, 0.11686547628187194, 0.10961279363411519, 0.13841487302690292, -0.22431649836751982, -0.15013894859156296, -0.16769709599488164, -0.04330268810401697, -0.2589744076266969, -0.1897448863533885, 0.08999189149950437, -0.022809263372324806, 0.26182986176022716, 0.034912936459247645, 0.15021916479849062, 0.22628639703145859, 0.01081676627732786, 0.18964372850673628, 0.16598016922830644, -0.23213397439372135, 0.17035776449829504, 0.16383111968098146, 0.11686339755712766, -0.061660068852072064, -0.11548966103147304, 0.07282946142765445, -0.19111606377539492, -0.06081270477231321, 0.26262510249017146, -0.015020652265929524, 0.21850484243783297, 0.18601940495165525, -0.0026372190658773276, 0.02660142773575841, 0.26615914451080314, 0.26149898433643437, -0.015715732490970247, -0.15748927928320428, 0.1940443475831521], [-0.023113644712648956, 0.2592796585153151, 0.07891979214667172, -0.0992961687133396, -0.058307328889560445, -0.20691516354410663, -0.21052921425309995, -0.15150228169489882, -0.012022426189851498, -0.2419668390041072, 0.22223679584805217, 0.15811887058535284, 0.21465761991119547, 0.13229564320029968, -0.09903041201090765, -0.142475946553429, 0.1540601252973251, -0.06714802087694241, -0.252768401893622, -0.003140911374843236, -0.25742751691355753, -0.07950396248960567, 0.006572009283961955, -0.17945680838896244, 0.03398849872402526, -0.15998117786919866, -0.171779725275966, 0.1353693624327444, 0.11974308355633562, -0.01005536557671488, -0.050924804464132, 0.2670565237941651, -0.03145760645515025, -0.12687773293773108, 0.08254962978778685, -0.08244944811693156, 0.12875153535657297, -0.07204859543112066, 0.1549238870543837, 0.09944236629493092, -0.06313641171298626, -0.20414620155152274, 0.25213604729134553, -0.17933146588904655, 0.019104253192555376, 0.01731809823167585, -0.25282038262495526, -0.2644362777092192, -0.2039169881578639, 0.05447568183839363, 0.07018446605663503, -0.20547110362873827, 0.22554859606222372, 0.0923915214152013, 0.17314234733072525, -0.04660867887661005], [0.10809538631056764, 0.0622180540576055, 0.22651073806380478, 0.2548326350449621, -0.07548095379075295, -0.05914065434329829, 0.1399114332581674, -0.19890189156444626, 0.25421247883272347, -0.19932483940132223, -0.10669498391982299, 0.19337699174519196, -0.1116877239217311, 0.20663451355127066, -0.019526885703387314, 0.23654994341597368, 0.11813260276389209, -0.14464684838244302, 0.08599333746552146, 0.2658816291304672, 0.19658695598145604, -0.22848844617058733, -0.2632857087960103, 0.24965249438386894, 0.20692773250937002, 0.1655561134578405, -0.1806183687071825, -0.2521289458173411, -0.15576604847745973, -0.20934320625267439, -0.07383064174741819, -0.059338142068221494, 0.11594779998310428, -0.08396992449629354, -0.12287811099692228, -0.02300854758446272, 0.10196536416902757, 0.043319774490280016, -0.09053236377214596, -0.13497555455041205, 0.2047912190233947, -0.04320963223990279, 0.09525814999479265, 0.25730075519802786, 0.08436413273287524, 0.23205646164273452, -0.1096904825247067, 0.03669623407548095, 0.14808547101287278, -0.230170435886901, 0.10708103368401883, -0.13386622908844958, 0.06981951338766157, -0.0687152616981363, -0.014730460379493604, -0.23784965344331688], [-0.01812963387683722, 0.23038597584939147, 0.11489126537874866, 0.07687701257935337, 0.18092611513197893, 0.0553478617305142, -0.04795219244304896, -0.22235511010340928, -0.06368073884654701, -0.23375795619377235, -0.2382153643154446, -0.00438214199721676, -0.19235263101726163, -0.16096765433440546, -0.09068933601201959, -0.2632464543434499, -0.058581481836408184, -0.006060182747161469, 0.15950306064434572, 0.16862936480909202, -0.24098778698430456, 0.051126490852539785, 0.03187778596964891, 0.24815987108950466, -0.16375037534709846, 0.2609294856126525, 0.20965053818562485, 0.23683004178197853, -0.06666921465900547, 0.11625639711645674, 0.15026449390500074, -0.25128420529667994, -0.13034638197324885, 0.02864276884204875, 0.028661946001942218, 0.14756353425792484, -0.15422110298892017, 0.15258497547585487, -0.0759131504231135, 0.0963627770723291, 0.08076624497888923, -0.11632245557162776, -0.08529067589877573, -0.17981721693613112, 0.0072384916951838685, -0.17177918304405, -0.03376209241485065, 0.13209455542280008, 0.01754729751476347, -0.26652962571827826, 0.04659925977486662, 0.020358497593575497, -0.14898460725916662, -0.1401984289362322, -0.09933994994555922, 0.23334304008498097], [-0.23421118022279888, 0.21646091454510713, 0.06930095492514438, 0.1693977337670871, 0.02386569399821009, -0.03341031831624722, 0.11418762257550091, 0.2440461997961294, 0.18142503494192996, -0.12989273790949446, 0.04776183550276619, 0.06437233522391311, 0.19327868826892708, -0.25471052102302866, -0.15394893361868756, -0.08643526094320911, 0.15047122223172898, -0.09668640889506333, 0.03822661435763286, 0.09031109337491466, -0.138488811493659, -0.18211564731346755, -0.05191313176526535, -0.12482966671049642, -0.08671647498220855, 0.029055178444301888, 0.20526013758221828, -0.2232158342004545, -0.0664814492574243, -0.2334053954719506, 0.08687793232188185, 0.11531712648072528, -0.07826626147186713, 0.13273430324383156, -0.19927991438649426, 0.10453510153500944, -0.03465796630361978, -0.2483612277664676, 0.08259581599529048, -0.06454955888478994, 0.07092921472431896, -0.026368508648310474, -0.10644741975952485, -0.17741340266952735, -0.09423394713214905, -0.2029849920379566, -0.11839568251227464, -0.12204577440172332, 0.07955078536304655, 0.21184033412917674, 0.17065687939161311, 0.04987617777352721, 0.1399151825530866, -0.2226281155279616, 0.2545442361804331, -0.09435739175033814], [-0.11026125941246695, 0.1755027055288108, -0.20862582659264828, 0.265386931419613, -0.13053437073966048, -0.15335231253463097, -0.17685679981892333, -0.018295757306754507, -0.19076005209530342, -0.12021459504850107, 0.2341244128062986, 0.13269578225552225, 0.08545626863597933, -0.07810452556764991, -0.23270681062634652, 0.1086519672986605, 0.11083352579388134, -0.1493544234842306, 0.25426281814379104, -0.04210150874466706, 0.16543216155616275, 0.003150943885760815, -0.2225648835814828, 0.20328305289863524, -0.07605855169050987, 0.1857993050449771, -0.1567726135522876, -0.25874273457102265, -0.06217211876514325, -0.23771796452075897, 0.21418231967852558, 0.12342485414219423, -0.2049676273137324, -0.11012880504547198, -0.024718438574202334, -0.04957563409108254, 0.1692247304305003, -0.26363055334879787, 0.13024732322706084, -0.24511771156605286, 0.0407344904205606, 0.04812833143305856, -0.019666773228388446, 0.04938310371526239, -0.0802088030441094, 0.26012458650294634, 0.0252311914966728, 0.17972066392015223, 0.055030716832236315, -0.038026154888165936, 0.2314234260800646, -0.024209908915862416, -0.2528491979265591, 0.01166856405857386, 0.22326604033955405, -0.16045940475155915]], [[-0.18629919431498543, -0.194144085361029, 0.110381257798384, -0.060463509141220464, -0.2532392141545206, -0.15166300406065378, 0.17712713496088353, 0.22853606730915133, 0.024979145874179653, -0.01549185754174974, 0.003707984760080718, 0.17202423387963578, -0.03209424743003711, 0.05322315514770649, -0.006357079969013968, 0.09088904585112634, -0.1327139830753591, -0.11643593729762518, 0.22312232032773735, 0.08475593121938318, 0.009804656006585416, 0.1365623144724456, 0.22231746241372108, 0.011029055008035804, -0.13165373494546043, 0.15096467030800165, -0.2495230196743931, -0.11653286607199861], [0.09880418243467824, -0.0390320083081373, -0.015783344640289958, -0.17428085670262616, 0.21975706896470482, -0.009605761423796544, -0.11332345761698989, -0.17869952213957216, 0.01677938725858963, -0.0782465812529329, -0.05831389929437936, 0.23668343183703955, -0.21783713443154193, 0.1011794308890442, -0.11610081041874788, 0.000606857888151402, 0.16943723051412904, -0.1129611939692117, -0.18755994576928778, 0.20148901850998097, -0.07926011781415426, -0.07889722740016361, -0.05842127260658447, 0.2012145812694755, -0.07996483097163457, 0.1309414974959448, -0.08665221784794425, 0.2414728962184772], [0.20163756421752846, -0.17295712900056978, 0.1478635192674879, 0.18964380549197932, -0.11734883410556565, 0.24659867143255848, -0.08901309602341902, -0.19199663593879873, -0.19900737751105088, -0.25719701959259667, -0.14714528935981497, 0.172458673504225, -0.09281237651677215, 0.07261482461964713, -0.13071955158356774, -0.10011698565979085, -0.1496985532025471, 0.2170630940359254, 0.1773997780882243, 0.12809368301258542, 0.21846859530681567, 0.12831351061425544, 0.1490464715043982, -0.2634402483941637, 0.19427594441197277, 0.21418320126520934, -0.05574023608044143, 0.18051981208011222], [0.20052969272655305, 0.2091711663425423, 0.1411190699571261, -0.1115107256034496, 0.02833121469020794, 0.06515492281890295, 0.07515187701402504, -0.15044524900489853, 0.19319660463152283, -0.12955000142110706, 0.030828734233381505, 0.19378885853102884, 0.26783128803710743, 0.18061750586674322, 0.006971438391197986, 0.07152554769047215, 0.07302602137512876, 0.09072562825169878, 0.016151896611585448, -0.09334572067128769, -0.26078585176174884, -0.14210759664011222, -0.05760568042494843, 0.11085757725682704, 0.18441624922437577, -0.22700347723446276, -0.05911520852822965, -0.1420721517966683], [-0.1729589871537797, -0.24537738280917606, -0.07727185267807771, -0.2569740123623438, 0.26567432640255784, 0.13854294581011284, -0.04369416521672642, 0.14599510691592588, -0.15329549115860786, -0.17591334694226343, -0.1616676911932602, -0.24510305080614866, -0.060642950987175676, -0.11089601484993851, -0.1147014242185754, -0.11847158275733671, -0.2143540821444483, 0.05581798251420081, -0.2651274494155378, -0.10309570436125631, -0.07296597268570572, -0.12823255248726592, 0.02156517310063688, 0.20189513695400335, -0.2239185927758715, 0.17631819163007934, 0.08302045150114318, 0.0997238448068466], [-0.080222667451079, -0.24512263401663756, -0.21552052473495478, -0.05884720135030421, -0.18321690832862716, -0.150984525169559, -0.16106183042921457, -0.05192787994891039, -0.21453901635588118, -0.12799577369608017, 0.19018370719701158, -0.151877828717498, 0.1757219054108542, -0.24276297046367365, 0.2701810172950816, -0.04615945746353644, -0.007921005822727124, -0.23753893551321315, -0.061249979108733366, 0.11795361448523307, -0.17896943672737067, 0.2437313100615356, -0.019385866704661803, -0.13687569879970213, -0.16095551140028241, -0.06534417712757384, 0.16061396739345513, 0.19310285195455776], [0.19423029093693334, 0.004292993096090714, -0.23112546773693793, -0.06938178995597172, 0.043627962786208174, -0.21735144731230047, 0.053031501778364146, -0.18668379205340593, -0.16964783128117067, 0.13406695756801595, 0.08795342508020249, 0.16920878814850848, 0.10721195387616772, 0.0326140292434144, -0.13530190372347647, -0.15154671865014857, -0.011454650757031837, 0.19878915400078906, 0.031611477653995794, -0.0191564919472865, -0.07408526452448957, -0.024874768798852788, -0.15628895014615848, -0.25693435318330443, -0.04771589910960375, -0.2521722773552899, -0.19612374276655897, -0.2552320678517489], [-0.09628684167578896, -0.0359344622975053, -0.23187853531685435, 0.22104724053102862, -0.19696153580385292, -0.129779149332927, 0.20847286309085067, -0.2521102124370451, 0.18416644751905112, 0.25768799861101344, 0.034243161841296166, 0.027927839800850673, 0.03370507795053139, 0.24506193348048944, 0.2523580627422432, -0.1943258112098397, -0.06571672790935348, 0.16846622915631249, 0.25840771274878194, -0.07264286951260704, 0.07902023575893898, 0.02210489867094928, 0.23510498754960008, -0.06799455818699315, -0.20020359547176184, 0.1196586978468353, -0.24962004452160827, 0.2552183915901614], [0.09879888791689478, 0.04032194600943008, -0.18859649424733788, 0.0479089840664977, 0.16816851592355792, 0.1451743202088351, 0.08521091313409669, 0.12168375715186806, 0.136793189405994, 0.14016995897898785, -0.18362045785411973, -0.0427307535348522, 0.15630623144349956, 0.23378596473867724, 0.16733201030881006, 0.26510205173905815, -0.1467726502073624, 0.09755604031646198, 0.2454288932832384, -0.1765446900716472, 0.15673557621715198, 0.09438447883558243, 0.16680865786356358, -0.2156989351810105, 0.13944633285394753, 0.03662156264386917, -0.24652357306707473, 0.049037621715263525], [0.1178000728215721, 0.1438993618084805, 0.05765993419186563, 0.015182110678475278, -0.2179512786021422, -0.20834781950555636, -0.2625753933409685, 0.1378955085013302, 0.15749097197944611, 0.1324975584233729, -0.011014718360629283, -0.2572561410042796, -0.14701947363965018, -0.08418315572491679, -0.013460168986216148, 0.10570105040034944, 0.1557099602259518, -0.10394253488639797, -0.21668282603311007, 0.05122922161141811, 0.14077510377149782, 0.23769146354985798, -0.17036124727355761, -0.22556180698328238, 0.10859834399042284, -0.032143347073132905, 0.17229321782375964, 0.22612759094692203], [0.012325225859753541, 0.19084831062233232, -0.1336615366952827, 0.1031456841168355, -0.2570166114570299, 0.08631519227527899, 0.1491685101583068, -0.07225361484450471, 0.12245308711362413, 0.12641436967968855, 0.017514295297978648, -0.02359894835619958, -0.24538857410808937, -0.04596064597436609, -0.16757976496728563, 0.015481601032639162, 0.23216197877873043, -0.16467610004938593, 0.2524118949703664, -0.23766596882830257, 0.1675975736766795, -0.255873045356675, -0.11001969271613968, 0.015338961908024418, 0.12718930990856958, 0.07378397046381273, -0.07482670064619536, -0.027162686402287414], [-0.11159545956710462, 0.009410382602214737, 0.1557138194644609, -0.02617621574308283, -0.18765536156084645, 0.03340944325705618, -0.2532526327384697, 0.219295628007099, 0.07724832351273098, -0.1818902120594259, 0.2124762858251061, 0.11920649870105271, 0.005913019593139431, 0.18720340173975672, 0.036445771112101316, 0.2215453544207627, 0.17359667746168478, -0.088068455018052, 0.04376615659428533, 0.2375881863739541, -0.11485131083504169, -0.25410802663213894, -0.06632984705651501, -0.19581182821581777, -0.25170329979808714, 0.060579834361350914, -0.2105000735908329, 0.17221875845392381], [0.06579026506623925, -0.26314257799405844, 0.06322632778277398, 0.16191818771105454, -0.11719300412221892, 0.22566259037796657, 0.00783072949045538, -0.07253517254507413, 0.09802198370880633, 0.2628783268120234, 0.2367048313843321, 0.02138634971571557, -0.14868926222189618, 0.21334635599977855, -0.17515623069079056, -0.031213184029407988, 0.18649747704496536, 0.2506153069496636, 0.10933094187713101, -0.1359494839685075, 0.037358617905916824, 0.04887465189771245, 0.09846042616338496, -0.10944082208596853, 0.252466284560116, -0.15426869465491794, 0.021523824699802945, -0.19541431648151644], [-0.11684533054119162, 0.1383326507505679, -0.09911962351817302, 0.2118414813868139, -0.15562395030470053, 0.028829881256442032, -0.24403245403359572, -0.046741567249022085, 0.1881202370685312, 0.13725722441376997, 0.2579514820225245, -0.10860946157238674, 0.07190946239231395, -0.12432567819516203, 0.08181012356206693, 0.11459605027441704, 0.17491388861243667, -0.21276680456095892, 0.15478217140888612, -0.006473163054838732, -0.25607510731625044, -0.01514786370160068, -0.020901093658752562, 0.06780862345426569, 0.009867882170831399, 0.20274394145724128, 0.2428070176660695, 0.11610258940992638], [0.2184705234864318, 0.006378748430673195, 0.09823721975155059, -0.008639539634654114, -0.23801302388375314, 0.2113207598861992, 0.1074086490196623, 0.020340801859924523, -0.15462983018221454, -0.15648464214407093, -0.24214983536227488, -0.02041165322380223, 0.27949361911044607, 0.15375838337907305, 0.2177726793557829, -0.14955875773174365, -0.08694996633572812, -0.1050345102464916, -0.01701500303490342, 0.09653370442225409, 0.24703189115270363, -0.24644558867857508, -0.18413608848607632, 0.010397342526409115, -0.0047715812429316995, -0.13849283137818486, -0.08744506525131501, -0.16181009338469188], [-0.07514765005303772, -0.10486994295642346, -0.1215486677819364, 0.24821257407408007, -0.1331542944640043, 0.19639547011289135, 0.16294900419115615, -0.14457520490992323, 0.031611275116459836, 0.21607805628737836, 0.021240670409504572, -0.12109368406120039, -0.2231660217358307, 0.23297755920036214, -0.22784951507239792, 0.18468314574035608, 0.01649075830697123, 0.0026143309282091742, 0.19443139037847976, -0.16421246091708927, -0.1037533455027243, -0.16676214923963745, 0.17484018733424916, -0.10233584743510496, -0.10464866384022847, -0.21202984325263127, -0.17166271565793714, 0.14613723869280745], [-0.1571420788113727, -0.09723794919646156, -0.24311986121886767, 0.22466953182495503, 0.21592832611007856, 0.2515559378682679, -0.11535096552965951, -0.05851480952036772, 0.23533940951221943, -0.2178042867448518, 0.16952661942759256, 0.10922045556746285, 0.010483834738330285, 0.07060614451931137, -0.13556487726364402, -0.1195123463075212, 0.13897230477140687, -0.12834696713472293, -0.07996052725454342, 0.25032573687633186, -0.25071800072548145, 0.010935377412409936, -0.07067679754429834, -0.04104410481002374, -0.2665994038103992, -0.11833625093578909, -0.04890222812764873, -0.17826917458055724], [-0.1840733211568596, -0.05680020985845179, 0.15252754730185483, -0.20632219338048474, -0.03271158450648687, -0.18160551785787182, 0.04467414590985184, 0.07600396541136936, -0.09788016130347801, 0.023173707793653985, -0.21043814127240254, 0.09325738867231259, 0.1944320216459267, 0.23139468721397613, 0.1507838516968295, 0.12660836986066362, 0.0030587424909246856, -0.25463480591433885, 0.146746032918793, 0.024310643140925917, -0.2527849782528326, -0.26309896142338496, -0.025118189433466054, -0.22672396556345087, 0.15799443962837906, -0.18314171428338125, 0.18072642406248507, 0.20742802773195076], [0.06724275253004287, -0.039861995669195745, -0.11270236982846632, -0.1206306998708533, -0.2194636535198249, 0.23360294428889736, 0.13349421387383015, -0.20110910847902297, -0.11944203775051104, -0.2703183774065434, 0.20156076684208943, -0.2027508263252218, 0.10127382567145732, 0.12000560081152617, 0.19354288328214472, 0.04861599977350841, -0.24325895492212812, -0.23842595105746311, -0.06209487656880678, 0.19283741599327817, -0.041259933462485174, -0.17711748968195656, 0.06106000189354832, 0.2135790963858062, -0.06859789183025508, 0.14526779382909502, 0.012183474660726307, 0.13793377031693974], [-0.2450153713741091, -0.1769363899811898, 0.11195534863897869, -0.06615675370708543, -0.11139232175861469, -0.0714741987146444, -0.19424479806719527, -0.260858033681289, -0.06981934077902358, 0.07359709116712929, 0.11161520191273004, -0.026673973886523122, -0.049321981918483894, 0.13146561148750516, 0.17333577168006495, 0.20981287910364393, 0.0015342029103457074, 0.043124798815554755, 0.19251215590207996, -0.0064232863103204215, -0.1143204865686684, -0.08962097136972041, -0.15508278998570796, 0.21249888910960868, -0.228251665737648, 0.15090401237436016, 0.00321064346047955, 0.1978234129275071], [-0.14106385739794733, 0.15537410171788357, -0.15157163166317178, 0.1612471351503666, -0.16641848009440252, -0.17220089624123386, -0.014268075965398586, 0.040155363750027095, -0.1937135841485984, -0.18525766619760514, 0.11221536930745367, 0.18117535959443837, -0.12496733389395723, -0.1562043734947677, -0.049553529894771055, -0.038275480159293315, -0.05594260591927622, -0.1956983821632688, 0.1726066778259498, 0.05762978308526821, -0.002015665873824901, 0.10633472514091263, 8.555595580106434e-05, 0.020368304560819173, -0.22041066870017037, 0.14469811337659344, -0.03599076200208919, -0.14234382963512968], [0.13622923394647976, 0.16062062869300714, -0.14764985157009947, 0.12295191252173121, -0.03863071709502222, 0.09839534079802922, 0.14323828445436299, 0.17157993269451988, 0.02106539279877634, 0.18756259981715043, 0.15708609585132766, 0.0828600625224809, -0.08676609726838125, 0.21564908004463113, 0.20632477631418822, -0.25967854264545787, 0.03338769443659515, -0.020046256068738277, -0.04930869278183703, -0.11123901931885408, -0.1053640343916003, 0.16806628267009147, -0.13849496385128682, 0.24254352678039226, -0.1729953211904525, 0.12024239463138897, 0.050349344643855105, 0.10776828358269906], [-0.19363642014014548, -0.039301028690834655, -0.01631593008488701, 0.18793229294340383, -0.004095289273732372, -0.2498311324737877, -0.038665204508673306, 0.21379704233152402, 0.15009739412589157, 0.18792734306971146, -0.26329838805132894, -0.08320637625678073, 0.24360314295982188, 0.0688062487088526, 0.14301681758442192, -0.19961501026332812, -0.1407864586346798, -0.24576727528538928, -0.24545555223905774, -0.1422630846605303, 0.12993431094820496, -0.23905415315639478, -0.05241388532931748, -0.25804863831977665, 0.03745112599273165, 0.1460475601551095, 0.1745808464213278, 0.011430328366689505], [-0.051122941400217704, 0.026652951986677664, 0.1249975310856164, -0.14897613304131166, -0.21519440280845628, -0.17452730612791834, 0.23014209569516186, 0.21307158873280058, -0.22279705388777404, -0.06548423526390684, -0.2406598917774567, 0.2614129182058089, -0.08507117637207709, -0.03674988449364818, -0.12633007959610962, -0.08012492934174428, -0.2477905376856343, -0.20739746386020982, 0.023501818904156424, 0.08340026788814943, 0.02830179168885525, -0.01603437172827295, -0.05445169681206638, -0.018082796308890148, -0.17624406540728377, 0.17392371499359038, -0.23451823290192883, -0.06321823072864116], [-0.08137498971818657, 0.13442432171845115, -0.046839197356528195, 0.152558415090824, -0.17349068891319325, 0.15710584087689608, -0.019112791740754004, 0.22440422466776525, -0.019887104054747057, -0.2375092445745494, -0.27996353853014605, -0.030230036671476695, 0.10659731226226606, 0.049850158843452445, -0.021728583689585287, 0.18768583895579302, 0.016397131293096424, 0.10294840161451574, 0.1436484995906327, 0.05849505585576637, -0.13952570069958622, -0.2514711717765655, 0.02544010440394301, 0.2298557267344956, -0.18653936907657565, -0.23430226898825998, 0.07403210964394896, 0.07681544382219607], [0.029917256311812728, -0.16673292047981508, 0.26294328781290793, -0.20722009489099552, -0.15550320466004644, 0.2364284987756235, 0.04091167120611969, 0.08180793977519446, 0.04566390124707492, 0.19590265039655308, 0.1428247670616889, 0.1238321902383886, 0.06599112378280497, 0.12786543103503994, -0.18605229935246523, -0.03737640671997633, 0.08917205524267563, 0.06097968169402762, 0.24748552824348188, 0.2576207759365395, 0.19762316197071172, 0.2185565005717026, 0.01674196771500458, -0.06533564355206467, -0.25439326836692083, 0.07452014475794766, -0.14884240143974686, 0.1420213039434981], [0.2277511061918086, 0.11929944777055307, -0.03796563751907548, 0.16808288156667298, 0.14896473238536118, 0.0482969978481066, 0.0801004724615752, -0.17448549068489028, 0.01281192324586461, -0.22431439228887998, 0.12464531175539745, -0.24559062755402522, -0.2332742670735225, -0.14513111640799115, 0.09162621997563608, -0.1551600004566721, 0.19972085861142064, 0.23791801525939865, -0.14929643060375677, 0.013095969901518721, -0.12466269360062338, -0.06658625158582071, 0.19000261644286004, 0.07127610771741333, -0.17899238636527046, -0.11544620806991024, 0.0014044322620312966, -0.22780237636901257], [0.030838037844377646, -0.2273085597459779, -0.09038735243821858, 0.0936544201486149, -0.1383160719889206, 0.11619519475059942, -0.19255084378378962, 0.14345601942513136, -0.21006443324793192, 0.1980298757029744, -0.12409439202049685, -0.0638495069067001, 0.23382919606606167, -0.10386475911803533, 0.004605413586895281, -0.17126690674776812, 0.23410673937269755, -0.04963419843888234, -0.0525095088869513, 0.00014682248474906512, -0.05378932074062284, 0.06490508856303678, -0.07758269215551158, 0.11525796886768325, -0.07931584770146899, 0.0995033095717226, 0.1454374167941336, -0.17432904654117642], [-0.0756165346708348, 0.10164719057589189, 0.04059656198863568, 0.2526612085486622, -0.2168443433308668, -0.041295520860996554, -0.06166497673878557, -0.1423059825548257, 0.1849356441662853, 0.0668458009020664, -0.25798327728621206, 0.020175246511112244, 0.08230673294901895, -0.093066753248974, 0.09230073578744522, -0.005624410878269259, -0.10472374906036706, 0.04234109575809358, 0.03859619463255426, -0.024765980609975424, -0.0026718127976174838, -0.04126651547682736, 0.12901491289354178, -0.07344485834379638, 0.11847170560332293, -0.20864909180484742, 0.06563619059133352, 0.13715103680941323], [0.07163620308923296, -0.0013934808152037403, 0.026934286860528397, 0.05514681482741094, -0.17733952331608993, -0.18122460758827458, -0.16576461315224233, 0.20046127517881163, -0.10613036414711399, -0.07348608472334421, 0.24103715697034223, 0.03326736440352407, -0.18594619388472156, -0.08345123713845665, -0.19595269709329705, -0.06254026062481766, -0.10383304673307966, 0.10696451840302862, -0.01912717552230217, 0.008874221074435251, 0.07819766013088131, -0.2311982274666142, 0.1166755535594462, -0.052054175505463623, -0.01987796623599178, -0.16893597443108016, 0.2459238742812278, -0.13404889029631448], [-0.2510909033635003, -0.24954178382923534, -0.007927232528839668, -0.1931498651133951, -0.02157856872071054, 0.2347773668923656, 0.24179660228512045, -0.08865919148806509, -0.21331564805482836, -0.10564995794270533, -0.0050793441419026975, -0.1178897354003959, -0.15211069352554887, 0.0782180762625114, -0.017827002013186113, -0.2545111001143809, -0.054233826736123314, 0.1481525605245555, -0.05018238995372279, -0.21260234243847226, -0.20590985055638553, 0.10864542967367319, 0.1334486873357386, 0.2134132128743127, -0.017901386956669707, -0.11396656905554675, -0.1749337019451027, 0.2086867396810954], [-0.04681871587903205, -0.2599991983580424, 0.11673501040935841, 0.25805119848707103, -0.06373289706147589, 0.13711978058456636, -0.09302076276765753, 0.06723228979886003, 0.10573663297047309, 0.035901223023120266, 0.001779375452533284, -0.16968305005951737, 0.20672686929330353, -0.24133496220781628, 0.20338287812415645, 0.18703736158751427, 0.10723265510103959, -0.23092021153220352, 0.0399952076513578, -0.09239099027874004, 0.13433219365416538, -0.10765417886836276, 0.2570748422287119, -0.24108763877440187, 0.01294102141832687, 0.26030546775531554, 0.2561275893787445, -0.039737905378919455], [-0.09225071144928042, 0.11285718955927507, -0.08864394868452709, -0.23383575315530486, 0.07306784128642607, 0.09441110342081109, -0.1223114952617132, -0.18890556472006229, 0.2020439204129167, 0.14402533212388355, -0.16521641750884375, -0.1701120307035444, 0.1014419351905436, -0.014725341043657815, -0.10713461152713813, 0.1670336554271908, 0.07014281066562549, 0.13980722520746608, -0.2562916475629826, 0.18693295132281676, -0.004440239883773754, 0.013198316159558354, -0.20289960309231203, -0.2046611002450446, 0.13488403717600467, 0.08923961928256711, -0.0824830753940471, 0.03479692736534008], [-0.12221188120910689, 0.059070355846642886, 0.19258359518015697, 0.009697813629999988, -0.19403819481925078, -0.21407391978157495, 0.12568208989496044, -0.2218031937394314, 0.08315665173029484, -0.22792964687274705, -0.21424723157508263, -0.09783245252454514, -0.18417007640912475, 0.2043794583002566, 0.09955980421691037, 0.013779608474332072, -0.22229271757350194, -0.24871216222884043, -0.2320692176976308, -0.026398946255255434, 0.16320924822854269, -0.0723044731657132, 0.0690386669345438, -0.12439468178848792, -0.028337905616852177, 0.028814287577561715, 0.18064206443598022, 0.12224558745377768], [-0.12319124059296233, 0.2042312434112994, 0.20987592683399853, 0.25956920700334685, 0.2594728135518488, 0.22089152661707853, 0.22344818109496506, 0.19354513026202683, -0.05513682856385338, -0.12697984791664135, 0.19776934707378394, 0.03334492642382614, -0.05795776666462949, 0.2531074460485138, -0.2141775067049968, -0.02883727039971077, -0.04809804129503305, 0.0013632854034405506, -0.19333775453144214, -0.1703836680141285, 0.056356527601271855, -0.15476225059569756, -0.07499617699684502, -0.1641974768742291, -0.23554669722876276, 0.13141566454664344, -0.2067764193800637, 0.005500976451615428], [-0.1607976984205915, 0.029611037419223663, -0.10805618963565834, -0.08299755053823724, 0.24507004238982688, 0.1665072332175516, 0.1964866459603406, 0.07262889362724778, -0.00294569505897736, 0.2183941657516437, 0.17123401862176194, 0.18503705481735966, -0.19882352313385027, -0.12718910685684093, -0.06508462312225871, 0.11923720603868085, 0.07571857149978714, 0.007744343297499401, 0.16675175328399644, -0.16049375727912443, -0.17257899258246295, -0.1623271411415309, -0.0767660414797536, 0.24979338967725173, -0.22784290019669, -0.06221764764654102, 0.16262687516851762, -0.2021572108411091], [0.029187845302610094, -0.14844420409477202, 0.08812366070253297, 0.18352289804952557, 0.1716882633633201, 0.2216618902421728, -0.20365446256643327, -0.10798588487950458, 0.13922642293087445, 0.04103106384675215, 0.24741157983908363, -0.05523153303935174, 0.04921470012508253, -0.1391911818375163, 0.25339562516429825, -0.13438739690357404, -0.13815701981117065, -0.17353575994901904, 0.04548435684358385, 0.0128041432196489, -0.008907986175672511, 0.03190782899325484, 0.13900058751712513, -0.0923404356595485, -0.04368036019523103, 0.08289519222891487, 0.09409488735116169, 0.11117434161600243], [0.15696025508032938, -0.2659579197301571, 0.1263017200409255, -0.13486639232107786, -0.14848959649415056, 0.23330269207225474, 0.1701229382558936, 0.02577412104995236, -0.21535420234781225, 0.16644494585796696, -0.0729929045474112, 0.022767769660971326, -0.010033267724349409, 0.2590318974309773, 0.06747872230636959, -0.018372047888960075, -0.20378949351656622, 0.16724018842083196, 0.12020612796998033, -0.2039497085003068, 0.21428835030924295, -0.14114174609947294, -0.1084392415297899, 0.20784172938217438, 0.14590639641446151, -0.19652035045554017, -0.046663058310110576, 0.2605554531191941], [0.18673110088257924, 0.2084809461206433, -0.12606460080518805, 0.2155512261871164, 0.2130827092914362, -0.2732997596170016, -0.07438908652815832, 0.19536731889271988, -0.07629682264563863, 0.05496780935857401, -0.006941226160041302, -0.11776527102545792, 0.20580226585191072, -0.18711674605771228, 0.20489241277101244, 0.11773026871471942, 0.08853503099227211, -0.013111997448085944, 0.14384261190126432, 0.01751548372369364, 0.18885005481185954, 0.013389469825019706, 0.125020533666783, -0.23568491410109077, 0.12186010662862512, 0.12274018695402773, 0.1591288239731373, 0.16173321279911798], [-0.09220166630683713, 0.2239642300963708, 0.04277210321593483, -0.21875065922361855, 0.10051832739687483, -0.13642162779824554, -0.14862128807071381, -0.08594602704991665, -0.006567250501110178, 0.24531453865423125, 0.1778388364194687, 0.14900710043947235, 0.01690231511295312, -0.10599072572601893, -0.13042640400013256, -0.23271265185037163, 0.11093298978619495, 0.2457036986459057, 0.11077270817910549, 0.09706904056283583, -0.22558190432597097, -0.006454586295990439, -0.2104447866221095, -0.0002501133667763833, -0.17496436367501866, -0.21279121383469454, 0.006452671258771793, 0.21660307304092472], [0.05265054203259801, 0.1544787672353849, -0.19700075084314525, -0.07450567385406796, 0.00651254413067609, 0.15407358133223498, -0.13563033390546086, 0.16591854569992504, -0.20530903184176594, -0.13589390801258927, -0.20997922571732142, -0.23599938264649362, -0.12889716494208237, 0.21525035531177764, 0.18143778966567628, -0.037532221914314545, -0.010999758955964667, 0.012432540270221337, -0.0419434593736156, -0.1823824639325615, -0.10160498001349319, 0.1854504589360208, 0.12307718430995412, 0.1810156512599917, -0.165569222131414, 0.2621353312958268, 0.21142264636540692, 0.031741721783447106], [0.13421927713410756, 0.017434003800857745, 0.060966772473587866, 0.1770517786329255, -0.015794845590785478, -0.21939246863858936, -0.2202521271721593, -0.02539851569645238, 0.094062252374433, -0.2159193101616129, -0.060995711618367476, 0.12051070759821036, 0.12370731795864709, -0.16296950418685618, 0.2199306840006749, 0.03361788736804616, -0.25979056619865304, -0.13985449200771727, -0.009956239766241506, -0.04307833341524933, 0.04228734159960355, 0.005843797998119178, 0.24751412906595305, 0.20691911972788113, 0.2346815844920055, -0.15196369746014826, 0.19384295260481638, 0.17657668014838976], [0.21425235458583097, 0.21987533922582542, -0.0959703096879797, 0.08013074794845161, 0.10122962227604793, 0.19156092406895903, -0.14261848839688354, -0.024417368221138186, -0.021901930814000714, 0.16224480903712826, -0.1589542664496304, -0.22938028175543693, -0.07307731844486393, 0.1605047439513142, -0.12532519453058533, -0.13743466425393455, 0.23808556099144346, -0.253392340865878, 0.15509964539423318, 0.19899990333372075, -0.20983324992565405, -0.2092595164740793, 0.04664000086184816, -0.12260669285374395, -0.23610055239502287, 0.2498158776170436, -0.17899852806062824, -0.13544233211031348], [-0.1356203580496131, -0.02711803010019108, 0.171120317158703, -0.009797023664338194, 0.040919725849456134, -0.21072641153043783, -0.19631265715730445, -0.12528045549426944, -0.19801409635253417, -0.18746190111051333, -0.2314959556493859, 0.2305824968320883, -0.111634373612422, -0.15873894589124346, -0.0921507145802696, -0.13005645165901697, 0.24315987298799813, 0.033882637223361434, -0.21720350539778613, -0.11459302589132281, 0.20637255380837088, -0.009367954376970189, 0.010532732578036108, -0.07517497051430075, -0.09816198977808085, -0.15996278884573426, 0.212963612635402, -0.04794534838402892], [-0.06989748659001116, 0.13339257315241218, -0.11447292117783231, -0.19039322889489502, 0.23686644693576653, 0.09142708641732425, 0.2637209631764043, -0.18906548977470536, 0.11422264138680599, -0.1290397290768312, 0.15524354919957828, 0.025116770483719464, -0.19538748056424335, -0.19066639658067358, -0.04473475843818343, 0.07260792086170971, -0.12238676671527332, 0.09567444779384232, 0.07696476999694511, -0.16403703317290722, 0.20297311431463388, -0.03202864152887026, -0.0071625972241491365, 0.23956512984273015, 0.10035765748211362, 0.2441012831007523, 0.06824029078696174, 0.11794869495832801], [-0.010738950220882918, 0.06310041742764233, -0.15596952545491757, -0.20334159053878983, -0.18880086330849027, 0.1607377063877246, 0.143387728247007, 0.1315359782191533, 0.10072667726041512, 0.008812064206624885, 0.18510070824046854, -0.11770509218681044, -0.0760664182292291, 0.02420276781702083, 0.09653514071944691, 0.0028157618703712473, 0.050992960345976945, -0.23368748194446656, -0.062398003184450386, -0.16105978597262743, -0.08050559588731555, 0.10154210007333025, -0.16716815112240052, 0.05186879459689692, 0.02696178646111469, -0.188652757595283, -0.030547447704094205, -0.23591358399611181], [-0.048900706841458384, 0.09286061753309796, 0.0010100664529086297, 0.08063200187757741, -0.18890277613827872, 0.15402020860540513, 0.22060757311973278, -0.23390068194783772, 0.12804880448847583, -0.1658161098872943, -0.18663760658066392, 0.2178372797742134, -0.2593681271835233, -0.06865192669116531, -0.11023474419225861, -0.03499529851617201, 0.17938867677090145, 0.1119652992776937, -0.045431677082615016, -0.2055310368232784, -0.1559292213891036, -0.20908168387221354, 0.10498085471461388, -0.23773812298195954, 0.015562991501566481, -0.07914875266895553, -0.1420766302302434, 0.10605196727872267], [-0.19712184300479602, 0.08283607961301764, -0.10408375400453271, -0.055336888434315744, 0.24526488830597926, -0.04069294381203891, -0.2342789334922468, -0.18660947296993402, 0.17334200460691257, -0.12773272487708842, -0.15178243413620196, -0.14870276515367498, 0.017923785844225104, -0.09895254131020827, 0.09576211526257922, 0.18842384563795211, 0.07996057282022256, 0.1469862721016933, -0.2284225512465367, 0.05974391276180232, 0.07520687044327536, 0.07135056068521271, -0.1571194795117204, -0.12960357181457838, -0.12375061948409774, 0.07069904774648755, -0.15909851198492686, -0.09292627428823146], [0.06535924646642347, -0.136962337417145, 0.13125004491527756, -0.07065909494928999, 0.027165194767893752, 0.0013370044602643981, -0.20931001678540997, -0.032519357539788685, 0.08736658399711258, 0.13910192533160512, 0.004029276260219261, 0.06659798393565786, 0.20470741241632112, -0.02341204005742691, -0.21211529185110833, 0.1092441319898983, 0.07883797590593587, -0.23120965824403494, -0.14222363383240813, -0.19749609796561873, 0.18430882249672192, 0.1768896160422154, -0.16589083138537467, -0.10811204335613275, -0.12817412812357007, -0.11299211810177237, 0.13251575338114932, -0.19183842699841738], [-0.07223889471563053, 0.14123602092049176, 0.0732962281374513, -0.26098474607482125, 0.003684410496330448, 0.26049262060993206, 0.15264085646296718, 0.19866966021444765, -0.047506847531079005, 0.09760860956139046, -0.12916091585012526, -0.05442293181923577, -0.08374586953122307, 0.19263936983629887, -0.24015454312667786, -0.14438217638713935, 0.014608256586168045, 0.058616886320639335, -0.12814221791025654, 0.21007153421414315, 0.23344753506053875, -0.1618690680502061, 0.10638620622343797, -0.20496929387626647, 0.14069578780360276, -0.07147181536447161, -0.0028687389654986073, -0.2653498908792498], [-0.23049036119171626, -0.127355574649646, 0.1953096833641081, 0.12899001582051847, -0.0804895007251955, -0.2549554785412497, 0.09488469789289011, -0.03390420332071413, -0.12350743816409857, -0.09084425765204784, 0.06730708051851657, -0.24703678538443308, 0.07528190314630004, 0.13713229702995625, -0.15517663413728694, -0.017124697283111084, -0.22539658602772536, -0.09313605476432199, 0.19023846526956664, -0.024266046618943365, 0.027070165934219736, -0.08155392014498702, 0.04271261335942117, -0.18345918581316156, 0.1783566140093238, 0.17802602968392972, 0.019570090359898228, 0.20112622190071494], [-0.009231300384605576, -0.14945078850657917, -0.1438227763523925, 0.11245096627594532, -0.21996530904933537, 0.12896536951716955, 0.14027369845652454, -0.15655984336852563, 0.17596875522929134, -0.09670259591663488, 0.04196392461486853, -0.23990973443731778, 0.1635763382493464, -0.2592631939139762, -0.12661251419113623, -0.06558788343984606, 0.17443905090340478, 0.10603054282397609, 0.010971867911458365, 0.25016206934694624, -0.07706904271598555, -0.1484059069736209, -0.18784584335973092, -0.23750862022302008, 0.11925883555871325, 0.04616597278338258, -0.015084241407723964, 0.2221311814264853], [0.07225372139393314, 0.19817062577185468, -0.047768446363211065, 0.14370865109535286, -0.10385424784120104, -0.19687953787987306, 0.008320015490113644, 0.17088703005232836, 0.047846658568362066, -0.1013037761485706, 0.05227424090733601, -0.1888697563527646, -0.0008860909711330134, -0.09849730023725005, -0.22186445036812225, -0.26609118454981184, 0.00037157352479794126, -0.0566924083933516, 0.1501942555257919, 0.25322272976198185, 0.1588825213944579, 0.26013973391964923, -0.16147500520978691, 0.08439633591327572, 0.11744510280153914, -0.1924219353936025, 0.14662338969474897, 0.08660556906703384], [0.0628738226258945, 0.11918504364755167, 0.13670361158663255, 0.23349563585717717, 0.12990309383072934, -0.14385084279887467, -0.0752492923618876, -0.02916379040833217, 0.028223160400550118, 0.1766553638166362, 0.18732450799665798, 0.05761894606462947, -0.0032104934228963183, -0.1726636108549229, 0.04282636048868382, -0.2563382015770982, -0.2532056191618183, -0.1471626461339131, -0.1601924605090089, -0.0499577898705771, -0.03074334414060754, -0.008960298443160134, 0.05169416920004788, 0.0071091927011654454, 0.13581772735348746, -0.23221961210686104, 0.15148433260922256, -0.08768527506329954], [0.1825402678810567, -0.2586321833798218, 0.19552675695896887, 0.06981643384388356, -0.1686229622098021, -0.065586523441494, -0.023190478907527352, -0.18331990571441084, -0.1055279791680907, 0.2181772145721253, -0.2197345991343489, -0.172912875263964, 0.048771587944285016, 0.1259015968541219, 0.20718791186648639, -0.12302008414949472, -0.13848135233903525, -0.06079824553030365, -0.14933739003544272, -0.03312898606348362, 0.13792223324178313, -0.10215639169635908, 0.097598650634383, 0.004458306595978623, -0.24630793925191613, 0.0865392127028648, -0.17240020479078583, 0.13536523843290207], [0.25351298204497114, 0.1311246871486328, -0.016970635693573585, 0.13846328667083027, 0.05009488067487883, -0.11641162060430743, -0.26220976412542424, -0.20118685907646566, -0.12762017691824468, -0.19395671860043334, -0.04052822771522313, -0.1398583606905733, -0.018829715720579177, -0.18763307838463483, -0.18800126121296776, -0.18565817768476311, 0.16196960280300543, 0.10788043870349634, 0.018920088395276258, -0.11517307345623169, -0.058357889943683794, 0.07037006338251803, -0.06919870464865144, -0.016312369576232, 0.15573263523024639, -0.1819261426278328, 0.07687604212866628, 0.23422993693620817]], [[0.33148931376098484], [0.07524283293746348], [0.40886179488172397], [-0.2565118054479695], [0.27418835342941333], [0.2829848578683733], [-0.32032266794408243], [0.08821592346055089], [-0.2099316285607673], [0.43698670837538883], [0.18408226861037938], [-0.2076182600325821], [-0.4212508275502046], [0.4183968664366316], [-0.28822075384873996], [-0.003289909785363404], [-0.2706603680998466], [0.07608347964668598], [-0.1417268101661584], [0.1863136596956633], [0.1154095608094632], [0.4255975374830331], [-0.012471008422008656], [0.07982313269658131], [0.1356593569581805], [0.009839827139093702], [0.14452512925926692], [-0.48618191232303914]]], "biases": [[[0.0006817868803509928, -0.0006969345953835984, 0.002186379278428147, -0.000892410465746142, -0.004417492746840836, 0.017181504345228207, 0.001968984495378047, 0.007293684540415217, 0.018443820562469182, 0.0019550072912277944, -0.002676478906532833, 0.0018046133741315869, -0.01767314702945599, 0.005189538840820562, 0.0017133584535387644, -0.0013293185609153859, 0.008629402845143505, 0.01848255723553788, -0.004382685652890615, 0.014021501679688377, -0.008993324511390476, 0.0039088845021837265, 0.003398759736280063, -0.001047865323915726, 0.004308565087995374, 0.009756938900037017, -0.000933907228398583, -1.242129876965965e-05, 0.007812338023617212, -0.010107223586818126, 0.0028087259303662556, 0.014305178928696087, -0.005283048251147839, -0.0036832048681735862, -0.016272667694004553, -0.02688233869230778, 0.00340933533901098, -0.008070234486159612, 0.03885591045177228, 0.0033353015005511185, -0.002681061909678453, -0.005667850521836536, -0.0032126462852946494, 0.005356415908883469, -0.018729984214424032, 0.0026054734994471777, -0.0028369757185941523, -0.0008085699528395449, -0.001142873182603985, 0.008472088233059795, 0.012702204536060614, 0.01033288620933037, -0.0013709796811277675, -0.0012881046907268529, -0.002852442553889555, -0.0047555968578950215]], [[-0.006079468922489711, -0.007953313982475894, -0.0033862333244719933, 0.02623930706836317, 0.0, -0.02291646104503866, -0.003773234177817711, -0.009011526113524208, 0.008464626519999763, -0.00815884146046406, -0.01971122401900672, 0.0, 0.055534940992117005, -0.013244195185827529, 0.03764272015351899, -0.0017555793189942344, 0.036272880310847584, 0.001678645302106923, 0.008971166638195617, -0.01470529327969626, -0.002115809886015506, 0.009506655934724544, 0.0, 0.0, 0.0, -0.0013509697691838631, -0.022750595537766913, 0.053116090071768936]], [[-0.11813682325932187]]]}