{"layers": [28, 56, 28, 1], "learning_rate": 0.005, "weights": [[[0.005406829207368347, -0.08435337747512292, -0.1154983576442116, 0.11409516577606688, -0.18715349132980097, 0.24866073029479285, -0.02314199256321961, -0.18949146381828635, -0.24182575959006655, 0.07051942752460905, -0.07286505499099966, -0.027863323428774095, 0.1279728951388518, 0.1852105909012423, -0.24568167252149184, 0.25302996776770215, 0.03246411341286681, -0.11152717639254628, 0.25527742584619606, -0.23454015831643474, 0.2549624411659126, 0.14266631618639608, 0.21592589610705332, 0.0026538091721218238, -0.20296916919170965, 0.03646128044322311, -0.13650205739809995, 0.1764182863430937, 0.09177968040100015, -0.2531962814220201, -0.223701495008526, 0.1819443707669558, 0.18931054520036394, -0.11943922194232212, -0.24476895853436537, -0.21817225591399073, -0.009457043975500956, 0.05502581865206624, 0.018602877860836642, 0.09839551915044004, 0.18711233065208066, 0.015275949114561482, -0.12019371763606757, -0.16648592040484367, 0.20501090594388172, 0.26565495922702764, 0.23831831134253123, -0.17127907086089228, 0.10122327610105702, -0.09093447753434317, 0.08091815239120564, -0.22960171472650565, -0.26478293041231316, 0.06302116526779189, -0.26174348230848854, -0.2645495564027225], [0.20876262264474338, -0.027885510404153324, -0.10166218916342157, 0.030998890388687417, 0.06764354918278176, -0.0734047634167592, 0.25171423318166986, 0.008636909727181341, 0.17426696473831893, -0.2321423913071201, -0.19436623232468786, -0.06607460627308262, 0.19504016507838035, -0.14693267545874913, -0.12814095134792597, 0.23434059781772998, -0.06927537323526056, 0.1330312637761678, -0.2303429580062369, -0.2667558185403168, 0.21205396700485252, -0.13043192186784072, -0.07007511030580413, 0.06691064951425507, -0.0009269756648890848, -0.2503269924673503, 0.04555724915015802, -0.006554874027009938, 0.060013968849055244, -0.21365126200658013, 0.1504777940505354, 0.24000254550351674, -0.15509255021505147, -0.20480325430289786, 0.03366558526143143, -0.09532189714526199, -0.14790960581703913, 0.04863021057278699, 0.19691792477238806, 0.07687445305587393, -0.22685026891373375, -0.11692328235588717, 0.21884887101131767, 0.17556655603223348, 0.2135344747694748, -0.1886823565095856, -0.06262301790318789, -0.24767258228595043, 0.07199683968398063, -0.11513602206505191, -0.013419967639486607, -0.11497728540430072, 0.20157848580760418, 0.18821846190824892, -0.10607285180009618, -0.19886986134830614], [0.06866580614489476, -0.14856645733510865, -0.021867358286172173, 0.1603255648937184, 0.26185210394036307, 0.018732284759671813, 0.05374383392552495, 0.047161978878420885, 0.019044226792640784, 0.23860633032542367, 0.13875991248924113, 0.20314714450240134, -0.026681397467691492, -0.013797043373209084, -0.22546673140120163, 0.15547576223541226, -0.038721952866727444, -0.1248361867513764, 0.17055264419359217, 0.08775253194544724, 0.2079833929745833, 0.22867084377723224, -0.19187050567262803, -0.0764583115021236, -0.2558313325697589, 0.13878768290838595, -0.1349333450683608, -0.020652161285904913, 0.07444948797278439, 0.12539492416538234, 0.10230876491723001, 0.13536461984447562, -0.06074936290087335, 0.2567957135957243, -0.048111292604524875, 0.1559123258244357, -0.17305797615426105, 0.2492482312690072, -0.050689667663093935, 0.08328388580235602, 0.08297207108709515, -0.034381400631103204, -0.17623619659535988, -0.0028525043021975227, 0.05149211330219944, -0.00896550529760598, -0.10469732861749295, -0.09572307223105664, 0.0013927429021860505, 0.16747471223650118, 0.09719987529736046, -0.01879187065062246, -0.06593012185306449, -0.04627172990158049, 0.26693764023193833, 0.1629771212419473], [-0.10803769032431966, -0.1720469859905128, 0.02765063826686402, 0.21412470142392684, -0.13314024044960565, -0.12440485513969543, 0.2276985936720829, 0.04872748781007321, -0.0022491567242877543, -0.23794939074285038, -0.19246217051016593, 0.06676697494345755, -0.13353592547269452, -0.1513230403454009, 0.15209960850299928, 0.056388205784090935, -0.2287845358912315, 0.17588802555394678, -0.2086938715514165, -0.05529246808964742, 0.06005122385711319, -0.09251401283471714, 0.009545046671780869, 0.08761873208317789, 0.2248673947936322, -0.07662040066740974, -0.18963589099125383, -0.19644920174034594, -0.08980061246565438, 0.15167401941109926, 0.18150903702256294, -0.06151817853218983, -0.21634572702348806, -0.13315858089602245, -0.17763054039384965, -0.1829327803572632, -0.014293479147666158, 0.15911311721154472, -0.16181987338089443, -0.18203416841879788, -0.15646044621530966, 0.215649244856131, -0.021483163545222467, -0.10597207907331238, -0.11715602627142847, 0.018885272634621086, -0.135776007346753, 0.0038492240841874674, -0.12068183962123846, -0.15303102537575206, 0.14101922186348986, -0.013829546647456867, -0.025237598364784578, -0.009134908651475792, -0.1454653382481533, -0.23878230425557628], [0.0025594845826142887, 0.16060677038193075, -0.12360147358171845, 0.27007780153782746, 0.10079922979930366, 0.12253054081395962, 0.10513613107410971, -0.17654525366819696, -0.24969627082809126, 0.20027802296009484, 0.2196229951911283, -0.00781480644160352, -0.17198415475050244, -0.2149689398859135, 0.13312249898047931, 0.1281664002389846, 0.16959262652302454, 0.010628443954668672, -0.15323779731948328, -0.1835583353605978, 0.09094932710178937, -0.23241104384700495, 0.02870142111566158, 0.3207944103583714, 0.25118256196758404, 0.16318518623126468, 0.24636105064199382, 0.13540045297143335, -0.0029338915071737298, -0.24363874332919871, -0.0027713332098341405, -0.07505945006928989, 0.05187172346576016, 0.1872735183446481, 0.12888361293585168, 0.11776034880573327, 0.19724393834051782, 0.11567360816140806, 0.07911949944034348, -0.06056120835273422, -0.14500593224045452, 0.03289729442959385, 0.11818347205703507, 0.06008987447950566, 0.23202917689000316, 0.25443946940790874, 0.016393333510391888, 0.19629965294397017, 0.06102741094715518, 0.179778441315508, 0.1308249848551985, -0.017707525077335706, -0.1972555825621401, 0.19548523442269886, -0.09625281378929874, -0.008824456790586504], [-0.050366444096674345, -0.1566621172193578, 0.13350616869303622, 0.2207988660375264, 0.05383380485166622, 0.11197890370683489, 0.24358139657211797, -0.21984924639344944, 0.1727396584192507, -0.26412606640377856, 0.2187691028128042, -0.15982849177208303, -0.055791787245574265, 0.23102686272169598, 0.1632817637034371, 0.13819861203912914, -0.007562635903837767, 0.007508852823857104, 0.1782409536476341, 0.2590619734727375, -0.21221485548847885, -0.25056016992377134, 0.051084592393414785, -0.19701030465590308, 0.12332653262808174, -0.22343136806462166, -0.19574532075680462, 0.0165389394947561, -0.18954734698057168, -0.13549925381346134, 0.059230636612263465, -0.2540514515622353, -0.11929089837387175, 0.24172495240286085, 0.25050705771616866, 0.05059880419631824, -0.11323150777329158, 0.024859360695929478, 0.14919056552281812, -0.19975430663795646, 0.027294872081756683, -0.1784443116189298, 0.16226161978192832, 0.14841428457576422, -0.17887019731540194, -0.13197864226774977, 0.2552501913995747, 0.23926269564906844, 0.16279533125992895, -0.22364749004484671, 0.04777774966575976, -0.15392391480480042, 0.040639184913787874, 0.1253431691765713, 0.11881976445956305, -0.017699645089924276], [-0.20541941743889544, 0.1303100094918747, -0.2524929405322155, 0.024746136573712163, -0.08758636752443658, 0.23830112276772208, -0.2113772961616101, 0.21191224399081787, -0.06966566637122104, 0.2165167969134329, 0.15289229480277683, -0.14091023410012488, -0.17841686450155475, -0.24773030367545792, 0.1874253990051774, 0.010186903024116345, -0.21378245363590725, -0.12189388971040116, -0.2075409289052407, -0.22876243104927474, 0.024315217992856186, 0.05588943576068667, 0.08610617435211548, 0.21452039461775102, 0.1047469430531014, 0.2166915392957976, -0.11498155345090938, 0.03136428221288645, -0.22753043689054017, 0.19845728296819115, -0.07417760728403572, -0.09568058385107472, -0.14443887546946882, 0.1091329555375084, -0.1726697842643103, 0.252975393841563, 0.21981028608224534, -0.031296643725677586, -0.15193970919233185, 0.13172356697595972, -0.026543081823791337, -0.09126196732635103, -0.23528104293790603, -0.22945301934485843, -0.2402830288216041, -0.10865341190347633, 0.15573772955705428, -0.06727153318665371, -0.11183219942498332, -0.16008010267994882, -0.0768111410783183, -0.12941757996964656, -0.07220283017985052, 0.19120132454201677, -0.22863964639455514, -0.0723914868823688], [0.045967337877529435, -0.1648215245430636, 0.12843594309465534, -0.18694859976405076, -0.05135788485996878, -0.14480989438863118, -0.13582919050564382, -0.014130099171725863, -0.22198984252580756, 0.19467785503915513, 0.034060974410725475, 0.21397517847833009, 0.04392560403387058, 0.1027841872932786, -0.16311422163652892, 0.11648568490083921, 0.24441056150821627, 0.07712181709082755, 0.11818503110115525, -0.044440426740387784, -0.0873492094149213, 0.2382052599152812, -0.045088934303828154, 0.2313117564976213, -0.23096232750014523, -0.0554474239744048, 0.16317283362107016, -0.14243492803076793, 0.15866805091954078, -0.043033408457964745, 0.08243498176054087, 0.1201620255035395, -0.0906138042701232, -0.11932769038060428, -0.07708005509150881, 0.22466636713321492, -0.2369450092906595, 0.021536306706298136, 0.09626819679894427, -0.12518067277710096, 0.17105894982764347, -0.0406215402667314, -0.1634184827342522, -0.24381055764699713, 0.17819263539071156, 0.08053409001170142, 0.18059274956199833, 0.08141928378913599, 0.1930315179639095, -0.1980200234044419, 0.0021158041988031395, 0.25336782907547584, 0.17614661238168944, 0.04866595614874286, -0.18819582394833428, 0.18805794674261678], [0.041316579475135284, -0.009453816182253716, -0.2544933742284821, -0.1419701104694985, 0.07825670259279005, 0.1463933432106581, 0.2629555211534915, 0.26075360194113273, 0.1821988418544303, -0.03998711683853626, 0.21205124067121123, -0.21343482628171886, 0.20727488155620832, -0.18461137437228872, 0.09503924820190762, 0.1703963704796762, -0.1067110843961071, -0.03981422106239965, 0.15779205915348093, -0.07994994436099404, -0.1584911530481512, 0.19335638464766308, 0.052130090114764605, -0.19634743626617396, -0.22268943411494768, -0.14157250772160238, 0.0301160134663922, -0.1405462197589819, 0.023472522898560444, 0.21454970253071337, 0.1008256679933962, -0.21858456788579378, 0.041809020359943605, 0.1623302589043089, -0.06506771834080707, -0.07441708724395771, 0.02669637462246932, -0.026928317898444687, -0.10678925529322361, 0.06772782332693372, 0.10949225671253149, -0.2102541605963208, -0.14773640971931476, 0.14909696521551513, -0.2349723663035496, -0.012996071003527176, 0.04041607073621356, 0.22832894750641997, 0.25823585457388765, 0.12581715771437135, 0.03845313404955386, -0.2548108750953778, -0.16336931784866082, -0.2344023832075375, -0.11023942542712431, 0.0032781332117904904], [-0.12312644311613755, -0.059114740127707205, 0.10381392711705956, -0.22811518868689162, 0.2005726345610746, -0.19905601605613715, -0.06320635231236352, -0.2344543085577847, -0.1269394589897479, -0.24037154059374766, 0.0614788656809121, 0.041955571371209255, -0.1991636398348744, -0.2429149334242192, -0.033613220751038786, 0.11136148228288506, 0.022050299497547776, -0.16779454479947284, -0.1819391703642319, 0.2083236251965348, -0.02174116571326029, -0.24014957048567664, -0.04546773383913952, -0.13960789403030835, 0.1029146739812381, -0.052915423775590775, 0.008811283632493117, -0.15095813227065624, -0.10066577670522492, -0.12351369345721086, -0.10058958296615117, -0.08939350249599484, -0.10630014590321807, 0.0815585821760485, -0.24062000990351753, 0.08614198659799349, 0.16101698207078224, -0.16773803643557095, -0.2248111011469866, -0.25896160621731557, 0.18354211219214212, -0.17723772321370485, -0.010938082988127817, 0.20590682321735937, -0.12853368260012954, -0.0801135077537328, -0.08986188068991757, 0.023010365884258366, -0.022907033499562524, -0.12606100065978956, 0.24881535866278137, -0.03385809079080429, 0.05142481214685868, 0.23950738566050722, 0.24851839015584543, -0.0037446256296476688], [0.16067475110845753, -0.019362224001313433, -0.19223122690458855, -0.03281371586308207, -0.2064513990776533, -0.10757375765571753, -0.21227420586359008, -0.012023304233191645, 0.15842519227123886, 0.08287229079404507, 0.10835260833214344, -0.04875592597663797, -0.16167276039522677, -0.01828775774659741, 0.2066622932983484, -0.13401600974253203, -0.22324482163918677, -0.13358425414059197, 0.054851470975157024, 0.07510372297242884, -0.031246323535693205, 0.17425886658069945, -0.16187263424257592, -0.01593645866808846, -0.14256682927637632, -0.23158995624422463, 0.15847553453772417, -0.038112351892374746, -0.22077251276160936, 0.052515878434960694, 0.0031473265623962465, -0.09622682593477602, -0.012287066726281048, 0.25281353548649266, -0.11296615706353777, 0.14553164641689215, 0.2502505318422138, 0.1756839290627411, -0.08801767577858471, 0.03238776074690486, -0.040273029629675716, -0.06798749156977449, 0.14877975167881774, -0.16197657524622605, -0.22015249565244854, -0.20577160179870496, -0.021153927476027568, 0.12535471363105216, -0.22484122514695082, 0.2576669549054218, -0.012671817226720894, 0.08683199223598081, 0.07441147338999093, -0.1912684791041388, -0.13467003235116914, -0.1273929905231885], [0.24907971060620637, -0.17885393232071436, -0.1177556815684336, 0.17966566927328909, -0.15213006258313008, -0.05691600371098554, 0.06434376047877749, 0.11096187109009747, -0.13570850811475915, -0.2308810420127737, -0.14448096912548838, -0.08294843653665601, 0.2093015788479266, 0.011752591379134203, -0.15181371701437926, -0.1394105608545172, -0.25679754185411585, -0.1472121401239056, -0.1976120297767333, 0.18134457403702464, 0.13859284820601014, -0.18142548166660943, -0.053629872029447134, 0.24538250434875009, -0.23793217663046437, -0.20410069109578263, -0.23611074963972706, -0.06238454695685822, 0.054329011886714074, -0.09599306547766098, -0.024390379164013487, 0.11741173048776732, 0.031879797633479534, 0.1262146097375481, 0.19239945306316963, 0.11810943704160676, -0.00723314869948144, 0.10812810629489567, 0.2419659771371241, 0.15817164609618817, 0.17495234461232784, -0.17017612819409272, 0.09646580124553472, 0.16606038154603459, 0.12224737797303997, 0.07644779473492475, -0.20432117279420736, -0.156379148827694, -0.1534704064882435, 0.016831209941986225, -0.14574170002696468, -0.2589242602560759, 0.021504661203756215, -0.08465059415210371, 0.0984146124704478, -0.17469335527829843], [-0.010221707663622515, 0.09227170111328686, -0.07548889158588168, -0.15392152550235705, 0.11156573292815108, -0.1721373862341118, 0.022773888607822923, 0.12497035352721614, -0.049914457267329876, -0.12884679412235692, 0.005135739986324717, -0.11987834959667415, -0.21563402580711435, 0.03464979592281969, 0.08410742647176078, -0.2536081233128989, -0.03752227225887564, 0.2554221554169144, -0.20984686886017426, -0.209204934798144, 0.21867855528083535, -0.056512832961605725, -0.22166089278772347, -0.03460708391304185, 0.22452230211520852, 0.08336612407976435, -0.17032732927449978, 0.25602598784506814, -0.02996155694055097, 0.1834664114981085, -0.13108202328144092, 0.1572461703142114, 0.18702490507368752, -0.014977036789553533, -0.05923211341512649, -0.10164021800084175, -0.034805922995170574, 0.02246828161111858, -0.018535967407715404, -0.028071933132825883, 0.21713097715547547, 0.2046334126479129, 0.09552352713222484, -0.022846728437463354, 0.25972747189506407, 0.09043758492691129, -0.10986412968659859, 0.11494507261713865, -0.16321096275988461, -0.2581207697411735, -0.127053447099444, -0.1333637934934166, -0.07337339500331538, 0.23507321911030288, 0.23765753619102203, -0.21061448214153078], [-0.19260497086913309, 0.2605581881287493, 0.18074777973044753, -0.1242570652927441, 0.12953534576334436, 0.1858928591667181, 0.17594993407955783, -0.06641889684711424, 0.1458638633697884, -0.011819916021791443, 0.20935885264518583, 0.18198185539097866, -0.13929374793628369, -0.1001935977910717, -0.16420411864581663, 0.1410725212732039, -0.07788805169792615, -0.0012443531245893702, -0.11706894736949669, -0.18657376435016815, -0.2595697532055278, -0.02472304658254018, -0.042392601041442934, -0.19391704769313797, 0.02714117945958916, 0.15391530196681058, -0.10815282042866767, -0.2670848461673283, 0.10387459714996178, 0.168604632678505, 0.16877229566411944, -0.04087753810791653, 0.24664108910938787, 0.19689133361188588, 0.006448007757971108, 0.062129671302736, 0.0704325704371464, 0.18219592466173706, 0.1575118483596723, 0.019355552079274863, 0.0071766032243813505, -0.2601885476024815, 0.26292718533658277, 0.01486318854089086, 0.2665277007630926, 0.01742198654761129, 0.22228441212380223, 0.002676619758929244, 0.04653520752661333, -0.20047775926548428, -0.12124447167459101, -0.18521025455453172, -0.050427955904449234, 0.246427800471671, 0.10830243674132722, 0.2136280692212285], [-0.19560736358350644, -0.1303094147981813, 0.039143193369382046, 0.2245367749476394, -0.24877155266698975, -0.1760962531353078, -0.03302569406676714, 0.1962368038925073, -0.09767562679636899, -0.02573786493452715, -0.055123602460318194, -0.16601239667693188, -0.03380059048025641, 0.13338780213814355, -0.25609793931625047, 0.13608463885814803, -0.039607343343339235, 0.23967626138388776, -0.03185293797999175, -0.19845098201315764, -0.2612724768023708, 0.03363770623411155, -0.1297957385217254, -0.17203345504614131, 0.15954186116586583, -0.008292682361946024, 0.021163010913434754, 0.09804560261104256, -0.23849034668696453, 0.11481375042609338, -0.25620833184471276, -0.0947597361312836, -0.21305074182590217, 0.2328372907084194, -0.1232043916396636, 0.19147106661381347, 0.10441218721477907, 0.13032807731880236, -0.05569550750840482, 0.12295511287300542, 0.02870018734044577, 0.15091060234925158, 0.0006080654196842228, -0.13236032996082855, -0.09462261864454635, -0.04531431050720522, -0.11124848282229421, 0.058820927921294175, 0.1340502377166568, -0.22831842608102246, 0.15900675499906153, -0.06423790522350839, 0.019593571688964473, 0.09914206966218969, -0.14765874036905427, -0.13191426545177964], [0.03741361772542667, 0.22300371131938834, 0.16174569050098514, -0.19610061458324857, 0.19966280677153203, 0.14106823643224553, 0.1821779449462969, -0.1297123964582741, -0.029845061869454514, -0.15159120357728667, 0.20169602812337828, 0.15388030545558629, -0.2393131977912217, -0.2117086867389589, 0.18271760991832686, -0.24192590784444504, 0.219120327108215, 0.21155195762343282, 0.1843558474065496, -0.013037885352285117, -0.25748914145349605, -0.051837698828367085, 0.12009471627401785, -0.025209148975865486, 0.24963352395734995, -0.13479210367359495, -0.10202662543844601, -0.20654860045638077, -0.046550589628648914, -0.10905935262575728, 0.022930654230273406, -0.08626341060468437, -0.04488572377833497, 0.12753266551076875, -0.23178489687724904, 0.12266332771029781, -0.22152223091673762, -0.09417461596312834, 0.2663312915063112, -0.23186606929063253, -0.1967227025594645, 0.18524135925439783, 0.1286128180190393, 0.23608529761191155, -0.1090550111051675, 0.24865839001702428, 0.19015319662359048, 0.17730642421756182, -0.042218675878008094, 0.19832956853863715, 0.2543000514448096, -0.12157090096723314, 0.010535232429845942, -0.1658701270143308, -0.15761412164542266, -0.024526940931276414], [0.1052574452732908, 0.08600610264236237, 0.2279380706030617, -0.0946022164057869, 0.13321272250040356, 0.20590541393078793, 0.0006512489915871031, 0.12264584720029355, 0.023028619880140773, 0.029617906919652624, -0.24776118719546247, 0.09931336424849786, -0.19976809750597663, 0.14882475459835792, 0.15063587872232476, 0.20518498799457402, -0.08692363032589646, 0.23353282525726876, 0.21167000941890107, -0.1824819162369963, 0.08664593676327505, -0.129485123352758, -0.10971960078329898, -0.17905762152823235, -0.11893604411014665, 0.029631242343331293, -0.26971684305035565, -0.14733372451603197, -0.09605301558910816, -0.013618884892943687, -0.011828288898793213, -0.040596399780404815, 0.005544713792714883, -0.030024345677796275, 0.18240138471807735, -0.21819750527716045, -0.17133047824173925, -0.11842344374683712, 0.25713852758023886, 0.2523465941845595, 0.17414582116542032, -0.186671428631094, -0.2165391804704527, 0.14611973869264175, 0.1672435413470935, -0.1895427244888897, 0.12422552081201595, -0.1311480393157123, -0.25121980335328625, -0.26853238429546766, 0.009226953149836514, -0.12912691382124003, -0.1665536496660814, 0.16367519192888197, 0.025302737708237166, -0.13034366095816313], [0.2032218852074335, 0.12139114161584802, -0.18011543842533967, -0.11046133531693311, -0.2146277396331276, -0.10191718682566533, 0.08119726851676723, -0.19507032984749195, -0.14303909069988824, 0.23497976563546596, -0.10244684412748659, -0.06476194031217178, -0.16729494947953888, -0.06020583438028884, -0.11637902523311058, 0.118585589631101, -0.18345027399980654, -0.16189703449910248, 0.1972416659517236, -0.15486287716312094, -0.1602991607333907, 0.0969835839101632, 0.22489651724462079, 0.16763226213691468, 0.18607429540225934, -0.13307414390700026, 0.05349115650706959, 0.07732198578971888, -0.06288006354916598, -0.25735803150522596, 0.22643136641723532, -0.02348652782698943, 0.19844684550540304, 0.0716915775390935, 0.03901960251455322, 0.016718856290514228, 0.017567589662690397, 0.06885118263080753, -0.06884004256869156, -0.04863016392220962, -0.07487935362291984, 0.10729101913853789, 0.03287993034326725, 0.08349238455923047, -0.00671016401176, 0.003435934538158991, 0.20282847997662945, -0.04971118177874312, 0.25015501268013973, -0.04284186518846761, 0.0055427397328989825, -0.14728729834481896, 0.09157741565442856, 0.02762003958005077, 0.24461007427085346, 0.0693721352201625], [-0.13926034523980121, 0.18215650183390814, -0.1530370234130632, -0.22925430946220343, -0.03064854922782151, 0.1306118657824134, 0.2340975513737631, -0.2580050939528521, 0.2422312005031786, 0.020979584284506803, -0.1915809357498629, 0.2317157888069048, 0.02771407806218945, -0.1884097313678147, -0.12630510494163188, -0.10798831517646643, 0.019649200489413043, -0.15165638720275898, 0.191646305331983, 0.15583735105387347, 0.20983701913873382, 0.1560007274766555, -0.11153237652726145, -0.127549913661484, 0.16617235658755614, 0.16408040633386511, -0.253205934463806, -0.1356485986879286, -0.1657093166462797, -0.0005261072653903187, -0.14978453021103005, -0.15223466566827995, -0.2425327087238997, 0.24382709001933933, 0.24594735389475786, 0.06179563595186849, -0.05268975722399949, 0.09049999931790237, 0.19816353011750742, 0.2591184584981159, -0.2621668411881843, -0.22819457507647145, -0.09916465174940503, 0.13219707400646624, -0.21856624340157982, -0.16454898027796677, 0.23435764056162578, -0.23333087498697275, -0.1839168693096871, 0.20688519971236718, 0.22952694159182585, -0.045094136724191436, -0.13460575974654157, -0.2098327001296973, 0.2309095487401503, 0.16219092729660733], [0.08799873908503947, -0.04170215519202822, 0.09184989933571475, -0.24492999198612483, -0.06240504717477477, -0.014276433128163069, 0.08640394432098858, 0.25359166665036925, -0.15693118699883998, -0.2638617669410672, 0.11523756600532253, 0.08661276173722238, -0.19435103736894732, 0.14520319059806153, 0.10645556664527545, -0.11680715561519478, -0.23433827866500298, -0.03218266552083204, 0.10168686503891883, 0.03570441910410854, -0.13546164055879545, 0.05872413838254947, -0.03850666254428675, -0.07028224535419758, -0.2315198009140223, -0.16551447779641895, 0.11564609892479177, 0.02907767172267023, 0.06642861041904535, 0.13260017385683626, -0.1714711895532206, -0.09890245240457737, -0.16965603559195364, -0.14939368942862288, 0.13083885150506297, -0.2519776283739256, 0.233714967561373, -0.09861948184246644, -0.06202012724455638, 0.2088251101867496, -0.23915770259790098, 0.051301718514712824, 0.0027866583406786494, 0.2038409587630915, 0.21424704814315965, 0.17965081018700696, 0.021594647233954045, -0.25673250972474543, -0.17692519385706573, -0.09379944944154639, 0.014635609692768448, -0.11936486346109612, 0.1803385538280997, 0.2216588640685827, -0.07303944597033948, 0.01731686109387015], [-0.09134913178404389, -0.1386302904733053, -0.10346890917392354, 0.09679307247727115, -0.0005657640613979109, 0.012012707510825116, -0.09171791744553678, 0.24748112987352, -0.030805084712633407, -0.033419415846829115, 0.179212932272806, -0.019313957563472317, -0.04425544489074637, -0.17801608620916043, 0.09909556738501846, 0.2305134750568204, 0.25260175749968183, 0.16556654778746183, 0.10054905293644384, -0.10940141477234114, 0.06766808979001931, -0.16123585322890024, -0.2190882531851568, 0.1457961857569648, -0.017497444342048724, 0.24857883556750882, 0.04260520090726172, 0.06399684712869569, 0.26680592098473355, 0.05663962609795331, -0.007594652535268365, 0.05299906474751448, 0.1319693400516695, 0.1445006419083431, 0.1220828575226442, -0.10100539633526828, -0.24693841778986814, 0.2245298443762208, 0.26604439219170195, 0.004869328525279271, 0.21747439008601505, 0.21115080227261057, 0.14457079670731365, 0.12544723821098142, 0.029550296442954982, 0.20103813484659078, 0.09818483239643278, 0.19460019781547472, 0.06581005165352805, 0.24205838742109442, 0.13972217112226681, -0.02151306904761291, -0.16238226103290793, 0.20757603092565718, 0.0568027169339021, 0.06964865665600944], [0.2584222780470681, -0.11094115075727504, 0.10068634121482783, 0.16631734178858243, 0.1615310306667181, 0.0030716163256769846, 0.19818206351183698, 0.09749601679650977, -0.12033366965894429, -0.22264392122429483, -0.0065543140356277285, -0.08740953312040056, -0.0686841045772423, -0.07069166612533737, 0.0460403067468364, 0.09433629533771598, 0.12354970173881069, -0.2077558360751528, 0.007405018468931268, 0.25728513572611533, 0.106040423883704, 0.14893947097811905, 0.10395336713858905, -0.17113681868164907, -0.0545066754601253, 0.18472298740726056, 0.0587270170901103, 0.09795640718627002, 0.0029281512666646803, -0.10282685984654832, 0.1810829800675432, 0.18428666139241334, -0.13875212964644695, -0.12683394023941952, -0.1077845701549702, 0.206127620205314, -0.14274645479378967, -0.15298652916364697, -0.22192869469712712, 0.22913128417241585, -0.03151257137431976, 0.1382945113911328, 0.1584083678637424, 0.06619528011047499, -0.04464314869990199, 0.2557163306993723, -0.2522502012769416, -0.003435416045387829, -0.07084290275680435, 0.07024788066465842, 0.0012074653598502239, 0.2223256655148766, -0.16594695832616074, 0.05805042946532929, 0.05825095621970017, -0.20553388074894224], [-0.020142463052000514, 0.10250352066205853, -0.13624637074560703, 0.25913742570139087, 0.18045562076574506, 0.18625545527045034, -0.06779129745638213, -0.20211998555553448, 0.220740189968406, -0.2037919258964272, 0.0239172702918789, 0.07217442295810439, 0.21037062717129146, -0.1837458254274654, 0.17346186073892061, 0.09418936418672352, -0.01927577885780657, -0.1976904149606204, -0.10047724572810568, -0.13400303685020223, 0.1927440168105743, 0.23035248657071733, 0.05114110928348353, -0.15644953392706232, -0.016731227340867183, 0.06754201572182794, 0.11225852458560781, 0.23857848748556698, 0.11007803521434517, 0.21939492162019264, 0.03104104494419707, -0.18862469402588447, -0.13476774981024403, -0.25245824581136617, 0.07448735486851832, -0.2189115860032414, 0.0949920374401057, 0.14535634300824385, 0.1398770577493808, 0.15884898689053428, 0.07019678998243656, 0.031105403424575184, 0.16056243145401328, 0.09315485434721726, 0.01439321612073402, -0.22091064429087692, 0.08451061047436365, -0.07457155282650413, -0.05974807694706094, -0.039484518734111324, -0.08127734104111742, 0.2165620093667387, -0.22284446547942688, 0.17765481046357723, -0.24222694350699844, -0.05086559980785485], [0.1525069798136352, -0.03986621349719696, -0.15772966542494193, 0.09320092846737071, 0.19221756274591417, 0.24495940097864888, -0.06134492363620217, 0.005772198404250806, 0.16620770833922544, -0.13536467208103123, -0.1089834433966527, -0.006908082786675929, 0.027156687697103277, -0.01889291978813115, 0.2382728245998128, -0.07745844541548563, 0.1001573850976048, -0.23896216073815857, -0.0670256888500711, 0.06170005696387143, 0.18374085840082288, 0.1888469387806594, 0.04068866219259504, 0.014021364381061385, -0.16343484803472702, 0.1784568437872019, -0.2635815909085764, -0.030504558519757335, -0.16101229777627746, -0.035814681657848096, -0.07371115466264938, 0.08622031486045578, -0.18494457265772435, -0.1430340158732731, -0.020682437050186353, 0.1655563665907373, -0.25132123032939774, -0.11163730374756717, 0.03522823045519763, -0.2423608524154, -0.035212845917900276, 0.18267499884390448, -0.0027206878445216187, -0.10144170876195072, 0.24021410168187163, 0.005051772470781757, -0.05049154745180079, 0.16068617124317813, 0.057420569591569215, 0.2537715341132617, -0.09764556572191113, -0.006381263036723872, 0.2432654137541166, -0.14184597624127876, -0.1264707713928985, 0.234219884434556], [-0.23236905351137585, -0.19613394286136904, -0.21087401974835113, 0.22770958016255716, -0.042767064671143246, -0.16504154797430726, 0.22780280847696727, 0.23342775577137465, -0.2141553076547891, 0.20377396813557502, 0.1768059251659863, -0.1517888562402692, -0.10477897049733287, -0.2027831065711707, -0.20678119751679724, -0.19967717488318276, -0.16600109304558378, -0.1828584908949027, 0.0981853691134767, -0.14164658757802387, 0.21769171524407255, 0.06506551969258079, -0.16919016936060127, -0.25670322585636, -0.019624438576162723, 0.15199475989540723, 0.23811016333096602, 0.2550683541537899, 0.17634447956745186, -0.15020515531842055, -0.0679378197949295, 0.1948247535055136, 0.10360948725665786, -0.05087099410199675, -0.13899922985873503, 0.08163091578745102, 0.10357281300097776, -0.057646276357367965, -0.05662987344786494, 0.04566423732861025, -0.19896209909696896, -0.2064426751813701, -0.01378733793068343, -0.20734760786981743, -0.21673517528685204, -0.03774992977927183, 0.16274142793131285, 0.0023442241140608777, -0.09524233996090214, 0.23294145079392303, -0.17235858249590705, 0.046769355923158396, 0.03638597556849554, 0.2147251312551628, 0.2647322170000781, 0.22692143963925065], [0.17957816981712155, 0.16487733475868416, 0.20009594974493283, -0.2503522614204724, -0.019070838797495104, 0.18119446871987688, 0.18682615333422237, -0.12955133609506506, 0.2671008591684092, 0.23481174242707725, -0.1414383931538885, -0.14477241039544275, -0.09054440403288044, 0.12011498444727298, 0.028969390851754373, 0.037654312533518364, 0.26124854552027643, -0.05356835599506016, 0.1383852674149521, 0.2056838234061079, 0.06667985254223568, 0.10367598525728505, -0.17364210766975935, -0.011096427421790511, 0.002192136086705543, 0.23691810112759049, -0.017152383304702035, 0.14103436175535483, 0.18021140847667444, 0.06405666777122943, -0.12159144788810236, -0.214379739051742, -0.044928509720604526, 0.10922759955495309, 0.03254170770882997, -0.2363889992333078, 0.2473243015550276, 0.015032112947061915, 0.016613179206344697, 0.1201331375345635, -0.15570524871097885, -0.189610458925124, 0.2127735644532246, 0.25822697825125684, 0.11969462103580542, 0.003086712801646907, -0.039075580703768154, -0.1585879616471204, 0.1542081136931147, -0.14713104200627242, 0.0833417847086626, 0.010996439419397652, 0.26467045369810926, 0.06750511117943203, -0.0907044158275297, -0.16844113216651627], [0.09718861968696485, 0.052463813190540276, 0.20250741743314316, 0.18366265847141794, 0.10319830436729532, 0.04060901490364327, 0.08869335819689561, -0.10048646224201208, 0.00204817946192537, -0.01963319788342685, 0.15767641375872232, -0.05058722162308063, -0.23291049458536112, 0.07525637584849598, 0.03220276869751776, 0.056238765030204085, -0.2288098027915793, 0.15885412318014358, 0.1764737499618816, 0.19875072661416232, 0.043461720250725255, 0.09951865567859614, -0.16572826267968713, -0.1371279182046408, -0.061703812087249454, -0.13471473134373801, -0.17357979425080577, -0.23293037331522712, -0.01875966594638226, 0.016640573872502895, -0.11453988813519056, -0.03771192865221906, -0.05431112479857253, -0.17180286914380993, 0.2048854770769874, -0.16629905275746087, -0.047374761635600116, 0.11822672220075531, -0.017700910748461335, 0.12485082248572338, 0.009462536815133205, 0.25538133312916356, 0.014548093276369467, 0.009649969948007264, 0.03642809981445533, -0.25784261620304927, 0.02370001438314223, -0.21721226501771373, 0.2578868228128365, 0.14848606516514684, 0.1184812430731822, 0.08203745448041838, -0.21706302154969415, 0.1145870135035853, 0.001725427728125506, -0.04922522199096949], [-0.12980964705507628, -0.24916155375349636, -0.1583057867113338, 0.15302992335796511, 0.2640356759330247, -0.10418603369300228, -0.0772708461466409, 0.15970607676046766, -0.16793920223629874, 0.1599301029259816, 0.0586791487415701, 0.24678823325978827, 0.263264419832694, 0.2339382933220403, -0.15802370334268645, 0.22447627789702151, -0.21213964847941902, 0.05571292653781679, 0.11307223474743888, 0.12687591687519278, -0.20978926682580226, 0.09876618399830117, 0.14506194124189942, -0.15564022504656577, -0.060127914009526634, 0.05993265285373889, 0.10837379400099928, 0.12134484771914988, 0.16298282347659893, 0.14337706585623966, 0.2447845984517396, 0.16458883548144132, -0.05242866513854036, -0.17545518633452778, 0.10947094294742682, 0.09624825840231471, -0.19191493547291785, -0.03920748159595236, 0.23860830174729264, 0.012079031591825218, 0.11328043846834968, -0.07088426195070693, 0.14942857720400404, 0.07528250550601778, -0.23823138231004842, -0.1062083045596306, -0.25263748971621414, 0.06053527018258925, -0.08539887279064712, -0.12032846980915696, -0.06919372085416473, -0.16239339339318823, 0.05655755226449849, -0.22486018416665635, -0.07428218915689508, 0.2528252752129202]], [[-0.17179616470044695, 0.2512254364789583, 0.043742774910539794, -0.20776074785420684, 0.015800841841635656, 0.17200107157578698, -0.2454155657662957, -0.19077255380831817, 0.03665095524409543, 0.22873263431834837, -0.17778061411205778, 0.10150196632044693, 0.20053336802199848, -0.23920238256122925, 0.05224107554826163, -0.1840831471108912, 0.15819649997955676, 0.24301465044806028, -0.16714711779047361, -0.08823581429140032, 0.1857273421365069, 0.05225832632372668, -0.21229884544336136, 0.11256197416734465, -0.18228757940565526, 0.13580512274771453, -0.19080254531646845, -0.007053240117317505], [-0.09033145969524052, 0.13586228732043176, -0.2457322854679544, -0.25657364587181347, -0.0630743967996194, -0.1518807291061881, -0.05931149156281772, -0.2185759898906717, 0.03953921916148277, 0.07863562739892506, -0.05786511775852238, -0.08398394218931708, -0.055057611611850896, -0.07133358744131593, -0.06636103984426614, -0.16580600810597762, 0.09120293357309328, 0.02803741595053444, -0.2276489817974743, -0.22210627290659693, -0.08480041298129772, -0.12262316360893138, 0.07545305458679391, -0.14537217035632852, -0.1505537649399474, -0.04817684475307432, 0.10953517301598115, -0.010328714840707465], [-0.08070662520841915, 0.05054975163768026, -0.255956344004767, 0.1468604610565351, 0.05737129928120836, -0.17458998189980876, 0.0024501939097502194, 0.09446552519337188, 0.24075226330623567, -0.13053442149057426, 0.2384815238932929, -0.1332783827078661, -0.09934722661119391, 0.13407987289026382, -0.126401418015415, -0.23797674471206895, -0.24917896599415718, 0.18623630286352053, 0.20736750068889293, 0.1460484508456461, -0.1775205920329448, 0.23010760158614235, 0.15536699374574475, 0.05748999476652844, -0.18635334294274428, 0.01924737321598855, -0.024016774217137105, -0.10881570236633958], [-0.0038266475770991205, -0.12309271325703192, 0.1241561672601944, 0.029650986923805356, -0.260303661591684, 0.24207239323538365, 0.17772262671696598, -0.1866591276287682, 0.2425542080126909, 0.11096965893967578, 0.22711379659077155, -0.10808647001506606, -0.051990210683787175, 0.1691611485401628, -0.22297641597272513, -0.16779096957826808, 0.1854536293499981, -0.24526213311356515, 0.12624485326164164, -0.20444603918112733, -0.20565665944304357, 0.18949032123990805, -0.1963163307597569, 0.14547834418868263, 0.18331741751236452, 0.26657124290349643, -0.20418090009114642, 0.11120817535346061], [0.22615775890185397, -0.017159053662049888, 0.05387328763319671, -0.0585999590211031, -0.24053058705330432, 0.25926782334205656, 0.07756430336913095, -0.058517248699848964, 0.15570516289964667, -0.1445367621601332, -0.26304806780472756, -0.1269916883493884, -0.24599912085094938, -0.08290304710315301, 0.14530290912414284, -0.24073205795541236, -0.2660451780762114, -0.11132456955753457, -0.07109702186105685, -0.04537449693130543, 0.22144369302277844, -0.2242260062864005, 0.026075358700292157, 0.16548259889245986, 0.03738077504653142, 0.24784817909707116, -0.05919936762467093, 0.018964877173542616], [-0.07533339225914608, 0.20376037726845453, -0.1375289364813647, -0.25759494313733905, 0.237944289096792, 0.13105157126523456, 0.19393539976668753, 0.11585624538981394, -0.02896446709627606, 0.25236825947380626, 0.17493776794016322, 0.1787584444481291, -0.07680225726809042, 0.20330437359408404, 0.10454731716168797, 0.16690114817043766, 0.11441830614380805, -0.11415481079082383, 0.16758524451729065, 0.005777380805239376, 0.0029986055090939776, -0.18036097323709796, -0.04285146082527077, -0.16708082281031966, 0.12945601743002666, 0.17371575300022857, -0.1388985964891977, -0.20620603925930575], [-0.10152002822925296, 0.2065313416317516, -0.013796380610907655, 0.03644073195313541, -0.2132934163218484, -0.22919725794646806, -0.16186225306319008, -0.22214575898977218, 0.20385600809299356, 0.017987989381763936, -0.11866564364972396, -0.2243094092369388, 0.10332401413893133, 0.10246473985514362, -0.23148570265914833, 0.2087584316051612, 0.2296783643015899, 0.0067696617112651195, 0.06010594205830573, 0.22377552024310976, -0.03336830179579601, 0.19810526024141933, 0.1895201355037045, -0.043828923566054265, 0.08110781159176511, -0.17153733654709483, 0.18745284123463257, 0.1729747823883014], [-0.2560974697803985, 0.035171915502877266, -0.03717870406331558, -0.05546499638817601, 0.12988517718840187, -0.06121190249791823, 0.11762258172645383, -0.18050055938771348, -0.10581111653680504, -0.20929275014532045, -0.24569068133832936, 0.14772961032986678, 0.11133540217802979, 0.23472045788195253, -0.0710271437269861, -0.009468990324422834, 0.25647683907156427, 0.1505678692545916, -0.25048664999298115, -0.22890671361706855, 0.22786796720171906, -0.1720938105002462, 0.11332008279501467, 0.09756929537827265, -0.18910653670277636, -0.262123459998628, -0.21769894760980013, 0.07097191958970574], [0.0021525395437134542, -0.14434477983876476, -0.036715877540093145, 0.0028223394527764345, -0.21366377718557672, -0.1345469909957252, 0.029858485641487662, -1.0312458457604205e-05, -0.11725714551863343, 0.11383830835410857, 0.16076723816944724, -0.2226455533405294, -0.2211918258066835, -0.2476519502508761, 0.21413722258721635, 0.1140703792179358, -0.12406641184586958, 0.10179404294242776, -0.0789174712987637, 0.03407163408015626, 0.17349143801276898, -0.04471539237613947, -0.25383360921370474, 0.02725701987992438, 0.1815827768052225, 0.16690648123418197, -0.11696320072406344, 0.23781942017833912], [0.22124946182721675, 0.06684751669442401, -0.18215573403854862, -0.032436260617074, 0.24911614085235412, 0.046065575291322214, -0.13360755106269434, -0.002122783824525397, 0.24082584419694036, 0.09388132894234236, 0.029129235819063928, -0.10165793477623829, -0.06704530016843539, -0.06289274287272523, -0.09916203882120411, -0.2501486114143607, 0.16215325898707794, 0.005142878924018157, -0.23630443805643392, -0.15715800300712152, 0.1949110639815038, 0.16393587853391034, -0.1899594852220379, 0.21059294299954, -0.1750519529035589, -0.05060700950737926, 0.1332423461682089, -0.025495932859394416], [0.11386750328784612, -0.16111235889170206, 0.15735071730681593, 0.10851200473638778, 0.15014660625688153, -0.20056760908143234, 0.21142698689287215, 0.24667751836515078, 0.25404145653457905, 0.0828858655026864, 0.07006724651814562, 0.2677443560196384, 0.2524318343082628, 0.01985610436466323, -0.1098977180047278, -0.08266105464551629, 0.1990185234017802, -0.2052863331082532, 0.14053134653901295, 0.007155655835449248, 0.15092743095500155, -0.2545557832890161, 0.1134781280576243, -0.18214175511567537, -0.20560685947242244, -0.26352715248290315, -0.07078734154556021, -0.25507232506281335], [-0.24108202329096173, 0.09661260288250792, 0.21860453325689633, -0.23088881349955873, -0.10676345564484384, -0.22656334076978954, -0.09189361767530758, 0.02158857823603777, -0.04351255434031073, 0.2644778967595375, -0.14847821047371898, -0.1800688359421959, -0.0524013005456754, 0.2537653400335207, -0.22734091886173302, -0.20694865521000505, -0.14258114208738304, 0.23665262026159015, 0.143949136668526, 0.22071192605006715, -0.168409120556756, -0.09807739814973443, 0.12535550807590862, 0.10277078556132219, -0.22614185671661793, 0.17774391323207334, 0.20494306527360556, 0.12400164535995956], [0.0783632496147915, -0.08015559033648795, -0.1753503354571907, -0.06178414689364553, 0.14395331140919992, -0.06571509448940312, 0.0626140773046491, 0.26424912515063403, 0.2651480001873084, -0.11098249846505454, -0.06323176204659034, 0.18601214952371448, -0.09127268289861928, 0.07764890048516926, -0.19127870309007797, 0.06042118242399861, 0.1502261087345326, 0.24607275408452842, -0.017246873136877616, 0.02029432295924327, 0.18870244621116922, -0.07010121948653555, -0.1327140362469078, 0.023879839128168098, -0.07897998434436182, 0.2291479161071444, 0.11835597028217204, -0.066131766569405], [0.05534619601351792, -0.0537500314290816, 0.24273069907384603, -0.23663045016797846, -0.011659328449241897, -0.08001767764459866, 0.19792527727924805, 0.047246573988740645, -0.15593227973090745, 0.13443870586582946, -0.020571878333195084, 0.19098629198247913, -0.029736372316533234, -0.179095404533321, 0.25572191820585666, 0.24243112787571608, 0.17612142788679896, -0.2028339692460652, 0.10724696740107258, 0.19234803855879523, -0.04442538818762448, 0.18287739959276378, -0.14314927458407878, -0.04350022315294305, 0.25226548262107995, -0.20731851375152674, -0.13102050146543653, 0.0019933342701769496], [0.17481311625421048, -0.013516209143150335, -0.16131074060205636, -0.002224130472200103, 0.10165034236095932, -0.004415988851607544, 0.21358257469180325, 0.05335703767449137, -0.06246810131824934, -0.21445183066376297, 0.04092281164264218, -0.24803485066277176, -0.04030185402642316, -0.10792347863842515, 0.13737006588380596, 0.2159312745142189, -0.06272562342163943, -0.16530930026903512, 0.02779224724591583, 0.01160190592801996, -0.2037490094848622, -0.009477272423137728, 0.051605629765225175, -0.04952285667866649, 0.18497814226953518, 0.13498023755884375, 0.2323970621549728, -0.2520828793254453], [-0.21348450208310973, -0.01502946417001632, -0.0019493069701965182, -0.20909352868077785, -0.11541818933157405, 0.04257952317794618, -0.11992260618018075, -0.07957028077122527, -0.20386756904158296, 0.1008680473022578, 0.04338016138692873, -0.2311729703235466, 0.08970697372985113, -0.18324797974517795, 0.22815866492423614, 0.2371700562858936, 0.11827062817284847, -0.18145480146041396, -0.22329796263942722, -0.21197237854019788, -0.058778282568951803, -0.08158437334858701, -0.22793360998308881, 0.09106471674151106, -0.2261491921972204, 0.24412730244546965, -0.26497077775136463, 0.12151130564129581], [-0.19538994130746834, -0.11025272134768457, 0.16843823582307998, -0.2530040202519434, -0.18494637786837748, -0.0933360892719197, -0.18944525775886317, -0.0008910771799777389, -0.007764884892348754, 0.009566748395383637, 0.02483391111236425, 0.015297286097086466, -0.15766923022259635, -0.24722107445642072, 0.13471633552344697, -0.1721147586410472, 0.12757518271288368, -0.021695964753773944, -0.14259997593781898, 0.19431200426479156, -0.20816241321761633, -0.02410108627243318, 0.19313056732932343, -0.24011539591954661, -0.1217481537189416, -0.12189681286173337, 0.13896212757670484, -0.023343076588239975], [0.2120743177302477, -0.04745487924744096, 0.09516508782407895, -0.0015966144031544505, -0.10121269636785382, -0.1332434196128238, 0.044486331733709604, -0.017552730939990425, 0.255859686011049, -0.17891153098191281, 0.025740283584292582, -0.08622903503166005, 0.12388685998960962, 0.09197903366684507, -0.1348276782073067, 0.021413076168240508, 0.2253741257559571, -0.10639779542370355, 0.22454166923506585, 0.20599186117102114, -0.04053130849203579, -0.024363707971702397, 0.1344965105313424, -0.12891336189975883, 0.12670936158021906, -0.055983162412762924, -0.0306881621283161, -0.1515018125411523], [0.03862071270294409, 0.25682160082144934, 0.0600206946611917, -0.24600589138709741, 0.03095351934383544, -0.14185142786906188, 0.23941839276650745, 0.10890367298277437, -0.22250665067544842, -0.0013121607116202139, 0.16393345177028804, 0.20897900568790423, -0.2401616810854117, -0.21851549025832517, -0.23711553677798575, 0.02721871119847763, 0.07961531839222125, 0.21096611075305682, 0.045382006895222204, -0.17064778271908249, -0.031009967293788576, 0.21816802751461062, 0.07241923569088624, 0.05581280864069632, -0.1119503098434472, 0.16855584202399723, 0.12275116896410121, -0.06747558338689355], [0.24264872830753234, -0.1585239347611798, 0.24987294744510147, -0.054215583943278634, -0.19354922551168854, 0.1605102666720616, -0.1635347806198196, 0.09224751455275713, -0.0759105426363214, 0.14295549729366702, 0.25473769302551563, 0.10142587552053582, 0.18650381136669106, -0.25067347332615914, -0.05686722757006249, 0.19056645104360526, -0.17473754394553492, -0.21826003184711915, -0.17675943587253723, -0.1635691984840728, 0.23095074938393878, 0.05850892932551466, -0.1805487769162173, 0.21522916299012787, -0.03347783246261668, -0.1922086000113083, -0.11639234028052803, 0.19733377106899275], [0.07210998406798189, -0.045952168694682036, 0.2107405687850405, 0.17307937626450592, 0.11795690578580866, -0.24309830685781275, -0.09036796443308993, 0.022048879003278628, 0.16082881579886793, -0.19014049660316443, 0.21281939301103422, -0.013041148255259736, 0.05168017480222953, 0.039539920880584604, 0.1691906208842831, 0.13190664976171157, -0.22010639596846526, -0.17323478571863685, -0.1741685702705482, -0.2671263101186138, -0.06328182705101763, -0.2304512667719735, -0.09505613302218395, -0.008790568484991823, 0.16556746280298218, -0.1158270367786746, -0.2513177125082447, -0.012937423816296811], [-0.10294359304201503, 0.014275379573749247, 0.019362797954553534, 0.15412414789227513, 0.13904332249923673, -0.03893348423164442, -0.09322551632543934, -0.05101944209836554, 0.22157334835171333, 0.1195012473142949, 0.14244393049163878, -0.21315538650365315, 0.13728065541362222, -0.20764702298424267, -0.10715447128110878, -0.03196292336331663, 0.00980608787475551, -0.17141595788545752, -0.1729581198635703, 0.2422240319376059, -0.18281306226698837, -0.15459333086550298, -0.19770085609925486, 0.17666139748936704, -0.042020154764161266, -0.15672598647261116, 0.17064444957531777, 0.07118944998324608], [-0.12141827060194876, 0.1653434975950091, 0.058711478724950694, -0.15173516619846283, -0.04622183907291096, -0.1348314689708018, 0.13886843209166225, 0.12265169389485643, -0.26313083676637933, 0.23001152853651727, 0.1344041980505261, 0.24403275111809028, -0.0997392038437627, 0.016577569103182255, -0.011728808367706955, 0.023561571680174316, 0.03809391068196832, 0.0945775530104118, 0.10512207363044274, 0.12447347486698035, 0.17112313590457362, 0.23892530854911986, -0.03043348155327172, 0.11617310464518592, 0.17843237535803258, 0.07310116986628207, -0.2563992970925553, -0.19988470773460315], [0.20431495831055943, -0.19244389792614416, -0.24967231104647025, 0.14971367078378156, 0.008187169310842691, -0.2525837781230787, -0.07814021056777933, -0.25419509625741366, 0.2521545620243938, -0.041491382892337454, -0.12719082130597203, 0.14608113106767, -0.25862522141799976, -0.10081108204556849, 0.07143603895506728, 0.2055493957476015, -0.0948189451912033, -0.024055973089012028, 0.10829578751825936, -0.08027594838545751, -0.2058571035479335, 0.12737077605860997, 0.07210393155710709, 0.15216986821619727, -0.2670674100100896, -0.18044740354756306, 0.10258395615646115, 0.20811033089895126], [-0.2428316203245995, 0.11416501917259125, -0.059577230663929115, -0.030578413665751036, 0.1954289961005461, -0.007959982898340129, -0.13851281095301735, -0.07652577929249037, 0.26599133471155423, -0.08296332665901647, 0.10262495307519895, 0.24079961257991392, -0.13952568782801014, 0.10161335559252632, 0.10954645033132582, -0.000895258772006448, 0.020520579115910303, -0.05490190097429615, 0.002460453787288319, 0.10812075675160554, 0.21801054223824795, -0.06232713979682647, 0.22744028670446276, 0.11782139139770582, 0.015602827597751168, -0.2242232466475934, -0.0937005098648421, -0.17338765648560536], [0.25052962886714, -0.10554863791058758, -0.06035676245528471, 0.17280541074451394, -0.08139228221980369, 0.22869910908477123, -0.027550713533762983, -0.1506926720388469, 0.07478797336148083, 0.16123088771717606, 0.13886353078238337, 0.21428517921105072, 0.03433497234316885, -0.03523437063429377, -0.10208736724828008, 0.13358265140999187, -0.14489741153591776, 0.0053123171115533885, -0.12145003384660882, -0.06578123423644283, -0.03713665126980586, -0.2545806574840405, -0.07168708201996363, -0.15372162948725115, 0.013007880316156684, 0.14139998153706212, -0.19987773301295558, 0.19952403994879686], [0.20087086743160426, -0.15875404407111854, 0.14998683776261856, 0.18266423253125202, -0.040300288613416495, -0.10537110535613547, -0.0842298502932673, 0.06974616514395739, 0.09246431961868563, 0.2441471381412658, 0.12272795046066853, 0.03069305152286263, 0.0456094988169961, -0.16914705437076036, -0.13394576831648172, -0.22102154803601762, -0.24652898721815159, -0.18629405283069836, 0.00941110641950832, -0.23305600080392716, -0.02575712573242373, 0.14752024770314848, 0.09644127445796191, -0.11668852611745742, -0.08154570782247866, -0.006271696900287893, -0.12928456337452776, 0.1435541143327439], [0.25886156883400413, -0.06272336809020598, -0.08616093259028734, 0.21450744547091116, 0.03920665591462364, 0.006739674624694679, 0.13514190745313692, -0.07859727792415865, -0.0431320732768008, 0.28033393278936053, 0.1785300669595768, 0.07376210333985611, 0.18946219079635576, -0.16769821242130445, 0.015807705074361356, 0.21370339767504443, 0.040082446270874136, -0.12339033197498478, -0.2008346987289591, -0.03791972868087401, 0.23017890884799183, 0.1006368156304695, -0.12239472007134747, 0.050069856111557176, 0.21656440173736374, 0.20852271753899304, -0.2638624803959304, 0.17838391996505526], [-0.21154263075475171, 0.02995790891201494, 0.030557051767979293, -0.02249366714792908, -0.042366998057634365, 0.030958387947921218, 0.2412973046226269, 0.001384162492098154, 0.16768087530263, -0.01587448251233124, -0.02607356706366037, 0.22891329142810327, 0.20237712761365861, 0.15447039142865265, 0.25914079549678337, -0.008708076729229816, 0.1201981237194972, 0.1670163121383362, -0.2113538967267471, 0.17103828833849455, -0.1594619039392545, 0.19399830819129787, -0.16314541429567056, 0.2234209848691334, -0.21540470784829654, -0.20171142955575183, -0.19015018235804687, 0.10841832275305549], [0.16066507555692733, 0.2696865376136954, -0.14567895591840715, 0.22100769744040238, -0.03834088315016623, 0.08490451763330789, -0.03420781210974556, 0.10810683590213932, -0.10001359907243913, -0.037044379976218705, -0.04473038839377409, -0.1616360474629955, 0.00081824893450805, 0.2292449980279471, -0.25953406536277324, 0.171892681812736, -0.23316963432467053, 0.23353688981563522, -0.12934287643991907, -0.19023582983278978, 0.008468696537754932, -0.1201597886162244, -0.06563552067006792, 0.027863550569377653, -0.26702583660735124, -0.19667880276213195, -0.1104692235332882, 0.21048786137941297], [0.12502897612151234, 0.03822551382156154, -0.10513178329792855, 0.05027942162150045, -0.08864933896303046, 0.015689550496597524, -0.10604030129591825, 0.0026060098616205265, -0.24107571905011654, -0.10923946268936152, -0.08616224077382816, 0.05183444977013021, -0.25120541258375706, 0.059316195448915275, -0.21524639746341112, 0.11157810117255249, -0.08862513010410422, 0.06856732563041507, 0.1835747642299799, -0.11470928408009082, 0.015857850395865902, 0.20970590976683617, 0.2271279990670561, -0.12549444391299366, 0.23586258891673773, 0.03661787489175201, -0.19505692003978936, -0.2309487238248118], [-0.13177777438486674, -0.23584693427519376, -0.1353006066341595, -0.20842931241878176, -0.018784679705183143, 0.2652360877436141, 0.13138826421601624, 0.06731963685325118, -0.21481299851412855, -0.03381520569254773, 0.19718540790233263, -0.0026402551145884518, 0.13455127448770107, -0.05539334520090117, 0.1449304561843427, 0.22117360647667814, -0.24076504868096293, -0.004955460343652823, -0.058979658516429084, -0.21540754795261824, -0.24742157588585373, -0.15566536622219662, -0.1511953222619927, -0.08616005320210886, 0.25534814754540436, -0.11597739511395588, -0.08451900871451148, -0.20051107559582518], [0.02823074883012173, -0.21720936820079173, 0.07724809838885632, -0.029381035511382048, -0.04476268559324665, -0.20446775623170438, -0.1932257482870929, -0.1784025839614919, -0.18413600721746007, 0.18784455122416654, -0.02482535315668581, -0.04226413058584879, 0.22137454383438568, -0.17363010060690062, -0.09019700338215689, 0.23724090274168752, 0.06226003194596164, -0.0695185663623436, 0.05817128680441819, -0.20924316298408535, 0.12184437375175677, -0.19543695649048926, -0.0667830435507897, 0.26253214791617907, -0.2546828104246899, -0.11552524153883029, -0.08956196529259561, -0.26103255759717375], [0.15097592389498324, -0.04281443117472908, 0.1727294602480713, -0.11041552303115199, 0.16826380499638216, 0.21142556059682482, -0.1748729792679042, -0.15391991473429084, 0.16690065373516388, 0.19960504032812323, -0.12771859535914612, 0.19524930489312628, 0.11518649091919665, 0.24055204545439313, -0.023532113814603017, -0.1796234338284235, 0.02494688061315838, 0.12140053901260223, 0.16553228515301965, -0.25678612990349886, -0.16437421722224632, 0.1424842478645793, 0.2369309626303734, -0.003341402024598872, 0.007060581709967539, -0.2663210945766229, -0.020374957001077, 0.05290218213989151], [0.1920157207118125, -0.03556232819302415, 0.1454992968832573, -0.25607971637415605, 0.022921788565423158, -0.136835364711111, 0.13161283450027794, -0.08146027299415215, -0.05468043733754241, -0.16636130708552535, 0.14239848295629887, -0.004304053903471322, 0.06999176278246569, 0.2424934206436564, 0.02383735205548787, 0.0803982436929434, -0.004020977053145949, 0.10513353730360547, -0.0811097287869017, -0.1614696104616064, 0.22492584241691735, -0.15373069490810642, -0.2541375363796167, 0.17157612639841247, -0.11686251853596463, 0.1025428368376025, 0.1332786778679162, 0.03378151985003264], [-0.18052430607688866, -0.21721687667835557, 0.06472378804518686, -0.14428797470290383, 0.14009633150234968, 0.175287477143787, 0.15039959233766223, 0.09814006332603313, -0.09539603231653399, 0.13903870681723074, -0.26407570338901165, -0.14694923735892337, -0.11073749411105345, -0.15685971645817645, 0.15545168170909157, -0.11635792814033111, 0.10095020586092078, -0.015139164792782489, 0.07400599383914369, -0.25026998814808177, -0.03491982299734444, -0.19054158369816349, 0.0976988303345312, -0.2574170992772491, -0.18456647123563852, 0.17814194204863887, 0.09554548335589408, -0.018964778597587467], [-0.04818008848704193, -0.10196381047086461, 0.0356907022410739, 0.002788493982067708, -0.1598289460909675, 0.11951411020286654, -0.13468418676755686, 0.17325404808786057, 0.2418587538004054, 0.030639705100422316, 0.2413164479696938, 0.02627445770766612, 0.02961488430118765, 0.20017868569323327, -0.11185801924593525, -0.2250190355614197, -0.06550713381187014, -0.19024884356428257, 0.055081538186566636, -0.1572488663743452, 0.12610141767362795, 0.05928626514095531, -0.19503057269570886, -0.17600778156776817, -0.2601747159347143, 0.09896484831860708, 0.20592426060373692, -0.07078536503970068], [0.08132405869885795, -0.128399845191926, 0.17767883245155375, -0.07703635931104474, -0.09853296416673796, 0.049552590609330566, 0.1139797286381759, -0.10127740088431723, 0.030634245972260152, 0.1481892344929231, -0.26070953491358173, 0.0713025877847421, -0.028671938757066022, 0.13144648381600216, 0.21276014257751374, 0.1786345092418388, -0.05116384984737632, 0.19149276135114068, 0.08824446348694359, 0.07138129657264325, 0.04001115647768476, 0.16199270841229596, -0.16780694627256024, 0.1586739885104507, -0.07048614473562498, -0.035149064895554166, 0.0024287284722729896, -0.15020253149344792], [-0.07171889922133631, -0.1650792100998887, 0.1994525218379294, -0.17236629186617464, 0.18469949084299064, 0.09697302270662474, 0.07859260600351667, -0.09098329690070382, -0.16002322044034353, -0.08434596702589943, -0.2176699178127602, -0.10040686815415145, 0.11008889538159883, -0.08325740303266106, -0.20809507714232467, -0.2393599740223727, -0.1016752051434441, 0.06589353263733248, 0.13737346888564467, -0.1813631363174377, 0.20098840478705876, -0.12246475506757329, 0.19243980667028607, 0.003980222346609885, 0.24261034374981405, -0.1252376263957808, 0.1464324635985113, -0.004198569254580453], [0.034099874248375774, -0.15195151205609062, 0.09112515229248902, 0.16350810086074558, 0.12504660206940002, 0.06405962151416293, 0.19933605678320637, -0.06099203287972658, -0.22817334071253198, -0.17272254330920025, 0.035323898377587135, -0.1959663998907708, 0.15973349843065557, -0.08169370207336393, -0.031969823817533244, -0.12965429633901293, -0.06580053708393525, 0.04113632431911995, 0.0067233978363961345, 0.03842773107441318, -0.05286098854875402, -0.19735332782984807, -0.020172671315478105, 0.09356762472935981, 0.01662508507876287, -0.08201686835722459, 0.05834735898983451, -0.23358290842727192], [-0.09771685168865316, 0.05776277059077695, -0.1646217345555656, -0.0846725793577082, -0.2532368382739107, -0.025719484237523377, -0.220637326385723, 0.2595036756997883, 0.20795590930725827, 0.19151831389848917, -0.19126267447266054, 0.08149538567839659, 0.2568137772189873, 0.09467919282259372, 0.14247162131894658, -0.15246546268889144, -0.21932299336239497, 0.19085459224583723, -0.05730228945267797, 0.16503239489651997, 0.06679532391705068, -0.08922158237660407, -0.03898696235266157, -0.24327224476638917, 0.22811662492162504, 0.05945771656447153, 0.15168657974284294, 0.014554002509438113], [-0.06825050973403424, -0.01769790572695079, 0.023780221559892234, -0.24135425385215936, 0.11295943287523061, 0.07418441326064446, 0.05014646766201468, 0.14951756338967997, -0.08549561105136043, -0.2131904065349811, -0.11346909127989249, 0.1685359648471294, 0.24108461955749297, -0.09900270786635493, -0.19586120617104114, -0.03978564826955268, -0.23615201890234458, -0.24495388822791575, 0.17243141859615296, 0.13277211531896094, 0.2075604013491413, -0.07837829799020601, -0.048843491410938106, 0.19432645067577312, -0.17355560473192122, 0.22074726577911352, -0.23783986184766884, -0.1235358469491537], [-0.1718848411035673, -0.25753900856341033, 0.17529922505234402, 0.117909641589451, 0.2630249007207838, 0.19879974645971904, 0.2505240041150583, 0.2089330674671687, 0.07710934253787902, 0.14426496155498889, -0.24520741501010415, -0.006538719914049116, -0.07604393308920857, -0.14046936459228107, 0.21900020544508875, 0.006856438105306711, 0.07659856859411783, 0.05964651899888361, -0.21103153522826237, 0.0788975549184674, -0.05594607229209506, -0.015399342519031356, -0.12988673391632163, -0.052150447251720404, 0.017691854290514508, 0.02013839773721554, 0.24039829659643208, 0.07491122741540743], [-0.005435406713494356, -0.03240346908033819, -0.14771453270148643, 0.18786571519544526, 0.21675215547094503, 0.2604171915866418, 0.18039071960108768, -0.1681629293552208, -0.21621261159464816, -0.17875815377886847, 0.1784180804563014, 0.2463803107392501, 0.16414498480117268, -0.2092162373016183, -0.07516657382501929, -0.03473780494539913, 0.20674476630702882, 0.0694390609553955, -0.00045738179360780835, -0.06758290298838633, -0.2294123964186067, -0.21713057035368585, 0.18822963344997748, -0.17744244677640708, 0.05058300546760386, -0.2357832490251852, -0.1661868166015719, -0.1982511631754278], [0.16486697264902017, -0.20072276325949448, -0.12104569529740042, -0.0682077341404996, -0.20555040896707427, 0.2360395127930846, 0.24779598549534965, 0.15235952548904844, -0.1393136582999959, 0.147077642722543, 0.26080314961791684, 0.1992027805998319, 0.0284507584873078, -0.07927260699207155, -0.2572426378973531, 0.08441217930930223, 0.18050806298673247, -0.17013154270969286, -0.06297305633209331, 0.2611436079610192, 0.1772851032474597, -0.23193592120114845, -0.12667711357134828, -0.18199674571822821, -0.15628699574495497, 0.06550217610029466, 0.13925828320478678, 0.23470128793254108], [0.0884498136740798, 0.11339156873528183, -0.06577653054048924, 0.1430269175686747, 0.18074835520930088, 0.20211592194933098, -0.13473071939921039, 0.03823353598216879, 0.05429587737879312, 0.16773353041362787, -0.028853999140718952, 0.2016137854811501, 0.034445665074487895, 0.11765596216225305, -0.2628280431835873, 0.07943821091263582, 0.25333020765846176, -0.2094590387135785, -0.022697695422016217, 0.06964801331376991, -0.09437589227539774, 0.07241440782289965, -0.21556336698428474, 0.25171632857923926, 0.20696113282427547, -0.26379123467668364, 0.1095155304454381, 0.24835274941243402], [-0.1964239100643823, -0.179880480278031, 0.23280347645907729, 0.22579494545245588, 0.058282325939656605, -0.25238273682327583, -0.17986408357272263, 0.1312402438772215, -0.12653027445905635, 0.23283899223123794, 0.17630498426898525, -0.12829352918313164, -0.164494690225339, 0.22391307494832582, -0.18257300725655123, -0.14332642844310994, -0.19811271245956905, -0.15713054103681756, 0.03210505124747382, 0.06599047867339082, 0.2282795055497529, -0.01534555099084145, 0.08161148457882195, 0.04276857849630483, -0.2243624643348226, 0.008996348075135238, -0.20615751689612866, 0.04598940589557221], [0.16835870537950245, -0.2171447145422322, -0.17848311123553778, 0.16316792781302691, -0.18156706645846532, 0.20823258293585248, 0.223048964737609, 0.232569204268388, 0.17738931568042882, -0.10304775844508633, -0.0534421571385589, -0.05517217936018783, -0.028043168405819593, -0.14299477440792144, -0.14739485819300874, 0.1816043034714921, 0.18729550281550647, -0.049243934495513675, 0.18870562527656592, 0.1068635180197452, 0.22028648188181388, -0.05083355270489265, -0.14489903793151532, 0.06036738956493953, -0.10612027269173041, 0.04391022442970677, 0.11908323340844429, -0.029420146162258215], [-0.2510411117846128, -0.1176359513612632, -0.21161308600927026, -0.1219782103374488, -0.10792475140373727, -0.21614995005954088, -0.1881234993993888, -0.22507700987229454, -0.19563344296478102, -0.12212781124805866, -0.06548511933545043, 0.0273142910566164, 0.2055201292626567, -0.24413243013813343, 0.08208430089892255, -0.09341326430709153, 0.12078195205418912, -0.024074302954898916, -0.07191352980139731, 0.06908631180236519, -0.003177671405569724, 0.1615887787528516, 0.26301718597226864, -0.16051057954960826, -0.049996379140835046, 0.24611024191024433, -0.2184193012502251, -0.0706602166599506], [-0.07963897978775049, 0.16644560281773718, -0.26634319709275206, -0.08944400215050088, -0.2427883519077978, -0.18122181007658306, -0.07786186958507804, 0.06425402492305123, -0.24387080562449687, 0.2253621859312096, 0.11782407785363677, 0.13013310362115704, -0.23639649780142838, -0.2050814774933932, 0.18294073416251883, 0.1370991769621267, 0.04888742207455877, -0.20252464918608556, 0.18602668086132212, 0.19089985608909993, -0.13957866102001082, 0.18314186623071144, -0.24272071340365944, -0.07087841561717056, 0.1341676602129777, -0.11251107949552261, -0.06032459487539643, -0.15157627341265756], [-0.09953550901199562, -0.25698234261680675, 0.07279656448409738, 0.021039041347169496, 0.2303331755760875, 0.15718089426721954, -0.13012045165565642, 0.19265112952282548, 0.10816391052790669, -0.14107415878480956, -0.07393955582024121, 0.013858597587262045, -0.09554097633743983, 0.0026421415521012946, -0.19027115850403586, -0.16213116957664392, 0.15488878150890312, 0.2310779858952243, -0.034430322911234365, 0.08485429700756493, 0.15595679437197973, -0.14102279044318242, 0.2235689815647582, 0.09681950043392296, -0.14522982322233202, 0.05171554574265998, -0.10637680601020821, 0.1292715300385912], [0.012834237835760962, 0.008547514715134874, -0.25528653531385387, 0.23817634906472385, 0.007962610625545439, 0.19061811422558322, 0.17457266735439814, -0.13743394418097532, 0.24774901912564515, -0.19185939074739636, 0.1630360555882588, -0.14439905113925425, 0.12509742922396463, -0.14866504753156976, 0.01777673000624813, -0.25227069699726723, -0.05915008845116561, -0.05345989891184268, 0.1426661780893581, 0.17827364132818702, -0.08232270992764948, 0.043293685356192046, -0.020697449526748624, -0.2026636199875701, 0.10292767880356135, 0.09784230310383929, 0.19878134550562876, -0.04586726308871106], [0.014933859897552894, -0.05000101540433752, -0.25854834641001306, -0.09394409149848787, 0.18295250774739796, 0.21870669390304173, 0.19997952103818295, 0.1620852737112139, 0.07709457532062683, -0.1894531087861709, -0.22204481395272088, -0.09486935787800987, 0.008600264359825202, 0.02916235132817202, -0.07985696606150972, 0.17773989534388407, 0.038649768354243774, 0.12632658652435785, 0.08352106545339466, -0.23712205554289056, 0.24643248134078632, -0.21888590529295424, 0.245843577850691, 0.15890393000688513, -0.03158151769711878, 0.14429775045056842, 0.08076230047173028, -0.22140203862263963], [-0.07484525915339943, 0.2008347087406699, -0.20733951463481118, -0.04950217413006758, 0.1297464078829621, -0.1584590421242793, -0.12776098381944226, -0.03189085678699837, -0.15776811780713085, 0.1608575523788596, 0.17445512376915648, -0.17886187134918613, -0.17905931880666945, -0.08643425523406335, 0.18434157714971056, -0.1781528933443966, -0.23143439554765927, -0.018749400776129445, 0.256431790903884, -0.014492899794262295, -0.25310653054301563, 0.17340177175549093, -0.11976777876920287, 0.036698498951899916, -0.19011107884158224, 0.20246503980294528, 0.05598533563335789, 0.004928686161884854], [0.06999892593339344, 0.22475308528338214, -0.10410784059621847, 0.21217591747984543, -0.05667872940058638, 0.05508686580324781, 0.18962841101853287, -0.18958940617559392, -0.2628710388204882, 0.054556148909413495, -0.18870084111616697, -0.20358452139660668, 0.264261188284565, 0.04804588107438719, -0.1543427122868168, 0.15367814612820024, -0.010181545718456156, 0.22678560052354607, 0.042662550754351054, 0.05982548380202208, -0.12652809378539331, -0.17033798855436938, 0.20615810127039202, 0.07006754398159998, 0.17768703868884345, -0.25394414390690745, 0.23266444149741516, 0.06916494786708377], [-0.035898329644977536, -0.2143859915506049, 0.2167624063501718, 0.25501334715316004, 0.19959736443130544, 0.09670258756319684, -0.10487440806810669, 0.07424317433031496, 0.011035908920176618, 0.09641876520028718, -0.26618525651385155, 0.22758206426243932, -0.11764297973004745, -0.17849873539746225, -0.23534998735618146, 0.22184047299277299, 0.09626651425498334, -0.25609743367900933, -0.07637394730000333, -0.23730938618364059, 0.08875915853137205, -0.004212032464244231, -0.22160336895676971, 0.012004341923295414, 0.18427962036361095, 0.08496760216111077, -0.21426638702251258, -0.16143784907289654]], [[-0.30406195548377757], [-0.31898660125570705], [-0.21014134320224456], [0.21789917203216608], [-0.13327941348935674], [0.07642266378656394], [0.42472734437456183], [0.19553661972987713], [-0.18910659448863146], [-0.49307734683525123], [0.11168099101584333], [-0.3921836567359301], [0.20542813104630964], [0.3203306890178973], [0.3039988841431069], [0.14337725593767123], [-0.0002728365579074511], [-0.11519879596599003], [0.215806733433855], [0.30735216430476864], [0.37348171068879077], [0.383384087352681], [0.13504108235724585], [0.2834200814133869], [0.4057514397688882], [0.43901382346992207], [0.36849451668213534], [-0.05690196907516708]]], "biases": [[[0.017501549567269636, 0.00330858817592888, -0.0068873669632835725, 0.0055237819017138635, -0.009839597029623672, 0.0007483835799617882, 0.004438720321975529, 0.012778234341036806, 0.005263441726978901, 0.004565404327528961, 0.0059090946560468255, -0.007353459669849852, 0.0018115727246635473, -0.001420584565605753, -0.007416172586075536, -0.008042268166855033, 0.002719378514783166, -0.010162508836063797, 0.0010662655396664555, 0.004083313151257223, 0.005560268844839409, 0.0005604184287388638, 0.00724663661349069, 0.01654994843095634, -0.0028701702231798956, 0.017479594265453126, 0.014319264939239544, 0.004057001665072788, 0.005946750576852078, 0.011049758612511309, -0.002120513876287767, -0.0009881383995236272, -0.0017737443777268915, 0.026337749378832202, -0.018694615946606628, -0.0029020853763398378, -0.006656930962606985, 0.0017264174376872318, -0.015129296090194472, -0.02133252193941535, -0.002805401158325009, 0.007474562538177739, 0.009274789465390544, 0.0036757530321723554, -0.01890817593430117, 0.015261873032340178, -0.011710392484069736, -0.013300107029657327, -0.015477162574764286, 0.00930562117123274, -0.0021571350876283166, -0.011397933809048537, 0.009570913157019006, 0.011757645659939076, -0.004420052943121419, 0.012294240078202758]], [[0.015435299136373844, 0.01521641975373832, 0.0, 0.0, 0.012798597432703389, -0.004397618886480792, -0.01353225630360701, -0.008036759625793163, 0.009311043379243614, 0.03851797205464847, -0.016868080202303987, 0.019453278298947163, -0.018703346584094636, -0.015448041332896649, 0.0, 0.004733943404852269, -0.0025309121898185005, 0.001610813482331243, -0.010559189237906715, -0.010578949271078743, -0.02132831640425572, 0.0, -0.006577674000040193, 0.009430818863380014, 0.0, -0.021162396186189064, 0.0, -0.001053070352521943]], [[-0.10250207487352019]]]}