{"layers": [28, 56, 28, 1], "learning_rate": 0.005, "weights": [[[0.2368339046373471, 0.01231472919057508, 0.1996782803537306, 0.25876474547698836, 0.10904390293129063, -0.06586808617060988, 0.01876261349055508, 0.19385499537263023, -0.0746066076346645, -0.201109340974397, -0.0956170634642626, 0.013077845084313866, -0.136427443810693, 0.2392111783291221, -0.22370496262605194, -0.14075057959232956, -0.09539946033261362, -0.07105121164609665, -0.10558901456585013, 0.02698689838524998, 0.265805241882497, -0.25812688715565724, 0.17016467267712843, 0.258430901160994, 0.16394103357336193, -0.2182486934064093, -0.02652135229928182, -0.03769569118470073, -0.17383936079404116, -0.07606352656768614, 0.1334859947646332, 0.2400545056839417, -0.13845684566968194, -0.10886443913770161, -0.04895499039690268, 0.2590809954843365, -0.22562032188276876, 0.05420067234222453, -0.18941328947294164, 0.11791386329292919, -0.02919873832720246, -0.14531636822234045, -0.13881633024017792, 0.24302009764419186, 0.17427025141795766, 0.23419103069305558, -0.09019698825541311, 0.2527432483617844, 0.012099007772289783, 0.17567267284592586, 0.03361174692276192, -0.223221932097595, -0.09123819332437963, 0.11953070586207204, 0.04055303705273505, -0.19538928254308155], [-0.15228047535025832, -0.06636240325181572, 0.04157854329866584, -0.06404335251772544, -0.11736012098900603, -0.21145197979818492, -0.1478902641635504, 0.07444149459438015, -0.04329513081525674, 0.11230681300242806, -0.056184267281219974, -0.1326670117899877, 0.19843278395058278, -0.19931069063700407, 0.19471003359131078, 0.26713521513006844, -0.031073565027662453, -0.07609329383369487, -0.21511308040318133, 0.1407887900623599, -0.18651529816018864, 0.11678889849816737, -0.010478561427884281, 0.13698869666580937, 0.2017963844240569, 0.052266348352770164, -0.01505120415355038, -0.17416708272298087, 0.033967390145291876, 0.11801825957837686, -0.16399495434162656, 0.06767415141578881, 0.24117433085102724, 0.021396886496783174, 0.17583927613541184, 0.005213499088182916, -0.10085847073181958, -0.09154311464274995, -0.13752608475642739, 0.1610578991118723, 0.02109044875950844, 0.0701079095104441, -0.16471238827848486, -0.11415818946328918, -0.038491573382234356, -0.026889387462759234, 0.017556484282471307, 0.14219039067778505, -0.17282508888919332, -0.09315349947261539, 0.1661174702246443, -0.21254450054772842, 0.08733243872668112, 0.05592538512613232, -0.14563271034900904, 0.16766086899403604], [0.13875512679465624, -0.1855566426875158, -0.03302759240807995, 0.04042774596131277, -0.19810326517953825, 0.16521982584699746, 0.1496559501895734, 0.03028693234217228, -0.11834603705234936, 0.12170983543685138, -0.15639712091484081, 0.16910630048341202, 0.2374986039282525, -0.09093621716938174, 0.03955071480793143, -0.04141328692425972, -0.11263745192434033, -0.1656018918836555, 0.1724131904015892, 0.07107508030378817, -0.21437681046678272, -0.1758758545281457, -0.22318362675331935, -0.03123221985828306, 0.021264909793787923, -0.1489933185164149, 0.1559199221062451, 0.03764625984406217, -0.2370937332838975, -0.21729529919192736, 0.1098437394721401, -0.23738502437957756, 0.09233634144899516, 0.21815529604175604, 0.25954943822420007, 0.14024009904847506, 0.15358935769735255, -0.014277386867121322, 0.1427642415221142, -0.11125860880089902, -0.008434796142446521, 0.2496101124102812, 0.09947483167681737, 0.024528564091426175, -0.03641597089593496, 0.17805118544090243, 0.03790406435471955, -0.012288891466256002, -0.16137184060200885, 0.2292503124498229, -0.15345702364223995, -0.0977935471431956, 0.2406466279734768, 0.18524030847862605, -0.24351309703576984, 0.26136022509282086], [0.05611064946833647, 0.13316442856665098, 0.1836177632835488, -0.20824896801386614, 0.24822701714923268, -0.18476458446585234, -0.03237558809132807, 0.25265794080777987, 0.19935711617408267, 0.20900956445072824, 0.12233183806347615, 0.0474113119795756, 0.1018863440076188, 0.09824465508259099, 0.2572910952514982, 0.07468303668006748, -0.07321050534942297, 0.17322577680270862, -0.031539967561036344, -0.125864109086173, 0.1141918023128406, -0.15465985787169845, -0.1983377072488845, 0.1995564810096182, 0.0004177506608740036, 0.211034223474917, -0.14503531824062962, 0.2643373828568178, -0.18788623585949732, -0.2965785806520842, 0.006072284401650626, 0.14355674196646037, 0.02937986936800551, 0.19222071265717963, 0.042570284628987515, 0.13273897627483225, 0.23700200478207836, 0.11489438858471587, 0.03278301779488551, 0.046929800876539494, -0.14909896901613393, 0.24729235146931783, 0.07025029023615169, 0.20285397882849776, 0.16998021587709583, -0.19422691098257222, 0.22730743639802334, 0.1079923251983213, 0.26326618949371244, 0.010603969153302287, -0.19748246704189162, 0.09136814437189354, 0.21587331753515893, 0.18507539242704873, -0.19958732023748632, 0.23418292295341933], [0.14654797623853966, -0.11505665189396827, 0.2469534948743106, -0.2226256600858716, -0.23024278933663253, 0.21628242180698384, 0.14629344176315698, -0.0730267662354028, 0.14130593893722396, -0.07785426363129842, -0.21600384332566017, 0.05640273009081315, 0.12190816492492258, 0.17277747115513234, -0.22001042215371477, -0.20168634463985874, 0.05148655181107898, -0.007357269666933993, 0.1530352963570761, 0.1269792783685118, 0.09706528351942098, 0.1335437058664814, 0.20620061577813759, -0.21154485068447693, 0.09599056422331248, -0.013926569761105123, -0.1128120282585907, -0.24441355182118035, 0.2158779309708277, 0.049748471360944437, 0.09736043935405798, -0.19203433575634848, 0.013585805418999074, -0.12946792778589997, -0.12925649526442842, 0.1175133096098614, 0.2437417670292452, -0.12204028633661856, -0.10356009977985377, -0.037174972296520774, 0.18299801997865336, 0.057531091912741396, 0.1965417343904523, -0.08185991705846908, 0.23933729195132925, -0.10432096022756285, 0.17006232308929722, -0.09215175543440499, 0.05880185598419036, -0.10588261789367469, 0.12025010202367772, 0.20352948315294153, -0.14181054325822123, 0.1690249250161649, -0.24078603843434518, -0.033355055717985], [-0.15353424115053593, 0.2463273763019368, 0.09925906728175365, -0.22281415194297424, -0.22417763582363925, -0.08848883001525318, -0.23845308817909627, 0.10686393880887707, 0.12383404399366976, -0.0033383678285372476, 0.08100786632872237, 0.15250470858831283, -0.047310156959133126, 0.009792433958067004, -0.2598949694244024, 0.09170155536470292, 0.22361715965162232, -0.14126964776508097, -0.03595050542375783, 0.2664171604270108, 0.15771434360777553, 0.20128467167447878, -0.106607304046724, -0.09028876260809271, -0.24712763227646253, -0.08200726902892627, 0.033098796176962264, -0.011868137039390048, -0.07531298452148125, 0.18906436746552913, -0.09287755039171494, -0.19403051579189878, 0.25154120143787384, 0.2216454841634784, -0.18439114350409752, 0.12419967068738508, -0.21927904992672012, 0.2374840472264168, -0.13266927364681153, 0.09518853205323247, -0.1063807633740878, -0.14020535638627915, -0.004963027874680892, -0.2380369107216805, 0.12783131450469581, 0.20748903604064944, -0.05565602422824911, 0.16530694789958972, 0.021782405759604995, 0.08586326756794194, 0.10554546561048034, 0.22712538477585953, -0.023588784827318687, 0.24793809402344202, -0.11485989358523474, -0.09165128411826443], [-0.15064501232158614, 0.22448745137189313, -0.25451123571601525, 0.25174643241243566, 0.04714694075467646, 0.1577148868270784, -0.2648802418850361, 0.13219412964923521, 0.07536893454026333, -0.19309338411155752, 0.15187239670515668, -0.19200262934129825, 0.13392785375610283, 0.24654028055079036, 0.05037147009641396, 0.21828196139656136, -0.15557434421948058, -0.15825672121604176, 0.20167045594115124, -0.11677739347175253, 0.19971032756054324, 0.18942172287526204, -0.1917402166534506, -0.15855609837595697, -0.2614008920083119, -0.09879452827269022, 0.04826855585791978, 0.06911813617598372, -0.07297709359085788, 0.14592170762635392, 0.04321498724635553, -0.013294889253739173, -0.03323754213882804, -0.09447111601846217, -0.2058545265366926, 0.13861415974917707, 0.05096025027903506, 0.12112709788988407, -0.18049780796167597, -0.012291604375554321, -0.22927456047183195, -0.23238335449146805, -0.12627011145817177, 0.09700021546282361, -0.034011331808413786, 0.1318297107015678, 0.03371600474782116, -0.10230638407883111, 0.02903057840679424, -0.18437902932327171, 0.0049928246967158585, -0.07452567808183841, -0.20535008251571793, -0.21473799670829874, 0.1320731810587309, -0.2649698757422994], [-0.044129009366366406, -0.025618993629847653, -0.2626532995041789, -0.027443541189388132, -0.08403666903862642, -0.172538747112568, -0.2262234621612414, 0.08631444459260246, -0.013119725509506963, -0.19497834743580789, -0.09495194518056191, -0.015962638636688398, -0.2274260773026364, -0.01052784430466408, 0.11886131965561114, -0.09062792944040249, 0.021950657406045626, -0.07792835861055253, -0.08351659038768319, 0.2186704938830819, -0.08130849734639475, 0.12862710202826855, 0.0075990134704418955, 0.040300997758031865, -0.1378103405446191, 0.11066124577083719, 0.17200439392182038, 0.13528386368889672, 0.11086205483167955, -0.04090050727099065, 0.1379039472520916, 0.22301398896188884, -0.10197959843186338, 0.18094840938765738, -0.04613765934418107, -0.11641808913093726, -0.20410815613259625, -0.0646246106093536, 0.07251094790514406, 0.26611127656115374, -0.05629821149528527, -0.07658799539920663, 0.014229468738883588, 0.05047322552252542, 0.1519659253278391, 0.25127460215416575, 0.23542714646470975, -0.017695415436135453, -0.07181111305034651, -0.2049493764358624, -0.1117079278548693, -0.24301604965253223, 0.013672187539360725, 0.11881763780785665, 0.11614824517976541, -0.08537280338795442], [0.06282873992620402, 0.007171529791317133, -0.21933166272698054, -0.22037276774278594, 0.22999955468896421, -0.019038851256796302, -0.1872759861675641, 0.011083114218883527, -0.030689838427504085, 0.0012482959578477004, 0.05504103900881774, -0.1892095264322775, 0.18573656674573563, 0.18502606868699856, 0.09024429101798054, -0.22414937650188316, 0.19686129428005794, 0.11558659146118189, 0.06343379180564374, -0.045517506649405154, -0.2353082771107507, 0.010823462650248028, 0.02282823400499373, -0.13076975773717076, 0.24875238279666068, -0.06214061180119834, -0.09484770006996485, 0.11273042564542424, 0.1968836926166057, -0.06491898658129341, -0.10068041832679175, -0.004403297123034, -0.08387575450407883, -0.015538420774325601, -0.18848328415777832, -0.015229329205731335, -0.07784361674138468, 0.13589124569124456, 0.17617773494749356, 0.13530976764000818, -0.17422332904994062, 0.01498893557899772, -0.056784761650477744, -0.1902955408493897, -0.1478897184908936, -0.17033821613235672, 0.16765630491531347, -0.18919629923632994, -0.09588422370405769, -0.23442860133255047, -0.19535520178357751, 0.2574812710286446, -0.11319294695853263, 0.22431615252456166, 0.10138750855542361, 0.008952288776070016], [-0.14172848360490808, -0.02712951568619515, 0.02081589836788794, 0.10311316594565256, -0.17771064414156473, 0.2005838520858173, -0.13421949175407102, 0.2037180074158778, -0.15355637010325568, -0.13684742614781092, -0.09698826920253648, -0.1284850195045121, 0.008604756549389192, -0.0970506473678667, -0.11891931462910191, -0.147934372553087, -0.2001700528702885, -0.2642876543175587, -0.06713120959689903, -0.19549395399535857, -0.13190592441018467, -0.1567516749696809, 0.01916370923825378, -0.221191891662515, 0.22005290733787125, -0.055521369470570486, 0.08677287061244698, -0.13274473225736835, -0.03192151430259199, 0.26424920073337044, 0.22936865719886074, -0.09570094944531699, 0.1938362838741734, -0.0478929000512302, -0.12099016799878393, -0.07131551643689965, -0.04643472975025592, -0.04404004842782103, 0.005335917550707114, -0.05827215927895796, -0.09614912794973976, -0.06452790065492686, -0.2002333296774645, -0.25314106768344824, -0.20965937452557543, -0.14557809904219002, 0.2097746307509396, -0.10843190887315185, 0.1335973438262556, 0.22943959399182978, 0.15225568500590358, 0.21284428365675623, 0.10425007200471037, -0.0008118861388863308, 0.07345127803789941, 0.23454921844556087], [-0.009023816823903241, 0.04292423238117693, -0.20665688286681105, 0.237933736216145, 0.18449118515024565, -0.18030431226164642, 0.11151866749135242, 0.02468987446339066, 0.10178413619812782, 0.16986651568264483, 0.11657289082767558, -0.17870530076248325, 0.1654760470135247, 0.15486621823775965, -0.19584608772865658, -0.010311085267072306, -0.22094678004717103, 0.10339469398284545, -0.19752389626749844, -0.1006760523352648, 0.1877877632006309, -0.25544953479828714, -0.2263541637380629, 0.1611688130564678, -0.23320022551877778, -0.11330555642607365, 0.24917418512804357, 0.12230329715072019, -0.21336115691210902, -0.1932697648068791, -0.18760113911203102, -0.0507418439857146, 0.13589947293817733, -0.17802459211735377, -0.17662448328774014, -0.16563781655620666, -0.06904925232035924, 0.07924412998487129, 0.26354460006851854, -0.15545726301920199, -0.239168176597756, 0.1211514658765831, 0.18599956681634322, 0.10057648581669631, 0.08797944353131515, -0.03348570322450084, -0.18134258887604635, 0.21205338570486887, 0.04238268177746851, -0.19012743353739087, -0.07334405611995617, 0.0076500758714217465, 0.0864226823788789, -0.0005703101693103618, -0.148093986746492, -0.023587051350705712], [-0.05463445489897478, -0.13439663198703064, 0.2666371946246511, 0.1694061130076523, -0.10404062244615536, 0.14878731812820717, -0.0997314740633683, -0.07140244623768613, 0.17650562399246367, -0.1972802178064561, -0.19896118540444951, -0.14740349062817754, 0.07947286258362929, 0.09416885790012353, 0.22492747658009155, -0.1595029243732571, 0.08942622753081353, 0.1981734064419649, -0.26708847536599284, -0.18659954987674593, 0.1806404048523561, -0.03653109844709598, -0.07506918451190689, -0.19169403332554674, 0.1269804510613941, -0.10759938321150431, 0.11149763412126007, -0.04822253357861958, 0.08514419729579586, -0.21616251515977405, 0.13260031734604455, -0.046171492300815714, 0.03036925024967918, -0.13559342880904066, -0.003439410120690045, 0.006013948929019519, 0.15762808173028314, -0.24352940430194098, -0.01635716461415121, -0.23793651160504353, -0.053721926905783535, -0.01949634663234004, 0.22846133128809454, 0.23167825904625738, 0.04397156369371086, 0.16621254127683405, 0.15103476552553774, 0.16563202350694634, -0.11106409378166812, -0.11685250329209446, 0.14707960860395053, 0.26461585516310504, 0.0901470741946176, -0.2260105391587135, 0.11139289772074401, -0.2128352838552776], [0.22666923633569702, -0.08469419073428897, -0.21599128674249138, -0.06305189272561537, 0.17396747462580264, 0.026399647328870846, 0.1178651911219496, 0.11600007375042987, 0.010671966840843317, -0.1385950873818358, -0.25348063896075823, -0.21226124664002194, -0.23456708405923243, 0.19758954013876612, 0.12322595979347356, 0.011426534614251804, 0.2076460066232796, -0.07195218457773284, 0.13442967716208415, 0.006191603385591049, -0.04468492698196083, -0.07953927559511972, -0.005903148567151961, -0.25904267676705134, 0.05574618647749097, -0.06318794528700869, -0.1201349250840994, 0.23048570305939753, -0.10839398966219513, 0.07570725117305893, -0.035912095718310305, -0.09208144163267218, 0.04991685402627605, 0.029181772386473848, 0.12132690856689088, -0.2059026041575431, 0.04594901857176703, 0.011345389584104415, 0.10063062350474239, 0.03599176787955949, 0.15953446701869295, 0.15806137718855395, 0.12358527414539872, -0.06749964662524285, -0.1796432866217127, 0.022557290661317397, 0.18293341762276166, 0.011726013277332026, 0.21694780766307514, -0.0877144502171476, 0.10948735752192357, -0.20520408832545964, 0.16770729428997722, -0.04403700814380432, 0.07317489333776311, 0.174881657636065], [-0.20002856440247646, 0.17855148183060227, 0.10914352251979748, -0.08482538878878129, -0.061521605195322904, 0.03268138282413385, 0.16710026557334623, -0.005147075298725379, 0.04889093730219263, 0.06245000141630985, -0.0448124613683307, -0.25800219921545964, 0.16096941479142057, -0.0566044423431637, -0.06400972971990238, -0.23697935954636623, 0.22765774107413855, 0.08287411854328497, 0.0782362114724604, 0.24469946935461706, -0.05965481835967806, -0.1617262453748043, 0.06651853992932716, -0.0824322616556529, 0.09718753650800421, 0.1853228669118691, -0.19720256736957584, 0.07643573403904647, -0.19738162433750683, 0.15668180812846982, 0.07404586812427616, 0.20298124773055992, -0.1881680699061608, -0.20967246860573585, -0.032516231555884345, 0.22993002325407114, -0.17729599348140102, 0.14942958078894553, -0.08709854277699094, 0.2459320908195768, 0.16735645862145332, 0.10879023863051157, 0.05643532446156596, -0.13291924349792975, 0.1562314274400295, 0.20819711507312583, -0.18203324300648133, -0.16850531043214442, -0.17445822291694602, 0.13996416401297362, -0.13197076537915722, -0.0813494228495612, 0.02193275119713778, 0.132368700928653, -0.21357182723460824, -0.04764090206030769], [-0.06987995111183376, -0.1706313950033807, -0.14688409191174387, -0.11979407902375128, 0.17497975908554375, -0.2387100657149634, -0.11076283297545483, -0.243795929071245, 0.11404178780412877, 0.10996198789339179, -0.23961797478533076, 0.035313684166112136, 0.15260633836234705, -0.027120175370520083, -0.10311392252678062, 0.25480966646256364, 0.04629906668748718, -0.1149548741042277, -0.2340930608035887, -0.1424173385917917, 0.1387569028530265, -0.21555891938619767, -0.16698614449948984, -0.25180356618791633, -0.06254471493950187, -0.2153737261569913, -0.09776291156221187, -0.15353005561269548, 0.20004443985884468, -0.04077531651221722, 0.01877539867011141, 0.02186643724061038, -0.1256234137260101, -0.08032323960067961, 0.192611824241267, -0.21922127252093326, 0.13651015032140112, -0.14676001891326146, 0.18329220624028264, -0.02953312911073455, -0.1443144108774386, 0.21223480338819933, -0.21708398944421828, 0.0011902299968280516, 0.13583597099851336, 0.11713666029241093, 0.23501657085602823, 0.11592983630125903, 0.18851298984739046, 0.07758971176105861, 0.10586698633800773, 0.15992717155281427, -0.05909127681977097, -0.05980616997444524, -0.05072242956931294, 0.2083139845059664], [-0.2218420479379446, -0.13266381333318808, 0.019527799206730256, -0.04283785067504847, 0.20004582966787848, 0.22057119749866566, -0.041733902144944185, -0.21748252556524306, 0.21203148257751225, -0.15441609333711323, -0.2631824185217582, -0.01845842975871914, -0.13215228930141235, 0.1823584863471861, 0.11979824801731492, -0.13042779625533096, 0.11650760447030106, 0.045154376369194726, 0.18913669045787096, -0.18934066937421007, 0.2656956482615944, -0.23854146182879535, -0.20552984367768418, 0.009986691540260828, 0.16462709420336696, -0.20303451607454967, -0.20150220576741334, 0.14527634102960546, 0.1671224437981087, 0.139222474234091, -0.11368951238157354, 0.20184803974289095, 0.12321954458323076, -0.09614983206315744, -0.1079625935337375, 0.20462823504480437, 0.05668533636898154, -0.12330419245715449, -0.17815545382624282, -0.11623281721791273, 0.20368068159807812, -0.25553465407662723, 0.007195329553033036, -0.1716956082584582, -0.23463707520365445, 0.2656975301759762, -0.26260923437489514, -0.2572573199951425, 0.23889785305881295, 0.035312911746354925, -0.174658407309566, -0.23655803786454277, -0.06216297131660603, -0.24317233642035999, 0.14381448701619903, -0.1637338397502244], [0.054124766459485295, 0.11753163732469905, -0.25466943413479726, 0.06938968993760918, -0.23506728013694184, 0.24684907989585442, 0.035184562799203734, 0.23563672109422645, -0.20677293913227907, 0.2140101059135937, -0.0454730757886397, -0.1447976126316821, 0.09649036955364232, -0.028679113878253743, 0.11877226242595437, -0.020094902663259192, -0.208830957667278, -0.23408701359271467, -0.05848427631833009, 0.14630501542242205, -0.23929674114255034, 0.17898012073835262, -0.005327575513010722, 0.11531701257315047, -0.23658062167150792, 0.01987816803671366, -0.032157594208867234, -0.12401881980286511, -0.07709603918226458, -0.25606040896987603, 0.25361867317210524, 0.19050098619595984, 0.1022616088290171, -0.024715072919827562, 0.02544793737168564, -0.11782417612225288, -0.26063829450057263, 0.09950071966265678, 0.05100860163402819, 0.26453224062406255, -0.1309463122222264, -0.2241634159514279, -0.04134707159789707, 0.18257380781759155, 0.1383964369501828, 0.23863519816732562, -0.09635585188169427, 3.674112575178944e-05, -0.17606557901303557, 0.17697057486370232, 0.19982175221932352, -0.20604109055705613, -0.14357299947453903, -0.027889371659416014, 0.045181147222128536, -0.23732562738158547], [-0.2664468407767861, -0.232618221268161, -0.08315954486770649, 0.028600732275590568, -0.07745825824112584, -0.005547516092471005, 0.11981207004876293, 0.08116037982277546, -0.12757697967350506, -0.22486802306976592, -0.21143824818799387, -0.1380748880282062, 0.0616394714145973, 0.24422926854424087, -0.02935191427803638, 0.048961560003369875, -0.21555776843099156, -0.16529395123929944, -0.09207280179565272, 0.09349221202831226, 0.1036782744237616, 0.15660836892869368, 0.12777767290540282, -0.12564104473046436, 0.039913197616823826, -0.26155464604102896, 0.2071720736267631, -0.10432123877281335, 0.15202944959972337, -0.2297416763342558, 0.010519006812598874, 0.16242947977032107, -0.12615687017325528, -0.12163533273779104, 0.20178792806143603, -0.1617818364051678, -0.024408179236157596, 0.2349151959140915, 0.14608314009112633, 0.04528336750118672, -0.2182920545662316, -0.09678862681053357, 0.062343196830708714, -0.1799393009605149, -0.12107476071029358, 0.027355522984712777, 0.20523074264246682, 0.2220171312790809, 0.20852962914299417, 0.19908329047433904, -0.03477513878782887, -0.09199211192980514, -0.1660357150774145, -0.24381438680844336, -0.08754113002975372, 0.24244892013393493], [0.2554040870035973, -0.24024432777223098, 0.18235691174067725, -0.10349364205646758, 0.22169063857743465, 0.053966518091562166, -0.24829940910681753, -0.2610828490407528, 0.11024114621827713, 0.07475506221832945, 0.03492030337649599, -0.028727679562143227, 0.068003646263116, 0.23914228691759443, -0.10984782827142481, 0.08905410335626562, -0.18295598418682416, -0.21786884354293684, -0.004788801078375815, -0.005302208858340596, 0.03217763921674577, -0.20440215505385925, 0.02716009197534497, 0.12188615214540038, -0.1477177337457723, 0.19127897688167494, 0.03906404187393231, 0.1028488162081947, -0.10407128214983502, 0.21434001798601493, 0.060113695010135415, 0.18041634208719542, 0.08855680372531316, -0.1412656420337272, -0.12151679426919684, 0.25935390698933336, 0.015667254342772774, -0.15597272105149057, -0.24756654266826572, 0.19672873920568168, -0.09097617075985481, -0.018092636199047635, -0.027193976484221533, 0.12170644921719936, 0.1737211117015381, 0.0817421850390938, 0.24616728987332348, 0.015052189267498794, -0.06767469104418974, -0.24222944022775839, 0.1658844854254765, -0.1069285804197771, 0.15118855028841222, 0.20035684009734828, 0.04303731408572137, -0.013703943226711035], [0.2308034391667888, -0.0829058103699665, 0.13175969565899914, -0.15992235967205742, 0.26228260752219723, -0.08622115576926886, 0.03156684703152268, 0.18533569690347734, 0.0040732039740001835, -0.1727626673665117, -0.043567726916329125, 0.2592981479014599, 0.21496664062773513, 0.1302172958890116, 0.2259975379411131, 0.2063098719301561, -0.04162919661271966, -0.18049811784111988, 0.12373877267098116, 0.14825824936257098, -0.24487361991754916, 0.179489100982061, 0.2519281639518832, 0.13232973559939265, 0.02105505677167374, 0.00899288842958279, -0.08855482561785896, 0.01264140483387971, 0.26545821121415303, 0.2355293643716626, 0.2529196653827811, 0.10614146150712578, -0.09636964594133429, -0.25021967613143187, -0.15331697593501165, -0.02304830335456068, 0.13448893052516775, -0.10691525967664145, 0.1126511086934398, 0.2102696652355353, 0.11384851104664401, -0.0659134462392377, 0.25976007403076273, 0.1534532692368677, 0.1453080459450657, -0.154086932924746, 0.019343903090674353, 0.1537887460140941, 0.21778135642012286, -0.1299260601906605, -0.1382944865308123, 0.19403376921438892, -0.18263507633914186, 0.18995853279714825, 0.0077443920796868015, 0.00799431389393146], [-0.1460369492508396, -0.10227688244946334, -0.020773281103314944, 0.18892525751525086, -0.04115647718335386, -0.2391691923337299, 0.08689108731355283, 0.24032270049745097, -0.10344463985722899, 0.1975872391298718, -0.1768436201232702, 0.012679181778487536, 0.04282265889596387, -0.0803665574185656, -0.1629946408010788, -0.15566643135545408, -0.021296254750567012, 0.03407510707608846, 0.21595612627269584, -0.10055466633686819, -0.19701787852431796, 0.014571775251355779, -0.19993628816385903, -0.0503163037200082, -0.1865977500696438, 0.11838670036849552, -0.2357671078596342, 0.08253485719405523, -0.006474279771436164, -0.017536120904573627, 0.048566996638940485, 0.12737149175225926, 0.052366189635905336, -0.11381159532124374, -0.25342032255454566, -0.21520378007660906, 0.23149440517284525, 0.20101262538247672, -0.1946381620635272, -0.13572851236890981, -0.252162794915212, -0.1953626545290835, 0.2610017515212766, -0.08120263510501413, 0.2667648194750022, 0.2498631245596723, 0.2646093072915805, -0.13983958646119246, 0.027712321322196698, 0.04816443182246549, -0.13123020866446222, -0.12021855722474606, 0.17032583211083663, -0.21093724212960824, 0.12175301598604021, -0.1211336255917426], [-0.06595364414795571, 0.14122974271065325, -0.17733317751765598, 0.18609569015943245, 0.23165769000712583, 0.26301444567412946, -0.05774096274400148, 0.12156430029092263, -0.030190423678516515, -0.0685636395493428, -0.24667189521439553, 0.2467720364071282, -0.06196901758293413, -0.20477987420370367, 0.028662264277624305, -0.11202036230837845, -0.11398123528137333, -0.17960312008674933, -0.024724631099854066, 0.20532017466520835, 0.06368367372185069, -0.05009760902942936, -0.05080657043277606, 0.17748410073415244, -0.008715608102485672, -0.1022783097031017, -0.21365257706638124, -0.19062049402539047, -0.14502138930226965, -0.17822187852939397, 0.1313610095070341, -0.24966472091611863, -0.18000831114208293, -0.02223916354400085, 0.0679421421067899, 0.09404963527019411, 0.1210772714986143, -0.11062123892874845, 0.25113963109877324, 0.04865564778036391, -0.22221242894965587, 0.18326466833491767, 0.1683695136211104, 0.02714414891546646, -0.10773695853855142, -0.10432899121593342, 0.2592779672417901, -0.03179331302316543, 0.23072852774060887, -0.13335819342362226, 0.015322129534223072, -0.004518309923385755, -0.26239796059109977, 0.1251268607806746, 0.19616406079123216, 0.035636646250735315], [0.15720626729721376, 0.0106213039032097, -0.17509569019543036, 0.04063410672954587, 0.2552970113193975, -0.08965507769693412, -0.09180475357565637, 0.058709902614452913, 0.23828834743445493, -0.034137391544021956, -0.10098284593166834, -0.24570165183918596, 0.19700988368546996, 0.1674941651543908, 0.07172767749429482, 0.20318736170546198, -0.26337233091717926, -0.15681324176761363, -0.12284678032055116, -0.10781374215264156, -0.14925837710653062, -0.23714536915414913, 0.2633764088252968, -0.10867258545811423, -0.10155510387953895, -0.07381402052499605, 0.10940609510206667, 0.15740866505219792, 0.032441797466919275, -0.06907547842173928, 0.021790394408423397, -0.10061011905509007, 0.05447421701564514, -0.0731801600170793, 0.2303099842323303, -0.006624369730073465, -0.1418010750849801, 0.08964237531363278, 0.25092891744766677, 0.203700159441898, -0.24315220076560146, 0.07790613722200324, -0.16233537921659427, -0.11207468806658852, -0.13958392698343194, -0.24259390852065807, -0.1250288588072285, 0.2138269701674711, 0.0831827223982275, 0.07745395467019911, 0.18997893554311485, 0.013136059487394047, 0.07392356460930605, 0.09592873123411516, 0.010876347035759515, -0.07070179796795656], [0.10858972343679901, -0.02798463375853416, -0.05133380509877908, -0.16887912858923115, 0.14630244730110553, 0.13561184589297554, -0.22776011333679652, 0.23083416424911052, 0.014055086058424593, -0.18117910348623195, 0.12437264744708404, -0.02382499174587896, -0.20559967515458819, -0.24778166752886005, -0.09752693917668648, -0.04223697345551369, -0.1326865984295573, 0.10055883781821895, 0.018769055621988162, -0.14639206574845862, 0.05669310186555149, -0.07059567880410753, 0.09548927645680211, 0.04771595860637401, 0.038061087586378384, -0.16531273045058964, -0.22137504655895868, -0.19504435530580377, -0.043606477033177965, 0.14568098099182825, 0.08836008488970992, -0.1537569199818005, 0.26414854911163266, 0.0033715231964183134, -0.08636150462593964, -0.025868291489936385, -0.2637608205552093, 0.14049815760537526, -0.23236782865148167, 0.23579406207243092, -0.11745195726219793, 0.15363232222008044, -0.15984049144750573, 0.16763277301127905, -0.09447688898842671, -0.17447175733809261, 0.07079807338893213, 0.1466196063425726, 0.24322746676667573, 0.2375986492337896, 0.008790366932790394, -0.19855461974408187, 0.2065092014105494, -0.02406015294473532, -0.18131080053869766, 0.06745644665074757], [-0.03665272068666012, 0.05966421804610467, 0.09322114576097884, 0.23974072054805506, 0.13147055070934943, -0.006494450892166825, 0.13969573802338053, 0.2624718932155855, 0.0845131190793601, -0.10586744296561007, -0.1966196053653032, -0.003604718717909239, -0.06915396707520263, -0.16183686720197388, -0.00792531651558559, -0.055986338877429515, -0.15456412990439775, -0.12169210885399845, 0.09527752586703508, -0.047066313489202205, -0.16067985238832289, -0.139856302414776, -0.11128140863072308, -0.0661013539753249, -0.2515094979421683, -0.08176787238514865, 0.09999438889849416, -0.22319731794459183, 0.019675774522811218, 0.16640740800267528, -0.26381553712858125, -0.03499327870081245, 0.23765597151030748, -0.13612526928424004, -0.24800147583824564, 0.2321123645839142, -0.2464571599965331, 0.20001540042023186, -0.2010337850136131, -0.05412778148175412, -0.23248187383811747, 0.08238124113969125, 0.10798024809802825, -0.0784260885100122, -0.24225066644684395, -0.08287328288671858, -0.1976629104462605, 0.21580557694444924, -0.10352794846887411, -0.09703041431896078, -0.25192662703708446, -0.16107397344617197, 0.07967772207643325, -0.22761876305128334, -0.13102771593623666, 0.2059493096266648], [-0.13351621035126748, 0.07174038261153792, 0.2537284229175404, 0.07182127761468998, 0.010314519726460136, 0.028648819638640632, -0.12234760123054289, 0.012132643492758055, 0.06701960253980738, 0.10965487981531846, -0.06927677166821619, 0.11994560432478546, -0.08485426566958579, -0.21587281977767453, -0.1717802313628908, 0.24567032147334555, 0.11333864716038783, -0.016925533631982126, 0.18038016969238335, 0.025672557057583034, -0.0020161021666029733, 0.09003890498600298, 0.12942056529038093, -0.06933717822080235, 0.19003171177624528, -0.2186798904012902, 0.18132630562786478, -0.006320051222421019, 0.10197444491610697, -0.02269430717374843, 0.1936804175973872, -0.009446099027010879, 0.09819701573286643, 0.05432470035969883, -0.13524828325961052, 0.16314644449542964, 0.16512163270041186, -0.2627273664903374, -0.07223273747427086, 0.21596192129568986, -0.032912190201193486, -0.04349397757813356, -0.05086187565881195, -0.13638651673667032, -0.04146917515749449, 0.006649815426965855, -0.1485588584934212, -0.0018966151462561087, 0.05818328757320357, 0.002749896083222181, 0.04995436333900577, -0.20869397505606313, -0.2260991055975463, -0.10521617540057504, 0.2265701482067785, 0.096926185916968], [-0.11438329919083606, 0.039899877579189835, 0.007771724562416593, -0.19199027377157207, -0.1409747474249584, 0.07676327212906842, 0.016295088845653005, -0.0001399772516122444, 0.16966238450989657, 0.1770216236906637, 0.08359870132546554, 0.2494104085732115, -0.26114199850575853, 0.07163321377069903, -0.11793141066608104, 0.03878810871251748, -0.09180804293032438, -0.08413289299886345, 0.2396974207187439, 0.08955404444245002, 0.2428563401229311, 0.04039004802822349, 0.2080517707901116, 0.017410774978003418, 0.09269507592973036, -0.1494629025731951, -0.11666261079602688, -0.056149359042578256, -0.028514525888586717, -0.2062780771268513, 0.10589601618193306, 0.20668810942481836, -0.1195791435419575, 0.1986900072512312, -0.09807007348577629, -0.09526155841347209, -0.23728701348810183, -0.08461535113247723, -0.06354265989953944, -0.08954645486467114, -0.1826585229000323, -0.18008033645685936, -0.23433513144974846, -0.13183186762781834, 0.1522947670437052, -0.10741481027246014, -0.217307171608267, 0.0026370642200064243, 0.00340449023361028, 0.12977358285936125, -0.08104345314187322, 0.07612686916947287, 0.19197181005416603, 0.24956969731022327, 0.2664633796741962, 0.14979889162091375], [0.04000632677454424, -0.21949368785954038, -0.0012994235592206915, -0.08090400473000234, -0.17895941929306197, 0.17645385725334795, 0.19943018076329316, 0.13721642345531299, 0.1557147778409827, 0.18279673613113023, 0.14383846568797526, -0.2629366202632009, -0.20635741911989414, 0.11171820303108682, -0.10136978354183573, 0.16054469549723244, -0.0038320919078811966, -0.022259002328037458, -0.22201944096842066, -0.1686777808329729, 0.025870520755871373, -0.03187449035947576, -0.036637345020485906, 0.22793788823388433, -0.1525915728161178, 0.23746680690913824, 0.09840117428018946, 0.15999350081293112, 0.017308923032213985, 0.04563820774414801, 0.02922938783192791, -0.10632747958267369, 0.1752450175345443, -0.026207928623574045, -0.24577124651184384, 0.08718245893166615, -0.25374582469691703, -0.08210839888568947, 0.0019806919993030636, -0.14037547666121297, -0.0367680378625255, -0.0033275357506251657, -0.12497335739422138, -0.030886042579150397, -0.2615300972039749, -0.13250388282213488, -0.03886782349408269, 0.09547016223553423, 0.19249079387136703, 0.10167522093852288, 0.19475634658163088, -0.030651892537907843, 0.12664613386307205, -0.25683032487578333, 0.10909539282190334, -0.24479746599624388]], [[0.15951335026005825, -0.004631359413091113, 0.18730580139383043, -0.0742131988224291, 0.20211199405109295, -0.10752227064840592, 0.056000340635489525, -0.07080435342434827, -0.08110497571225625, -0.19521403762455009, -0.24236913630050555, -0.21614458353200275, 0.2510612095228836, -0.060997985584855856, -0.15880287348326033, -0.0390263300233335, -0.1653346926251082, 0.23678189731584398, -0.07872262065272889, -0.02535210734482171, 0.12989117971345082, 0.0018651148082607896, -0.03105375363635879, 0.02031440910662846, 0.12721677192345296, -0.1750801827978618, 0.1154714238067076, -0.11698237918274307], [0.10666382960210383, 0.1074574684570554, 0.017861656900649347, 0.12073255560075069, -0.03793064251851073, -0.10975237656400307, 0.24022424473872253, 0.11525155572806489, -0.14714928378809408, -0.08086860124589415, 0.14347017144811447, 0.09783946748666592, -0.26651478068218415, -0.0027458936449432534, 0.24653074075190237, 0.0711278651962186, -0.05240735094633691, 0.10290866557002061, 0.043953728724124716, -0.16101294206574313, 0.23314850102835638, -0.013194402584648157, -0.24249690684706687, 0.23206328138220333, 0.1810891397239964, -0.10886694029274754, -0.1231685760972762, -0.06036240546594218], [0.012700658885297828, -0.11698684665900118, -0.13425722368576623, 0.04618104646020072, -0.23361969757033857, -0.10948636706793424, 0.06977469135670901, 0.14169649671493464, 0.06030119523360104, 0.11149868887691548, 0.018776758903000013, 0.2667946290534588, 0.14779165258887159, 0.062060394734511845, -0.10505154459534986, -0.09443922804045345, 0.107468393779396, 0.2471167940726673, 0.022724297277380845, -0.17724308508748274, 0.10482454292108467, -0.026315867953209674, -0.01476078158974223, 0.11758928421261394, 0.24466206312674, -0.04621683327964659, 0.16677381095067595, 0.06133602083768286], [0.23969519108710136, -0.14913520374212552, -0.2665453897497138, 0.2572071937160259, 0.016010526819697057, 0.18920478091598894, -0.03828666829341304, -0.19400763879650607, -0.053413888597177495, 0.22123878397992205, 0.05752668395049623, 0.21546953061527563, 0.028269086908980594, 0.05450414100168733, 0.009150286326238556, 0.06698305164753666, -0.1118634625778179, -0.18222418784190952, -0.12502926578417362, 0.17537239458707032, -0.019855441576568128, -0.1771346104085399, 0.044792603320345514, -0.07856994210035842, -0.2326869388394691, -0.23260212168010497, -0.0008704541045463248, -0.07931747598597996], [-0.10341648823822214, 0.08239121983286696, 0.253057505776836, -0.21250978526518338, -0.07916676445788685, -0.18460383533563024, -0.184277864113852, 0.10903742761369484, 0.1098967910705215, 0.1714033400448034, -0.19306567888385434, 0.20850862634955522, 0.11663593884357425, 0.11631135463100083, 0.17770536226009215, -0.16226744940460194, 0.2542634495804722, -0.012081179142170705, -0.22672797150161308, -0.020986341138512447, 0.17525530244877907, -0.2497340857256528, 0.2661486274087611, -0.17737818840903902, -0.12258849757153575, 0.23803248682435735, 0.18167002964506332, -0.15149591799933418], [0.16294830900107593, 0.03548210423704887, 0.06911538610817529, -0.019010264265847832, -0.1458230412981485, -0.20700928453103787, 0.07642181931661737, 0.17737485200206893, 0.25704118396797404, -0.04193833692543801, -0.19171309177023751, 0.1629204173855858, 0.20823713634801524, 0.09477849994585552, -0.03369129668772773, 0.11825349864750967, 0.08632095183661158, -0.2691465731901128, 0.009426311603268808, 0.09277198324182417, 0.050319091049059184, 0.03552020339564646, 0.10757594252724523, -0.10918143008862374, -0.19000253521374183, 0.16698760954420352, -0.03699814866591962, -0.019663123153032924], [-0.25728534825904814, -0.012025067375480843, 0.016679367087443473, -0.22202856719334704, 0.06281571733674872, -0.09352948645231386, 0.17975414662673111, -0.04769837775601484, 0.2254155557298831, 0.17236966260733555, 0.20136133360879066, -0.0841033099063555, 0.10439260136412536, 0.21557774162148646, -0.170383636346416, 0.09032112414264114, -0.01968558611285147, 0.07610794317698938, 0.09265803594008026, -0.1948224593272054, 0.036496269784143165, 0.03163585449705301, -0.020101247054239407, 0.15159524902585275, -0.24794063961016158, 0.2040039177017489, 0.04445143417348706, 0.055182372050042394], [0.10357048910036849, 0.0506919644352633, 0.02483565703384051, 0.1098062080201889, 0.0323723769415393, 0.08742492417879841, -0.05741440283684046, -0.014841835131924497, -0.05181965376742817, 0.07399151407075556, 0.23100447863365958, 0.21540193394785492, 0.2390351433415252, -0.11418417075400149, -0.20234868282873417, 0.01758643434962159, 0.2250856573615663, -0.0525427506513627, 0.06825383782866738, -0.017141448702337338, -0.15928471073954714, 0.03304073874593694, 0.16428017045419877, -0.1668216698303604, 0.24130218754997065, -0.036847229486135245, 0.23737983605319282, -0.057185072349276556], [0.22933176104356906, 0.012432049169844448, -0.2353715450024138, -0.06975045252863148, -0.25871699169420426, -0.07138232936977089, 0.10159367777443311, 0.16873703933663278, 0.1538913176469592, -0.05531193746400947, 0.0247148468360201, 0.14771079685271243, 0.06817661648320113, -0.24026833428717068, 0.06659064458386206, 0.021918655544905175, -0.24588314114397702, 0.15259645548106318, -0.021329293408196892, -0.035973601101548174, 0.08023427681863404, -0.16563679044350657, 0.024540531355274526, 0.09047641589100208, 0.16471491077035638, -0.05488933713842337, 0.1742527517802103, -0.047360802777610594], [0.15191185176866792, -0.01868500158490984, 0.038515724144307095, 0.029677130729721876, -0.06901815992984728, 0.19461185773156672, 0.18310584631905355, -0.1618822714370775, 0.14968735890412094, 0.2106408348756069, -0.18237490446119686, -0.07696601346271154, -0.16431993556130922, 0.11332669123604054, 0.0873346698972157, 0.009330007043371197, 0.06268477001024322, -0.16876747177068974, -0.15720633579729684, -0.14942613836347549, 0.0380053066557588, 0.10753563995789028, -0.16701461844012377, 0.09919021771948522, 0.17733335847123277, -0.1072459638991631, 0.020751119055608325, 0.21470365339456438], [-0.019912840046199948, -0.06437213470247337, 0.043855532658289675, 0.24384681801823885, 0.09757116759128426, -0.05614289153835814, 0.15062297865270294, 0.22456878207821468, -0.01971931657181215, -0.19267997769942843, -0.1774148502405949, -0.08517624856560545, -0.04448968198509874, 0.005080959615629882, 0.12952359346065942, 0.20219010269937707, 0.11796770593923288, -0.22090124053593574, 0.05651258272755905, -0.11549933755744211, -0.24249991847601643, -0.2619981737114849, 0.12349925637839328, 0.14707848448481103, -0.11930519624047815, -0.23712668538944096, -0.11336618947285775, -0.08410531737128471], [-0.13183650193012797, 0.19854356003618856, 0.23514505960456478, -0.12903914953397755, 0.23495290859452214, -0.06519607874366984, -0.13848345713996263, 0.12570207649481002, 0.08646987332190725, 0.25709257755510645, 0.25194795272185244, -0.008131643839080193, -0.16633441181209405, 0.18850726456347897, 0.2381695221794208, -0.1684487905586778, -0.14616604729515903, 0.1725459062955709, 0.2262133504474495, -0.188168796892397, -0.2607486302936378, 0.03205841153577672, 0.09312613950655615, 0.15706669064607004, -0.11293986752375254, -0.0812528808201666, 0.17257939767722968, -0.2508824468934007], [-0.1557587469530672, -0.14611188228169528, 0.16795300766817123, -0.06914974292786377, 0.1278251045801327, 0.06837796553525229, -0.1611472322389539, 0.09045690019814984, -0.24206333952095976, 0.14640321025710684, 0.16067225094452764, -0.2512134648959377, -0.13266444734247912, 0.23573002736677637, -0.20031707900105486, 0.10653659353345224, 0.08137301298935887, -0.1309019004513173, 0.25956080529968206, 0.14683239630055417, 0.2662514112503066, 0.04630155366628497, 0.20943274964944925, 0.12108946219255773, -0.12413162222548409, -0.1879140150877051, -0.1657732581191695, 0.03075345395595591], [0.23973790057484257, 0.25876741136658366, -0.0745844491560347, -0.05143097320041057, -0.00966977021616903, -0.00534877926556936, -0.23912576774953692, 0.05750500267695087, 0.05180334737670289, -0.2459832922251425, -0.2235247536148584, 0.26608380282260247, -0.09297310145423338, 0.08797635464334397, 0.03529163008989022, -0.07076053119855101, 0.2488319839566572, 0.222832895894264, 0.13071084474953965, 0.21495321861928868, -0.23676728605039848, 0.007284386917862786, -0.18560003055103802, -0.23550946749482707, -0.11626106111177242, 0.08061737672724435, 0.19382399138418652, -0.09769833392461263], [0.06405499356029716, 0.05784510720857619, -0.13668465051687959, -0.24588985535219163, -0.22249297534760662, -0.21701064341889653, 0.07455381744682596, -0.22709139840606374, -0.05907935799911456, -0.039610614379252826, -0.08086379353077708, -0.24315198305639618, -0.19650387970668015, 0.21407371915535076, 0.08429880933304751, 0.1291486754036653, -0.16732561510238367, -0.1898640826733884, 0.03570911008560155, 0.1399064201536368, -0.12102826444200701, -0.21300624449605504, -0.062445308624199676, 0.03352578240179832, -0.25296411763643367, 0.018348099295693643, -0.2015036108340079, -0.1373299422806488], [0.07390802908696449, -0.1796543372052646, -0.17268343053114626, -0.17800633426904008, 0.038837972291531596, 0.037859430975174656, 0.18601159200115785, -0.09071054903402648, 0.17193560076865352, 0.22371754280283965, 0.23354163375884657, -0.21722827978308532, 0.08977302296753362, 0.041061875632562396, -0.14247676401403384, 0.20717121417266232, 0.09248386450150503, 0.18333214355867342, 0.12581987859792146, -0.08445052330201996, -0.016237056604017863, 0.2504612211224254, -0.23669689842375713, 0.07140117691472608, -0.10649469937912533, 0.044298066285547874, 0.20642307121710987, -0.000857173273107914], [0.046257346693175494, 0.24683992806245844, 0.14982205168059592, 0.08015076461255677, 0.2451717205873869, 0.20341262660600215, -0.2374442421344397, 0.18513548728068333, -0.17492050191151595, 0.07748935238767575, -0.029581741602373396, -0.2592880560450536, 0.05031575488639624, -0.18152873121887209, 0.17082648267121509, -0.16580106564921146, 0.2248917759785517, 0.06334670534477942, 0.171055088181572, 0.2382021846815934, -0.1664542669182812, 0.27685460313921356, 0.0895032548351238, 0.05018536810824076, -0.2498490007808713, -0.19777131811768472, -0.1951630169592243, -0.013171021583081644], [0.2570270519819631, 0.2686969945486637, 0.26219612169545115, 0.09076636910991168, 0.0740028849900997, 0.1957769162248093, 0.04309351850432408, 0.004341960058238448, 0.22262800543815595, 0.0006043155216495875, -0.1909294276522465, -0.21572742181009044, -0.14078663236888214, -0.039525395794439686, -0.2655854059623857, 0.18129637706523533, -0.08047808308645275, 0.15857775713678937, -0.06536273301428469, 0.2674704620589909, 0.1977637808652929, -0.20412474121625307, -0.21197521927089313, 0.06901564667732063, -0.06206050082455694, -0.05051415437316854, -0.2340430297929096, 0.03519113342549651], [-0.25763634396345586, 0.08986613824141933, 0.047955789095368656, -0.19395137516571512, 0.10013264038835815, 0.13561486797920047, -0.1772147226992854, -0.07015420599124698, -0.11253047577396164, 0.11414537822174849, -0.20709514928194867, -0.2656792813524786, -0.02253319375728693, 0.10502333890915705, 0.13082933404470365, 0.1561179687374803, 0.033069933078441416, -0.03694593868903895, 0.0068546120979664504, -0.2014149778747549, 0.13456480452296044, 0.11051957604732483, 0.04435083515206251, -0.014217987234118767, -0.23756289935948122, 0.09648809036097687, -0.07348537825960573, -0.24856497542198192], [-0.2272316353329171, 0.1368373144162266, 0.2570319167251158, 0.03382261277916175, -0.1981689379665443, 0.0505189250667699, 0.10625031739301997, -0.13791813063995856, -0.22339894043522288, 0.12095284605170888, 0.2606464713233177, -0.07789072100216657, 0.11828251291224158, -0.10768752724041347, -0.08803490043566103, 0.14248937050329613, -0.03485941947198725, -0.1492072405711216, -0.2595780472677584, -0.15514825902341597, -0.2587091191235932, 0.2036527561188637, -0.13702436680642088, 0.1359124129215452, -0.18036195786495596, -0.25242581497096434, 0.026598113665995952, -0.00019776650129615936], [0.24892443697452912, -0.21422823984254094, 0.17656481820032693, 0.22272060076020248, -0.12116849413367511, -0.023791856758387613, -0.19228919212616605, -0.15833760370161118, -0.045490526990184084, 0.2151644707788911, 0.05918440123269969, -0.054690766077458514, -0.03671630303694737, 0.16222902058649302, -0.01990137259584668, 0.19117082433998633, 0.06184507749784268, -0.19788195125132924, -0.12105574891116747, -0.15938311025405147, -0.02746495941530283, -0.11512803582242753, 0.23039127125695386, -0.11094538687230329, 0.07720245034925394, -0.09242160088398091, -0.14558098720087778, -0.1508415321089313], [-0.06731209449050207, -0.06320699777760612, 0.22291792923069007, 0.1753882428601689, 0.08306598771560476, 0.22526209667988356, 0.1439950677390479, 0.08525846456078075, -0.016242220153664944, 0.011853508458842523, 0.08758261372407639, -0.04754540367544779, 0.1816939855524141, 0.2237700223345488, 0.02834301812923032, 0.2198409710126052, -0.2073280545874402, 0.21560177735011146, -0.09224125052178428, 0.01371185473329617, 0.009844349002959607, 0.013253318647675384, -0.09153838555322633, -0.024721884963597368, -0.17967157936976338, 0.2407569532813642, 0.008109945476158361, -0.0778041778141583], [-0.05286080308886146, 0.11601396432303573, -0.2428347694334294, 0.01647945751520429, -0.06949633467195651, 0.08575134069245523, 0.1657735520849557, -0.11066307898554228, -0.2272736124541183, -0.18503217283100523, 0.25901638674555316, 0.2142255691669222, -0.14159927646057513, 0.01583493215638071, -0.053718572196233355, 0.22152523685031483, 0.264384775932728, 0.0965926452925072, -0.11106927000626596, -0.11758749373015517, 0.15732215847341247, -0.15288565239078328, -0.2395772363080558, -0.21243108067630506, 0.25585584451761323, 0.18582958999830973, 0.19947736769106728, -0.17201883837580906], [-0.07030588620226699, 0.06309609497726024, 0.0115844537970729, 0.22013964828665641, -0.07762274536637531, -0.2609436701208568, -0.1231393867740406, 0.22476387570984874, -0.1455779254303682, 0.10681974522655144, -0.06064608430907998, 0.1985838014158692, 0.13383802625163452, -0.208624474815579, 0.14364954502086033, 0.04858813261643948, 0.2706135874850435, -0.26435710127197104, 0.22744946973909683, -0.18871296491170167, -0.10221628670077582, -0.1759630820431727, -0.015280287975783955, -0.03779690308543446, 0.25736120493595177, 0.03806619279160523, -0.090264473280665, -0.12189576495852536], [-0.16880325778820082, 0.01521223591792786, -0.18395552193126596, -0.07285835504301114, 0.17454327914902185, -0.24289657785557497, 0.049566376844671085, 0.12658501328970026, 0.14514309081096055, -0.05735099094716749, 0.26557722516282367, 0.1679993134093724, -0.07608050591501687, 0.16015568968116672, -0.1956558134145054, -0.1330156985023729, -0.05377858503400814, 0.08127206978648485, -0.20215514946132707, -0.07529782981738548, -0.06723324208164524, 0.07582757345411625, 0.2239440014428594, -0.15822404586592226, -0.15448237953502397, 0.0569871837308416, -0.18737131789749337, 0.19770081712845566], [0.19142777136941921, 0.15133028619318142, -0.12328567219850604, 0.2603130259899383, 0.11631107172601522, 0.0438024454776349, -0.15556140666329685, -0.02056083068381856, -0.026494366884323998, 0.1888141760809978, -0.1813367698662465, 0.25746413239897226, -0.16549977138368677, 0.07042489063259098, 0.11545975323062178, 0.1106395713918893, -0.17538776325830324, -0.06113181224728222, -0.02611434338544406, -0.06769957692512173, 0.17486104678030367, 0.21241223595461883, 0.15972107115051712, -0.05427932460226467, 0.15213466175739102, 0.04658377126920152, -0.2080356112313295, 0.17485909062663202], [-0.235747914605497, 0.10744291430095373, 0.1707396728790357, 0.00986033095969869, -0.19943043292334414, -0.0039129251339974054, -0.2258232443098779, -0.11637962735282376, -0.09446921737476371, -0.12925979582250616, -0.17554450169988256, -0.014358413909293433, 0.14631414229225465, -0.0504187237644107, 0.025540850609245058, 0.24123946886285988, -0.08623836342895566, 0.14688747104398586, -0.08344564837996613, -0.25349605034735506, -0.1599158155171268, -0.19886945639939146, 0.2072940861512187, -0.013313174738532663, -0.19762610907798445, -0.147985450599181, 0.018899295366681165, -0.04447763791632975], [0.020239186934390006, 0.0034919209790093106, -0.17411190384385486, 0.24246519353104687, 0.21916062149786977, 0.06758137479208923, -0.042853378448361096, -0.23858602816568053, -0.22592810074499606, 0.17935304270634145, -0.09441839446980915, 0.17493625450545333, 0.05773995038074129, 0.07937657595785155, -0.20915816519203392, -0.05802556603356123, -0.09560442874817651, 0.04111314215321567, -0.10316912872964121, 0.2480762494407996, -0.23703350954739524, 0.15020731998372916, -0.0313854406836803, -0.12188898667596379, 0.2635959580965139, -0.172973965051351, 0.0338367815450247, -0.22808520624059184], [0.1971321945095112, 0.0517235832757043, -0.09445219937096028, 0.038655960851404624, 0.09441867641212053, 0.03061368335760043, 0.13397719427057167, 0.10722316822363921, -0.14030494481563055, 0.21526066017209475, -0.12578599278941285, -0.07141971291941787, 0.049074484274198485, -0.24957866373472043, 0.058644584586326924, -0.22550545915954145, 0.12556643771667245, 0.19501273004885247, 0.1324037586529298, -0.18538510370047287, 0.0882419714087117, 0.22450972949584977, -0.19892598353494778, -0.12547292721997755, 0.23246124763878356, -0.18049674889238926, 0.22233898868795288, -0.22376789286209686], [-0.10016363241074576, -0.19131030580543001, -0.05932058173837517, -0.16050422343909132, -0.14187718355379808, -0.0620445183199895, -0.14919893584726007, -0.16159121095919746, 0.2390373260632474, -0.10012594218883308, -0.1862572615692646, -0.2283259939638801, 0.043237650113737605, -0.14091910724716852, 0.04223282817449996, -0.05425527618481727, 0.11213982026324361, -0.16107937715796536, 0.23326423475245117, -0.028637958726655862, -0.013268655397315143, 0.22968606946568132, -0.12271598063715645, 0.20541476143397908, -0.1346595644527299, -0.20772718148142588, -0.22591330617946515, 0.260965523410258], [-0.1983314400517993, -0.13329432761488091, 0.18126763829367, -0.1460822200746187, 0.26530714831236546, 0.1584263072635914, 0.06458857723835804, 0.03226295181601461, -0.1934371002393094, 0.26452991750219707, 0.25056009264463763, 0.012453924744992698, 0.1060267337970085, -0.023030195021168865, -0.2570535096294887, -0.07575967761617666, -0.11019769535896558, -0.0015340904226833632, -0.07178868736369091, 0.09397661665469798, 0.05391859670916027, -0.13375396292130598, -0.0296612473507058, -0.20880610996432478, -0.030445411464373094, 0.012422598396460415, -0.16087333130021103, 0.15234795949863456], [-0.1452987116391191, -0.0995167997370889, -0.2114931784326514, -0.03535226245297753, -0.02519623920579865, 0.024317602440902468, -0.20031621927376417, -0.06442128738912525, 0.03296149959491473, 0.026663298073878603, 0.038698186340814913, -0.21053813762069362, 0.1429047210503806, 0.2155192748740412, 0.1902672462708372, -0.09410914277246656, 0.1320348050434744, -0.08487675217823795, 0.2133547290489665, 0.06306985911280412, -0.26158256102518407, 0.1771429838339259, 0.06750530483881709, -0.24555940726722758, 0.12473772087143409, 0.0006481668518136468, 0.1949530341049809, -0.1389460596473309], [-0.25461640284341497, 0.26204815132254006, -0.176501015640893, -0.26585568595402553, -0.05394342273486924, 0.19332277265656345, 0.03549761931685469, 0.15827914997286646, 0.13831386110441696, -0.03752267506888031, -0.22613375565233737, 0.20993688486621614, -0.20480616989441805, 0.08536149914308871, -0.042716745065763756, -0.01100518510508296, 0.25238980210355155, 0.06104130186453438, -0.24308774386035234, -0.10728872102234133, 0.006099052407692429, -0.13921353036515702, -0.16242834129624717, -0.15971938525858032, -0.10502730849731044, -0.013113597808114497, -0.19078708031554828, -0.14076644051565518], [0.16191174636211042, -0.16627428720651458, 0.18530626316363064, 0.08438687909887838, 0.005899017445019963, 0.02151898982170892, 0.047551824930840376, -0.15297147456699783, 0.008764981863606917, 0.056323297739425855, 0.26404008707446613, -0.16710882624895748, 0.23262501494335072, -0.1014216238139422, -0.2612322578419526, 0.14715346622770992, 0.08161247717524825, -0.11706874037050148, 0.16355197323714835, -0.024770107685246828, -0.15396009714442965, 0.24115352506314391, -0.11258921538255753, 0.11093182331896106, -0.10737082269247236, 0.18146230024444482, -0.0965924855758336, 0.23853193334109946], [-0.065457020001311, 0.02198741698472651, -0.19284042822172842, 0.26048600491334156, -0.14584911849811494, 0.2511834213358126, -0.1948735064196938, -0.25247486595762597, -0.08723501648927759, 0.0841463677820624, -0.16867460820853325, 0.1852096242576237, 0.2614199873814422, -0.015547813700539185, -0.009380840638730747, 0.22081587027018737, 0.09482939988688771, 0.21259328364263264, 0.23472515095194202, -0.04700670082617492, -0.07993681804435815, 0.1899055521471913, 0.1877900559787962, -0.11700154176382854, -0.2645244148946731, -0.05256946494152512, 0.035795126770864404, -0.2280691596168561], [-0.08293197330159818, -0.03826292288109437, 0.039740958446708705, 0.17663244650412677, 0.2542749526109653, -0.14241589352170905, 0.108566757808752, -0.03449891028181477, 0.20568583495025167, -0.06851244416017166, -0.11192005328500196, -0.17679950462850913, 0.06394535129335274, 0.07460263789473943, 0.21650670942721684, -0.1567684726750765, -0.18670913987433715, -0.04204897017779002, 0.23076678896552505, -0.06751549960309962, -0.22955065889042497, -0.08520588382034773, -0.03465606575724546, -0.07090547243654557, -0.21330141588575802, -0.1042080450490057, -0.006323967765775126, -0.16972970079076466], [0.17296303652912862, 0.08583328145646076, 0.13243102096420292, -0.031678472494155535, -0.15828034937295812, -0.010785880814822124, 0.11681438139037181, -0.22143674805981975, -0.17686136537953265, 0.13756636390522928, -0.11364210949713924, -0.06023558145831376, 0.025734577956789184, -0.012153947139938446, -0.2059140643635692, 0.050676189280533704, -0.09539729216658821, 0.23643099707859874, -0.10248792115228608, -0.22834052384514772, -0.19493263129959568, 0.276203164347226, 0.05730566556874242, 0.06128367170002014, -0.2611945602921939, -0.11666076444862147, -0.07719993973987208, -0.07841202616980397], [-0.23085324143048788, 0.22447441124470377, 0.04939383650017122, 0.12684629062770314, 0.0012722742914965672, 0.07050018994879147, -0.0025940517649700352, 0.11609422799852426, 0.2651227501912503, -0.20812892428717295, 0.0792406092512546, 0.15335539572202408, -0.09315434127223135, -0.125610479862079, 0.149552043468937, 0.12621290667147161, 0.19386426648336436, 0.007051991111684011, -0.20155314492164755, 0.05259765249190685, 0.24032518963915173, -0.11853732461790095, 0.08667451620608933, -0.06538096200087884, 0.25269482924931314, -0.25371062198275485, 0.07181744601462102, -0.03550151576004179], [-0.041588332370007086, 0.23845881921824244, -0.07434065472623055, -0.06162299967178219, 0.004707761670326068, -0.24464934537863733, 0.1275368936107938, 0.04148029462551517, 0.02780258572971389, -0.13235796719897128, 0.2609231810071943, 0.18030577775569015, -0.12890784405830155, -0.07284677412794437, 0.03009696098627653, -0.00025043094837163816, -0.19074818982600833, 0.243395781938781, -0.13078534298046252, 0.234625089031047, -0.11787193581527464, 0.20897947883635026, 0.21407534719578758, 0.033898331074653676, 0.09913390471689255, -0.17696394171632682, -0.16551160226697348, -0.25592955997829653], [-0.1610885043200469, -0.06379308986405641, -0.20965233639552924, -0.027895572720152233, 0.10445213119606361, -0.1959521559020669, -0.1680918601018595, 0.08125653971508823, -0.14875905946821122, -0.11657283246958595, 0.10057670090070979, 0.14614785983944018, 0.2150745317528336, -0.16613772186279677, -0.09943699700928803, -0.2133637606669791, 0.1763492535708837, -0.11562095131227518, 0.08310440941787806, -0.2499230068595164, 0.2552028166248631, 0.06505059047090694, -0.061891223136382595, 0.11011847143397502, -0.2075448648290886, -0.23705365502909662, 0.10265506958718783, -0.11634133249311288], [-0.020250838666278137, 0.0012484950817314747, -0.24045277077342567, 0.2112177353048698, 0.11243839431073907, -0.009191055352725375, -0.19412578833070976, -0.058840653620167924, -0.20567888720779823, -0.21356586070148428, -0.20339067874278371, -0.08398260711038069, -0.1303954374593919, -0.019147946264389815, 0.05421808552148741, 0.054761053247359796, -0.010912925553549942, 0.039850760136094864, -0.19764398631942165, -0.0863150316596352, -0.027944626014563073, -0.19805251705652838, -0.16097606218478708, -0.0897794324865536, 0.12842612460163472, 0.1745047683362759, 0.02724106405739184, -0.16181203704615435], [0.10987127692146183, -0.11019189968926288, -0.22285296172231625, 0.012068202493596249, -0.028390774185154642, -0.11012879319647678, 0.20054535097867293, -0.24393869319927233, 0.027767890850631402, 0.11733517546289259, -0.04931995321933913, 0.0992499482798631, -0.23549708865609328, -0.1478384948695414, -0.04311566214704571, -0.20004006347947684, 0.11095922943973201, -0.13117034282389275, -0.22551960542245375, 0.12397894308335969, -0.059840262978101494, 0.22946947927675337, 0.16074712116521706, -0.1421828238173192, 0.12802213608428642, 0.07639851938759663, 0.1028850326612081, -0.11089399168850789], [-0.04585944395741817, 0.09382385057175267, 0.06304393255178456, 0.07797670262052685, 0.2447657353360866, 0.2475095177998063, 0.11919249078095388, 0.1608132833565028, 0.01456669520928855, 0.21357678551457357, 0.23964678431391806, 0.06603537893730599, 0.029188510569573126, -0.0927173519737575, 0.22894002521013987, 0.20597709874887266, 0.2691859991758003, -0.20777853556758094, -0.2667666151863482, -0.06461763006744917, 0.2517091354968338, -0.16399796391865568, 0.12578187978958344, 0.09261982833873783, -0.22733723013561286, -0.15707314335546724, 0.0891894555180117, -0.09146147843617292], [0.20270947088990687, -0.2109052940518765, -0.1070691152345913, -0.1754184325091931, 0.05377282819411846, 0.08947682637230173, -0.17900107436728546, -0.26720316505860925, 0.10346211189165432, -0.10019650595677092, 0.08260393785195778, -0.045024535831616794, -0.1453404682748681, 0.18038163738820345, -0.0690992274878869, 0.016419967624307263, 0.04038868301597506, -0.14479828850418658, -0.12053943007809124, -0.17105521205495736, -0.26436193880439585, -0.24862691032658413, -0.19936988675506592, 0.045487886089655816, -0.20455239536545256, -0.061362860789890505, 0.03749113499714342, -0.027835163132581747], [-0.26383762365795627, 0.18946633533885518, 0.211268098520338, 0.16238933702007216, -0.21886273254058802, -0.08089214598350683, 0.1919031103126779, 0.16131921607800812, -0.01147261779577774, -0.22849856574909583, 0.2164425308888347, 0.07775911394011054, 0.118714880934538, 0.25218686611304586, -0.006702124162086243, 0.18642085623975294, -0.058291632487785974, -0.1582346173396697, -0.006482310939915678, -0.04121597277466274, -0.13652955037764525, -0.0965758018111277, 0.18022701568216687, 0.10975171909031672, 0.06750829595218341, -0.13765887706161245, 0.11446424031333659, 0.0925769622821116], [-0.20803823912674216, 0.2574306717698587, -0.20180789184417092, 0.04921578482446056, -0.1625897773131298, 0.14703957685065167, 0.22161760073877146, 0.2562331395960043, 0.2148736346826931, -0.22847350064606667, -0.17206693777764367, 0.1542751142384338, -0.18677140219868874, -0.17916589043284156, 0.10432384695042127, 0.15950654706104989, -0.15977094411792697, 0.021347599974079704, 0.24312401699853864, 0.22316597039149044, 0.08035240244021308, -0.26267186796591085, -0.14561843155775941, -0.21305923760815274, 0.04633472317021159, 0.11505460626072754, 0.026372347082242474, 0.09532004387807064], [-0.008486669705459249, 0.14814232563946414, -0.11946259190285044, -0.17521922144191457, 0.12478412995248991, 0.0545572851849333, -0.043632544155237485, -0.18762652475894154, -0.05070799065809911, -0.19607417831647278, -0.10484650011107169, -0.012119160204768093, -0.12768262101611597, -0.1255881612321978, 0.2662370426120637, -0.16508513914559036, -0.1258186148765558, 0.09767934366729733, 0.046857920185942536, 0.21476845875620398, -0.14045599531242345, -0.17217583444814766, -0.1865457822496392, 0.13495079758621242, 0.20130324102716302, 0.060448701130660316, 0.2044532820062583, -0.24791470215418732], [-0.0673997969650387, -0.009058379161872441, 0.11989008389338339, 0.011535238368357851, 0.1876740308570661, 0.16199704149198824, 0.22555349391232718, -0.009762843092469109, -0.03984648739274883, -0.13767534138469434, -0.04551056386737294, -0.24290694077256292, 0.1984173672440489, -0.16325076700487695, 0.15982580242246985, 0.04906074388382647, 0.2116777091015609, -0.11756120087068023, 0.16320574610255364, -0.11701707818263389, 0.12047159061116997, -0.1982919010035622, -0.0785455008748497, -0.1029892498293905, 0.021926844552883823, -0.21542342353202226, 0.11366547877806264, -0.02251434444659539], [-0.24075201951471195, -0.05645176317994709, 0.10178648897407414, 0.05674290076837296, 0.2498389873182169, -0.11579834016863982, -0.1263971889693496, -0.06097916735781089, 0.1332082360156285, 0.2629416976651429, 0.23546203543552735, -0.22093313951214183, 0.060018578384016814, -0.10739889686287593, 0.06712766370472112, 0.0359162802951873, -0.021650566748822212, 0.03284730254648667, -0.21673419286624415, 0.2130424897304794, -0.18165634627689814, 0.16749948164204576, -0.11165036449054704, 0.06804640604959705, 0.15831408572321104, 0.16061818576269213, -0.036583008136869176, 0.06201331931197246], [-0.08270067291201444, -0.12841913596192978, 0.263965060458078, 0.035791383048977145, 0.04888613785416396, 0.14411709971606904, -0.005777309390547348, 0.03255570987561274, -0.11417253621101633, -0.1853435635466426, 0.14640497812074973, 0.25720642939735744, -0.12890013662887811, -0.21595568722598588, -0.03534056586230296, 0.1732780048756684, 0.032764495999380104, 0.1456584088378305, -0.258551425633241, -0.1438257845936184, 0.05150747638632591, -0.10797370456768285, -0.24441331415401868, -0.18025750129391782, -0.08254863590022561, -0.15402601509829755, 0.08023870134359869, -0.1317616828658688], [0.1764292084398622, 0.1550191944541889, 0.21108366626587552, 0.1998556335297359, -0.132830572950975, -0.03931331668805627, 0.04080853581930117, -0.17620328729829188, 0.12182370304879236, -0.004594633594420376, -0.07894603012806123, -0.06714321812442142, 0.09396651373461011, -0.13656411245930014, 0.1690921815850495, -0.01237783845260292, 0.18147342919433992, -0.26244905670541946, 0.2586685746260242, 0.004902916752566988, -0.17244878351853854, 0.24172812954393705, -0.156486835578572, 0.15237503292658716, -0.21732005823641823, 0.044726849543669754, 0.19660214753297542, -0.22304067893409976], [0.013090195922579298, 0.08183375712282744, 0.1479604899804418, 0.24246520543457448, 0.07428671081288896, 0.0766854383832927, -0.08748280693381871, 0.11617811703292519, 0.2116893145612916, -0.08583259931278026, -0.17764919227885217, 0.18793370715574598, -0.20695141929448835, -0.2570144060610027, -0.23820182470437043, -0.06671252516274927, -0.10414032732278845, -0.1422177492549564, -0.18014248983623307, -0.006505281260377811, -0.2296888307270687, -0.0744386142703279, -0.18831958765118512, -0.22606559996621284, 0.20339992815474056, 0.0142800909376596, 0.14312871400545885, -0.19235130638890477], [-0.2133836650277353, -0.024407400945057823, 0.2472504455369062, 0.095202073178432, 0.20188678465350113, -0.13110123773588903, -0.19267655420464275, -0.19734419015601357, 0.09104371765034487, 0.026918051912494287, 0.04368369248962617, 0.04262017361377161, -0.04200093516773009, -0.06941667991816433, -0.19821362153484756, 0.1565574473734714, 0.1114960712137592, 0.18210023010115262, -0.1989215990089636, 0.053633079458147236, -0.17084001673457663, -0.22922738732062897, -0.013894543378108354, -0.1954614616608999, -0.23717299845476947, -0.0106422090374119, 0.1576087827369797, 0.07221419527288891], [0.058279550541341575, 0.22036538767435623, 0.012138164569694174, -0.1688741846237979, -0.2597699679188274, 0.2502038881949696, -0.20642989564788994, -0.2513989538353192, -0.030771596009937393, 0.005378349699762397, -0.11110354363444974, -0.06087910526270767, 0.15845186060401648, 0.23870565029338242, 0.13555336661406708, 0.23323621622384577, -0.0513671671409523, 0.03976861106180287, -0.03476300004142696, 0.19386430017842282, -0.24803526125153502, -0.2174568010425084, 0.13545355891822727, 0.2025611457591212, -0.02701623726382288, 0.13524109026665115, 0.1897321270710177, 0.16060482047960017], [0.038922839118148755, -0.2492617786955173, -0.015583938806465913, -0.11747965400003785, -0.1548288959411534, 0.2144325212637164, 0.23453753955093817, -0.16874672242033498, -0.011004345865962772, -0.017553859625560306, -0.1362074237390761, 0.17861876404214178, -0.005552249301880353, 0.16912902753628561, -0.04071209936979638, 0.1499335733321783, -0.23490848610411402, -0.030074355035318884, -0.237432881841893, 0.018096751574042558, -0.09754162924436552, -0.16707279750411302, -0.12943905002346934, 0.06401499727751903, 0.1595514223244843, -0.07901571062185278, -0.031818446653936856, 0.09305102982238261], [0.09979181298028694, -0.027497734523606727, -0.009538293446725502, 0.2012138391037412, -0.24761371425511003, -0.1830181034236753, -0.2363539117190508, 0.23285856181540543, -0.08330956704125443, -0.1942347370758561, 0.15087737617914937, -0.006036770157376282, -0.015237287938700555, 0.23148785116090106, -0.16729624060846715, 0.060038996825300096, -0.17602940591082294, -0.039907546653034864, -0.2497240592118337, 0.24871463847438685, -0.2516305783929558, -0.12008864464113986, -0.1578836739584967, 0.03440098002588465, -0.03351262536292143, 0.13797235966727064, -0.06505118443311253, -0.20193720730562426]], [[-0.18918985370652164], [0.29986378481572573], [0.3644457192114332], [-0.041148636030207464], [-0.1260498536194398], [0.3501162790761326], [0.3903410239270682], [0.16082126480659045], [-0.39205917015289643], [0.46102732979273986], [0.09299268176673174], [0.19117849303659323], [0.09015630033049897], [0.26661975685095823], [0.33531082468193507], [-0.27146331496080495], [-0.407095596783499], [0.20389344284723315], [-0.06293062404838552], [0.347396496132182], [-0.23516518840443318], [-0.4464408232803896], [0.3648713783593372], [0.37947122772437575], [0.042023438900698776], [0.3106730484019776], [-0.23259237956705983], [0.3585970561255872]]], "biases": [[[-0.0028768383615752156, -0.01181380502554863, 0.003170207902492722, -0.0045327675193671335, 0.011572716677010788, 0.0072498563561864795, 0.003691630513451101, 0.004392300775846417, -0.019984219502768928, -0.013425538532295455, -0.007509735064867515, -0.006600147175161699, 0.007238681880883552, 0.003631618913858113, -0.00023120710631888575, -0.008243131202421032, 0.004582651377885579, 0.0016378509230197474, 0.00042024057571359003, -0.0007358952416481993, 0.01348255402753266, -0.030527645177414308, 0.008554524762314017, 0.004243663073059516, 0.009694648932309043, 0.0010998067673662704, -0.017060756476808905, 0.008119666249979765, 0.003766452083830676, 0.013712921731229637, -0.014710704724112289, -0.0006567005031751226, -0.006174235609821039, 0.001542050688681895, 0.006589090082217143, -0.01831457253207198, 0.010312910345233937, -0.008425910759208281, 0.0045383658936165, 0.009503633106687196, -0.0027873469236272875, -0.003340542949724586, -0.0007927650741762167, -0.0120254055733163, -0.018015880552185608, -0.021621932172453003, -0.0022145426523506517, -0.012928431120779366, 0.003500873510327667, 0.003442834370094433, 0.015489820178179325, -0.010011465916495817, -0.0007988654420154544, 0.006870048632867171, -0.00970182710922266, 0.003465592326070181]], [[-0.008305072509533044, -0.038445464722344835, -0.0021497532105975137, 0.003705489447834197, 0.009559902081416898, -0.04086204678046352, -0.029723911194785152, -0.007509503378923767, -0.017107848044607528, 0.013219465531421308, -0.004275178935758835, -2.7049260896590015e-05, -0.01227645996675591, -1.9744178314702708e-05, -0.040811731082770655, 0.03070870452968071, 0.044713089138394786, -0.011016422911463777, 0.0026558558728585367, 0.014944416570949028, 0.0, 0.050508423191466006, 0.015810486688340845, 0.0, -0.0018637443432281558, -0.0032685342505873348, 0.02592695969038049, 0.0]], [[-0.11948872304452428]]]}