{"layers": [28, 56, 28, 1], "learning_rate": 0.005, "weights": [[[-0.2590217748713647, 0.2367518576400658, -0.24402934854956615, -0.2057085170100515, 0.020073512363730617, 0.16825749024200876, -0.09799794820303595, -0.16847740387736626, -0.14526210717426918, 0.20983984028355207, -0.034404290870753446, -0.09181300205268175, -0.2544891122273051, -0.17382845621214743, 0.24036136044335965, -0.15823206872504217, 0.25784636368665814, 0.006779805123360627, -0.06658000585884222, -0.03192339308672473, -0.13762441008538984, 0.014126966236739757, -0.02266218094612593, 0.17453054321388772, -0.20523536912533505, -0.21569008453381977, 0.2169875964206469, 0.1400359589088675, -0.05292693565385834, -0.08117155654872288, -0.24940146417267506, 0.011323971334704641, 0.19167470436206263, -0.22713193271465693, -0.1649891425272026, -0.14968028540519374, 0.07746423460443369, 0.12229064165011283, -0.22309969959419812, 0.02396258713655358, 0.2513683859278497, -0.25797237703276765, 0.15928280593848182, 0.26218980126561964, 0.17000249482939955, -0.05108207580783314, -0.03357105057156021, 0.00028421746354617694, 0.015609007033350775, -0.12008610295350791, 0.14379325271736493, -0.013153017535316891, 0.10199938393748004, -0.09882772291414843, -0.00905494368152937, -0.23998442790984298], [0.16206782780859424, -0.04510173584073318, -0.1297835795738882, 0.12710386001451768, -0.25271680238399585, -0.1508161869331341, 0.22469733688382726, 0.014995862874018495, -0.06326145799890281, 0.13129249061006892, 0.014578154939402732, 0.03040615035364358, -0.06490184672308905, -0.20990266434950475, -0.09650734987902579, 0.02893049504701739, -0.12406950336795053, 0.20656583946417068, 0.2301169692932734, 0.1798309276118915, -0.14233388486779322, -0.0022564669853329944, 0.25761441811689056, -0.10746884289762135, -0.14249696204807238, -0.21941304711834572, -0.01045243933736284, -0.04554175510889791, 0.16478436173268823, 0.09384717562948386, -0.23138281290894422, -0.08204514173691382, 0.15236190653598664, -0.08753459643598799, 0.20526232273189793, 0.15057573832280385, 0.03235987265056722, -0.05498117018930676, 0.037631391167169626, -0.1974454710814198, -0.014924438987780453, 0.2623671433304181, 0.14273133345220562, 0.21561775456164883, 0.1504474888138677, -0.09444323527448625, -0.2582324165921426, 0.043491305859262974, -0.1925032075780861, -0.020509004764239863, -0.20202986413836932, -0.05537939316571561, 0.22738206078454382, 0.1807109076563284, 0.2517160463300564, -0.24635091890093097], [0.21444986330296428, 0.21749885227403437, 0.23137127431487758, -0.22041044983074823, 0.007718082340412213, 0.203190713438269, 0.2164625214757427, -0.16339237310034493, -0.26022898572978587, -0.0031469324212734517, 0.017177963365729743, 0.2287127203123301, 0.11295300640365913, 0.15356120508431953, 0.15786412298880204, 0.062227431890144236, -0.02817555722668172, 0.16799622931847702, -0.17692674463250768, 0.02683503504278112, -0.2089811901539423, 0.20723440948962113, 0.23755906212744538, -0.032789075720924904, 0.12702640315272745, -0.24787151403788543, -0.045531735033391474, 0.22190869339067337, 0.02573978189512721, 0.24852745878741256, 0.17291497003595785, 0.21468432718438013, -0.1432203856924706, 0.2233578325990993, -0.1019295751935766, -0.06116356373959764, -0.12685898140358753, 0.10846156657966444, 0.18052709322247062, -0.04021873889281677, 0.01787846598609577, -0.07530009555508965, -0.17977818669720172, -0.07596251561036016, 0.12349320526719787, 0.18492727082142063, 0.007452722274437162, -0.2571555278459891, 0.0253318849723409, 0.2577343416592649, -0.10831951560004918, 0.005709951928486001, 0.07752422767045108, -0.021422417431141427, -0.08268176256353171, 0.19223726289492582], [0.23112987935150375, 0.07077060078848399, -0.09657868685833634, -0.18234180302407116, -0.012798334388135066, -0.09139785444043627, -0.01768805572471088, 0.2621690868898487, 0.2307055860600156, 0.10393344688232979, 0.07341287669694097, 0.07280364220854525, -0.10874745272794338, -0.09182575011398629, -0.1133451365750261, 0.03850812206066675, 0.1492462128845676, 0.008960715453477533, 0.015906555734237552, -0.2141442780623389, 0.07199005105914275, 0.2215388464457451, -0.08980632981454628, 0.016078407726087797, -0.2718704960945815, 0.06732575205481527, 0.10895591054178831, 0.003873415794164741, -0.18227856984179003, 0.08740583315801956, 0.26466996367998236, -0.22844093287430894, -0.18197330810594065, 0.18033922738773778, -0.2598019344522486, 0.09096303436371617, -0.20866569794436512, 0.1888106649317195, 0.2208288956067632, 0.07545449436440076, -0.021175680321269364, 0.1414115635550067, 0.15265329174809056, -0.11154185298158376, -0.2207100230082359, 0.02338016910414143, 0.029839930540518287, -0.023451234113409433, -0.08869903081029458, 0.2604598897048714, -0.29046687903197194, 0.07112753552198792, 0.08928108535746293, -0.17084024529930164, 0.07133510207455643, 0.14346552429680792], [0.059419686507766294, 0.08159507836362936, 0.26942225412445725, 0.13544567271131353, 0.04017005162413225, -0.10011573622560346, 0.002574910391003319, -0.15579372677688696, -0.1010123474875168, -0.1439213236326441, -0.10641647060055068, 0.1794029413034269, 0.01951071959509326, -0.11880835758026469, -0.10795792977254914, 0.16448337825276868, 0.25802864943729464, -0.13962703807409843, -0.17898533444757483, -0.18269188987186488, -0.037730850478792884, 0.09931408558181166, -0.07319098461980361, -0.16921935205091265, 0.2503577960925597, -0.15275530789597863, 0.2883238564350498, -0.07385278979296692, 0.26972485406310204, -0.14121864397941994, 0.22121912331243965, -0.18321278564847884, 0.10293628951539747, -0.18571746169509382, -0.20546384992010833, -0.2577714860094204, 0.15425992914705627, 0.2532114136192303, -0.23457774170192597, -0.14287572770626542, -0.06969096933852126, -0.08288432906625057, 0.10911248013887209, -0.13874613751346865, -0.006259152363611447, -0.18484658251310696, -0.1409688243142321, -0.0330355261853837, -0.11532136858159873, -0.05813870005832763, -0.152035804541466, -0.21158350031691453, -0.1517485382458401, -0.1393848504005368, -0.1869739488089613, -0.15082471568882583], [0.0655842480705846, 0.014484504012366894, -0.10169682871157298, -0.23579363077029292, 0.26508125215785416, 0.2590953029888011, -0.19470393526750246, -0.09932389655166196, 0.18181305834936973, -0.06314872981469993, -0.11595149828391649, 0.0067622091279800345, -0.10481746136248815, 0.08072980545685493, -0.027669650885180752, -0.014365150971139995, -0.19518714817997507, 0.064143532661463, -0.12166550870796766, -0.04699139639382677, 0.12226402696900984, -0.18033997714012856, -0.116437369548865, 0.17041927136000667, 0.0549920754718784, 0.014375615533336272, -0.15695530740603664, 0.09738117211132169, 0.04409305348639814, 0.09373578567400809, -0.22061374186443716, -0.13802102406425448, -0.15263331133437352, -0.10586840868076519, 0.10162509548751741, 0.14598841644056287, -0.23500716072718283, 0.07173792201512563, 0.09002227586699091, 0.010184727111149872, -0.21029272918851308, 0.13975728358286815, -0.1484848426052658, 0.1402795088819413, -0.06891706454461827, -0.054872146832403684, -0.11316539457764141, 0.15934500681098823, -0.015158581973994834, 0.22196764452116102, 0.25367015552461836, -0.08220113978236299, -0.10195882764383107, 0.20714732268325903, 0.012625511194862604, -0.05081647488495203], [-0.19906823908743154, 0.2616413471139991, 0.05859813270616593, 0.26100879118537246, -0.16454930809091406, 0.20274488494784365, 0.22254071481170468, -0.15467712720432775, 0.1746730187677351, -0.04048351266765521, -0.22721906470844563, -0.10579413898365034, -0.06317631472033824, 0.0706529573494471, -0.17457456452848036, 0.1888667095890838, 0.22314524957848653, -0.06140549658350483, -0.09430662242578805, -0.11110746983338407, 0.04851503033569293, 0.11330804526937632, 0.04271157175300172, -8.427462844218248e-05, 0.06342396537830552, -0.05362837646720675, -0.15266998292235506, -0.255931944496645, -0.11452449852834112, 0.19078244757284268, -0.008915195330250036, 0.13535229788818626, 0.16252825450232716, 0.10506821701211311, -0.03584081635594438, -0.2553618734303278, 0.20571011666625166, 0.025141760349346898, -0.13863516213798807, -0.26288797882827286, 0.07962997788816212, -0.16000118362141985, 0.25249598377275917, 0.19449143102814898, -0.056051878415104756, 0.008478222762015986, 0.2017350074838672, -0.21196085117043922, -0.09377110682871276, 0.04456447728889684, -0.215276267464518, -0.08002245907834685, 0.03313101316809436, -0.1569323150307947, 0.2607609391285338, 0.091958249143822], [0.05280512474286675, -0.20776669949352988, 0.009556014107608979, 0.259411562536485, 0.13095508320948468, 0.25645575089333017, 0.08986101113037703, -0.1324290204728182, -0.06307385075425051, 0.08063926244989161, 0.08336816892293769, 0.0896679410926301, 0.06938635134488647, 0.052278916177493584, 0.14313668398611062, 0.08026205942794479, 0.04328939448305741, -0.20062963508173182, -0.14334979732464892, -0.006456354962434574, 0.1983648239357097, 0.03502019299833298, 0.07097126172569646, 0.14648946083158554, -0.06881454892352243, -0.17906659538987468, -0.12402114170038428, 0.06667817375602031, -0.030202073808345664, 0.06532427009034814, 0.17527866150026672, -0.14940729121679425, -0.029967974655111307, -0.25058634108337763, 0.030237097580520067, -0.15382751664861805, -0.24035358966012993, 0.03170442405982715, 0.06888180955584888, -0.2399469637869181, 0.1220096085571466, 0.19984128735547618, -0.12623549508023754, -0.07044813072281719, -0.21262378892902364, -0.16896730159714923, -0.13812246158041688, -0.22285167637622416, -0.251038892566247, -0.21236249723091727, -0.13817847891599688, -0.20073221494101323, -0.039988579882196756, -0.031238954811106945, -0.09708521218852903, 0.13301955224478385], [0.1664973877380942, -0.0695217188499826, 0.23081754195960513, -0.0022207134131747575, -0.05385433587519137, 0.14633814298317044, -0.1928548711064479, 0.02757670126005418, -0.1384710541384253, -0.013401765717487468, -0.2625907061690957, -0.23902597159309175, 0.037897619446808195, -0.1702950167591345, -0.169261169336993, -0.17867662424861636, 0.01756177218711713, 0.04238408109141689, -0.07775753295811225, 0.12770541193548257, 0.20809055623928668, -0.04836536820999318, 0.0938636370444989, -0.16480953420755828, -0.14532003278756006, 0.0008270028256618933, -0.14429239131718946, 0.01048300937988672, -0.1591539278882289, -0.16150289238542645, 0.260797099607069, 0.1050165349725044, -0.12302641903686723, -0.16359391012040725, 0.2122629315005991, 0.25544865803595396, 0.07883602437007398, -0.1179650976158669, 0.17533864527059184, -0.17100518872427833, -0.0527761455940762, -0.07449682805404878, -0.09750417525925084, 0.22042830471530744, 0.13303646932395574, 0.03177430519699015, -0.15002622854379188, -0.029962679289838118, 0.2113372224263616, -0.15519519497719642, 0.04848842627997196, -0.23961867122739708, 0.20667571039531069, 0.11787915458091003, 0.15510359710502336, 0.23330191229255925], [-0.09861426775225918, 0.024410574544101893, -0.20343120465833886, 0.05862124898937121, -0.09117275053773072, -0.0899984872709429, -0.2118387094669838, 0.09480382450193986, 0.21291394945779601, -0.23305685165860626, -0.0824050496356955, 0.17757856955872525, -0.20662449273265496, 0.14802597056929773, 0.21879778325346988, 0.11619460151360694, 0.253284755123245, -0.057057422996584395, 0.12544645319004777, 0.23656988885518304, 0.2567106507206337, 0.1253433862224282, -0.03060754933004317, -0.2165953790940739, 0.2203824384344561, 0.0638123202160602, -0.03135485370732605, -0.1489932015723527, -0.18923885032046278, 0.22229596494243714, 0.06246824420142022, -0.17187042638740796, -0.21604271184410595, -0.2357877785312375, -0.03338953796264718, 0.10344044655955986, -0.006603812305280787, 0.04870950107195199, -0.08668054067499756, 0.17283367883505912, 0.05063399929961826, -0.19397134460657056, -0.0953382623197731, 0.16158772405359412, -0.11267355429828158, 0.1018372591042293, -0.24243075904373856, -0.22725576005427384, 0.051639355845125634, -0.050325108282435416, 0.22360004619040535, -0.24544769085706425, -0.10517004500059285, -0.02365271658029064, 0.17291566273217635, 0.241938559241057], [0.20090964237388115, -0.13981833423992776, 0.09401162597787643, 0.05194806335958413, 0.15813845074884297, -0.23785619276705078, 0.2219854909084703, 0.020751449076884587, -0.24049179419366085, -0.1312234703912933, 0.12785892724447823, -0.18433879627134647, 0.09395199209924043, -0.00016506999132442912, -0.05525602982271696, 0.0373181430699297, -0.22820247740159416, -0.1348143147626934, -0.19838802889415297, -0.08163532999930206, -0.2285436527986381, 0.12198730448750739, 0.25753548023423367, 0.06107749931673051, 0.19656303782752144, 0.10282153687939727, 0.01676682275488961, 0.017162388712092913, 0.20632341743400573, 0.17264354525147046, -0.1311915373056842, -0.05136998801893658, -0.024617015701143247, 0.2572162498493249, 0.15556063901500966, -0.06249813992943146, 0.2063923960804917, -0.12746176684440522, -0.06300166932719475, 0.06751470423864503, 0.22885768708334764, 0.013126552081642207, -0.04862757304498236, 0.13478884987114936, -0.010852535530649077, 0.14894698701767695, -0.022903251841168426, 0.2437270802091509, -0.049679487285985285, 0.12656873441466193, 0.08203083600099897, 0.003299160628072062, 0.03195933996121286, -0.23200358146108083, -0.011510582574818795, 0.2059238891131328], [-0.12448295053618469, -0.009046567150946816, -0.15154973977358055, -0.15728295051715474, 0.027179680367712566, 0.0004333061357679191, -0.11513272211271625, 0.19913449547090956, -0.26131074042183233, 0.05748102989219844, 0.2461148219915419, 0.26513688323234297, -0.11851658815277405, 0.03204826657486243, -0.079594751239669, 0.0909992096505789, 0.056361213728405135, -0.21547528235099256, -0.061145954018605564, -0.21828916473952598, 0.07624679693096031, 0.019636970614610894, -0.05372458500115629, 0.08682758562573473, -0.12856259481843807, 0.22961348909753565, -0.10197368290759923, 0.10632649538771849, 0.1328094438197137, 0.013672097918931925, 0.06268682951788423, -0.06569226928942382, 0.10167506521041508, 0.1767506780769113, 0.21459900592662712, 0.12847510444825133, -0.0750630675639117, 0.026284856195048556, -0.05016455833754685, 0.11393379183080754, -0.1729473202283772, 0.19014334933781496, -0.16005876221968918, -0.007923773347502994, 0.1824076960662726, 0.08025508216751132, 0.18436847205570578, 0.15163766475212215, 0.0024238142026715703, -0.0018386405536197636, -0.21606749901631034, 0.02578002405194324, -0.13840736031249662, -0.07273835222450165, 0.06200283797113926, 0.1210385905061], [0.13628914354669108, 0.03875455392586591, -0.11559585191146282, 0.1323653859856571, 0.18115328216379628, -0.05602397213451643, -0.06581217703997849, -0.1727254667761854, 0.20779928120955327, -0.2598973607054975, 0.031659284402114185, 0.01708235011943432, 0.19455136107244392, 0.19311428763999539, -0.07434584204198147, 0.04353223375723586, 0.056740810926425966, 0.07895394114517429, -0.20875737157648228, 0.21665110352995004, 0.08500267757709812, 0.15321549756417668, -0.09660028211474153, 0.15055746782381668, -0.02090159191568608, -0.07724405496779199, -0.23774584782083208, -0.048286901917742125, 0.18674116548187425, 0.12318792391726091, 0.26506663685002585, -0.19030723306549868, 0.20289650722966468, -0.0878388951666873, 0.1081912204981218, -0.14588707328480083, -0.057684433942814584, 0.07388804204544436, -0.08151155175429983, -0.11944656256449018, -0.1306505642768544, 0.07491048561097152, -0.1973028686636123, -0.10193640284614924, -0.10773027438224564, -0.03524730485067795, -0.12017096868299532, -0.20458718068342827, 0.034156515879772475, -0.1778764345986334, 0.16288778089539202, -0.20564520296619646, -0.009146083688813922, 0.014315547299749598, 0.04519755500709599, 0.2609701056549155], [0.1989886127872259, 0.23581748336315467, -0.2563809827555603, -0.15324789499187808, 0.13127487848462926, -0.17559679077829304, 0.16765133133623522, -0.2454539055634941, -0.2305774696665085, 0.1855091398947007, -0.2615910322750381, 0.2050781554862936, 0.11959375106460501, -0.11413135367213942, -0.003826118275583934, -0.12925106756900384, -0.033564378165367476, -0.021673375125416977, 0.2610016947221878, 0.14934422163285133, 0.21408030977882336, 0.032325554471605344, 0.08610972293915076, -0.22379002547060128, -0.06401880040251057, -0.02581264757639737, -0.14319456116328366, 0.0647354092396269, 0.12987284645371855, -0.052591810940454065, -0.20438924974894554, -0.09761238176652345, 0.15708342814786314, 0.05650947305885495, 0.24017195000470637, -0.043804287130640635, -0.12295780099220935, -0.05479286818165491, -0.09400880700562769, 0.0523049724492744, -0.047283642144117316, 0.22895502494739434, 0.03616974505678022, 0.10532719827981235, -0.1751608335179493, -0.050911920819013634, -0.057097785606071316, -0.1603569620544527, -0.12312374915392532, -0.2337279682664825, -0.2151748934659406, 0.006152639996369447, -0.218918994599175, 0.15266228621155192, -0.09886163722045893, -0.05745775614626186], [0.12451099677495153, -0.18614885259380703, -0.03697213486822015, 0.24363614644715903, -0.11769460071428484, -0.1127169978769639, 0.08639042558141635, 0.004609035129240657, 0.17349600705622092, -0.26333004237757407, -0.15670406608204535, 0.016698538717293987, -0.049934794874625404, 0.0716588712583498, 0.2169667556533612, 0.19296435728159433, 0.017956334690733544, -0.20456926091672128, 0.11645154094786331, -0.23411228470428636, 0.20171503397380974, 0.03490930621098215, 0.19526523748114205, -0.17045159340761046, 0.18138263793742004, -0.006015012561531363, -0.1945122270078375, 0.24221195057815526, 0.15577984011464635, -0.2501707215671243, -0.03862834568435303, 0.20920517910013875, 0.044806701797927506, 0.15094317497056542, 0.2617202046972783, 0.2501332704353971, -0.050980385468761574, -0.09991110836989306, 0.04145219344889367, 0.2424872107590046, 0.2081507881419294, 0.2615435788296323, -0.08197320086469656, -0.26224859627171654, -0.11392837486440949, 0.1923820072365468, 0.0611744415635202, -0.2518033354602681, -0.04329448790831314, -0.078870434113612, 0.10092999473964914, 0.0753678735479828, 0.1894008607807372, 0.1275190918232051, 0.14495412623492843, 0.14764542614978382], [0.24788563711029976, 0.1735672232514715, -0.05730880948550032, 0.005403360978372018, 0.17963401280241975, 0.24490229743478464, 0.26357849241699227, 0.2240084963708024, 0.1911822225606074, 0.10586370923974103, 0.18874188782771145, -0.13285916383413246, -0.2185028622074051, -0.2560762166881265, -0.13240782697857573, 0.0022272260976340386, 0.1861598021985355, -0.042998868503475285, -0.2197515507731534, 0.1438519997241366, -0.12462119526850679, 0.15539656105552946, -0.15594096421684966, 0.07620444222270051, 0.14021278421312672, -0.1866726502861773, 0.12827459720485274, -0.2092878603819547, 0.0888533099131048, 0.24237300073945167, -0.26214541986869677, -0.09816291916157785, 0.20019153514362348, 0.11105001192718095, -0.05864557198800116, -0.1975123948904182, 0.08468810494086398, 0.07191102466559979, 0.24516827994999302, 0.1993112106067243, -0.20220549973561736, 0.23336664304953647, -0.17740617166351086, -0.21343982830597474, 0.1811228916528359, -0.22995609856437096, 0.2268937335557406, 0.162271848698539, 0.08278978634189421, 0.19173259018515032, 0.2363503033470522, 0.007492168867384075, -0.18048890093091186, -0.027324274702871215, 0.08619346931388777, -0.17471751912057099], [-0.2582598268309789, 0.16142359476570184, -0.10837029213459108, -0.24929640896315763, -0.23083078666445828, -0.17780204241291, 0.14824814504653588, 0.015632513099400433, 0.0009639197057569698, 0.09860989117545738, -0.19291028170470712, -0.1824873325013564, -0.08915279196354053, 0.1696277836519355, 0.11281757412269784, 0.16371741740422543, -0.15762797437196477, 0.24471715218070533, -0.03496089448103845, -0.20012405297845967, 0.13451326648858955, 0.1480812273625487, 0.20712305800651298, -0.0670154181884869, -0.14695416907548692, 0.04722548083144323, 0.11216165837494944, -0.03859893608091668, -0.2088842745477916, -0.1181554955869682, 0.25690017191985276, 0.1909316948234403, 0.22632961157682943, -0.05260265331771087, 0.17318609810411706, 0.039156872182883315, 0.23179222053906012, 0.05862435406637815, -0.18906554134060694, 0.2590391429215613, -0.22801990566889385, -0.07504412334391473, -0.0734522244609854, 0.01606222621229191, 0.2449887619978128, 0.11894146013333126, -0.14791483325402724, 0.20768498497248575, 0.2246526322814334, 0.13792020840122038, -0.17543896418198462, -0.12529542338261093, -0.09098852056140914, -0.18082220182053804, -0.18292303158208412, 0.20177489362445203], [-0.1518680649241177, 0.060814202627304415, -0.24414517961240365, 0.24807881522502762, -0.2556874576980005, 0.06507990623238641, -0.04915385446788542, -0.10778593079175924, 0.03428390846859675, -0.2583428019923912, 0.14295608197347115, -0.25446848542333567, 0.1691145538181819, 0.033366101540441395, 0.262956918593511, 0.10480244623384943, -0.2276598436457718, 0.08937992872647749, -0.14734642121855693, -0.06676010927246154, -0.12780024213518226, -0.16733683306545777, -0.02396958739155608, -0.04275050882143511, 0.07227258543701853, -0.23628256440798537, -0.13108097442343786, 0.0049466718528949905, 0.21180843125487325, 0.13878485003293084, 0.0013988861424228949, 0.001395359752115688, -0.25897162073810376, 0.2108664163613111, -0.17961646749436605, 0.22235215073563824, 0.14311776573045693, -0.014092009123344018, 0.2407798961232137, -0.04513318834470206, 0.12510926306068254, 0.12546413667840234, 0.19732296660360404, -0.21265822619896751, 0.18264717031549577, -0.03609064708023607, -0.04196155688756781, -0.12226278246308403, 0.04762689043051721, 0.2205671909434942, -0.06407219515718615, 0.09248458835451873, -0.13171394405913286, 0.009123655061670732, -0.055334450852501604, -0.10782227992955776], [-0.08121775348704818, 0.18706526673499446, 0.07330806673791224, 0.2465474144630131, -0.08501800247767591, -0.10447315232003906, -0.1141907580386354, -0.019240188281919285, -0.19953090889775732, 0.03519930664638865, -0.18524604555174456, 0.20854688015748407, 0.21235600624450657, -0.1257783617757349, -0.020470882978878946, -0.21628834404972333, 0.16587391315799516, 0.07797785565095511, 0.22147681233490313, -0.12695767468735733, -0.02223937918741764, -0.2344050566428859, -0.2427805647811837, 0.12097172504108239, 0.16160504194624092, -0.1970408926089155, 0.14086851756199759, -0.0217145358618194, 0.004013832239242343, -0.26434560543229024, -0.16125870553657623, 0.07029071511955659, 0.10963780975712417, -0.14988790500219665, 0.12146288286937618, -0.17701822962043146, -0.12951353063230397, 0.16639334340153233, 0.0981704476435667, 0.19729084286195797, 0.10625124955406001, -0.24315222953324933, 0.012486574368857195, -0.083569751176725, -0.21704099232286025, 0.11369251550656129, -0.1730704761988629, -0.06690791097319435, 0.08405904737249531, 0.16911416795774686, 0.16254590740967512, -0.08409874767143355, 0.12166198311215493, 0.26513146347151495, -0.10614151137841943, -0.04996026498885653], [0.002639076547628072, 0.23182935620841372, -0.15899568451300355, 0.23522116203483978, 0.08347110163309657, 0.22729211065478988, 0.21482856537249218, 0.04910613779865847, -0.052378031839291406, -0.1769202975274376, -0.14096372789196723, -0.14533188068624986, 0.09953025338261862, 0.22126395403172427, 0.22975222728509725, -0.1546434473279863, -0.09182092940719588, -0.10880920568892694, 0.1216609491063898, 0.017816557100601926, 0.009488353092270141, -0.09590554558292494, 0.1834416641136084, -0.2066710941310658, 0.07905046280747735, -0.08087414389278474, -0.16197332699885825, -0.07118970060735552, -0.12370670146424742, -0.13736295553572503, -0.09128835945491648, 0.07183537448447053, -0.03826348402589008, -0.10110108132788892, 0.16313454058053306, 0.1623255119376022, 0.2140118637014085, 0.10204829114553865, 0.10558888841567382, -0.1458495179743466, -0.033699322262466386, -0.2113174405312435, 0.1895227970729481, -0.02032929455819729, 0.14109494479348644, -0.14035172763741985, 0.15213373053308327, 0.2435574177733002, -0.05466424082238053, 0.13214746011964484, -0.07253409427676077, -0.09244657995629862, 0.22260307606631102, -0.03396165768463763, 0.24413042803473883, 0.007399106994686655], [-0.25474495132965935, 0.06905392677574057, -0.25705192626785606, -0.1849014508428701, 0.05445224754279082, -0.07659688733955802, 0.21219134521105487, -0.03977352426842734, 0.06097253193903618, 0.19546836794595962, 0.08300167962440053, 0.08257676596489533, -0.025330360697903287, -0.17032349570207167, 0.22981280416764582, 0.20595882827048523, 0.08249019255705153, -0.15435164705807425, 0.015841661734728008, -0.05041859720407438, 0.059787206374712076, 0.25180574114696386, 0.00026693791003601364, -0.09971771944825969, 0.09170906392977446, -0.058378329251234706, -0.25856340827997937, -0.20674815562213245, -0.19077601145587714, 0.18271628487176927, -0.019728477094670543, 0.013528695282466918, 0.06168139743919526, 0.24528887651108344, -0.22540685896856208, 0.14822095921465622, 0.2351591525157336, -0.1578470054440575, -0.2387462068803279, 0.13796267997273537, -0.11659297371980423, 0.18241743911361197, -0.20845111758696694, -0.05648373567603959, 0.1650196099716122, -0.1438378409704455, -0.033399498667526534, -0.18593194863401824, -0.17992390681827158, 0.006437751289113669, -0.2043302742141202, -0.11718622777610513, 0.2670133980053654, -0.25685707453706624, -0.1853867149767452, 0.06897059837123365], [0.07053985654284739, -0.07529739488966722, -0.12772400174562573, -0.22939053153250233, -0.1637832191418521, -0.24120336309900725, 0.04072841632897628, 0.1466159852091219, 0.26386605678640296, 0.010617806337698987, 0.11933932720272877, 0.25487689813952685, -0.238156749251207, 0.20052530463629187, 0.05209803494102272, -0.16338892643080627, 0.20754338195432276, 0.06552694016304722, -0.2241804909372503, 0.07394621093357112, 0.18122148803586502, 0.04597363969929513, 0.1838884985440184, -0.2132841058516093, -0.16689073737278065, 0.20327843669046625, -0.1810166458493651, -0.13103143710785295, 0.14714340572917406, -0.2562940448000644, 0.23318073455462907, -0.25479230592358054, 0.0607354239316934, -0.014731564955764997, -0.16172902235406902, 0.07237232683155037, 0.15114876795789733, -0.2541803110338604, 0.011195502587834805, 0.2581776974285367, -0.12309989744594424, 0.023528536649759735, 0.006610375978735428, -0.19119430670535437, 0.13993485984398923, 0.22278060604094302, 0.08662243239214634, -0.22182554050781753, -0.15290717596847386, -0.17548778614062122, -0.1471938763179761, 0.2545132804552047, 0.04554412712505923, -0.035592460579976726, -0.14886232013344713, -0.0800091294277418], [0.026247519226709037, 0.23937108276369656, 0.21621358599252188, 0.003427629963818124, -0.08179005597632344, 0.17412378276530088, -0.07868252908552817, -0.18763363450592835, -0.24106301374118283, -0.16894252731621323, 0.034934343064117135, 0.06349443416975314, -0.17997157306787714, 0.15778924359142144, 0.258859582143087, 0.006757258264371679, 0.18244526351134194, 0.03405290531669464, 0.10101210062931487, -0.08555957752738358, 0.04580554038648765, 0.262198997304409, -0.21543972436727257, 0.20302279453001687, -0.06409386959002869, 0.1562015708500426, 0.2016400354173089, -0.22620397013900817, -0.030417756804213603, -0.09726536783682208, 0.25035509762498787, 0.028659191025650954, -0.13936506250848452, -0.13171952295930067, -0.21725384290716238, 0.0015056707455458063, -0.23756260503947715, 0.10148728737016732, -0.1845410120508274, -0.1762709837390654, -0.24413264100272222, -0.2036275177183682, 0.0039052354453069094, -0.16354285446767342, -0.17161722488241676, -0.13470508852137134, 0.08734358904691963, -0.12021875104816149, -0.12039363852796822, -0.02512653229701453, 0.24159420600354753, 0.25166453482981177, 0.008109164362276766, 0.13809061086894192, 0.05957404914405018, -0.01943710471187296], [0.22249629726654518, 0.01034253360997811, -0.23493308136240373, -0.1466441738700464, -0.0572471760036547, 0.09433060119595915, 0.26389377527203006, -0.1608901855703619, 0.10843779746302012, 0.17968975164829865, 0.19866678428783985, 0.008369165134383627, 0.17551911022651645, 0.05384238112307982, 0.1849985988347541, -0.05943774395141943, 0.13476493609436696, 0.09744384928408906, 0.06538648041598777, -0.05340491343462889, -0.07094406718191798, 0.02847178445886539, -0.15927340886080785, 0.08709493788748046, -0.20836927494230395, 0.03646637307806683, 0.11971274896675455, -0.17446576085358861, 0.13935973354687203, 0.16330282144368347, -0.24290937905198928, -0.2446972380610359, -0.11822566336917589, 0.14465708949375405, -0.14293957784801614, 0.1934125061748898, 0.009622501054136923, 0.24721951114509544, 0.02193575439532336, 0.17316033505053963, 0.18928255588180354, -0.07658436968292345, -0.15910238027387216, -0.12325541808275547, 0.1699860177693191, -0.06889948781623745, -0.03973120707507563, 0.07122691260955016, -0.15365736020702386, 0.1545194041239603, -0.17359282444357998, 0.19577280517916795, -0.26590303721157793, 0.13105111049269025, 0.08236164320638567, 0.14915785758807204], [-0.04872289076410541, -0.03610972951489336, 0.08017141133972211, 0.14260294038760213, -0.12743387341792747, -0.06822197285339368, 0.07500296615358826, 0.23492781336660074, 0.015369545934901585, 0.012372660853586737, 0.1066754945570264, -0.22736896211494378, -0.14919303745143614, -0.0002638578135888414, 0.14752953184028844, -0.04485947710799079, 0.049222351910886586, 0.2156534471771368, -0.04873606905046826, 0.054048708363235554, 0.17819522560734513, -0.03233049584696043, 0.08386606877445785, 0.2111565097051395, -0.06161156504700474, 0.26077809491796755, 0.09196203797961017, 0.10077420061064635, 0.22678052682751088, -0.0269370619735238, 0.05506236646203494, 0.2242749964887073, -0.21009381234348007, -0.13232773001237927, 0.22293729660237216, 0.030474450947568954, 0.02033258590628456, -0.2573415190380294, -0.22422528112660003, -0.10713151568873996, 0.19077959528323812, -0.2495356471969683, -0.2274829439652451, -0.2471168291745013, 0.2554022807701205, -0.22556365357486008, 0.233692097892907, -0.0994094908834943, 0.11112092707043408, -0.05165174271209522, 0.2055211411742257, -0.14950141133087663, -0.19678949431048398, 0.15657553436800287, 0.25767251032379834, -0.07902800118445313], [-0.2263431072341357, -0.1953516819182606, -0.13019119345120503, 0.25290406704234347, -0.005323114006931695, 0.040174995962922344, 0.17763563097672397, 0.0421945241398054, -0.06940151815555673, -0.13429667570612114, -0.012124427354311018, -0.2039414880146729, 0.12218601656442613, -0.2166775356313452, -0.1337475988848195, -0.030220107236745036, 0.024723902439576895, 0.15896809351804303, -0.03522123770308358, 0.21719309756810923, -0.0547438176937349, 0.11964067662858191, 0.12151441524276907, -0.19041228755547498, -0.2300767489687445, -0.022040864244768255, 0.13453484905416707, -0.019299785041047013, -0.21291761514618762, 0.16523739759435707, -0.14052431815918717, 0.027720104135545376, -0.22943034613468513, 0.18061328178627056, 0.2622556481942978, -0.20334939992716922, 0.08944027011411193, -0.16660797850452275, 0.18000409927234234, -0.2421290680843732, 0.1598799846500168, 0.018209426313791466, -0.05164279317003109, -0.0507503982852939, -0.05774238655555222, 0.2325479192276182, 0.2620542261184262, 0.07118508339246071, -0.2074870540170552, 0.033740763945227015, 0.10947182950367312, 0.13969743625084796, 0.07469323614344853, 0.07251418120500902, -0.11083882995231478, -0.24355274016459208], [0.21568549608760407, -0.18187359800236758, 0.15648883121635337, -0.21014940525054154, -0.05227910098422611, -0.03708192805293062, -0.113583675897454, 0.23618488811322136, 0.10016763938039785, 0.2591887909061973, -0.10028115790441372, -0.067312263096241, -0.23284722714749767, -0.04239737336724611, 0.05715603161039545, 0.08935275818858107, -0.034850927564707535, -0.23737419532354065, 0.08877783562664515, 0.013581077100258188, -0.16172681706320688, 0.20523317594807505, 0.07108641267514082, 0.1753396811410008, -0.12221267805649189, -0.1099659730903112, 0.10726106528897617, 0.20521453218786911, -0.03930615580937988, -0.2220420802949061, 0.09015025463941545, -0.10503666069473136, 0.137972182397203, -0.15951980339789584, -0.18012432337222767, -0.1985014043546502, -0.1634702996894976, 0.10531690460356036, -0.11136602385065347, -0.2596571775044582, 0.23679198576631133, -0.2109554907724547, -0.13935031362999376, 0.08163790370001056, 0.11396375409956305, 0.1933469865986136, -0.12290128638113135, 0.03386557365844173, 0.05537814752216397, 0.12581381798887192, -0.14314058255563394, -0.09452584074363754, 0.05432442612239924, 0.23934795209647752, -0.09111335305028798, 0.04429283404721579], [-0.24353686699537022, 0.24877726155936908, 0.16875836026926544, 0.044383188634073645, 0.15673080757661695, 0.007289335782552309, -0.005083454695684442, -0.07559528411055222, 0.10067502926878907, -0.1574203572780504, -0.0254463997148624, 0.029222864231285284, -0.11580980397478774, 0.19549474315372672, 0.09384972310704992, 0.20060929714072917, 0.1278453276841784, 0.12583655534614002, 0.1527060824481637, -0.21591413720462466, 0.05977728915853764, -0.0186026360830866, 0.25155328699332136, 0.12162315535537527, 0.18916109675901932, 0.16018634520148622, 0.09454137023865938, 0.25164201360017424, -0.10066580390958976, 0.0822205708892873, -0.026476027263521662, 0.1827440199188477, -0.053981261472760556, -0.04282797936811156, 0.2569904378118836, 0.032461921448855235, -0.22070373706051516, -0.18779712703456158, -0.023769913038522966, -0.025792608882627854, 0.22898887503552462, 0.08673896644260304, -0.14993623885605417, 0.23196821466593348, 0.062260173802133556, -0.23974996614995103, -0.10397217695545038, 0.2018341896018428, 0.060889119844366235, -0.1898944720692739, -0.20670690443255058, 0.2550423534950913, -0.2647510014518408, 0.004578978672244216, -0.18009304570081994, -0.17952577432883773]], [[-0.0773974515839886, 0.2111505176897831, 0.11673056419960066, 0.09892524975941411, -0.12689150989809814, 0.09987776660175614, 0.15992324792404072, 0.1643048260706156, -0.14077673084250278, 0.012060136520669396, 0.13576360208236588, -0.12929803367457013, -0.05458027283797228, -0.22782053310549372, 0.20194651630183438, 0.0675451598652166, -0.07755967128552305, 0.2520445895810486, -0.03962071573593545, 0.059015528289930654, -0.24604718605507914, 0.1754883250873246, 0.21016989932981478, 0.08798918680004045, 0.12266336219683821, 0.1123131432722006, -0.25694584767801726, 0.21860015729001117], [0.13585125910692342, -0.07737634058708358, 0.17577277464802848, -0.22062048834003914, 0.1457032650415055, 0.2386914230660235, 0.19491168924123548, -0.2525833791623286, 0.18237523423117058, -0.1307240708300421, 0.24461907031827632, 0.22724868456616826, 0.23293798303835334, -0.07294388779421265, -0.11244821852583448, -0.2269024367195494, 0.08006006059823112, -0.08517421777236836, -0.21566491953083333, 0.05386939398861858, 0.12503051475336951, 0.20508853607698246, 0.26562287465834444, -0.17943628806751893, -0.22661509536873423, 0.08567442728691754, -0.18797425811974913, -0.23681383793611038], [-0.019873243455788468, 0.2562248691619389, 0.21186311206348404, -0.19297521454645805, -0.05952872788620688, -0.13984089701431754, -0.0358072525967256, -0.16043022622854206, -0.07410537847252431, 0.12158523277968437, -0.015636052910069927, -0.18060849545839572, 0.1626156588514049, -0.027092892058720758, -0.0830144862287154, 0.07161768897909271, 0.007857571735896185, 0.21571608600127146, 0.022214351716105862, -0.13348265049640534, 0.10484159966799805, 0.2410290683616828, -0.1848442497888158, -0.2530828860231865, -0.010254504623163796, -0.24660025565122723, 0.1797221445289906, 0.03440633097999485], [0.24783626653220658, -0.1254587298111243, 0.2334995263057635, 0.25234513674240305, -0.0629256915777176, 0.02446138695540039, 0.02077203919973558, -0.06717954122051975, -0.06543767065599417, 0.1610002622268226, -0.07228997462130915, 0.10311943191375271, -0.03730895258150814, -0.08683981982708594, 0.2406357011449631, -0.0856675015564382, -0.1585639500530816, 0.01172163452792857, -0.08138689511838434, 0.18815841045133766, -0.2092405166893696, 0.13411783657278986, -0.1657624435258325, -0.11993605917187598, 0.18712156465622476, -0.16473132786981964, 0.2609170954470611, -0.13258101438224587], [0.04888980021847016, -0.06656309074708591, -0.14107967019223097, 0.046827407843400295, 0.08237247082209175, -0.13394000882967783, -0.04665740640228283, -0.16961510640363364, 0.017330048802989634, 0.13170111043670665, -0.0200967290729322, 0.12111847274425007, -0.025127200623863165, -0.2389609350617047, -0.02301623674104589, 0.05991417631118394, -0.13000833961931033, 0.013808723843215798, 0.22433303407501448, -0.10261129748719305, -0.053586462278021656, -0.25314590076161986, 0.020860180172861346, 0.057699583586946296, 0.11045366927655736, 0.11398384238833842, -0.25580978130134874, -0.14092068844085576], [0.10992882992779503, 0.06446943173916642, 0.18087659809137813, 0.16779597337495375, -0.0648044370512796, -0.06144815144397107, 0.07648693660861883, 0.05696212606349965, -0.07666138975523963, -0.11220085048069577, 0.18131311960897345, -0.0428954138557061, 0.02408734147622578, 0.14614420587771804, -0.25263254975585286, 0.1849316135437718, -0.25249028025589193, -0.1878011914946357, -0.08368979987630201, 0.19845830609409196, -0.1260169283682415, -0.24143052404857795, 0.26333556311454115, -0.08312962499897268, 0.007129837073312511, 0.087897224275641, 0.16683735974551395, 0.016043120516547008], [0.10079359060893156, 0.07145165358439964, -0.05609115083523725, -0.24594209383290344, 0.1540520628326092, 0.06819643022565439, 0.23166074525875877, 0.21411793464568563, 0.11673884780512273, 0.25232733870779595, 0.06592993505497204, -0.2358638025832573, -0.12085045908011002, -0.25303849928609456, 0.00021454595349090777, 0.19678069490872308, 0.06529870068686905, -0.032461349727795796, 0.23547103583787843, 0.09612237560068909, -0.056611517967735496, 0.2422290482616044, -0.14483266062657457, 0.017659793674412727, -0.15387899058401733, -0.07841412061826203, -0.24115208039939084, -0.04335317339657219], [0.06085776646593443, 0.06164351938221022, -0.1462390685938921, 0.2283410469658856, -0.2365161368388549, 0.1154725237160911, -0.13804242175712036, 0.15439477112800212, 0.03994276794562224, 0.11119608550885625, -0.25063779152236937, -0.05883292696615292, -0.18195836861369194, 0.21726184154157274, -0.06391974473250127, -0.12360417964891064, -0.2528749520318662, 0.20646487456421797, -0.18016167495903618, 0.08100313769562556, -0.20216523248787147, -0.21023173044513183, 0.1881628128841454, 0.15307310643563038, 0.253256458303, -0.14279308892017575, 0.17122537159425227, -0.2184231738273517], [0.15443153469794074, -0.17853198066930115, 0.04339732693985199, 0.25750307081877266, 0.24525732136358452, -0.026008076331598316, -0.2439708834119533, -0.019561239877238745, -0.10431824374902415, -0.14960654980859783, 0.031267088117394516, -0.09431013078394959, 0.16886954687544048, -0.2582210685465821, 0.1355812877634834, -0.2049159657004856, -0.23440723660264862, 0.038942798154521896, -0.1741680596980935, -0.20788587237963038, 0.1982926185305494, -0.2294280715120851, 0.23882834356798394, -0.04608326518676672, 0.1315043251478171, -0.10731316128342924, 0.2638559038549201, 0.1602837198888361], [0.1862269806965203, 0.049088510359731115, 0.01596590201686894, -0.07283965202121057, -0.0005065540911270705, 0.14159734401880317, 0.20320377140433024, -0.22221794023670666, -0.23167835653113888, -0.08878020254681764, 0.1170266605500416, 0.01084623331122069, 0.24013991642258373, -0.015813898288629058, -0.12383131320026369, -0.021366646076184458, 0.020092903768669346, -0.22814925491103052, -0.10925596380443042, 0.17064818729107784, 0.03457034415028987, 0.0933630783242757, -0.19261243892450877, -0.11832077398739892, -0.11684065696807149, 0.25579310278386536, 0.02924360191991332, -0.011608659255197683], [-0.18789050726374906, -0.06973882033780093, 0.10679321976839716, -0.2519344574086398, 0.028451041570537017, 0.26511105693042675, 0.010620130092983737, -0.22645814441723852, 0.18173703235791666, 0.20666813609125834, -0.192307059712828, 0.23032081658742895, -0.06821408593937268, -0.10895083281986812, -0.0729818162017336, 0.2281998502116762, -0.21295867929544565, 0.21627999627851863, -0.21919236867863676, 0.06931168984669268, 0.04764134482911549, 0.009945213930009356, -0.021172697920569413, -0.0008666061592203303, -0.24992091246874046, -0.14360450914673073, 0.06647922748143775, 0.020539500741805234], [0.17743912583239105, 0.18914021245929727, -0.013237212207427356, 0.14052297046895565, 0.22833363914952393, 0.0850190650530608, -0.17873643720720925, -0.09555062563197576, 0.16872813195295394, 0.22279045336987732, -0.14155798909592102, -0.1022248360741681, -0.24025406703070376, 0.10559779735167146, -0.06984941609094598, 0.02229167034250721, 0.2217005695936911, 0.03392905716317013, -0.1411578343684968, -0.04902489137696294, 0.022286536331886903, 0.12948693199312067, 0.11242180837090217, -0.0373777073099722, 0.02526229794171623, -0.05786630409100468, 0.2587545870856318, -0.18922557131716855], [-0.12231687195942992, 0.22796683823419422, 0.1385150821193875, -0.08326913758259484, 0.1464043393586989, -0.009178477877407276, -0.16898346346796994, 0.009817823721620999, 0.23057513767580232, 0.24390405427038936, 0.2604696575376477, 0.020248408820153607, 0.12962914104211043, 0.07305667770717539, 0.11397818101060306, -0.2566025338318283, -0.12641600618112958, -0.12382862992877902, -0.0728835882191741, -0.22504928910198246, -0.16503824508225937, -0.08420147408893247, -0.12095187771374519, -0.1666253870044077, -0.09872047827120523, -0.06629510506149261, -0.17825323243875335, -0.2669989734019155], [0.13279408356578318, 0.22269741916157815, -0.23626977647307595, -0.01803448924508725, 0.2552968487449394, -0.05220975619071432, 0.17262454163276947, 0.2115247868419602, -0.2378234416579138, 0.19119545648487418, -0.0854044623161861, -0.09077023386259583, 0.14582388467422883, -0.06622754467769676, 0.24799435706284967, 0.19345742473353034, -0.21506843025953876, -0.13868075128846954, 0.1370007187248351, -0.02008047462615001, 0.16784679819735696, 0.1455694574606577, -0.18545833035483283, 0.19386677114927925, 0.2390827650165569, 0.15688255665663187, -0.23216957542195302, 0.25371197085027186], [-0.03341083847738384, 0.11038863475392617, -0.25693022069932325, 0.09139950493907553, -0.19425538194795494, -0.22414430227556348, -0.057272967088903955, -0.18571730443173917, -0.022293283560724214, -0.20773282977801677, 0.08003326416462546, 0.02107225754548958, -0.024983242289142026, -0.0867460486660459, 0.11914561252576505, -0.015633826951469552, -0.009168409887621964, -0.24858625292660902, -0.2534703791252899, -0.11353983547252287, 0.07504774604160676, -0.07312469427080423, 0.07603680771438892, -0.23963468378161407, -0.19029252176310035, -0.24750527741193518, -0.16512003091242583, -0.08547809172213913], [0.1999683163788408, -0.013074393449012558, -0.07140000890620432, 0.003050524009800801, -0.0802254358261967, -0.2502687256943979, -0.12363945746243593, 0.18908293515225022, 0.07340382255020465, 0.045380933971647504, 0.12754099803546454, -0.13401503134656692, -0.06251308757317042, 0.10675636290711177, -0.26372565002902765, -0.20179749104366013, 0.1690242629595613, -0.2057651244724713, 0.09967018248485104, 0.20648248849303955, 0.05656686885916303, -0.24489193356274602, -0.038156950247421245, -0.1628482691772526, -0.20049079349540005, -0.1601647483888748, -0.1657971384878089, 0.07868359438476302], [0.19915421420952928, -0.13598650764758524, 0.19003439777833436, -0.21212055602832364, -0.24634944820314802, -0.2289735412138602, -0.06043785666693324, -0.14049732670250492, -0.13883111330407755, -0.11796138345858134, 0.04634520384007447, 0.2172077652586231, -0.0967210948497156, 0.24985433567297222, 0.12754741566760636, 0.09670207195727187, -0.07493917856749024, -0.006108028966851919, -0.08979334331207517, 0.07475887969650417, -0.19381754513611746, -0.04219681908257439, -0.04579383304513976, 0.10370759631863986, 0.04152285743454544, 0.23487625165652126, -0.23823791302840933, 0.15264298307894034], [-0.23778256224907188, -0.1122763215295438, 0.08646580499189273, 0.04397380231706537, 0.1214793807396784, 0.2091166870629826, 0.2437557970680359, 0.013001284397735069, -0.14050372241864226, 0.2268536873359122, 0.22067079538471412, -0.14929877935588387, 0.1894542726562822, -0.20739752496523153, 0.10221367560950562, -0.21274007838138714, 0.07867714436108603, 0.0650358386345134, -0.24155576106925652, 0.17313901950004112, -0.12980392816140063, 0.2591402959995813, -0.09516267828036126, 0.1980260700569607, -0.26080370434358974, 0.24504336812583272, 0.1884682863545154, 0.1249226245319684], [-0.13793312196629431, 0.21334742185593988, 0.14717368718347004, -0.12170052624782124, 0.1848711528667535, -0.2640056274147291, -0.20162026572786712, 0.2453167988789483, -0.2525665073197083, -0.06997676809287057, -0.1597755395178567, 0.17110402223280735, 0.2518815396461244, -0.13785030377642185, 0.22151172288973792, 0.25169574158734936, 0.13876155201744955, 0.07839552801744082, 0.1251465635112603, -0.06159474377868708, 0.07097448695174832, 0.02060270145202714, -0.12096389039022219, 0.14244857647172177, -0.01769437600421531, -0.025730079975393533, -0.12096011160080294, -0.008837138060869039], [0.004156092424802022, 0.2254285713103751, -0.17208792825098457, -0.22551204119478108, 0.21526644367163067, 0.19915890095308833, 0.008556384059557776, 0.04216327876254693, 0.18920171089524931, -0.11952045400280992, 0.12704342213269168, -0.10439637843340725, -0.00671233714538134, -0.22341115020402275, -0.2303638064844444, 0.2524642592952343, -0.2035884780484148, 0.14839648541533368, -0.015752569623315116, -0.059991678243698346, -0.019523510885084274, 0.1228691577776655, -0.09796294327411237, -0.19162776103358942, -0.22312311795875298, 0.006948211570223961, 0.0685295622676161, 0.00500599339626621], [0.07066257161428581, 0.16858211864970757, -0.038571266990544806, 0.16361521603965384, -0.17004230650735122, 0.1495318390007393, 0.03296660989663878, 0.17351919428783874, -0.22656349180000077, 0.14210384520548236, -0.10474739558671586, -0.22024724338040355, 0.2295579208126965, -0.2200945103409057, 0.010027995733636663, 0.06784617053057246, -0.24873761834053723, 0.00799762360098294, 0.042416207144235996, 0.141003884867249, -0.06603055186557427, -0.016626309936350114, -0.08525270858446585, 0.10627873015899775, 0.042160884919431874, -0.17745908576610506, -0.17139962115270638, -0.03463344141707678], [0.05798221959204945, -0.1864976677932009, -0.15214537844097556, -0.1680421663454877, -0.03295326602922944, -0.25108408542884575, 0.13384809311473442, 0.15427652944349174, -0.20723439726505505, 0.15919561918945357, 0.19575070868756797, 0.1440225002552349, 0.085443412105964, 0.01742184013498843, -0.19490677621438113, 0.038400057035768854, 0.05227979763820523, -0.16900733457894676, 0.23190279531266517, 0.11332273149938417, 0.09127827803633841, -0.22258455044251962, 0.044131175589418814, 0.14383399222520615, -0.14350243667006712, 0.03734626080985953, 0.17135328554496093, -0.24094283264856176], [-0.008711008889389006, 0.23306586861491288, 0.059328664525481065, 0.19905453664643186, -0.2133491755680749, 0.08301298195126157, -0.23172088248257747, -0.2541778114608713, 0.19888461138426627, 0.12908059522786183, -0.06842382298236009, -0.08007353066606493, -0.21830227866467491, -0.08332692997590282, -0.16943990969967465, -0.265253342792979, -0.2091893758084608, -0.18342103368706336, -0.20455164897039346, 0.20066920396722054, 0.19452732769577086, -0.1951355907449408, -0.24952941825739502, -0.1554375131705733, 0.16855983378268002, -0.20480976794415653, 0.2671783351801875, -0.06904391054210077], [-0.22226779224102292, 0.09931158956311836, -0.15063340583236523, 0.06328401988431537, 0.007317693746371501, -0.05409610926316351, 0.17478837099571093, -0.18740074943660204, -0.15841683179915994, -0.07019972375809899, -0.08750460346152823, -0.16473564387492176, 0.2161803697650155, -0.005049170898264677, 0.01840551586530297, -0.005896961373366929, -0.1568379938288172, -0.24839258201582542, -0.17966864063165064, -0.006214496162960499, 0.13292310316930275, 0.23174232732131317, -0.24623372604422922, 0.25459888306964545, 0.12697634638384347, 0.11280025116518105, 0.06571838100787275, -0.1969470319508602], [-0.05818559322901724, -0.23501445507310897, 0.26188188060606343, 0.05026276529783327, 0.28294005023518176, -0.02212669593522651, -0.17520206456369036, 0.11784321529527457, 0.17131988769566234, 0.12050979588077364, -0.09736644443833965, -0.19175015949508742, 0.023582599356729073, -0.2456386151835273, 0.0940335028730505, -0.22377380070342404, 0.2408225645557176, -0.22045884816087327, -0.06799846999987477, 0.03312209113881914, 0.2756789917549369, -0.06835698602342583, -0.2093888500818949, 0.03922950206509512, 0.09542156807989766, 0.014348777691201686, -0.1929213048766062, 0.20416104616555059], [0.09814437808100478, -0.04674520375404791, -0.1594605537407855, 0.14054732898874386, -0.07931394992076059, -0.02556306080345658, -0.13361182394646418, 0.13267045757594223, 0.12033928259827364, -0.10570235003065, -0.1929869763599115, 0.25194404605369447, 0.25474732317466325, 0.2155784772547647, -0.23775503110150997, 0.04847884095908064, 0.06118922090134832, -0.1767571147804199, 1.3954441019703445e-05, 0.14544849246467725, -0.19574488215083094, -0.25804167731572897, -0.12456784160808647, 0.21395978563775372, -0.07727834323482026, 0.09730108130400605, -4.448800468404013e-06, 0.20714884822152677], [0.15806452640899923, -0.054785438613885365, 0.23010653896834818, -0.1109834450485471, 0.0401836400751718, -0.20612739452965181, 0.13108822274098267, 0.08848916071225009, -0.0034349705000675432, -0.017618307982420582, -0.26905509215035345, 0.09404710486409479, 0.075221652723825, 0.1379066530362782, -0.17905036565691337, 0.14660758474034935, 0.16480751096312446, 0.13638072064233941, -0.07709439407111407, -0.13639169961127182, -0.14710127412898866, -0.2269498013952294, -0.25086758985665314, -0.14981757782805183, 0.10054997032608409, -0.15848889013986506, -0.22760631385727959, -0.0024804858733722956], [-0.06197766452340143, 0.04301675430156121, 0.23558044745449125, -0.017932602726064697, -0.14330001549641, 0.032906816281395246, 0.21393651856039425, -0.2611791006996862, 0.08860386887431454, 0.1727812514544016, 0.04926144511264616, 0.053058099260047314, 0.08122376320693117, 0.06691365437267582, -0.09595423072334056, -0.20616759404890644, -0.051567534345898586, 0.02205548081725428, -0.008806605047626537, 0.09370199069125205, -0.06757994996143243, -0.10016780459618532, -0.08693114397158166, 0.13912698977074509, 0.2222645820587689, -0.23307322363047164, -0.2505174246026003, 0.1339837891356923], [0.23571312403609102, -0.10450440058949562, 0.07031865377352217, 0.1538839659672735, 0.27907673923833465, -0.12714044060392943, 0.0711213312069387, 0.1628414666004427, 0.09096845830274612, 0.20507564180123175, -0.08660619022068124, -0.0711795979936447, -0.24491425533510847, -0.11199354646378476, 0.2192482559766548, -0.2580240388480439, -0.12918263015763495, -0.19975801007261873, -0.1258338257821751, -0.23683240061934352, 0.21987267393951831, -0.04119310169215329, 0.15088151990901555, -0.17768492045897882, -0.21735876886857808, -0.0740915211846652, -0.19356811981945493, 0.0008544206133607735], [0.12581246346436656, 0.22431912931812012, 0.23619842368273142, -0.05361498698331485, 0.020539827227778574, 0.018775858952211635, -0.06791397859516543, 0.24162951731987156, 0.11112621252817684, 0.13063970171592948, 0.23683021775121518, 0.08357686863683475, 0.01227970780290917, 0.06604297940762571, -0.16476984108433387, 0.2639760711686491, -0.0035892109646591397, -0.2575182192142651, 0.14662672937662646, -0.1012881641641332, -0.11917038660634093, -0.23661732972853974, -0.1654227740280269, -0.16460668463732628, -0.11472521670367349, -0.14455888204509, 0.01662441040585505, 0.17430730979345976], [0.24144687575502533, 0.2100412720451058, 0.09982798613698864, 0.010533567472971876, 0.07927203789982293, -0.19515019642529186, 0.26251913117704434, -0.025630601094965594, 0.1122618702545849, 0.1788420746081525, 0.007080092970186295, 0.023418406609291786, 0.23874790728181236, 0.16852451981991529, 0.18148943853285837, 0.05140219365886892, -0.2579921544974062, 0.14878120990943428, 0.1695810359786341, 0.13832915837802714, -0.12006051121405807, -0.2013740478606072, -0.19527709826271317, -0.022586438203074627, 0.055321313598949595, 0.002066441883784298, -0.25228741852833475, -0.0880827630047443], [0.10713356524733511, -0.24909162191252007, 0.21940378110926417, 0.15986143461877236, -0.04418644248390321, 0.17747066810886616, 0.12798390958115186, -0.09948917511988273, 0.2061221938966311, 0.26056642987962503, -0.20629593389922934, 0.10490609511027843, 0.2304124291517201, 0.20089710852796588, -0.028599945386961728, 0.0645300705335392, -0.22338141132274866, -0.2534308529907622, -0.2403664770691288, -0.08216252037982111, -0.06186787872199327, 0.17045736504570197, 0.23984268966746125, 0.2151407878926257, 0.08638550425935454, 0.2322553907765088, 0.03032584878627903, -0.1713423237650037], [0.13228948518837685, -0.019156340441977247, -0.1066525904945783, -0.08806961445156807, -0.05002062575716596, 0.11837014259022556, 0.20443226345358423, 0.14124043245485923, 0.0005334016679055506, 0.2523620629199509, 0.06682164985459163, -0.1006996585596287, 0.21514901151131785, -0.18170297081079256, -0.12431765219216852, -0.11863398356954834, -0.18984394400558774, -0.20390085095171384, 0.07344760413888962, 0.23003978492093752, 0.12755324222859765, -0.2612734763444603, 0.20403834915575086, 0.03222522753766799, 0.08448460730782215, -0.18224171421552599, 0.243219194115787, -0.1917500576765508], [-0.13539463753478653, -0.05001334757407359, 0.08728814782696646, 0.01000594822878857, -0.14530702517339955, 0.23015666355718964, -0.059060815408328964, 0.01927737993431098, -0.026781609409083085, -0.0021113904184369143, 0.19580801646027426, -0.07728440365619939, 0.17597687064623732, 0.14945278283339403, -0.0848520846912804, -0.19217151706559205, -0.0781560331265104, -0.1167211232240141, -0.015797175079907966, -0.0903251855872015, 0.1860556436426867, 0.046523036024508024, 0.2184380095520271, -0.20892012621922865, 0.19222123465919091, -0.14065775772979783, 0.006694276466130411, -0.008505989757691118], [-0.20007879509705753, 0.17785483941328337, 0.11363129089344028, -0.17976479474665277, -0.01885680688307814, -0.05524521154013236, -0.07389191470438067, -0.15121040157474097, -0.26411598703512285, -0.11997239017367313, 0.14878791385525078, 0.12900741608209, -0.21315790695035214, 0.11984525438375948, -0.21240078707306137, 0.25967095659575834, 0.24711326788964483, -0.03987097904845033, 0.23603132496551982, 0.13357209575662674, 0.06295619087368277, 0.13901806135712252, -0.14336348570619323, -0.06435463544228681, 0.0964507014276848, 0.08061513895676164, 0.265633438250668, 0.11697848693934726], [-0.1190694169672199, 0.2475696736731164, -0.09845632654876874, 0.23642161504620665, 0.1954544210312932, 0.01853479033950959, -0.10037460839984734, -0.22707942079031782, 0.17451247046462154, 0.23430507614668794, -0.09336582955167332, -0.030876902973647747, 0.19265543656042103, -0.0020126420765492203, 0.09124421567401524, -0.1529312844859986, 0.07182421237444603, -0.20256523774912852, -0.13368254761294915, 0.16017478990017545, 0.1353029261564605, -0.13075226307018836, -0.2297156327659102, -0.11679364505406538, 0.09464839618443079, -0.1678802161269204, -0.17024781210399673, 0.06336234494409405], [0.18245880392887753, -0.08623667064774236, -0.04466317752123748, 0.21366517067019758, -0.005089807802601303, -0.04860198051600033, 0.16304436453392537, -0.21359680255463895, 0.13605498742349387, 0.060760796907351367, 0.2248399824800227, 0.24518655221843633, -0.1042488151401135, -0.2017637802208295, -0.14557654642546677, -0.1880458904383217, 0.14699769218998193, -0.19803613498465086, 0.11417704529896111, 0.15067809532805443, -0.11502355636270428, -0.2080444143640645, -0.062654371371063, 0.04887472827739553, -0.2461014098247421, 0.24472980903682773, 0.2159514691002644, 0.014254936677093488], [0.2357613171059798, 0.21188282622459806, -0.055571535481457934, 0.09214639194150241, 0.2640675328886068, 0.17141597288869628, 0.07064450465495915, -0.19842815622097182, 0.16530107386498344, -0.13629613337396598, -0.2552082726887716, 0.24995289630535678, -0.0450169294474929, 0.19911099325040582, -0.2454436332904471, 0.20767474480419557, 0.10716662403092053, -0.24071000100424078, -0.25699308661661724, 0.2603601759075187, 0.2548689316107568, 0.1660817883910815, 0.1402277035613192, -0.009490366139761786, 0.11002188765315529, 0.24930143001030192, -0.19589907722290584, 0.16088725508998258], [0.15565239008167336, 0.23710867334400473, -0.15841440921619634, 0.04520184355611942, 0.24356331665164271, -0.20916076922185886, 0.06680066764767456, 0.07713143663011536, -0.2234200147739392, 0.18547991551578644, -0.1233768980985797, -0.0022457961060585925, 0.12457681144909942, 0.1765402843237, 0.11697239491694704, -0.2036429765277641, 0.13463868319132655, -0.21665548306412252, -0.11290452683307023, -0.27321805712503555, 0.1149003759794534, -0.09488801964486798, 0.1672854307734853, 0.15626181725289479, 0.05227676089931419, -0.2318917789548231, -0.19456246033774857, 0.23375755048172153], [-0.08890723320311274, 0.14992482622500883, -0.038485940041044595, 0.1599234775488846, -0.012714312548355445, -0.009325119780862713, -0.004970276439504935, -0.19372553043451057, -0.2060400157181067, 0.14265787980415484, 0.06610722273588066, -0.10111943977534557, 0.10081452987188344, -0.13635907109625006, -0.07329239364014181, -0.2593193530825824, -0.23173797399062496, -0.1874886603969349, 0.1409883296341075, -0.1911399617363848, 0.03919251099818955, -0.10419711093417633, -0.018604996761491105, -0.12112138447173112, -0.03608307206627484, -0.18872923895571614, 0.1709718175728337, 0.007153317126972869], [-0.21876335351613332, -0.15056572801090934, -0.1830415548557841, -0.0899276420651505, 0.04849298076960269, 0.11366252752305375, -0.16277809616966715, 0.03543092857020325, -0.07233540557471341, 0.08318318196782508, 0.16482409815012738, -0.19974512198878788, 0.06320385930390444, -0.13061291897880561, -0.1055282003040331, 0.1718506507082681, 0.0918699650808178, 0.08159410869022465, -0.12902868121020486, 0.14190664481788953, -0.24689713055163662, -0.21285948773943533, 0.051659126920975136, 0.2361028849538851, -0.20583321952184858, -0.22286123324187707, -0.027037627336554404, 0.04617992943860296], [0.2543993613326931, -0.05184623545389073, -0.07402924886799465, -0.23941692574175724, -0.12874762144253343, 0.021366682018128035, 0.22322742628884057, 0.07307157281959209, 0.08479966791355276, -0.10252193066646391, 0.25440935917078134, -0.01176845864046112, 0.08226099352521166, 0.1509522921526963, 0.12025141680123543, -0.1383427299204156, -0.01643425330855014, -0.09899034829891995, -0.04569273333068022, 0.07375490516546604, -0.06858548172300404, -0.17867520941320525, -0.11623696144649069, 0.14109813608065183, -0.11084326323435152, -0.04860873859455736, 0.13437639402569956, -0.05783187564887385], [0.13713424271256575, 0.1897495305265125, -0.007974059278324015, -0.024678910381931637, 0.05433987070852551, 0.16506426913817962, -0.030084461625110998, -0.04248397631476555, -0.018907998537064208, 0.14268164249537826, 0.1732808785525288, 0.24974685158297244, -0.036096421179691016, -0.014249085048687549, 0.07846718726346436, -0.08391094214439312, 0.17529567993648942, -0.11219105284647876, -0.1547277967867627, 0.26110920367451934, 0.02481804912288896, 0.0006181654302150896, 0.1587886372959254, -0.2590227542371079, -0.19471558396464791, 0.1638099438386001, 0.11181956254207082, 0.04253352164703256], [0.25292578834598434, 0.16559299061915428, -0.25522064178716575, 0.10166785510532421, 0.013234076930728622, -0.14017964803478114, 0.04627616921342946, 0.13503321628768022, -0.24420772907868035, 0.11086336680460004, -0.16067922453345296, 0.21345200447367904, -0.16149611200674582, -0.005515708045406631, 0.03869411291530551, -0.027578418103264144, 0.017498722736127903, -0.10136621028261977, -0.05856105957757188, 0.06464152982684174, 0.15093695551519618, 0.1913296673621962, 0.20103886022122855, 0.1792119095631007, -0.17588172289148463, 0.2048369741533264, -0.1762003748828059, -0.06315310635677501], [0.11819719438585218, -0.23540882139930708, 0.19608283219704634, -0.09702093573456677, 0.26317915309576445, 0.20668918616413182, 0.153487100925471, 0.18398037857156513, -0.15583265373957558, 0.023965959693170627, -0.0854654449929664, 0.15203915794641998, -0.26081075028737816, -0.1280312203376057, 0.05290699312756686, 0.012583748445291063, -0.14401713983750652, -0.26024639436362174, 0.13560403180683334, 0.0618015420595437, 0.25479794174061743, -0.06696799178633836, -0.0528341200371292, 0.10403900313934311, 0.23769392472630246, -0.11699111671965456, -0.12232113276937173, 0.20799083638759247], [-0.24058946116441718, -0.2593613302605822, -0.20242741838457937, 0.25883383158720835, -0.1503687958520115, 0.05060565454094864, -0.09888915322878222, -0.2495327822431399, 0.06803690910734461, 0.25865500656275536, 0.19839081774575545, -0.14280099646098365, 0.14443027849629134, -0.1902456366030108, 0.21591458492221985, 0.15815949750271094, 0.05636771425977011, -0.17491251889959403, -0.18190881454650723, -0.13948476218480693, -0.2556826162747616, 0.11388429183054882, -0.1792696169659983, -0.1879808242173965, 0.09577042536318733, 0.20981017018562492, -0.24340079141007084, -0.21975692064734556], [-0.19119512570000563, 0.11864526963511488, 0.17370783415643726, -0.2332292777825655, 0.08399860095833113, -0.2501832290718558, 0.10221502268711063, 0.13201789161985125, -0.22821375049663029, -0.25480409381157904, -0.04343235740716451, 0.1110461258786983, 0.020350713219224346, -0.22851146084302337, -0.23432803342185682, 0.052360059779283444, -0.07661802000398132, 0.2086689590268529, -0.03788231849204088, 0.047398178311216704, -0.200692655770099, -0.1868267506229062, 0.17819166174478385, 0.22303772566041005, -0.23647641011020698, -0.19692447322194623, -0.16688118468934354, 0.1405932367483381], [0.23466015880740473, 0.039545526931663216, -0.15658644129347907, -0.03522144433623388, -0.07562265566458194, -0.12575565796519586, -0.26800859240195685, -0.04295155992916902, -0.2116176728369343, 0.01926445494335261, -0.2509131961721072, -0.0005438883665700445, 0.21213588218382684, -0.2415580379425634, -0.17350345520478286, 0.1954148498997297, -0.1256956363757497, 0.21043160068075534, -0.16927605748107005, -0.10381567483554023, 0.21547235558133152, 0.11052888015605095, -0.04988376650584342, -0.15515802434779177, -0.06506061350951436, 0.05541077096316277, -0.009341507356693812, -0.08535396303772272], [0.24423663897644232, -0.22662451265831063, 0.2377394446628155, -0.24466943036042557, -0.06226145523326092, 0.10736040787403296, -0.05815100577186202, 0.13993928527813188, 0.04993477206992342, -0.1810716735693584, -0.09977075133624566, 0.15205909555910962, 0.2552382588690444, 0.019304161050358537, -0.03458237678622436, 0.25416072508181986, 0.2653188084468183, -0.16202474892286842, -0.00889911127285864, 0.16400632626083253, 0.2444010938133882, -0.08021152046088545, 0.10396231607914114, 0.05801639544480269, -0.1973705685925591, -0.21014791381947107, -0.1511325847224257, -0.2524911030261682], [0.07884734865688975, -0.06991016422590247, 0.2345822729219501, 0.15988062210325735, -0.05979406004990711, 0.06228221646152098, -0.057077758188907306, 0.056565356034861215, -0.14965364739870624, -0.1894281677585665, 0.11899259498153393, -0.1291900486265391, 0.026802075990117843, 0.19625056973618665, 0.040375302380774185, 0.23334134656895797, -0.23477892218009347, 0.13627364502101796, 0.22961860720768035, -0.24868272232082478, -0.04138660975684355, -0.16619108317279135, 0.04248084470500305, 0.048138121587640186, -0.10970386094259796, -0.03906033293272712, -0.17749273680187933, 0.1722574490937532], [0.22243201067524554, 0.19056487371580025, 0.1448697278963155, -0.1088772654104819, 0.10479510793170613, 0.07799586459050761, 0.04950658685744436, -0.13064423613574105, -0.12543022080472596, 0.10885632125282424, 0.26046885867673686, -0.1866923793199976, 0.05734372338953438, -0.08310323315180587, 0.21346705390685472, -0.16969150897576632, -0.1423775423464802, 0.0846889293211402, 0.16425025482545308, -0.141127099660721, 0.20480667588082505, 0.20487229704521875, -0.13764407558309386, -0.11233452091318166, 0.009698250220700233, 0.23487378745299348, 0.08156028709702763, -0.25713026351243873], [-0.03391613078525878, 0.20289529305445134, 0.14764551988571914, -0.20545260331529372, -0.19603125451792414, -0.05876848911168189, -0.022308207807583608, 0.20859651935483295, -0.034764358525346095, 0.034857220141937484, -0.09341359810808687, -0.06372149138515745, 0.14974744290602215, -0.22288013150143124, 0.2602003648971391, 0.2227018011094369, 0.2054144414433453, 0.20689979763917665, 0.07430300844869064, 0.2387327391841161, 0.2179336592891052, -0.21178439418189446, 0.1447688579895878, 0.015404656788321447, -0.004201914844815163, -0.19383118188871434, -0.24419874637316513, 0.15158761428227027], [0.043232545895595234, 0.031592166502765, -0.2507269703655456, 0.18211474663294974, 0.00738619387876449, -0.10987969351014251, -0.15790237528608264, -0.20656854594877921, 0.0765216921824593, -0.07169912008484831, 0.03767137072531283, 0.1633672914834355, 0.14871043537572656, 0.12010877920446877, -0.038348436838888236, 0.23798487519836134, 0.22755863411076105, -0.027854616491144346, 0.23304351037740678, 0.1556031883337407, 0.1613131822922655, 0.23973676460954818, 0.0004318918427384856, 0.24098592077475553, 0.15413003945304177, 0.13183762430629986, -0.12677936385236618, 0.1281561149451533], [-0.2606625731595107, -0.12194252335234414, 0.09132790845070789, 0.08756613253026489, -0.20936025429654506, 0.21867197075289252, -0.12247437582722498, 0.06570540321177494, 0.09311215723735639, -0.007423255155338634, 0.026806302259718407, 0.07936825127074203, -0.03343242520580132, -0.1610969915618076, -0.09257915178938421, -0.13531740061848807, 0.033238542439145424, -0.10551606062011912, 0.0026427914738042513, 0.017769703358918452, -0.07888346605338248, 0.07633471776300454, -0.13063142321513815, 0.15547633546715972, 0.1331379256039423, -0.07437666436554091, 0.20731199213575557, -0.17472419397839578], [0.0034151994404365044, -0.014464116347145763, -0.20209519099877754, 0.09791678421161575, 0.017383261510477376, -0.1923951393991278, -0.04767677351849822, 0.22800166235326816, -0.11830518149396499, -0.24032877376336007, -0.050157459172449056, 0.12458239481478024, 0.23794547964807963, 0.02191619557969615, 0.16064731410289457, -0.18128687155628714, 0.041128831185403114, -0.16405868377111643, -0.006583835225862922, -0.10013518320132637, 0.19524031650629223, 0.03202536314662191, -0.03566968501278123, -0.051318738818487114, -0.20601421955421043, -0.1531983593629878, 0.03673146632504676, -0.25046267900980285], [-0.22694474236332493, 0.06737366763548693, 0.1515303376719677, 0.06741242585199261, 0.03996687654818512, 0.20661436575573103, -0.0932684123424349, 0.02331182404671747, 0.023727100516024446, 0.22135975628474555, 0.16944483605275915, -0.15923495041022198, 0.1803058755656195, -0.13920096013738065, 0.012057438300665833, 0.030571982732509155, -0.19893457415087218, 0.22659021117839157, 0.050492972367767175, 0.055111839521732264, 0.054811103328657136, 0.04714895155384197, -0.08126052051145974, -0.16742962268274544, 0.0916980262459868, -0.11138088812411376, -0.06476260361927341, -0.003489463363839437]], [[-0.35788949131573045], [0.07596833958289342], [-0.478000045679795], [-0.15598208021104332], [-0.3146442059514786], [-0.35015868249668075], [0.2884892858180536], [0.1859371532294871], [0.2517347516349514], [-0.3170338354537274], [0.2147036358701814], [-0.4360357194875691], [0.1203243574048447], [-0.26141837077347885], [-0.008990252000752838], [0.17704400647799975], [-0.19655726339854812], [-0.2850770052864027], [0.2189556687393744], [-0.40315882428406546], [-0.17730843783643238], [0.38640407009425165], [0.1358235264922898], [-0.2533962707917086], [-0.14203236193797464], [0.12639732356081873], [0.4068142691059834], [-0.23625524192286618]]], "biases": [[[0.0039951690989075885, 0.0033323124663408627, 0.008156038559750585, 0.004676621462109253, 0.0030613392554161767, 0.005373713240185648, 0.0019208439105542078, 0.005010314269880352, 0.0008551115125330299, -0.002510278963705318, -0.011605597217881652, 0.005065103818333484, 0.000900920240118837, -0.0005617294649190741, -0.012175340371501241, -0.00010066305889983203, -0.00300458133939497, 0.001925575272910723, -0.0024596222988414983, 0.0013616111651122695, 0.0028845295540352355, -0.00536858942549147, 0.009452696312198146, 0.004744904156960436, 0.01614164538381876, -0.007778189532032681, 0.01209961145031988, -0.015100611241039468, 0.020422953996500803, 0.00022783514276511499, 0.0012225859272837847, 0.007870910900336198, 0.0021495111206870266, 0.008799242094762757, -0.001759392756127858, -0.0061207056708311525, 0.001259239702970241, 0.025653233623401803, -0.006752088066694875, -0.0032109752763517445, -0.004192067863430761, 0.0015231432692880379, -0.009478833316749175, -0.0040854642209752195, 0.032630184953849506, 0.009989603187214504, 0.001540475951004464, 0.0007957721548384829, 0.007981578966802485, 0.005076509765063796, 0.0186380122173837, -8.449204121757e-05, -0.007041516556774999, -0.012903192581491708, 0.01078157940144841, 0.00697266761485794]], [[0.022779199999393367, 0.0014039447852111726, 0.02951120670901311, 0.008527919510646053, 0.017004302487228812, 0.008911920173466373, -0.010283473953060266, -0.003074757018571655, -0.020853992012144638, 0.016139166393721868, -0.004962991191430432, -0.019607201831762802, 0.0025238675415914357, 0.0, 3.374056380791646e-05, 0.007925476033562282, 0.0, 0.0, 0.0, -0.005509674578061348, 0.009284483766529105, 0.0, 0.007295871938975941, -0.014323006598652495, -0.0024361884382489243, 0.0, -0.008212460137759036, -0.013318099109315792]], [[-0.058518627616328374]]]}