{"layers": [28, 56, 28, 1], "learning_rate": 0.005, "weights": [[[-0.015367719901768773, 0.2613711868973049, 0.005193645906191591, -0.1429584038365445, -0.08277621436282159, 0.2650946283144128, -0.12824849038645625, 0.06467107672508793, -0.008298467919505115, 0.15059314739405005, -0.2461929750404125, -0.1616704995312313, -0.0400813400401028, -0.266646413993227, -0.19605462689391892, 0.1332859455590018, -0.07680904616755746, -0.13857824354126846, 0.06983972056212129, 0.039331201909995284, -0.057246950838639205, 0.17178975103542882, -0.04754869119329183, -0.1850259927979926, -0.05048474115980853, -0.17456542193803995, -0.18327224894608557, -0.1457891247672493, 0.05711995062554048, 0.22795422600357812, -0.1187351946749782, -0.08492282125962472, -0.04316923970552894, 0.09058735523254119, -0.11431834355521897, 0.11261814797061775, -0.14052428557282137, 0.18785168567363625, 0.07031579992259873, 0.1866072667786834, 0.26694613790512556, -0.12430001809710775, 0.03290354602305018, -0.128621100050172, 0.08902554531400597, -0.1482711157775758, -0.21838528007330688, -0.10588758962839592, -0.2426934409901167, 0.16265048392140574, -0.2240778232777306, -0.168124609295278, 0.24050441700177216, -0.15404994608166134, -0.012401183863269882, -0.08081302016067843], [0.21605235032820003, 0.2273632048971227, 0.14758315214075696, 0.20294686861242706, 0.0877876000148316, -0.257517932622062, -0.07529046795078109, -0.1275562493263523, 0.21737605374588748, -0.19892518575469248, 0.19943661512184596, -0.06657175816472238, 0.15095870485945478, 0.15571021085497216, 0.15421799165718214, -0.153112688893776, 0.13574535417365413, -0.19982709352756112, 0.20938121653307745, 0.15346558536687688, 0.23976160433977411, -0.25678171066856514, 0.10200717845553575, -0.11464721999636177, -0.24187322518834964, -0.03959967362974007, 0.21429578982678416, -0.19093593793500285, 0.19841579329390818, -0.08422825355714941, -0.010928634336619003, 0.09178716710166018, -0.07872665920496452, -0.14251209328448142, -0.13441844704194184, 0.09590278248860384, 0.06462224541216505, 0.1986580571089741, -0.13476054238129445, 0.18310842250403297, -0.05915937481266112, -0.009425790825171254, -0.06509588023037977, 0.07818411602334485, 0.23046932563034206, 0.05069923655507713, 0.17010964684841628, -0.1095985058474353, 0.06860479617495063, 0.2018426420445717, 0.07846939804842906, 0.05894628205074709, -0.2171895591573178, 0.13840670908490332, -0.26620095748833383, 0.010409939261197931], [-0.12146524149514837, -0.09727151882539453, -0.1747734168054794, 0.23979846221467593, 0.15237860249728769, -0.1715377680263152, 0.17842276804758483, 0.15382631892943288, 0.18795240894347875, 0.07805385953155908, 0.24814448079931173, -0.0017113542212270905, -0.2072337980058085, -0.22244661115820216, 0.26215445734383935, 0.003660068865032895, -0.16711764190056208, -0.03278174885428162, 0.02372996077599393, -0.24320484747248342, -0.12083729846344177, -0.13281357795046725, -0.0017666680886881947, -0.03697394067894896, -0.029445835938193415, 0.23935828272828907, -0.002729719020696242, -0.0701754239363298, -0.031001908737930933, 0.07312633693164267, -0.1248446881208651, 0.04704817668924571, 0.08701711599300549, -0.25308719202836105, 0.03193324192347785, -0.18749978406484838, -0.16967594148365073, 0.09351300552138059, 0.2194212673329809, 0.036070422263322466, -0.14637530074825073, -0.25465410026480195, 0.21163765121535905, -0.24239347810197606, 0.1440327844768941, 0.02635223960762828, 0.09460007911290819, -0.18355678379937396, 0.09278466139322744, -0.057861742585855636, 0.003158513692844811, -0.07416536439677074, -0.24714093882160987, -0.21758208998799908, 0.12112080237930073, -0.18490570007699497], [0.07012701044687669, -0.18603852265102108, 0.1293696285556972, 0.08774201130004164, 0.07027188113577888, -0.2547292053679477, -0.21446047100840063, -0.13980606566752465, -0.03392522924634723, 0.08463632170659659, -0.05430668129024271, 0.21525257496826772, 0.05924111758706707, 0.16817566659756295, 0.05040723615935828, -0.18608207456363793, 0.26401310865793554, -0.043582024982495006, 0.1378474419161576, 0.20779499958330558, 0.00576455485101133, -0.15494948872884762, -0.2273167423619558, 0.0912221990099466, 0.09250626319489479, -0.178870920351221, -0.14414486163828494, 0.1869644815995959, -0.16749217076619902, 0.16924527675937565, -0.2260251246686766, 0.1184923529120446, 0.17530748575034522, -0.04418936736881675, -0.005089665223830747, -0.11463397447631485, 0.08441085815906504, 0.05650844472844978, -0.22622369246454443, -0.09388005779981783, -0.24605931051144053, -0.2258554598844565, -0.10612979630662282, -0.12144153235057167, 0.22187533714148627, 0.23849770538522763, -0.10428771976572491, 0.22164066499648868, 0.1327139031103855, 0.12264270855436506, 0.009558594025239541, -0.24444960983087002, -0.10297980965304072, 0.05728266587950497, 0.2685313443580226, -0.16285767483688326], [0.01668657525488621, -0.15819888162659912, -0.06131294909636844, -0.1670403033255267, -0.12008331319067257, -0.00025778491129595243, -0.18710945103919638, -0.11252165225979927, -0.1918848994042321, -0.00325560963244345, 0.2497810804135229, -0.19817464472593865, -0.264995067635703, 0.04880961940187395, -0.20839091089785777, -0.24246102074829795, 0.1279437368084902, 0.1731602552283998, -0.15391829223494477, 0.17734799261805098, -0.1192987435631171, -0.14736781257289064, 0.2234750164761404, -0.04211535900783067, -0.2042597701999057, -0.17691525635605715, -0.0105678130319003, 0.0633800818198876, 0.23358115632189086, 0.010556819539855739, -0.0015976475250958932, -0.2291418626568214, 0.14639354877714503, -0.21128972874487964, -0.2652858837305603, -0.024425695558211783, 0.15976790363364515, 0.14798645999649757, -0.11699230339754303, 0.06351572909374656, 0.05717038530864733, 0.15345029028051427, 0.24740603469736386, 0.04320653484255985, 0.20196404194713222, -0.05929893293504942, -0.01151357432217885, -0.03248251056976852, 0.22217073187908182, 0.09666549575458333, -0.04163970742231819, 0.15956385392941236, 0.26396636417364466, -0.13446119430287137, 0.1768024276673072, 0.14695805914494897], [-0.19549385894989219, 0.21361194117391435, 0.2567984057978707, 0.186614562334931, 0.24817169654262428, -0.04605002170313818, -0.061271463389547726, -0.07977283573202593, -0.17176878202319876, 0.0694636188129471, 0.09445588648639741, 0.24205728822315598, 0.017781220216197546, 0.12674932524699972, -0.20055677950814083, 0.03455370885406628, -0.16057812072194805, 0.1691362232061137, 0.1553841459028621, -0.04926602412089384, 0.07363936859707698, 0.1890647815171579, -0.08567074288081189, 0.19994490540938115, 0.04866312143633289, 0.16669551240007918, -0.18228910084705038, 0.11636093161546629, -0.21785247271326313, 0.14078023758235964, -0.04888845627636684, 0.005786660660069443, 0.01571201478506057, 0.23351852815463592, -0.04417020577589503, 0.2438628965326508, -0.14497024345077553, 0.11309582446662003, 0.2055205672288501, -0.22736445867378394, 0.07782876458018056, 0.03743251450033058, 0.03273220509009822, 0.08167243945911301, 0.08618523181204535, 0.0836748771179468, -0.14657511905367396, 0.19761212269330114, 0.2624485941632517, 0.13473687931613365, -0.017715334303530006, 0.025704041081479057, -0.15573336111959207, 0.17409998793424808, 0.19787989893738278, 0.011683763790014512], [-0.2179279472372756, -0.23824024291625848, -0.16609349798631462, 0.22697499124325649, 0.24629386199457692, 0.2563023166564824, -0.17518596378566087, 0.1920532095577947, -0.17052767097675636, 0.04736840401838932, -0.05833908202849983, -0.11858681588591485, -0.17916474096726737, -0.16361489972996357, 0.11854791289000555, -0.07181895640282285, -0.14751582937107377, -0.2504688285361169, -0.2513401953940808, -0.03636006224475097, 0.23428696479089217, -0.09478183365675666, 0.02340586969558789, -0.23283249570489195, 0.24977078189737734, 0.12185332285147593, 0.11009639526568532, 0.22329428412546432, -0.15651460194327657, -0.17294018132364547, -0.21378815991202282, 0.059495347360119744, -0.15200774342545786, -0.02380456881641238, -0.21574108572434675, 0.24907664022492793, 0.2132308425199234, -0.06713514517030342, 0.24032733806528228, -0.2473583079582731, -0.09024288793174598, -0.1379995565258664, 0.2328613107174432, -0.23220946220502317, 0.09627724326524689, -0.008094320951671619, 0.004875373159524965, 0.03820866181601551, 0.037333375356776444, 0.19094288140370325, 0.086787600103298, 0.16915313003981108, -0.20014961649591417, -0.09442391926836657, 0.17629696496967973, -0.08609504740606536], [-0.02806869552566124, 0.01865562001758264, -0.001145254985271793, -0.007202555291849766, -0.06134758824717507, -0.24714669225324598, -0.16052965617766185, -0.2145271239629387, -0.16187121688906775, 0.0595746370239954, -0.1888918791024193, 0.17856578311301202, -0.26194672298768523, 0.004948670878039463, -0.19444823443829945, 0.07979764203799716, 0.03377917671729175, 0.22451942018295895, -0.08671722196542614, -0.22325217082083593, -0.08512267790059713, -0.23351903300112822, 0.03468846836724537, 0.13977158508099052, 0.23466992787322627, -0.2659300117635929, 0.055264791084510434, 0.23438668779470173, -0.05575485293902055, -0.03466207137883359, -0.11827104560996629, -0.1740659451332567, -0.016911287686804388, 0.17421985295111253, -0.03360716257701987, -0.2179647487570588, 0.12049003648433065, -0.1695308580741729, -0.24382686164728018, -0.24633432309395084, 0.020545698826972048, 0.01722561344613216, 0.23858684618001302, -0.14804321939556567, 0.25231059830155067, -0.1376040044067875, -0.0790163492019545, 0.243770384936275, -0.15121238713408136, -0.0802394874882717, 0.14735247442119465, 0.04914614465949274, 0.035044661686220335, -0.13200766524602006, -0.09247095301153238, 0.07061155790318074], [0.21055102440435175, 0.13888523917840012, 0.20825919026825884, 0.032379284007064135, 0.07084208385307744, -0.09493863082576634, 0.19463404616966545, -0.03233606963409885, 0.06428247965306771, -0.11204397307416677, -0.12855699473847504, -0.08303189221029561, -0.10633423893684871, 0.021326619572554883, -0.20901473404746096, -0.23898866977447655, -0.016121606039781355, 0.1888617477727743, 0.21312345520746734, -0.2507989499687364, 0.15166563734061228, -0.17545030811320983, -0.1326849463413713, 0.018232121777515986, 0.25827908030619984, 0.22508089650113122, -0.001557059091124302, -0.10908860485853744, -0.24760180719459723, 0.005567068408013132, 0.19691587778424957, 0.06937505046778814, -0.018618672068085845, -0.035416137277035964, -0.1852948168665809, 0.1104807603194991, -0.022419739453715254, -0.13418734283748024, -0.1624727879091475, 0.2010858008537037, -0.08836205622352933, 0.18257503530963698, -0.052261905262523584, 0.013563334198646415, -0.07753490581973804, 0.21137341789772623, -0.08091913812075546, 0.09878426461901518, 0.08930934661397893, 0.057104375519135886, 0.19668548453891643, -0.131827527924355, -0.19777423526685722, 0.13770103805350148, -0.2088653374639292, -0.2198481969751206], [0.17981233960789328, -0.04058849678506593, -0.2601729680920304, -0.21888092489797084, 0.17233189935312992, 0.2063219522338502, -0.2670130348608554, 0.1421382134407545, -0.1876681890091904, -0.039842962613906324, 0.19495353928098202, 0.22400834832373479, 0.08450824849062305, -0.023238926087360473, -0.06505696684068496, -0.2508346950195831, -0.08580666248368496, 0.15138173505953118, 0.1635684900896014, -0.11489141160654998, -0.0512813060007839, 0.1578543821638312, 0.15815487929922023, -0.23161738999317338, -0.11226152547464674, 0.010755053337757225, 0.03813084409356915, 0.08829045621286774, -0.17193206004660322, -0.012262482996724, 0.0418035354348843, 0.07528908237322901, 0.1299683513033537, -0.011451765575146933, 0.057681310246168904, -0.2118988708519955, 0.07159671455370359, 0.12368671718114177, -0.15471689380309256, 0.15679247077676367, 0.1382015167156666, -0.20030015237986815, -0.12595753994533068, 0.020707050694103557, -0.1151676799701637, 0.09353378525220479, -0.14367397462984255, 0.1083091203909039, -0.1257226965188102, 0.06605339419887268, -0.09879433803885179, -0.01916806056622769, 0.18816585806899666, 0.1962152403493962, -0.09792281773912564, -0.10436352698771037], [0.0012242102554780865, 0.14432941598049243, 0.16980914939387237, -0.22315808161885092, 0.1289305909047027, 0.003760252239959183, -0.024329111932674424, -0.0038670614056505737, -0.2368290358034551, 0.2671083876970485, 0.0985685835673516, -0.2115738439872047, 0.13660421781051496, 0.03748090202948334, -0.025807159910267247, 0.18589856296490265, 0.22156988204722705, 0.21545352438467197, 0.13891836001249575, 0.008219020302874358, 0.1317732755402879, -0.007393012002480104, -0.04823685157707372, 0.26510438065309816, 0.23024552265092185, 0.19706796346475564, -0.2144295303256361, 0.24876355019884755, 0.022343825457268596, -0.2609851397688262, -0.008670544309239636, 0.07570075026304496, -0.02809734266600225, -0.07303041057348997, 0.12532249255774391, -0.24187631887555183, -0.04042310201865296, -0.20427343960995295, -0.19732586782844808, 0.09737275930075584, -0.1665837101544289, -0.03733978388277007, 0.21213757517013543, 0.1326821277873661, 0.1671346987468476, -0.1547673485610438, -0.04912027405796307, -0.1683823540393529, -0.22681021204981175, -0.25971247047084306, -0.2394630829345772, 0.0781505218549568, -0.05740680975866555, 0.21310743509305646, -0.014168155863952425, -0.2056703931005677], [-0.1074952182437895, 0.03060982532360407, -0.10143951575815048, 0.008316516090368996, -0.060420385074026806, 0.15980175018543444, 0.16671917018903418, -0.22116965767061714, -0.015385575711486457, -0.08443379492030735, -0.16818755923081238, -0.15798414454594228, 0.06076456384478474, -0.24102485886776934, 0.24123993524388326, 0.21069815026903152, -0.20013571302333827, 0.22829129815914367, 0.10116859974872386, -0.20617864388617374, -0.13382023498744613, -0.13592636946919748, 0.029699119128922584, -0.25832470343333946, -0.20977800337328617, -0.06010829553922497, -0.2249903021442879, -0.0839314022262157, 0.259511685335441, -0.18071708106017856, 0.14949835423719657, 0.21267519719911535, 0.029206603980309612, 0.10471753597745927, -0.2631506814023279, -0.07698007285489544, 0.05194388037774562, -0.15150846024015022, 0.13680580945135595, 0.06852568357387813, -0.23504824628750245, -0.2292943341408157, -0.10225946219622142, 0.08548271006715352, -0.008341582870847762, 0.2623749292234922, 0.19379439034625276, 0.056850240767618826, 0.06542897912721128, -0.18330840812817298, 0.09021334277841013, 0.24405789682157197, -0.0750230147904229, -0.19427396366208788, 0.04452152706572856, 0.16356432833531398], [-0.03690973872378766, -0.16661481454171817, 0.12125791252531871, -0.24759479171139187, 0.0062810276736169545, -0.07622017101009504, 0.21424087156730626, 0.20153897885638827, -0.05606676041946558, 0.16791313532728752, 0.1950493290603308, 0.1837872158919783, 0.13497513332198915, 0.023676292171488776, -0.17260711495374118, -0.23818408482647935, -0.047795280870872835, -0.0764108241350472, 0.18496596839631044, -0.103618112962043, 0.05859599934154125, -0.01958679797309634, -0.04585894141641851, -0.14408498346599313, 0.2168001740209886, 0.098874287231378, -0.14197667535235434, -0.053185031960062606, 0.2351844657064423, 0.2001000075856836, 0.1908183208308162, 0.2574623257884694, 0.09265553462674654, -0.10712559784663708, -0.11310673574862526, -0.08663054289385533, -0.2570564253903883, 0.10373549539734554, -0.24763144219335997, -0.12442595564369141, -0.07457139925725279, -0.2176024825305589, 0.03761816712613738, 0.22110901538329727, 0.08777687932619013, -0.10530286639743508, -0.053131500433204346, 0.07837361691956037, 0.06896082952421655, 0.17812459985823048, -0.17316951747183187, -0.041959486366024284, 0.04626542062567288, 0.03580467295243606, -0.008053605646961925, 0.0827629148426609], [0.05468146315899808, -0.2631505101241726, 0.18431401485929533, 0.13987604258955216, -0.24214241573836354, -0.18043726933371562, 0.1344161542074756, 0.016546258553531423, -0.047434490068788, -0.24487194484251196, 0.11793365136450962, -0.13136269022259126, -0.0585947607413389, 0.21508361389369474, -0.09452724928953471, -0.025264188221640338, 0.17414882651480917, 0.24823238234356804, 0.23275638538647236, -0.25037897021785704, -0.06038058198304555, -0.1492185066409955, -0.14955610496052707, -0.08173485340917164, -0.18085495029479687, -0.12310978991647137, 0.20140714040958752, 0.2304538441160377, 0.15542945845802353, -0.0027920869148181926, 0.15127921756011403, -0.15496274873167926, -0.04829502458499943, -0.10302227060749283, 0.01926853506008286, 0.1756068351009984, -0.16998856552809447, 0.17642421837956734, 0.07174308360841758, 0.08695517954415827, -0.1912332866973671, -0.051619103994761384, -0.22193156765420305, 0.12961821755716424, -0.0612379295410701, 0.058755341278979856, 0.15775865732167454, 0.08509202515531561, -0.07038489961985167, 0.2040218641138727, -0.22006428399883055, -0.05766731215802104, 0.017510570248469137, -0.13643212135420935, 0.0622814507357477, -0.025114073291140265], [0.18258318454175898, 0.1771631535527894, 0.09842885949718366, 0.05768644049696048, -0.24340249725932858, 0.05736812404600694, 0.15312157617889827, -0.024017853740186, 0.05953226662328065, 0.1822681825481295, -0.1715253351102239, 0.258927753388163, 0.0642395820092545, 0.24019534542099408, -0.2641256779686958, 0.14843725352018688, 0.26119799377058384, 0.20816958284518916, -0.05026820689458786, -0.14022763145687678, 0.03650622566498696, 0.11207510243358326, -0.2405335905320542, -0.13822600495630954, 0.02539360154798609, 0.13031865662125147, 0.25324979573311057, 0.226153120168622, -0.2163951653523332, -0.06697888603933952, -0.1051742283261175, -0.02246876003538928, 0.23021356337480775, 0.14634380702766714, 0.1709581567139708, 0.12349517746018268, -0.20376056148031124, -0.038089164173497614, -0.06689757489666848, -0.24599948857308263, -0.019729333085687195, -0.06390408866726682, -0.019124078874617645, 0.13998965754575682, 0.12787665270959092, -0.08347903510487664, 0.04791727504423904, 0.007668964577188853, -0.05079562905161836, -0.03532657927872107, 0.2462092510895898, -0.14419233399401735, 0.16545976917066557, -0.2128161290868848, -0.11341853983281264, -0.26236668746228287], [-0.2599241473175787, -0.0914884783451626, 0.2530464970258325, 0.029332938821292398, 0.19963474011632482, -0.1829650964427912, -0.26291744813314677, -0.15495895408578675, 0.25342264067363784, -0.24393642069473698, -0.07060710377529111, 0.20318503313211617, -0.209084564253112, 0.1787684697835379, 0.11551633822653823, -0.06825832374905022, -0.0821491819162524, 0.2128886260019387, 0.1449207167760717, -0.26397863279511324, -0.17530266200226094, -0.12263334921597083, 0.09998344138422582, 0.07941364106278193, 0.097270343343901, 0.04376193988066113, 0.0024981204584946792, 0.16753540892488272, 0.21742301104997608, -0.11787695769734938, 0.08336605723749169, -0.23988258953195044, 0.029221486344592318, -0.2083493293045831, 0.19508883333936372, 0.2340786213830911, 0.256299320104026, -0.19158402918251158, -0.23017346590675933, 0.1018401487502309, -0.05850715713085977, 0.1937253916577631, 0.25805516253692706, -0.16117191716637447, -0.04523435268125642, -0.011573991365113279, -0.09351664107120855, -0.1238573471007656, -0.22525600656678632, -0.15720723410535856, -0.18852767957792843, 0.014814290082659942, 0.22514699812919858, -0.17185944412604454, -0.08111139480509805, 0.01747050382118237], [0.08381572231148267, 0.07561608167167144, -0.046019579210213116, 0.18750664097252034, 0.1948865783832494, -0.11118784575468643, 0.13244383531840023, 0.22635909698290702, -0.12632227134939922, -0.08521660010161268, 0.15956655587836757, 0.21939440385250522, -0.20065413950625238, -0.18044210119843043, 0.18572285464930924, -0.019765039149900552, 0.0898203462931221, -0.16040612691251496, 0.10258927380422005, 0.254996847664625, 0.19002949008781994, 0.1584559949427606, -0.17219225645153483, -0.24433463196391955, -0.08898507960260219, 0.20640173332454453, -0.028153774471242954, 0.11626899914741771, 0.04370556363405503, -0.2535340415124528, 0.2593854292095798, 0.25999127671066447, -0.007708597514801983, -0.01539850577577835, -0.007508573895721885, 0.18117533658585339, 0.014236482493304132, 0.12065003159816323, -0.06326761779954682, 0.1570350642990458, -0.23905913005198937, 0.24047978579047732, -0.06444460754206605, -0.26303202748010596, 0.2117707123085305, 0.13209402876238835, -0.24028644546246647, 0.12362753587636582, -0.009566118144757043, -0.0768532503127189, -0.17187808839343457, -0.11888546872827119, 0.07425462402511618, -0.05900730170845635, -0.011049194927415448, -0.18632439704813847], [0.14355917239431662, -0.07998512890671076, -0.2066179964465495, 0.18764102224092621, -0.21199498343042206, 0.19888195482034685, -0.048570743450295495, -0.19541436044491528, -0.022592398712468202, 0.04169943161553077, -0.06768243475865016, -0.15412278466563162, 0.0849344438372258, -0.20967562882006566, -0.14272213580177115, -0.16411849197216466, 0.0696916852428507, 0.2590231267560934, -0.07383234396252114, -0.13861076236394007, 0.10793083147791878, -0.2573471611830778, 0.2143389080890826, 0.13257783952549293, -0.10123670951061245, -0.20663462505024652, 0.23442486922849815, -0.2038198529798503, 0.03509967191106876, -0.2321943837884456, 0.24374012319908808, 0.09183522813015577, -0.10496777755626817, -0.048319454778989294, 0.26208887726854363, 0.03918160706149325, 0.1366723827359214, 0.19817088849149567, 0.2513438908601391, -0.2358075121033051, 0.2539230602236297, 0.25834207209445703, 0.10423872738679071, 0.11127028187043393, 0.21960781798020956, -0.23020508155524264, 0.07487181228434155, -0.04719027053543882, -0.18110354463787212, -0.11357889544295412, 0.03983212648100173, -0.04540783384175967, 0.15212039471893896, 0.2252934981264754, -0.20739247323911295, -0.10824324616096673], [-0.08439801417642331, 0.031659497974641626, 0.07850510264585642, -0.15889206057821875, 0.02091566997823352, -0.0495883328680678, -0.06880132660581428, -0.14987754642157347, -0.10310363117760699, -0.019394302680572822, -0.15733945248016906, 0.1676527252192208, -0.2330468780603457, 0.18698060679576572, -0.018567500971862827, -0.2643131324634214, -0.07360124393933587, 0.2537130929490359, 0.15025613578443997, 0.022131455919904675, 0.20266948866092127, 0.2195407378016062, 0.06911734995877417, -0.16987085190750834, 0.25615883458666955, -0.11327267887365616, 0.05354823103424955, -0.09529447311611872, 0.2405673498741311, 0.1432798785576765, 0.011996828745255317, -0.012164056763132203, 0.22092829004072584, -0.18411313418492312, 0.16201692251033045, 0.028911417138794304, -0.08068218436674304, 0.0330325167198684, 0.03560240615943039, -0.22653230454617934, 0.09898937085460097, -0.03272233228061547, -0.12737443516379895, -0.21927526221023946, -0.13877983542348468, 0.006255104896413732, -0.15233111911241018, 0.18712756810377645, -0.2521395809930125, 0.10024461683906616, -0.15637594778425987, -0.11055484468110388, -0.11141713893415195, 0.17081784584957677, 0.009826329730279582, -0.09605213664938636], [-0.16737185449462055, 0.23535090720009055, 0.22841610378443483, -0.06367126122250216, 0.23803263836148114, -0.07753152559188714, 0.26640016499122976, 0.19065827140022118, 0.1974783633173406, 0.07857686620260079, -0.08817510879875173, 0.0030499884487414364, -0.13166499454377104, -0.02827519212270438, -0.026438351364040602, 0.04780646743065631, -0.2511128912893631, -0.16244673095850976, 0.16927556899077234, -0.1574537948660762, 0.22394569565871214, -0.17148893981245, 0.21007294621318368, 0.06418526547694564, -0.20682219213942135, 0.18387661142644413, 0.17908046677392975, 0.1811644501999189, 0.1534521012034032, -0.2328719699790889, -0.16781253818232886, -0.26037704845168624, -0.1987038474715752, 0.10559542751372081, 0.23858354482871935, 0.10243444830898785, -0.26508724695059666, -0.09719081370204155, 0.07523787669741511, -0.20799202553114407, 0.14986823626662948, -0.09895627228614792, 0.07694914424477522, 0.1659147991366829, -0.025567047816238336, 0.11160241839405988, -0.077960393863487, -0.14861429650330504, -0.21141332120560613, 0.08530158482445788, -0.25285147873428104, -0.04879475323121532, 0.1794318760461297, -0.24115628207315198, -0.00556158361617376, 0.24005620042618592], [0.08996120057205831, 0.20743082953810033, 0.05286970937890034, -0.08299464511100799, 0.20092867186969054, -0.08794761847404753, -0.14975113835518752, 0.21474421188473275, -0.2197653584857855, -0.014221569561688241, -0.17752698771291536, 0.004406965754280845, 0.19447216874261053, -0.25326488922296314, 0.23526943616289098, 0.2324697991790179, 0.2123532908376103, -0.018443808193644384, 0.24230607217485112, -0.18272382181834457, -0.11810503502670205, 0.19108400243517631, 0.1747589539972637, 0.1149445522916388, 0.0810212568353551, 0.03114976118335966, 0.19395590986648564, -0.23521712475789747, 0.00913263264295372, 0.15099674575002053, 0.03079366429004271, -0.1412291759986558, -0.26202397062321886, -0.07748417447497707, 0.11105179037905677, 0.11659336213895677, 0.254569095489385, 0.23014962691239732, 0.04704824224592935, -0.15323508503472444, 0.0365980054099454, -0.13407195412520292, 0.234582755626077, -0.17608857156115512, -0.2124409095417294, 0.11715949572170836, 0.04288571251796347, 0.12567193602233606, -0.08060802485542001, -0.1996204718438, -0.23498518858895692, -0.06331496763330277, -0.05030414963714752, 0.12827338820878004, -0.09024341003776076, -0.24177646416153672], [0.2539985526040045, 0.10678881519523287, -0.16155424540458446, 0.14435971663466773, 0.19103812623190186, 0.06985752976430554, 0.21217331153323338, -0.199514792088283, -0.22928134234312197, -0.007994776244925728, 0.013033244598253335, 0.076914271761866, -0.24364494962665878, 0.09725076413721878, -0.243928097319649, -0.049057147266498485, 0.06691926294753953, -0.06387370654687893, 0.22039988515205894, -0.19541716838948886, 0.186543136868416, 0.25343840355589464, -0.13105597892176477, -0.04420410758679513, -0.13143095009098144, -0.22908160547501952, 0.23885396275722082, -0.02808601555476853, 0.07405995660873643, 0.06716217230476007, -0.24391005422078524, -0.07461010955571196, 0.2351185529446338, 0.11794858738910252, 0.25747632297016465, 0.12180725610883525, -0.005185204525057219, 0.10232368242605239, -0.07856861285356781, 0.19793778000152285, -0.1438322397212019, 0.12707247082406936, 0.11753490701460106, -0.15221141308443747, -0.21658012563861104, 0.200967053441582, 0.13659710650096285, -0.035907953574546875, -0.2460351325579342, -0.01937716817549745, 0.15610443534909124, 0.02635843072953692, 0.19340796533440918, -0.07153373924781267, -0.20660519193755095, -0.20072081835964523], [-0.0025535474413301285, -0.03175060945890115, 0.2253957302945802, -0.15495019691546794, 0.10527772486631332, 0.17567256493339417, 0.04235291951406378, -0.22632654463877871, 0.17110147028676653, 0.19090389249216333, -0.07399186513359471, 0.09239369110682188, -0.039385264749374704, 0.014975685753764956, 0.2577957107685619, -0.023779811714642662, 0.223968305681713, 0.2606243969420675, -0.08519949012602274, 0.16357818285447218, 0.13457949817794207, -0.2419606486594949, -0.2356086082547493, -0.24814536694610648, -0.15177672103430956, -0.2515380373360889, -0.0004476324666990994, -0.1249024295805744, -0.2448292747401534, 0.054916564253875255, -0.019915050892886782, -0.038559765477166164, 0.0987877465807494, 0.11053907546917102, -0.15405904971692014, 0.1308991940186639, 0.047810030209052834, -0.11444545432317788, 0.02461849338388733, 0.164332954065321, 0.06704290537521373, -0.17281469453515697, 0.04731245610237844, -0.10690727295984889, -0.10603154857177266, 0.09448689859160697, -0.026075267221915943, -0.20401494721488705, -0.2524010312371145, -0.14810258578919355, -0.16156917608544957, 0.14888902673336074, -0.041204152548566964, 0.08437155549649811, -0.2502710817336159, -0.1550103912468787], [0.00018827725075282187, 0.06232037306664295, -0.058085537025055645, 0.08997916311679172, -0.23168944021078433, 0.15061466528444128, 0.08448646192781162, -0.26184243711745314, -0.03677648800642949, 0.017793417372773623, -0.03459837706186503, -0.14357249171211933, -0.1684287455055749, 0.03853454833291392, 0.1699378738468657, -0.2525198058694902, 0.25684019569238625, 0.10067414906110056, -0.057039089685334, -0.1859444069450515, 0.23822317612032728, -0.19699895423228087, 0.2599893688755702, 0.2548817535983443, 0.015661196020196833, 0.04424280038048228, -0.03899916391451955, -0.05580971118634048, 0.12451167837575661, -0.004957377702492161, 0.0955296412095667, 0.19272480175183848, 0.17199970472766174, 0.24926533931776718, -0.23984281815191139, 0.10996612992031446, 0.17057688586322783, -0.10134649998509204, 0.24917641749565145, -0.16213775593447516, -0.22318093816208356, 0.045274437224590014, 0.13110911360059696, -0.1371421622015355, 0.09154351249561232, -0.10726321900251326, 0.09831093014937559, -0.1938038939977716, -0.10204721805211175, 0.2297136631016234, 0.1476987350609465, -0.20616800519603534, -0.023901213766928914, -0.13490022038392366, 0.10157871053973672, -0.22069848779382106], [0.21830131260218483, -0.14576984676591695, -0.09386035106018645, 0.14521529225267488, -0.1593211604582948, -0.24471184299407783, -0.19230920658131886, 0.05959030703410351, -0.14908028628931103, -0.22300963631577664, -0.05909660674304573, -0.035408387798291585, 0.12737205858784262, -0.22278959263812237, 0.15170813709281877, 0.18303259794355442, -0.12796189027108965, 0.18777179662410443, -0.05893540904207578, -0.2303614490549732, 0.15250139904992377, -0.10054181951565114, -0.09742518397435829, -0.09152650382100566, 0.10022095711597989, -0.25312049695091915, -0.021596133487043784, 0.2468799326280504, 0.18909346221025336, 0.2170181972430149, -0.15754657044931691, 0.2446143444576807, 0.14071028537951835, -0.17816313312323367, 0.1364057027861061, 0.04237157357531551, -0.12420115653452315, -0.1456924467293118, 0.0809885552110422, 0.168369524654147, -0.043971716286416385, 0.21533826569062903, 0.2597645177549428, -0.17634845104632452, -0.2325805621604422, -0.16594450593465998, -0.09076375052029081, 0.266919132842244, -0.017611518503935525, -0.25697155242513287, -0.08912355666011457, 0.07704021912804898, -0.1799262625502484, 0.12604464940240762, -0.15798223038430353, 0.07569952777048172], [0.06385629609046084, -0.0833809493268855, -0.034674213428291134, -0.040104574100805285, -0.012414944214244716, -0.25885078337165895, -0.2372101685956719, 0.2653892315860018, -0.21749624242075802, -0.0982782246123694, 0.20404818960911597, 0.23984161480438393, 0.1046317367268173, 0.24235116677597812, -0.015265383689409495, 0.010832691089817437, -0.08555671399337439, 0.09185127670464144, -0.20733940490496905, -0.22523990368407962, 0.049299323835561015, 0.029241630925415485, 0.21998963474893768, 0.23635816915054175, 0.14905282155759308, 0.2666466794049662, -0.24914365335206895, 0.26172505526665635, -0.03879802440638064, -0.19672647541359684, 0.16678275775048262, -0.13848524361641526, 0.16579183677629517, -0.23217266253536273, -0.13273630442540446, -0.008530513220432967, 0.11742360805027657, -0.08764145851269833, 0.10253468268408256, 0.12341131434456437, 0.060453074902853454, 0.08283913149106614, 0.2554203348028039, -0.2422864826776007, 0.10333573276342745, 0.06908042340109538, 0.010633828589851402, 0.1766970767922122, -0.17890958447739064, 0.21853343543351994, -0.24531231124999087, 0.07470408195522987, 0.19560260011592356, 0.054912309033189, -0.16623483444977097, -0.07783077413373354], [0.0859411347220112, -0.175682018163588, -0.11725009000810807, -0.1248269749926729, -0.11254496989850024, -0.2001592368488666, -0.2562867780669024, -0.054230857183702186, -0.21669647339361486, 0.03697906326485778, -0.1556513353027633, -0.0447803597581497, -0.14566181842254844, -0.19701449431066453, 0.05340948124991346, -0.012394894023472047, 0.15912675663844977, -0.24645223873946678, 0.1954127326229067, -0.012774822694255561, -0.12447533680728415, 0.024664889621845654, 0.22468812017884543, 0.2084911308541325, -0.014247742478533387, -0.1892285078992409, 0.255602084438906, 0.22608433637334496, 0.014134014271638073, -0.21563971120045752, 0.19217749664092315, 0.22220255092874042, 0.04330780071932122, -0.011168921412381017, -0.0287901148967582, -0.0856657464956492, -0.02231504737291276, -0.11105363367670215, -0.12082067867782167, 0.2672059038346485, 0.17697030611230985, 0.16961104766707058, 0.1786809703339462, -0.060246227752770054, 0.22927469074010115, 0.07911777676281723, -0.11336287055900462, 0.2179601828965151, 0.04097020615907293, -0.11523666875584107, 0.040315958523201634, 0.17206352933715713, -0.04633458754441244, 0.08288257917440295, -0.011235524770840388, -0.18127808299375608], [-0.14256812337325336, -0.010180549280242757, -0.1257586219719053, -0.07863486835325084, 0.23983665772351348, 0.07524264175846818, -0.16710543605768496, -0.09502973824302963, 0.06590242614723557, -0.12139424344736072, 0.22865541999663236, 0.12170819286887141, 0.22453265948169887, 0.18413778420035698, -0.08468607788747029, 0.1417693241516924, 0.22690035511767237, 0.018512793771227998, -0.16829543691136778, 0.1072428357563805, 0.0780968394484014, 0.16043309875066142, 0.040457257903843524, -0.05994631298956177, -0.10766581381738993, -0.19229810589629692, 0.18976617042288002, 0.22017280886811974, 0.15091746782731746, 0.23536091145157512, 0.12160898085358779, -0.2594371905953514, 0.26249819496747984, -0.04544613981141338, 0.1809839307244972, 0.10629076979907359, -0.18125566161077478, 0.061313037522556235, 0.140081403996917, 0.12912052636885601, -0.009069653613021644, -0.06440935195759612, 0.20087306659439846, -0.045332309313111385, -0.15270044637897662, -0.08179767137950278, -0.04762700797550448, -0.14018913465778676, 0.09545233516072243, 0.05666582594063185, 0.1759439473342604, 0.06337809805202871, 0.20438199975300464, 0.15739079206494633, -0.14907132276001173, 0.030809786720036814]], [[0.1351301162773209, 0.03389384108400595, -0.02870035211536104, 0.02258950740044957, -0.2529822497926213, 0.034394803011667474, -0.10433934618547897, -0.11419143110544228, -0.05179465363045524, 0.24907834366505943, 0.18855713273972285, 0.2220133171445557, 0.08234323520121316, 0.256273134059222, 0.06682148325028964, -0.1128458048317038, 0.020133791644940408, -0.10387243266956138, 0.06721733123629008, 0.0856077656117183, 0.11503862248592445, 0.14685515375344935, 0.18227889453477059, 0.18314796974511927, -0.19715402949932964, -0.057233971125019774, -0.10278977455963606, -0.1174529727193335], [0.21480663616348186, -0.005967157509686382, 0.04862803765598883, 0.04805291415627154, -0.22996607640313646, -0.019657494020747124, 0.018030850618822068, -0.1790935556178584, -0.14745086776536842, 0.02520203539794116, -0.04528656492988284, 0.16020294579365996, -0.17412952810068308, -0.09858485819387178, -0.08200660581332506, -0.0024210399904342483, -0.142132225363065, -0.14631544014382702, 0.2089310927207772, 0.10994159164821668, 0.24940185759751118, 0.1300805849779728, -0.036050801272235034, -0.08587906422114722, 0.17674134871640879, -0.012501647802780189, 0.14695090463961025, 0.23475647342344663], [-0.06489518112194709, -0.05851472064279936, 0.21113009204824817, 0.1206690637710319, -0.19736415985752304, 0.143021632301486, -0.22011760057962837, -0.1894627820163856, -0.16943391753724818, 0.026979193697053067, 0.10070485445549154, -0.12564300660666353, -0.07557601000467327, -0.05644572832801428, -0.2483756592863308, -0.2545001402359092, 0.24778079952578214, 0.02354590254870394, -0.06337988215312429, 0.030673090689303538, 0.08801864393136336, -0.09813014735696045, 0.09409720283896345, -0.2239929122520848, 0.09800868778677686, 0.150818030450241, 0.06959496401599291, -0.2582444699519092], [0.21085920921070456, -0.11146334320460136, -0.19115839388782163, 0.026223876217981536, -0.20473231205365625, -0.15032161250991904, -0.1696298751224954, 0.23533697558108016, 0.05940070286100263, 0.21806523564598249, -0.2407640100890785, -0.2508379564576791, -0.09427949066251536, 0.24540864090630174, 0.24936159354899431, -0.2303955426529812, -0.10795868345614927, 0.17641626819173323, -0.038412870941730994, -0.24138547648030811, -0.1541765592738628, -0.16606912476531152, 0.22865086476365304, 0.10053765118333617, -0.21787170314953025, 0.12937463241844324, -0.16380386547711284, 0.11795807873807715], [-0.26583754646313373, -0.09450697233152164, -0.134542729291249, -0.21470902104888376, 0.18697288350252247, -0.08412703494510543, 0.2556083170574136, 0.06740883904243912, -0.020706435454754007, 0.2618458844128494, 0.19158433739462732, 0.1382408317659874, 0.015207066792320027, -0.024217377601003176, -0.16661612966430103, 0.004744824227679978, 0.05327185009591111, 0.11704388095390357, 0.03999434694301361, 0.16953805037889558, -0.1825256481969425, -0.25841716263339526, -0.001519284104731881, -0.24556789204408794, 0.126240564997427, -0.22314119185597792, -0.13227844968800043, -0.12565649137724255], [0.05969953949563982, 0.2607335018673055, 0.23822768922614757, 0.0978140120287093, 0.16935948699145947, -0.14790732516134636, -0.020984308066868816, 0.1364852903882818, -0.23405133473611098, 0.1642058331795712, -0.1054325720879761, -0.2613937063437094, -0.25424859640193076, 0.14792230810030071, 0.2474655640881747, -0.2620402313104126, -0.22500304260469087, 0.19228919920968843, 0.1441818504638516, -0.2121270472802727, -0.21310578815868703, 0.08727554677264632, -0.004857864656673649, -0.17050741873438452, -0.1358248242766553, 0.16622666410842235, 0.13443596509226335, 0.056162730815380646], [-0.05082063952220781, -0.08739874935722505, -0.2301811808039441, -0.23301372268092563, -0.15085054353456778, -0.23744524507025974, 0.2027292307944261, 0.031271217434370474, -0.17925790396997243, 0.09492446128207271, 0.049204639990357624, 0.01502252561008205, -0.20189134166958841, -0.016869612985285415, -0.004001227980246539, -0.033006205568660116, 0.16926556815305502, 0.1133947466424827, -0.00029956227593117105, 0.20612922020200808, 0.05664185894734598, -0.035086962542114124, -0.11534589099580807, 0.08723424207270025, 0.22401932009405612, -0.24036566842950055, -0.2527017134580566, -0.05894837739323218], [-0.11537925403397495, 0.17636483263259117, 0.07040894026531846, -0.09653532113279298, -0.05805997023023663, 0.18470090764786457, 0.006199042303741353, -0.0005872405272822068, -0.042336504228817795, -0.04782678273798302, -0.1879316090478958, -0.1712704205050979, 0.25760240218756103, 0.21998959931013437, -0.10586527643850568, 0.10180865822087239, 0.08061082927222132, -0.19626152396931212, 0.00976599036857843, -0.07227679830242366, 0.1225184321272757, 0.02590461545622425, -0.2170240856640035, 0.2308306903926184, -0.1894388443664344, -0.20736107982172575, -0.07225184682819513, -0.09447102370155912], [-0.260206051314068, -0.1751839496902124, 0.2601551724270077, 0.23268682158192677, -0.2360579859860824, -0.022088449962777812, -0.04258256418241446, 0.21756682885587175, 0.17549105397354736, -0.08689229615769276, -0.2056005850297546, -0.1282364492232619, 0.16772103664937668, -0.18396817156289702, -0.23655055317803378, -0.014592495052581813, -0.2514613608578183, -0.15704300528111348, 0.13030757880937172, 0.007459563380439197, 0.18004025528372813, 0.1463420044744689, -0.2221612256772551, -0.14879579241866417, 0.23210130517642466, 0.1649254067456792, -0.20435612247723783, 0.03404228974525481], [-0.1725822605885421, -0.18432367691034937, -0.08197057380538322, 0.19747926027726284, -0.1324393583447801, 0.17768234812413908, 0.09172124908036972, -0.21665683092229326, 0.07049010499250952, -0.16872287376914374, -0.009159078515964092, 0.09760885458094493, 0.21296670046489288, -0.23552688937841235, 0.03946360031372535, 0.11529399817203903, -0.23018461910911886, 0.001724696531304333, -0.23037664601964855, -0.2380002535395322, 0.08095677989043717, 0.14991875998767193, -0.015590171217714388, -0.007180153035239778, -0.06241232471828378, -0.010010835062350582, -0.0196329431902173, -0.12276397756490344], [-0.2087661412553735, -0.20329682021516932, -0.0810417299246027, -0.08153217249060606, 0.11933693394139996, 0.24994646981219926, -0.12877856362760662, -0.12340042695746324, -0.002475080615687797, 0.18038790495776205, -0.12306150292955795, -0.05011622224149531, -0.1754943843443047, -0.20940213509523695, 0.10930368447576415, -0.2578352045412016, -0.14082191012243755, 0.22140971131558296, -0.03209555943901591, -0.10332164281266586, 0.15495970102523388, 0.24286549070298932, -0.21753475093562227, 0.26021247810900666, -0.2300895812315437, -0.0867658775570099, 0.16503941503207864, 0.19323138059980094], [-0.07342160363032804, -0.2137241087878916, -0.15091154847773217, -0.22875616400078597, 0.06770246395551696, 0.06794091668955476, 0.15655227888633083, -0.22477463553070695, -0.0469282796554904, 0.21201216781778615, -0.12398726629929152, -0.13592440366557174, 0.026190996788430086, -0.24771478607510594, -0.13169181309952113, -0.06947408466771585, -0.0952948044897192, 0.12335013770872773, 0.21699180581108188, 0.24425929869599733, 0.19072485401939585, 0.10230584752218397, 0.10351294289708647, -0.05234074794427282, -0.16494200626586042, 0.211915091257166, -0.14012809593856335, 0.023717351414232663], [-0.003032626164335195, -0.2488879582224127, -0.24655112032382767, 0.2510077464893322, -0.16812578052355626, -0.22023326482868721, 0.1307554476832372, 0.2182640683661948, -0.09168921695868065, -0.24550735059412676, -0.22651793401836756, -0.06752805051585639, -0.06436031414304935, -0.1721043255008889, 0.1353080032911782, -0.11456533292274139, 0.01593951056395687, 0.2084558823960417, 0.001899688643041624, -0.006694465415057186, 0.00308450432333295, -0.22029671546735757, -0.032236052713579294, -0.2593061905214045, 0.12155423125945185, 0.05285880213669262, -0.24703871976329347, -0.05714063367445791], [0.09537985670899352, 0.12588189695635732, -0.06248441790283954, 0.25195728881189017, 0.0462683813794606, -0.23441666844004566, 0.0227590297966781, -0.05066797583896969, -0.04081116811535254, -0.23883297729937833, 0.08318157292246003, -0.18405342718463957, -0.18644515008633436, -0.1634944413822646, -0.20805705643127362, -0.0025383283110489256, 0.04641079907904616, 0.23715416662673883, 0.1849332388542108, -0.020703380032462217, -0.23592569126187773, 0.04913838194834982, -0.12918264240184374, 0.19137995514656458, -0.06421567852436748, 0.07436400208359417, -0.03876386582030655, 0.10974327390520096], [-0.1969035607494303, -0.11035255253293341, -0.19262989282434562, -0.09344518818512858, -0.19012004566531288, 0.13853158740545585, -0.25361876849788695, 0.08193339769522086, -0.1106685688110364, 0.21767436078382119, -0.08256433170236863, 0.0922963101011936, -0.08197998930655034, -0.12101218929049251, 0.17102832715756916, 0.1885788969745968, -0.24540251704570998, 0.0382007027916995, -0.15006012230832194, 0.03875963066866496, -0.22775256849376235, 0.2543276555282782, -0.22848481230521767, 0.03504349011478414, 0.15513423551364824, -0.15167098203739351, -0.15451940135142905, 0.20000876082534702], [0.02628500044321637, -0.034355246595392096, -0.2594596996426944, 0.11902071336859302, 0.2544655039209908, -0.00919228313861109, 0.15737394626040047, -0.20046717501607889, -0.18593995103954167, 0.03815669279619331, 0.060661140870717944, 0.005817073718975441, -0.041196188465287, 0.13518826620573315, -0.07681824462777681, -0.008676986978487622, 0.034378329728490864, -0.020169448305141634, -0.16622634412567555, 0.2480864405617599, -0.11350719991661336, 0.09558237393561331, 0.2404167358674324, -0.009921389175584615, 0.020291500647395738, -0.18531314070052954, -0.1531718439060837, -0.052540469161038134], [-0.08100536323094917, 0.05411807821780945, 0.26181174333546, -0.16321962472565166, -0.13396322185361614, -0.1487473268400375, 0.2052825737606772, 0.15824692583817637, -0.1355743256019117, -0.16803729839224357, -0.05130363531057905, -0.040070733786327084, 0.19035587528497278, 0.04954838719896605, -0.16983276082460158, 0.08749901787910075, 0.09867240156315642, 0.07919418547187834, 0.11544693152520948, 0.07745192349105638, -0.23391390713035057, -0.07905629505221734, -0.1389099253288677, 0.132023275638494, 0.014665946517470161, 0.18286003045358862, -0.04989362218726426, -0.24901487495936553], [0.22772780743778276, -0.10990716492020505, -0.029897484457507173, -0.0384446409375562, 0.024673020749595435, -0.16616125621463862, 0.05748549260516747, -0.11223528822513573, 0.05185164635859546, -0.11076282929290314, -0.04286884152711784, -0.2572317209977831, 0.16534900266610775, -0.040465329896069435, 0.06385654919773696, 0.2622744838363136, -0.08867844827139318, 0.11125298167778623, 0.03676953943809595, -0.1891012863959179, 0.23125722428238996, -0.17082980188716979, -0.07224172172928453, 0.2637664442583384, -0.1435356905716214, 0.037560074919402, 0.1666487907053876, 0.11291855580731808], [0.0619988178837545, -0.15796803705113954, 0.16105916170774093, 0.20977885767839038, 0.0787169354660327, 0.23123950463415455, -0.10884874387001303, -0.0769767172820878, -0.09829849647519995, 0.08211331063681138, 0.04256340106579193, 0.19885706186869312, -0.0850544482969644, -0.20132695264288442, -0.09032878551223099, -0.025635212200592727, 0.24495917623928343, 0.044115396272759615, 0.031021074464643, -0.12490277859900814, 0.1273206002340868, 0.09870192989253454, -0.11870773978055982, 0.0272300791735835, -0.08768659607901394, -0.11883040639528374, 0.1464791633664439, 0.13926355833233545], [0.08225716273286193, 0.05160590598230019, -0.19341195748806744, -0.13050476201740002, 0.2064552464617403, -0.16639561704817007, -0.08510521066523125, -0.20803722364798458, 0.04367314426752872, -0.23881521868398498, 0.18049634955474875, -0.03904986392338178, 0.17967954921495638, 0.08445597576080258, -0.1898310595817767, -0.19546515352284766, 0.1903647017330926, 0.24237269855153695, 0.028361189676481408, -0.07464071116451788, 0.034594423834417715, -0.25919337913912477, -0.07207549290454289, 0.23043676404577138, 0.06525056613820768, 0.07318849350368106, -0.010334064137400234, -0.05006069680873736], [-0.036193492047920495, -0.029777222857356844, -0.22453479023263584, -0.0348268552465002, -0.20407775099421402, -0.07445638190877496, -0.08814553668198966, 0.07384689987853416, -0.0856594768559589, 0.22937539316132682, 0.19626970314974718, -0.16711456840227012, -0.14012115725505805, 0.034027371601036104, -0.09330140210344084, 0.04979606884781162, -0.21280590374659364, -0.2210051905164952, 0.241642924618683, -0.17829648097488898, -0.23061213364522784, 0.06466259224262373, -0.0353524605626886, 0.182377219743577, 0.03762849084081388, 0.02986403000244368, -0.04246400494475361, -0.07412387947748449], [-0.22173759946121746, 0.23359675476950115, -0.09140901409872859, -0.09433760429498278, 0.08875479714359262, 0.1989752529016272, -0.22693512283169054, 0.14698116206872447, 0.1500300160112955, -0.07809061843118395, -0.26676118629411116, -0.07295394809462563, 0.16977630975904665, -0.045484623019828356, -0.02922210565114411, -0.09327159237173482, 0.06986652901173755, 0.07886316336728388, 0.12178071657731779, 0.16734121679948166, 0.16212939761006034, -0.1674147389319329, -0.10175392245526685, -0.23978400874886402, -0.0022940522490442206, 0.14583618131928083, 0.17264189076456826, -0.07704363306012695], [-0.10699987011806925, 0.14086983126334787, -0.07105551158233339, 0.14892530031333462, -0.14621805480222616, 0.04310208770420837, 0.09250762695997121, -0.08042276653157775, -0.23241607723989624, 0.14017118841352685, -0.13776166594088887, -0.034226719685932605, -0.13105062904734668, -0.034243324263988933, 0.17119384729923326, 0.1605984770800446, -0.14688902329296985, -0.04005396599652592, -0.0632644472770744, 0.03116759017479459, -0.22736530187966075, 0.21393961494924035, -0.21049232884429775, -0.10190994826806783, -0.2277750513851157, -0.16624824133852173, -0.07311160723884091, -0.15687967083532878], [-0.2376574722782645, 0.19631354252642869, -0.02281614142624952, 0.0007287998071599359, -0.08872315850566856, 0.2145349039883075, -0.18054372784257056, 0.2414300896935561, 0.025318848855797882, 0.04933119640586394, -0.07222966659098332, 0.26107199103734025, 0.17075492475424672, 0.1871858370721335, 0.0382031106872166, -0.14767076692855985, -0.055457927252552164, 0.07607484613424079, 0.02109331090613949, 0.24223518457082405, 0.004593587353677323, 0.007546387520918998, -0.0906402013738414, 0.2573714821596217, -0.1474553896964624, 0.08557932438970309, -0.2046256646091858, 0.07403078299901258], [-0.11735139751699747, -0.012321357886607431, -0.2128469339998243, -0.26338428478479514, 0.040467926343120186, 0.052302145045228954, 0.19513389076805293, 0.05226661757536132, -0.08497513928966832, -0.15793432569159668, 0.19350023764721752, 0.10699217621454288, 0.13133897452562726, -0.05395405996291719, 0.021851770351882464, 0.12440950327465737, -0.15455222573094782, 0.08704448729551566, -0.03355697831286003, 0.03437502267938269, -0.25477762270032406, -0.07733225934769808, -0.08500737430411309, -0.24015757138691612, 0.2500856976830282, -0.13825297336138345, 0.15838442343743997, 0.06242671301652074], [-0.07272753773098542, -0.1537490467856118, -0.08301895834476153, 0.2632140003572848, 0.2617652952405122, -0.06449517504074201, 0.1190120348544364, -0.20112551755045777, 0.18833283818894758, -0.10187858387582105, -0.21282482548730838, 0.13167957319636642, 0.05883198119244123, -0.10673315925013922, -0.1864445329823009, 0.19096115551233186, 0.20607089014544636, 0.2312759804505681, 0.1501801321434808, 0.11588987151975955, 0.07385962769838782, 0.10793668209555884, -0.16069824514214082, -0.12006744481535832, -0.15932898401591716, 0.1981312186011623, -0.10105971881562523, 0.10529740863646089], [-0.05346065830859856, 0.26565400834478936, -0.1255156764622174, 0.178318822566366, -0.1392857622808665, -0.04417237810783478, 0.11948481116721088, 0.015821487767476494, -0.03865472609717438, -0.07587368147234771, 0.16546531466134706, 0.05812804603114985, 0.05791182461150818, -0.09863351847459981, -0.2099600165055198, -0.11821710713621603, 0.14252670538076642, 0.0992291021765016, -0.23145340373803933, 0.05126225876573951, 0.22768312444838645, 0.03161137868868715, 0.0656666532671719, -0.254669127820865, -0.17455978292032065, -0.06473442959950433, 0.21108243874961818, -0.09912314767420556], [0.03318875129558235, -0.2518992670490703, 0.23090462623119884, -0.034750329300969746, 0.03008696598520837, 0.08164856513665503, -0.046328231544263326, 0.020875264139144537, -0.07927848506624072, -0.1696495109685611, 0.19740599622918542, 0.21275616135826636, -0.12097002634402472, 0.2638166660512992, 0.0024592783169669744, 0.019280055581856876, 0.19789536878735697, 0.06681272303134475, 0.02919548482504357, 0.1481513231261782, -0.2441223892956447, 0.2349491966716776, 0.17648413183285389, -0.17817759271034797, 0.22118509576287276, 0.22418330017540772, -0.24100923004343072, -0.25279498096645286], [-0.2512983123852868, -0.10520249960127005, -0.04506231071428851, 0.02384195109144038, 0.031903343783919895, 0.26076110893224136, 0.24098740945903863, 0.25403941335086905, -0.14672182870956457, 0.20300364925004485, 0.08912828029785425, 0.0839784223088782, -0.22618560525766268, 0.26125948063622473, 0.21134456964342313, -0.2520290678134439, 0.05138262495667706, 0.07784959195222045, 0.15904561912594115, 0.023204545042865177, 0.24202911178235992, 0.2632980092512034, -0.015437389203054985, 0.21851650230189393, -0.16039645872444913, -0.2560596435177791, 0.13453994483834397, 0.08449986849123392], [0.025787425379516504, -0.13667349725949912, -0.23836930644876983, 0.2521873974234925, -0.13077079307241968, -0.15555532009557937, -0.2575020139800991, -0.1692335129538027, -0.12481293815329228, 0.12757897914508634, -0.12177029046301921, 0.09489331362169251, 0.01840615694064664, -0.14976940642344017, 0.17339011721704636, 0.2267036554790401, -0.1987777170530065, 0.11578596717190329, 0.027570230755451054, -0.02911624636044704, -0.08307634733333548, -0.07618440870973672, -0.26186298608288044, 0.08836015812872583, -0.2391137346594918, -0.06817172502038599, -0.11805849881387576, 0.1879801722835618], [0.08318425060711636, 0.08127365395016449, 0.18539747822979558, -0.07675122030462005, 0.07266820488600613, -0.23070723744813015, 0.10400176010317023, -0.22400812306004408, -0.12035514071541673, -0.07361685935463683, -0.21148182791508008, -0.19214268378549765, 0.18566587887242644, -0.1254224825529078, 0.02207463080433374, 0.060554606506585444, -0.07126252299177496, 0.1394050140777949, 0.015885604955240055, -0.12565237756987258, 0.0032687332953212156, -0.1582812731848134, 0.07828761395478785, 0.25519626472022067, 0.0694442144160386, -0.05374669867479014, 0.16546122624889995, 0.12888156333779804], [-0.12492757395536283, -0.25001965599107584, -0.18524170779913726, -0.1731581134991469, 0.1805651927431857, -0.2063558709061985, -0.050352627299039165, 0.09190943519863981, -0.2293005890994684, 0.17086698063535835, -0.010500824899051242, -0.11910500139590871, 0.1865107049415864, 0.24770310815079546, 0.13089157707718205, -0.04874899675285499, -0.16731810862284516, -0.011257306016996432, 0.1852485066878862, 0.2449538154284237, 0.1557754621311935, -0.22524936269720544, -0.09343139247101062, 0.14984939287772955, 0.2156577697980405, 0.2404749681950752, 0.040068493367718505, 0.040532578096249966], [-0.13872596989714578, -0.15715371482525836, 0.1617622030628717, -0.15325936029831322, 0.23156513323202077, -0.03373415956486883, 0.22782712543268369, -0.046586772947665105, 0.20148867746053606, -0.11185991036523352, -0.2556936110645927, -0.2517134832378503, -0.18447500210338516, 0.17844037961661524, -0.15342866135911326, -0.036680251213991676, -0.10012255353482516, 0.14311800089137397, 0.18127609419395885, -0.12809169342201548, 0.0516664908914869, 0.026461251327343942, 0.08178026204470873, 0.16177121672647515, -0.07981375410353803, 0.017227289194487648, -0.0830618028700559, -0.25802539360586196], [0.13225246728973805, 0.2672460429153889, 0.1499328242154811, 0.13983398915209355, 0.2497571076064523, -0.2659295282816159, -0.11184357582312832, 0.20425192965500977, 0.03410797415575756, -0.12547661217123215, -0.10480442442375212, 0.022004388332384273, 0.043985816440286596, -0.18297461312625074, -0.22748304659064097, 0.104812731695614, 0.20046926370421453, -0.25252774735457284, 0.21002088057555032, -0.00945337632216966, -0.1525209191875416, -0.18706754754968377, 0.05375470067997368, 0.07436643329809939, -0.19155695896722588, -0.22710120361934308, 0.24221020212788957, -0.24236127499248797], [-0.006150098107358726, -0.14531574131265138, 0.05928387952254627, 0.04359433361618001, -0.19247614256680717, -0.11833649614872696, -0.16512976217422404, -0.021853766902591408, -0.25934328802537226, 0.16512384019247542, 0.24386072357802147, -0.20430110318388184, -0.18094858547297424, -0.15547654405801342, 0.0880663755656701, 0.04578528053125429, 0.06955556537999352, -0.08357429674282771, -0.2546164160955926, -0.249991427390674, -0.03869381251891126, 0.009898901829569854, -0.24089859928073298, -0.07022007681649897, -0.03941996097312298, -0.15902341022444813, -0.1435780842100829, -0.2387319735919244], [-0.21965708636514997, -0.2483035241814358, 0.2519378204764873, 0.07345633772452453, -0.04585624146449374, -0.13790428832132343, -0.006071679575468725, -0.2513420600528655, -0.12985903947586436, 0.07623256206913565, 0.1714477370796606, 0.005940753721097813, 0.0934912441840911, 0.1828159115380829, -0.01853567344337148, 0.014625089787399181, 0.1204415527871964, -0.11429229189375187, 0.01900422775581818, 0.036962654731853416, 0.033342000012080784, -0.049775320335555866, 0.14625300117860854, 0.0205845003911701, -0.16736305195524093, -0.027599543888861548, -0.261581195733012, 0.14893509951231437], [-0.07689716110588228, 0.037061918136338655, 0.036516140600228564, 0.04375127071237066, 0.18901852365473437, -0.07230574322602154, -0.19936907129615744, -0.1315602308595446, 0.0553504342353659, 0.06784550497679068, 0.04720499452036603, 0.18752258441522346, 0.08280501281396216, -0.22877327219975066, 0.025174562070894736, -0.05633557587240984, 0.23753781088611128, -0.23309959778101802, -0.013050327298397543, 0.1709702494307106, -0.1720611702276779, -0.22163838460900803, 0.05238619990208255, -0.09507507337289331, -0.11178379768380042, 0.04954120636430533, -0.02936055461891564, -0.12602946582728886], [0.11278257327122371, 0.022317495218939054, -0.0778474328973722, -0.06867192124577925, -0.14693548074374957, -0.20639997521441278, -0.24497449825336098, 0.08346937464909177, -0.1204986048108862, 0.0002905616845799708, -0.21467644429523783, -0.00919357038189983, 0.005785014311152084, -0.038675361417733804, 0.0197453824259739, -0.1130839627636856, 0.1817863249743426, -0.03418907114124324, 0.06228320459038914, 0.2372971462103637, -0.045356576790536035, 0.21752368506872322, 0.2308479730856329, 0.12206392796571709, 0.13464865778351587, -0.06105850787853628, -0.1268897942162841, 0.05424517831561406], [-0.05200566406041461, 0.13602850507078135, -0.05101181396377161, 0.028866176597615957, -0.0582652091049589, 0.24230189477402275, -0.11544885834443923, -0.1221095072834011, 0.17780416875574123, 0.033280730200825635, -0.06952541807839785, 0.26328938732067486, 0.1795326149069359, -0.17666479800730572, 0.07523467604763592, 0.05227350899054006, -0.1668865784546813, 0.23400371243013784, 0.027351360270782235, 0.061774202975995895, 0.1304612693398104, -0.19565685536724198, -0.12967491101066497, 0.12692713636865066, -0.058662150686254216, 0.08696020300165586, -0.1796412205084197, -0.09264313614100453], [-0.23382476634019267, -0.1658109839108611, -0.0568999202782407, -0.09429102811986655, -0.13502712874349532, -0.03572397705293759, 0.08604925827783103, 0.04904417307277922, 0.2563965771176895, -0.120394425559444, -0.024505693572776432, 0.02527087288395169, 0.16033347009049057, -0.20447296365705675, 0.2049485367566708, -0.08859287478184624, 0.08403623631616174, -0.1887578926795954, -0.09467604244906895, -0.027088703677310737, -0.005707398085147706, 0.08665822589830946, 0.0954519132259378, -0.24650623049433584, -0.18776436921990264, 0.014881903983287814, 0.20196740354293494, -0.22721943795381594], [0.0022798748660903976, -0.237925949152758, -0.1696758505619375, -0.17659300431105537, 0.25844040171510646, 0.01358191797818814, -0.03267559837281425, -0.13657039172757615, 0.016361451463581755, -0.19224543285889995, -0.24662632851877397, -0.1752422362468617, -0.03652346244789609, 0.0005883129511139451, -0.25451133400544684, -0.1499472415105708, 0.012536835720876882, -0.06786846747641535, 0.07679948649034432, -0.14938234036898124, -0.08466274289583826, -0.24770406485138846, 0.11959752285945746, 0.23083598597575772, -0.17889334693781658, 0.04835527714119048, 0.040860889460791035, -0.08301648672107123], [-0.04314760413781356, -0.08391101636556969, -0.2243436383417601, -0.026654749034484542, 0.2019658121893131, 0.19675209592447157, 0.08830416721757271, -0.03612325794879416, 0.019500388368604682, -0.04279661491175326, 0.0786832092269279, -0.2049234403585325, 0.05718485697160935, 0.05988317746429553, 0.24525031203022699, -0.10355273903410084, 0.003376787988451134, -0.25726278808424374, -0.02507610409090039, 0.017887799903527207, -0.18880861410577635, 0.0789248486886638, 0.15650333577260372, 0.2496999102434819, -0.08140115634871406, -0.22216800575647078, 0.019949981989309785, 0.17270196030348287], [-0.12845038241094478, 0.1135552861465985, 0.22861247655581518, -0.25084244984417214, -0.172444311650353, -0.2590776356210854, 0.25166392207647037, 0.23210649472237246, 0.25185514618631166, -0.19482351563963463, -0.19306763641342334, -0.0028769251261923645, -0.15034771349947862, -0.0014516252827967743, 0.08288733557985108, -0.08056739673863186, 0.026733562895959687, 0.22764415090413864, 0.1892188707826042, -0.1749497789524515, 0.238662525864433, -0.10864174360654479, -0.09086988438494226, 0.11979031067168723, 0.23270206330214482, 0.10607165015775617, 0.12158395365787737, 0.2056306798279409], [0.009471152078735097, -0.05665132088523462, 0.13619895478926342, -0.007345666512666569, -0.26283807954615634, -0.21812922817435682, -0.02193144962727937, -0.23989071865922645, -0.12477400186021073, -0.1546667316139405, 0.24658636729204864, -0.20637628670254152, -0.08043207517127011, 0.22681584765121932, 0.05337946186904903, 0.18379908472659331, 0.01476788042933147, 0.2623728143074161, -0.15984343290230293, -0.21707448367689403, 0.12936018643272126, 0.016962009202047178, 0.03443474846767858, -0.2143081151959446, -0.11452655572781822, 0.0517721408046715, -0.2140823979879839, -0.22222596324562088], [-0.10888406720776689, -0.22301413276498877, -0.18062291915514278, 0.01724497705602296, -0.20028886226280884, -0.1934565635566688, -0.26540845482633874, -0.19817093577020928, 0.1725649519351783, -0.13241602968830277, -0.04967889529872044, 0.05188775343769786, -0.24246556539082909, 0.03813690528493247, -0.1790002314373407, 0.22049600374176143, 0.2258136056849709, -0.24897006566889965, -0.08135680807692022, -0.11111314342409487, 0.06155876185214787, -0.16129347032327657, 0.23291658456342457, -0.2642938491106234, 0.20804542979356522, 0.2582283682795939, -0.1677099359970643, 0.21473132578696136], [-0.1270790699498791, 0.03712088100791461, 0.10755244627981458, 0.15908629766929216, -0.033564048341083536, 0.17182951295565468, 0.14898300305853973, 0.22103180243396092, 0.2626818347212113, 0.13774505918475613, 0.03434657353006937, -0.19826905105163214, -0.26607660844942504, 0.05915265801792924, 0.1463300802796293, -0.02434826186774164, 0.1252485512133807, 0.1296338679352794, -0.06990063334399631, 0.13330397807868466, -0.25410878401024795, 0.22744939673027056, 0.14074421863645142, 0.22445058997495881, -0.04251855616167574, 0.14352473849532948, -0.16931709333341965, -0.10087625488916432], [-0.020368445910911286, 0.16687077131009098, 0.09912759192198928, 0.08740508929031601, -0.14200385545044436, 0.08912510406708479, -0.04314500034377496, -0.03938486512143642, -0.014535237622664565, -0.2272900316611367, -0.006433439851044609, 0.03869177657793882, 0.11221012693314869, -0.1814621730206708, 0.2467145273397329, -0.102302249427003, -0.227506328973139, -0.12482100971571493, 0.0579059826353106, -0.15615341045643127, -0.14176180283427636, 0.0001490313044982676, 0.11577726332535371, -0.15002030706719474, 0.04318567110654024, -0.23173371510217217, 0.19872784753880282, -0.007959987935719948], [0.13797030397746762, 0.06065628382646926, 0.02658838192864038, -0.252786611693871, -0.23036167208256897, -0.25119700420370034, -0.06386440184639489, -0.24825110488359634, -0.18629673424894283, -0.15379767977172532, 0.0027439169332453828, -0.16101510843765615, -0.24583836234034723, 0.1650456040459356, 0.16429870751459993, -0.11638460489198592, 0.1314933391707655, 0.014431172823134877, -0.1601712477565601, -0.08705177499759965, 0.10762043337603111, 0.2657209255341445, 0.014209319467424507, 0.10887902609666986, 0.1321359723136827, -0.1704924898293389, -0.10807989980811764, -0.2386162497278481], [0.04921560583683638, 0.13010800171944348, 0.10955928247499008, 0.0993950561650761, 0.0004326354173823772, -0.07677373775888358, 0.2030848580738796, 0.04061602533109055, 0.1929631981206632, 0.06931951181948179, -0.034346991551635675, 0.044656767743816994, -0.1119771421685279, 0.1228867396107941, -0.09904220233510648, 0.15993327416961564, -0.16457618566613347, -0.2605579064885906, -0.14133819936678513, 0.2565260895823133, -0.06914134578068255, -0.18630097036876675, 0.06714915089097523, -0.21484605355134384, -0.0001653682807649104, -0.1936768194366268, -0.2114792023275139, 0.2309196869406156], [0.054161953619910885, -0.10736855525722919, 0.03869135736362006, -0.22942620414567633, -0.1917206371010393, -0.16908965050129826, 0.12968858831810864, -0.22806606794687012, 0.06338857931481268, -0.25577511900567573, 0.1380132725271171, 0.238035549033361, 0.09543716679022914, -0.11502599205564425, 0.10966362350050418, 0.061229637320120156, 0.049364005974248885, -0.06319599624954438, 0.24049797559789804, -0.16797108142716244, -0.007717641070172405, 0.1103066693661523, -0.10354309852058666, 0.07701045549623899, -0.13767998383154528, 0.16592398465971214, -0.03752771896082863, 0.13874829616295348], [0.08260563780353088, 0.04588582608030203, -0.16466647019331498, 0.1453257650646037, -0.07201981826320933, 0.2101158055329489, -0.047326194053812706, 0.1411429502076215, -0.10231449106936602, 0.18933764668056535, -0.10010973437996737, 0.17573376910410393, -0.16750316372337887, -0.11748777348465667, 0.11732250472673046, 0.19715085790224135, 0.1059316048665574, -0.13958304082472098, 0.1060164567685827, -0.13603723429020947, -0.16512590121097848, -0.17869195903902374, -0.07867029187319419, 0.10867553232546408, -0.22880342437285647, -0.18858821610322027, -0.21798851509743108, 0.16323109544121178], [0.07506033823527264, 0.11633720258632613, -0.216846957187399, 0.09343885632346176, 0.18574238613631214, -0.10882999166079796, -0.05360971571134271, 0.04638592254503573, -0.18853361014958459, 0.01226240939548219, -0.020831854837148334, -0.04192456843680625, -0.01120186232534498, -0.25688383497997297, 0.07894679746666543, -0.23570892147716505, -0.19595772705275497, -0.23697978874358008, 0.2234458815206943, 0.17611022192630205, 0.02759611781555759, 0.0228864803310313, 0.03667896384440372, 0.180342791468746, -0.15552105062928614, -0.12426269784241983, 0.24553741878763113, -0.19481342525232548], [0.24636595854983953, -0.18868878749030782, 0.009359505896354647, -0.15151275826245514, 0.19452992379237732, -0.05036672146631657, 0.1273040767669083, 0.0019306178371587583, -0.1899528178264704, -0.12079493621233545, -0.09401906538887791, -0.0774769920262923, 0.15732894501238548, 0.15120747107127555, -0.047282701033848504, -0.15171392094695607, -0.23469321917067348, 0.039302238496378164, 0.07823111383313615, -0.2529762345336192, -0.10363554657750916, -0.0961353276268355, 0.01597156536153256, 0.10020381821269109, -0.04946141772285079, 0.056546461882772486, -0.1176515566591054, -0.15195309646768326], [0.06048436097845772, 0.23944136942327388, -0.11367092799379899, -0.005101651214779868, 0.21367700234678816, -0.20105638558007732, -0.25741523986209064, 0.1355632474016906, 0.1426210320979594, 0.10297030934785271, -0.0690791702097106, -0.19915278496224462, -0.12767975500605866, 0.14106523531067788, -0.07438521534798849, 0.2193830957124395, -0.0123886024231249, -0.16687087024043445, 0.17088246397087165, 0.2595062836147066, -0.06767442077240847, -0.032344864440647485, -0.20212348828486315, -0.09825304836540143, 0.09051296054102652, -0.026501361973288323, -0.10151866638469673, 0.22190969459955467], [0.265967350123228, -0.06888607079153794, -0.21751844054554154, 0.0026485809218847116, 0.22568249725260134, 0.18195599419190217, 0.021836383979116004, 0.2134714762379304, -0.10625813936655812, 0.12084934831179392, -0.03710367360013367, -0.12260404879700904, 0.20560315461477768, 0.09204261871026653, -0.20286887049422853, -0.05719649563510485, -0.16899350699067223, -0.14506213621308858, 0.15027468710638728, -0.05987286448979284, -0.10876090674733681, -0.14142859696856228, 0.03410213739300105, -0.04302864575586059, 0.07519931892408611, 0.24555534954939304, 0.08704210022657084, 0.0651427377157655], [0.20692759903660007, -0.24274566870754993, 0.1990403516690218, 0.05004166376553236, -0.002613874248810256, 0.10022907026152084, 0.07202219401302325, 0.14659886464563399, -0.24780577762191747, 0.012437687000631222, 0.08004140951916888, -0.09401038436799539, -0.23199819529051655, -0.11499570735591658, -0.12024128749235774, -0.20205382159087032, 0.24478444516704334, 0.16425778299114427, -0.18625569410248463, 0.20911599888215848, 0.184941607883352, -0.2559550247773581, -0.06829546763603794, 0.2640708195590994, 0.026705239942820036, -0.20983548710323635, 0.2235877191960233, -0.21906228801282085]], [[-0.3646828093353585], [0.0004931645806150981], [-0.2061658933226677], [-0.35113398070134744], [-0.06053677883598398], [0.2870435909744962], [0.32107804824371067], [-0.2697410844986802], [0.41162537763807266], [0.08596598062412185], [-0.10167560064606102], [-0.4295175602535942], [0.17985245086875404], [-0.10771946205053697], [0.17108173364981094], [0.13104012824212058], [-0.09502854609090426], [0.32299107015303113], [-0.009157947843152853], [-0.08176128446709917], [0.1702639663003848], [-0.06202402367719778], [0.41847546386805323], [-0.07932175619175504], [0.38889185969128753], [-0.19786981395536166], [0.10550798724936883], [-0.37179024536703364]]], "biases": [[[0.00031376216264317604, -0.0008460020082051993, -0.00010956058016469533, 0.0005983878946331059, -0.0025245038967306654, 1.625403846161984e-06, 0.0003555739396226946, -0.0007696956451935741, 0.0028065739631283433, -0.00027442162588993873, 0.0004863519882912125, -0.00011018449423865913, -4.350205621080497e-05, 0.0015540125357814793, -0.001963268871033505, -0.0002613795267982948, 3.7805208223525744e-05, 0.00015724568736840008, 0.0007248267612050511, 0.00017728773124068176, -1.5726132681958707e-05, -9.736605896377383e-05, 0.0001189666601897327, 0.0017891544506206149, -0.0031971521025897813, -0.00045352781070155353, 0.0008377114156876451, -0.00014740948686418122, 0.0006515980727462866, 0.0004312683364015084, 0.0003775149122522227, -0.001606324444109729, -0.001281764012072729, 0.0034092864611779965, -0.0009033885165218702, -0.00015424261642314443, -0.0005042917278815926, 0.0005939284973117991, 0.0002944122714915646, 0.0010348259165531707, -0.00013017688461306877, -0.0006204258351215849, 0.0006701476514937814, -0.0005352891952977925, 0.0004125810757863543, 0.001368028136051904, -0.000570114541008817, -0.00344751257442648, 0.0004367179671409036, -0.0001629946635699782, 0.0010863826814216735, -0.0004750584016487288, 0.0001279675240475463, 0.0009833418493910364, 0.001561347321322277, -0.00012771037741800116]], [[-0.0011531184451109638, 1.4898762980306108e-06, 0.0, 0.0035884339364470057, -0.0004711917734574712, 0.0, 0.0010139175166802492, 0.0027444246566320296, 0.0, -0.0009016182856919299, 0.0, 0.0, -0.00011529760321293668, -0.0004911154597985224, -0.0017549886925027672, -0.0006856434785644807, -0.00043744421048299035, -0.0035647745453378323, 8.0361066886293e-05, 0.001436834061580541, 0.00042872089227085546, 0.001008424972124355, 0.001897706584308397, -0.00062751865192696, -0.005228936422352273, 0.00277099883931921, 0.0003321032499863556, 0.00023985450152981723]], [[-0.010896991087000173]]]}