{"layers": [28, 56, 28, 1], "learning_rate": 0.005, "weights": [[[-0.19164273918804786, -0.1810762212492075, -0.012840793386942106, -0.19551525124574914, -0.265839897681276, -0.2117086007664537, 0.16394468307702748, -0.07639678644989911, 0.1635936455941283, -0.20348477605227172, -0.0260320633529649, -0.15632634929614408, 0.24506301309554945, -0.2314975214142851, 0.2356240041715305, -0.02344443544204991, 0.1830535420746786, 0.08888523610879728, -0.16227192696874265, 0.18133233354930478, 0.11943409009055284, -0.09172912824225013, 0.15193639915845886, 0.14575554973603694, 0.255748004981996, -0.17944010894704576, 0.16672802399884012, 0.1468282521044041, -0.2484115993048405, -0.21681681392222776, 0.12359875362074729, -0.12944092006270824, -0.12985651424168412, 0.12231021039727563, -0.014273857792851063, -0.1097043195727552, -0.2361852012082824, 0.2368761211709125, 0.2576857965810132, -0.17062207287972075, 0.14309429266839296, -0.1369996023691724, -0.05153241921882992, -0.08388561007162201, -0.02716077829603375, 0.20172783381517206, -0.056893720801626135, 0.2617365550671086, -0.14198575483724013, 0.2476628917810474, 0.023399112797256594, 0.10523954370469352, 0.07168439567029361, -0.186285663680611, 0.039279772316560546, -0.052144889523471766], [-0.047463082156518316, 0.20003822015070843, 0.1519189168096497, 0.20667915176761031, -0.05223563474103288, -0.11148366360189121, -0.08782910042478193, 0.1842057786597855, -0.22240972219074281, -0.12179017964368344, -0.14056839138073665, -0.2639660653811622, -0.17610039662544477, 0.15002126771481333, 0.2228575904253553, 0.24368558018982833, 0.26164724671807404, 0.08580521537470864, 0.14614335044217447, -0.1798214600682915, 0.12001658219509698, 0.07609353901218358, -0.06307681697706385, 0.16055642695074457, -0.10007066811880116, -0.06822955076885484, 0.01877224090910906, -0.20477876500225448, -0.09854364400609339, 0.1090785269905733, 0.21167126834313948, -0.1328538666298734, -0.2509216794968002, -0.16185704297428075, -0.06010794531816124, 0.17520602199155705, -0.10189564507231402, 0.04587615674185391, 0.20943365891557353, 0.1874151476004205, 0.010277614902126475, 0.22849860798579658, -0.035090995755142074, 0.17788063285633393, 0.10151149612080546, 0.15185450314825627, -0.20378947231345043, 0.0648842996424876, 0.220685712821096, 0.13839034129494504, -0.06408134731132997, 0.2017843223769588, 0.23465545082415917, 0.2538293365331251, 0.10230183630143258, 0.03923506470533322], [0.03572354106487219, -0.1345427610264438, 0.03530964373212042, -0.16636765984736301, -0.2636148136666168, -0.22118833389900078, 0.08409671584174228, 0.1902220268449824, 0.07926304862360262, -0.14239928402265498, -0.0893821538663267, 0.21923905646856207, -0.15962842789045012, -0.156306365812478, -0.25383048189724416, 0.07379151892904012, -0.05143115819808816, -0.12773462448746975, 0.24635095656567207, -0.09486978601779139, 0.10280184642152573, 0.1073060141733837, 0.22336895912982063, -0.18073179765063757, 0.03212095960891931, 0.23122927362757378, 0.16477391117244883, -0.1701162536773147, 0.10844179653694985, -0.1522085416381943, -0.17403533822855505, -0.02951752818535111, -0.1864286738498926, 0.1606531626703206, 0.22686585533014003, -0.22995658592633303, 0.16993557015180238, -0.0690939360673663, 0.2417964964281345, 0.21775533511668116, -0.12751676938391643, -0.2617035795819154, -0.03525568414651897, 0.20042491660211398, -0.11760443435261919, 0.045238659191109865, -0.13693613473319582, 0.12328994537874582, 0.044333551081891465, 0.17026922259088267, -0.16383356108805164, 0.18630190065567453, -0.016019592042008424, 0.014858552667515956, 0.2576854915594551, -0.22916881414050905], [0.26933100133125154, -0.04605572348761076, 0.13379369926130774, -0.1958668830474457, 0.038234383232920346, -0.11310396628084048, 0.13152600171623208, 0.046431072756020916, -0.22272970975671694, -0.20816670488677969, -0.12084692478787284, -0.1702998630185021, 0.24516457128605734, 0.08177946484853693, 0.030451323832601608, 0.06922665288802742, -0.1047583072201375, 0.02777166378948609, 0.015115744711800513, 0.13707773662493206, -0.104916914027545, -0.2129533623976127, 0.08669824402396216, 0.256017037340382, -0.22451818770060417, 0.21840123358492305, -0.05150660014941543, -0.13024670807786118, 0.025560891828516136, -0.09686771296511394, -0.19071495838230274, -0.18862791288544742, 0.20155894031969965, 0.24789177306152874, 0.08535393755445986, 0.18263203113865933, 0.09321611080358459, 0.009873108903314668, -0.21742010480496893, -0.22422138411197728, 0.0923123126949971, -0.1499828744176595, -0.05338731250713421, 0.23212863460479816, 0.11023197762132404, -0.1560002375666764, 0.2612388293115247, -0.25321886952185163, 0.1831624630210061, 0.013526435572870638, 0.18318352278212344, -0.15211072874270756, 0.1547621626144217, 0.10306358781930909, -0.24703001228913693, 0.18847725274967694], [0.028455546494262834, -0.24813016383887876, 0.0650086950153646, -0.030823561514528915, -0.02699783360051319, 0.06914489683501265, 0.24645260709341593, -0.22525057737013382, 0.13165853404373137, 0.22618616299845348, 0.2480418722440908, -0.04814270163178794, -0.019245560787599578, 0.2367076039644098, -0.058838221627644155, 0.08913010494416455, 0.16601285089236803, -0.2366252762389838, -0.06274889032726436, 0.021023428519593455, -0.08993181806126237, -0.03896444158957849, -0.16631149981161766, -0.09353219499763162, -0.039914966697967846, 0.10901848763529336, -0.004394410412452098, -0.07376324142598083, -0.21152252072274974, 0.11086175102159505, 0.25667338596768413, 0.15630532992813273, 0.09440313385292515, 0.010509274004062057, 0.08741215702377185, 0.14363794232600843, -0.09333711862058434, 0.1333331007604816, 0.158105252434804, -0.13029199347863252, -0.0433198841210302, 0.004151942266582792, 0.23336537305392777, 0.06394625607937231, -0.041546781750486456, -0.1952707893096278, -0.09236986935127783, -0.014931390433861325, 0.23780696831090115, -0.26091426229266634, -0.10557772497933945, 0.031006159496407452, -0.04038087174425318, 0.2656180143798399, 0.06291229845757929, -0.04325651902991036], [0.14699847224559082, 0.1416759095883336, 0.24727913222343179, 0.1989620504383166, 0.04948992784806766, -0.1829986355922943, 0.16671389891109029, -0.1121296034395595, 0.1407651843385193, 0.18493268408582603, 0.1485426748071801, -0.06740098580191517, -0.21139252147928161, -0.054003967745391734, 0.10214366087098625, 0.04397724328563052, 0.03476075819737229, 0.23016195476383022, -0.1581834478475081, -0.01215534110613925, 0.129487618702386, -0.03773345616734017, 0.1218494907536809, -0.032963036013867186, -0.02220784042342916, 0.18229955579189527, 0.11969699869574452, 0.1428036638767033, -0.0257278412765016, -0.026768558125269765, -0.22615044319915495, -0.23599394513879407, -0.02131612995009874, 0.15715626464459265, -0.243938294249948, -0.023038725197491755, -0.012689614489600654, 0.04295110785054995, -0.06048643151754035, -0.008078443884195319, 0.08843366881242704, 0.231988326177332, -0.2520853579843875, -0.17837942000452187, -0.2138965368266378, -0.06046069460469536, 0.13118532865535748, 0.25435183508267745, 0.24516029453957966, 0.10759626689702523, -0.2133343768687594, -0.012136539065156104, 0.19044747059736328, -0.1860191936092167, 0.15467662005078514, -0.030905848750095832], [0.06454433302328438, -0.05320121446226525, -0.2113472075620032, -0.10649857373496194, 0.1782919199403854, 0.2234247185308249, -0.1141876336524166, -0.09578703447982909, -0.2536034736487362, 0.20889937951271237, 0.04300165800700273, 0.18873036289271566, -0.04013799604508603, -0.1322852389500552, 0.0572019835695724, -0.25038553494904725, -0.10447284650865898, 0.1911363398630882, 0.1615624687907345, -0.095772839700038, 0.05481941386101785, 0.10269846974784663, 0.2128085682395774, -0.14586260454684194, -0.2524091445158933, -0.15753660683072118, -0.09026097969084257, -0.23088285135014108, 0.2253470225242727, -0.04729535941506344, -0.06889808343798401, 0.09068805681804554, -0.01574932869035367, 0.22616319544757785, -0.16091399310997445, -0.10438879748100668, -0.10858861813172549, -0.05775164765490359, 0.25895033584077676, 0.15289193916519994, 0.08533093328075836, -0.2247358795255482, -0.1673061777780937, 0.24410864729242598, 0.04605168810146665, 0.24376522793009225, -0.14586534109724048, 0.06009748592753128, -0.19352076719678407, -0.08982872604151029, -0.17613819340423154, 0.15745407011526347, -0.20768132949736687, -0.1189041290286599, 0.24897396431007746, -0.10417778613435838], [0.20813698687324328, -0.03151036749250016, 0.18173013683533829, 0.15629017303123072, -0.04560415792687969, -0.18015536768938706, -0.21552027951962122, -0.07688726483671263, -0.09610298534576653, 0.19300623071647327, 0.2629941612450535, 0.2533135059043068, -0.23796790932495265, -0.05481932498275119, -0.03368482514530721, 0.25727849756994237, 0.01301544852717107, -0.11584445788567255, -0.045972298371711906, 0.04101338014632472, 0.19035999294029526, 0.12679575601486037, 0.15964761508698583, 0.012986019065408916, -0.15214648337400904, -0.053646073195889876, -0.21203822806321185, 0.22570398901707678, -0.20809533104893546, 0.010170942269248362, 0.2498837859199532, -0.18839148697540697, -0.19801774134671066, 0.11026153581444431, -0.17262664303669667, -0.032773203526154426, 0.12865868667902453, 0.06807341385692522, -0.10817634790831812, 0.25296277958951086, 0.24706450288959558, 0.09012915849327768, 0.1730440976763416, 0.12421577822937324, -0.026058664134993387, 0.08407548029515471, -0.12002520813977266, 0.09049718081556052, 0.17717695311086173, 0.22136278217257394, 0.13628597309159574, 0.13773007612991967, 0.22232232353730053, 0.07931744178535494, 0.2518941503390377, 0.15133164886252032], [-0.14045774679720527, 0.10992812485148529, 0.05104676437845085, -0.06287142129446044, 0.05691734342905175, -0.02661407279649497, -0.09089696752301252, -0.04973962628571382, 0.19931280910133148, 0.16410387470082333, 0.10981814995382755, -0.07367449024784889, 0.26221410407044765, -0.1515644992126825, 0.017876094387470343, -0.13034008924494972, -0.07284209979549608, -0.09024930918520485, 0.15126885833406034, -0.17420994596843514, 0.14517269818404066, -0.26656058909375824, -0.1118647790954353, 0.1071052654056005, -0.22465669504829167, -0.002191365748818175, -0.011994219654407445, -0.02855064028850851, -0.09123206048705507, 0.11111631000873473, -0.07213578433508039, 0.17438738590338215, -0.1403739107445758, 0.03159901108164692, -0.16932238356624363, -0.19752514880203392, -0.061099899237005734, -0.14255916973552224, -0.19544480591896465, -0.0060839849104479815, -0.16870167213785475, 0.13729590638954725, 0.20748593045105557, -0.17814254734040474, -0.039636025578804135, 0.09834057916151578, -0.21202820766907646, 0.07835885608033666, -0.0043772304648933, 0.03244045616356395, 0.03891510575841589, -0.1403021637369467, -0.022583161370537064, -0.080157096901288, 0.24208112624196987, -0.1677805202895462], [-0.058289470539700766, -0.06962767557603808, -0.10590930919195407, 0.04210381631738663, -0.10978860643989352, 0.06844579404618023, 0.1519545494637617, -0.018705351437218576, 0.023612316867965888, -0.0948055427446971, -0.09871510726052918, 0.1091726721385593, -0.15741378081582919, 0.2063019488416214, 0.007957159478564235, -0.002283811571105021, 0.10036140028980084, -0.1086879831695336, -0.13955188446175704, -0.09062839480492244, 0.12376217612456164, 0.24239172905966977, -0.22808168103759036, -0.015173567584335579, -0.06491203511975399, 0.2429001519905294, 0.07462263180894896, 0.06770325338803651, 0.25894340282921835, 0.04816974173574495, -0.209098530777114, 0.10562092214315139, -0.18806443100549305, 0.18221348695303446, -0.00972957243255268, -0.22982722996943383, -0.08933665209935085, 0.1407988700321765, 0.012881166769288577, -0.15377955417981665, -0.07428580967104725, -0.05714820566281803, 0.1881061028677824, -0.010523889370632533, 0.1370383045130792, -0.12339579112996485, -0.0706836641324167, -0.037856692579238765, -0.013620277337372977, -0.17616016607178714, 0.17662906830204822, 0.09691648613540016, -0.15593901591266315, 0.06968040224631011, -0.09862636924712437, 0.00421908974860058], [0.09415857142109951, -0.19856779796849253, 0.06266700069854297, -0.109891150979879, -0.09806118925536886, 0.08973075177717438, 0.16698471635711604, -0.012886739977431894, 0.10785615048574904, 0.1539564322115855, -0.1700194785797368, -0.23152262849129993, 0.11993949287864397, -0.06361643148914453, 0.21369826956938925, 0.06912820852771179, 0.0758744478536883, 0.01746960430714417, 0.15881396241822243, 0.022789164061200184, -0.09853647492902104, 0.08766386717827651, -0.14692135646291676, -0.13531644191995412, -0.1582337699372306, 0.25756313760480265, -0.19250305039321497, -0.1037923311383386, -0.008042118573217738, -0.19945061047721913, -0.25135315346180664, 0.061580895302751903, 0.02066280048853608, -0.0849188070852144, 0.07938159692648972, -0.10291903099368738, -0.23241812626050148, 0.14930285479798527, -0.24742539360370844, 0.016074349618196704, 0.21228838798866267, -0.12589738622004853, -0.13260135508254925, -0.07377763323538797, 0.04544027810132806, 0.10055913815900325, -0.10623279549661852, -0.1881454267376587, 0.1707769981941713, 0.11446037325090624, -0.030627454982113056, 0.07756015304888703, -0.14308986721301925, -0.2322663935894459, -0.2287953054266597, 0.1803919606275437], [0.222035462684885, -0.09895865497957997, 0.035553117473585805, 0.12362824325952813, -0.14147435433032476, 0.23456424113908397, 0.045307133373069575, 0.03636692689217648, -0.15851124858440704, 0.04938936578620896, 0.15468984509149108, -0.001520575785024458, 0.236770341754425, 0.09246623118951575, -0.009894910823850805, 0.13521088873113504, 0.08301267148876995, -0.24647135200026418, -0.07641331806418095, 0.11960785370149547, -0.24540642244909155, -0.005772486497803187, 0.2591260106513928, -0.23926902287409865, -0.11754582542070466, -0.08387692225458333, 0.26025415108046746, -0.1701804297804911, 0.2199802793195098, 0.08321772410136298, 0.040125646102394656, 0.10693177183849087, -0.19671934381527326, -0.11691577590952806, -0.2647982543234602, -0.22921349393526153, 0.2630501214341375, -0.0021539329630410175, 0.24715419972532973, -0.15531706401232426, 0.07096196878812984, -0.056756084608677614, -0.18946072544582707, 0.07398375955893012, -0.19640087465562606, 0.2376462411697052, 0.22875661905842645, 0.10675265074776392, 0.24564996189300226, -0.17032811222347344, -0.08488772237960396, -0.262811427541712, -0.23645524913747282, 0.01830823751511225, 0.06577176873752104, 0.11168761205344842], [-0.19108315598147796, 0.1711066792557979, 0.2210928628184597, -0.048956370990545055, 0.03718552779045196, -0.14261628998841022, -0.05377040100574746, -0.2611559185134384, 0.09026071448130149, -0.062607957933013, 0.26220129000712505, 0.0532419609583086, -0.028408675357689022, -0.13009170046739532, 0.19361383223073597, -0.06406987556220625, -0.0542374200485032, 0.20166538784101534, 0.1364280872258574, 0.019141633570606324, -0.15124216769907242, 0.15189618566750382, 0.1636791244925998, -0.11004819302237623, -0.23688716259576775, -0.005297914675999164, 0.03575893220602996, 0.13002019451242017, 0.2303555249225514, 0.16441812870591868, 0.21831197099671792, 0.047412158760504204, -0.23883464713126346, 0.22206438339544965, 0.02794974354142282, 0.17047640880958012, -0.21157001579862175, -0.12881656948396467, -0.20262239802348664, 0.027288274377338502, -0.05928637017240576, 0.1465188791783115, -0.1510222649044153, 0.19633657454416156, 0.030858825539741074, -0.16178319054065285, -0.03931320192294946, -0.1820475868551561, 0.04204166983589763, 0.03695276343720235, -0.07188731327198926, 0.051437939822339886, 0.09527733552973582, -0.035852693511163304, -0.25020793678305664, 0.2515790270379252], [-0.1671171280341015, -0.06975986332488907, 0.08303859199724073, 0.10127702913509318, 0.2013007997451312, 0.022146338943282273, -0.08736376793865547, -0.09399101758755499, -0.13267422017684433, -0.23211985372280639, 0.2613617845955457, 0.13433852236097804, -0.19578228125678165, 0.23471700917779337, -0.1931160222683519, -0.2651375891386711, 0.20581331259552904, 0.01619699029551319, 0.09703190495200109, -0.16867930486547683, 0.20326121358986032, -0.04036297688258958, 0.19181051556162776, -0.014149628934660874, 0.11532524756010754, -0.04040796746657585, -0.11102088100072993, -0.17710055087268928, -0.13117494260610024, 0.07163405266540324, 0.04379930591579834, -0.22324967764705048, 0.2640902498236466, -0.15579548344289884, -0.02729229862026905, 0.012241310181272946, 0.23458003094175928, 0.19664667453552775, 0.1562020045228099, 0.12335920165427261, -0.026581324869646455, 0.06116747560665703, 0.015348484086901648, 0.13615234590046743, -0.008191721217634618, -0.08082964105623891, 0.1463443176378777, 0.13306162180162057, -0.055274045057022186, -0.23417171840078307, -0.14733077214374657, 0.0733692813149866, -0.11158926973580224, 0.24959985930506168, 0.08584162367223891, -0.040130623110885055], [0.028538706607218745, 0.17170427808269545, -0.1830851183496945, 0.08512240264178056, 0.1528428030417769, -0.13625317186724617, -0.0008513891165859433, -0.02485021962873235, 0.06881463325678172, 0.05612795139427751, -0.04581246951519363, 0.14102867353258197, 0.2552209935024585, 0.15298774855424718, 0.12216733368109334, 0.12472793309531371, 0.017978456072122617, 0.1934719020388468, 0.09125037573860512, -0.002908860868580332, 0.16166326230640082, 0.016716196530794314, -0.23358030134636093, 0.128862999789444, 0.15603591266290273, 0.14372445327715277, 0.19913089856840638, -0.25532462454009247, -0.13970087732124198, -0.04801854017153023, 0.18359903884759438, 0.1229675782404413, 0.0668650602578767, 0.1515853513180082, -0.011324224391621063, -0.03037914860608401, 0.09373201361081634, -0.09527707740515781, -0.10124728753389209, -0.20123672504886705, 0.213693143495306, 0.11510671711465509, -0.025393594490619065, -0.25797081972332103, 0.2558457811413011, 0.1231942264429765, -0.007528800704232952, -0.02907864578398081, -0.2547702782038478, 0.11731427319630966, 0.00907099052893623, -0.21772724196858972, -0.15111720948522678, 0.15283063764589816, -0.130455734889766, -0.030759082390987263], [-0.034289505309050144, -0.061032859894994684, 0.24941419308297463, -0.2556524056257952, -0.10750017094024752, 0.22857358985557646, -0.09884038527151695, -0.10107535870429815, 0.15838878288407077, 0.13024835926616368, 0.014036128210778986, 0.08943305410616736, 0.20559334012755914, -0.058492266464333864, -0.17643355256927423, 0.2014973276864664, -0.24505564421102374, -0.1693778485396873, 0.0760679629467595, -0.2083148497423087, 0.2033332037046931, 0.09835622554775164, 0.003645356873308747, 0.16420804763130475, -0.13316214478324945, 0.21730673560367653, -0.1900292909657797, 0.2634288036761988, -0.14072062426617274, 0.1827017069470086, -0.02516252155922785, -0.21961111064397265, -0.021181223309651276, 0.11274641021298665, 0.08806919677254665, -0.013950924079173033, 0.11426549431136163, -0.11603409921931321, 0.011009932684772239, 0.21112828137623657, -0.13568177095253725, 0.007239215690453271, -0.03604288343722112, -0.10661324538239242, 0.20604335228597942, 0.14979473407179839, -0.10645678526972735, -0.25369248196186717, -0.16413190460356936, 0.016559292750302934, 0.2541918267001203, -0.21034391210478084, 0.23677806765195974, -0.04525446304490194, -0.010338595041755994, -0.13586450039562337], [-0.09307902353776196, 0.11957313926380936, 0.11644461973976773, -0.04637670412351528, 0.12114785069475967, -0.07876247066502816, -0.11835693957611583, 0.08744918944823883, 0.14519942890651286, 0.15197230995942915, -0.171442202086522, 0.0026919133156224745, -0.2443799906028425, -0.13902757943985433, -0.14823290852199203, 0.1354184730969322, 0.0019336703613808898, 0.007567359728530446, 0.027701133271379814, 0.009643776621598309, -0.0721478276896214, -0.055628376329670985, -0.2673459263336744, -0.04479368892115587, 0.09836525154599685, -0.23473723298255184, 0.06968524900731729, -0.08413750857237379, 0.0199436988200504, -0.1589035379228835, 0.0764720104301675, 0.23060458511128765, 0.15525387245729452, -0.027571548158278836, -0.12235096816110778, -0.17756652486978752, 0.14933999116363436, 0.07517933638019768, -0.012975838474683737, -0.002779689429647884, 0.23729352497352643, -0.05080480444795802, 0.16168771437443852, 0.23104910388789637, 0.08229235024825775, 0.026463979608690028, -0.24924139119220964, -0.10765990084468215, -0.21261130761004404, -0.23199026292484595, -0.2477794295182586, -0.030350847706130415, 0.010726084177095044, -0.14843351820097292, -0.23437547431385328, 0.2515255250061123], [0.06080217084543507, -0.16177612794008012, -0.08147295080738867, -0.12835865600335364, -0.008311261952021597, 0.023398964418437942, -0.246857364091628, 0.2467922387053176, -0.06018612243041298, 0.13762129036064774, 0.053652659742141125, -0.104915285473475, -0.05138813140028174, -0.054691950773296555, 0.08547709531515896, 0.20148507114412612, -0.15470650119694807, -0.08035767447803809, -0.2005558246482412, 0.0847301382608555, 0.16710028026859292, 0.1659101539973287, -0.14976594764930992, -0.024840759909646043, -0.13996667833010495, -0.044715958016960634, -0.12499981523280883, 0.2025691029585546, -0.26590273863056835, 0.04741512937613337, -0.07423423815651148, 0.07863120747171966, -0.25903509711870965, 0.23737915263481224, -0.027263729556509332, 0.10724263763488354, -0.09415184222557942, 0.07157573808896049, 0.04600733874723077, -0.17888712191397563, -0.020490939782095943, -0.021512981711362615, 0.16146370288004785, -0.19725429757491628, -0.007682294842979699, 0.12700705442818125, 0.24119655589732003, 0.25120196451350196, 0.09285380421477243, -0.12328086251188966, 0.19609447880533767, 0.2164647172103936, 0.16318028619555555, 0.13614470682342517, 0.17681828877548997, -0.133173346468583], [-0.07262511363450389, -0.0692971209203174, -0.15930743547273205, -0.13747733786033756, -0.11965444728763447, -0.12067308916295683, -0.21878342499196562, 0.01786562016379356, -0.1478745062777459, 0.23725422604539503, -0.03169552887337784, 0.11255196461633993, -0.22173403908281336, 0.1067113833942504, -0.2223318794191608, 0.06645678590541038, -0.1696393616580799, -0.05266583795935159, 0.1344117055195045, 0.04471358781167023, 0.10895671194568463, -0.016992966880002902, -0.21556048879532838, 0.12350888395426979, -0.19237726624339563, 0.08456489359584818, 0.2020226551649565, -0.049867428648752654, 0.1822028923094009, 0.17409130966534203, 0.07637014198263381, -0.01801425458951028, 0.006304749475293359, -0.09489102707589916, 0.014361302224779215, 0.25122511065176945, -0.14670496906259892, 0.18698527016346717, -0.06491736686745683, 0.09100505272525483, 0.26637158366300684, -0.16518207688109166, -0.2509430373487906, -0.10159493177982515, -0.08724480764959341, 0.03699479351948909, -0.10495583421347845, -0.08425610395463662, -0.24542215088977554, 0.2442591719725008, -0.16098911130752924, -0.25030953785317167, 0.1342165083687057, 0.15191986735821988, -0.017957725287915782, -0.1094343697039577], [-0.19004414286179805, -0.04959043338545627, 0.06226339596566233, 0.05456899112765168, -0.03275475632295416, 0.2635968234299578, -0.03944068575974033, 0.05158639696695555, -0.08194708326623093, -0.22495367896460122, -0.1321047545584376, -0.09174125366092908, -0.1065492178378944, 0.15766038105354174, 0.15030088058304492, 0.008048731868914583, 0.24476135165570645, 0.09410080285367112, 0.004554303798993353, 0.031253750228129706, 0.04049151009464519, -0.07962074557274598, -0.08688567623371196, 0.23329245594235548, 0.25254170696619926, -0.20449597049904789, -0.0010889655920779395, -0.18479728741418514, -0.02472399916261067, 0.22476745095071382, -0.11049313018922063, 0.22096876864459408, -0.016380760212647505, 0.17780534455442454, -0.24226412792461494, -0.12771046375663272, 0.24125996223738622, -0.2644058329724735, -0.2536648590810575, -0.10133594581644681, 0.16346228159863857, -0.1897695944046877, 0.1042167713885237, -0.05211657792165625, 0.13583380335458245, 0.14503151088520327, 0.004063140637375229, -0.09300313332193044, -0.19658669856821384, 0.07867312362560441, 0.23860936133013289, 0.13109316145887323, -0.1364327783438591, -0.11020328289912404, 0.20050187946496684, -0.17956072734358974], [0.14288972560979257, -0.21054158879427998, 0.21362548185983588, 0.05114751278554297, -0.1493155701239467, 0.14882195216537225, -0.04026493926364716, 0.07662833283214443, -0.1097575813413422, -0.21867523067703226, -0.15615822053379974, -0.173151661948945, -0.020469377732984184, -0.26505236163710044, -0.04921672156258414, 0.07633431472732316, 0.15308068312737666, -0.24863148064071391, 0.21192849650589457, 0.19489700586543163, 0.027772868707583442, -0.17544546328724947, 0.05463158661907319, 0.04133302133139066, 0.12675985203363804, 0.14967723340381395, 0.14120122286339626, 0.12458287264247236, -0.2667522037969095, -0.019768741041023025, 0.17212136341486445, 0.2636395525226941, 0.1966352498756036, -0.25563659927879684, -0.06884596244000618, 0.050410123141318486, -0.01131016210040825, 0.10010671045039832, 0.21578090344302864, -0.05842729916142808, -0.21412413697084717, 0.023110533192336802, -0.2193154279110396, 0.2664283138967197, -0.01524576491765528, -0.010441961808144828, 0.2452255618200525, 0.0058829877456729185, 0.10029027773458171, -0.17951445014271494, 0.09412046276576441, -0.15166103221228772, 0.21185015429229254, -0.0778664257799945, 0.08152841304128006, -0.102789278838496], [-0.16064714124719265, -0.004570993067975815, -0.0027697613197588122, 0.13841664725948338, 0.19205967063685547, -0.09494755659246962, 0.11354994154790016, 0.09650779843603496, -0.14010754330973865, 0.23454733460954724, -0.24362068607811802, 0.11398111933156047, 0.04509216855007375, -0.2584474189845409, -0.1167340827554963, 0.2382825106199098, 0.21078611742379305, 0.04863273087736786, 0.16217900627965887, 0.23120531779000275, 0.23210713888909634, 0.16928311257766804, 0.15666786498853819, -0.0369542069009465, 0.09733875867470815, 0.058117227370643454, -0.1931729468955945, -0.2115412964688935, -0.21496661961856722, 0.015112736598288101, 0.13860783652609082, 0.20821451846599592, -0.22576247846880956, -0.15928809973719268, -0.15317122608347816, -0.19990837465455313, -0.23935990096982718, -0.13595629606876106, 0.025396073062063873, -0.08182559065097228, -0.07055561049267903, -0.03387900469993552, -0.1773034363561513, 0.13478524191609131, 0.10655387086136398, 0.1260485042246116, 0.06743280533476786, -0.05045954020447291, -0.2520486299809896, -0.23048335520023416, 0.08744697865523532, 0.2606047576308407, -0.11034887863731285, -0.19629569378819384, -0.19810831952533453, -0.057758615446579314], [0.12647709619823816, 0.07905334167094924, -0.13112548522498785, 0.038579615064669504, -0.043196089011318856, 0.0331499625543632, -0.19770304606587402, -0.2099648638854963, -0.021463604326633717, 0.23849089567446402, -0.0022024966548715996, -0.23272669337142135, 0.24916923938875812, -0.22868926902971354, 0.23601295503364794, 0.22917108711471473, -0.193443143158269, 0.08421099761448791, 0.25513697303915917, 0.04178404211705261, 0.09849683512410495, 0.14224901718154104, 0.1278764302778796, -0.10882808433526553, 0.07689130552533624, -0.03704016267300053, 0.21171424089173463, -0.09773686733589917, 0.09230640450768351, 0.10740984142776705, 0.18551654623703157, 0.15495130628514125, 0.2507285465288914, -0.09803138031021791, 0.21739345898862172, 0.11824276782465742, 0.2568330047859113, 0.11712594803413612, -0.17162177532469158, -0.21318518325125652, 0.15821867569553616, 0.1585607163776233, 0.19886919242224788, 0.20868901768407355, -0.1805783095590077, -0.12960035591519825, 0.06629605370096042, -0.059768353978192135, 0.09603301722625524, 0.1807586040143081, -0.06553211343175169, -0.004942705084429566, -0.216394669541489, 0.05143330496084231, 0.16077935982795377, 0.15868995836187877], [0.03916979697049139, -0.1762291504105325, -0.14858454193524961, 0.2333556157605926, 0.14834214356544795, -0.2414942481329943, 0.18840344044965446, -0.0544886723506518, -0.03665361173272766, 0.1740049643358843, 0.11482508178151812, -0.17355461835324376, -0.26104606299679006, -0.2057307700613913, 0.1501693626311199, -0.1632299315782766, 0.06410813931389187, -0.11306008060317618, -0.012175245009870328, 0.2560380863977284, -0.24356403031945884, 0.23468896622094482, 0.14683006364965012, -0.17220201318070205, -0.2336157855520851, 0.02342628252144463, 0.01422192417824969, 0.14380696782370894, 0.20972584513006765, -0.15443619110281126, 0.0912043883376421, -0.19442759379344915, -0.21912867986764556, 0.054753652546275344, 0.07820677911181495, -0.10549134668234164, -0.2520212289599206, 0.06302785768430141, -0.20026669539592185, -0.024942525882505784, 0.11669932527148702, 0.22693920922876526, -0.10052023670716356, 0.10747245904102104, 0.2563201704084984, -0.05533073899914287, 0.058197655037597384, -0.05985602093875858, -0.05874927298496699, 0.16840860491647291, 0.24139940681940342, -0.056973489978840525, 0.17038129056620044, -0.26608042742485666, 0.1552291165462238, -0.17265275446386474], [-0.017993950894557936, -0.10023212405587223, 0.14709458817319787, 0.23947975571576374, 0.0042519100856551195, 0.1804565468709433, -0.06109394202917717, 0.0022333564085394997, -0.2355389348908036, -0.03855577498492885, 0.013331184813214048, -0.10238618853244996, 0.04919049106152412, -0.251880013218383, 0.11049378809507215, 0.19733621139515606, -0.0013281756733071193, 0.16303265773844888, -0.1307594226240436, -0.2450076821061709, 0.17363768525311252, 0.1231142788547333, -0.14574194557207595, -0.24094844544069668, -0.0742532817593651, 0.20498350887443723, 0.0004920061426059164, 0.17902407307646406, 0.04607402831165974, 0.0005786022836601901, -0.048864824392365724, -0.13175810218541228, -0.23973349190582877, 0.12135461198993958, -0.18631311050360094, 0.1882711113166478, -0.04945098199537179, 0.2290120376200458, -0.17042366993591251, -0.26188599886639957, -0.09247038646781933, 0.11678876302294067, 0.053728492110885484, 0.196921169952069, 0.07501641989591412, 0.21554524348387272, 0.2465230260874669, 0.22994523395471644, -0.02894342206884354, -0.20643409746643795, 0.22396908845293806, -0.04844063387093739, 0.20223242681698855, -0.26583150135809347, 0.009945624361411776, 0.028862609698272645], [0.014620906283841661, -0.09456869913037377, -0.023390600059544908, -0.1935575769253092, 0.08898457248543934, 0.03224277213000831, 0.13403352505066018, -0.24491147514365932, 0.12000359217587458, -0.16478748325378778, -0.2493872501507546, 0.12794729218496015, -0.056106639157747884, 0.13405996352644306, 0.02259072937762846, -0.09383100149129284, 0.10925085566693915, -0.1997203811472435, -0.10695208287024044, 0.10182942426368846, 0.08919122131627688, -0.2306344253241505, -0.25022771779818087, -0.030100909067168613, -0.08721226970842588, -0.05999175680071067, 0.17206317783811798, 0.12624995670497285, 0.10652671396953328, -0.23057002384497544, -0.2159448188803088, -0.08666841459581476, -0.1624594854605857, 0.07520645843132528, 0.245597374108796, 0.16399695946046006, -0.136615385669413, 0.1438814895442594, -0.17248433655701817, -0.12903327112848087, -0.07013814169328025, -0.24128278208168444, -0.21462568521095604, -0.15664974766819723, -0.05224310972290294, -0.2107456243996993, -0.0810137650026869, 0.07143698115102703, 0.23239378721196696, -0.19218228420380573, 0.10852352222616235, 0.051743489243297136, 0.09808842052699906, -0.22228170864895613, -0.21566720776968734, 0.08290171034326393], [0.0749435614104384, -0.15001576720926746, -0.034089522551205065, 0.08621017018803723, 0.19556238988074942, -0.1009937687617791, 0.11050129583424495, -0.07629914829490184, -0.11839109580012613, 0.23674350101163122, -0.08043634077916154, -0.2494413659993925, 0.048675681714862584, 0.0668393533396438, -0.11174837242780439, -0.2092932546758316, -0.0967648502793681, 0.10187025240193026, -0.15161465277584246, -0.24695808901629374, 0.2030341138396538, 0.2318244318828913, -0.24966166374890691, -0.005476514177182312, 0.14484267188050448, -0.169013942523386, -0.25975627698531023, 0.25992774379141115, -0.19702448364911462, 0.21014522748207315, 0.08722653403567482, 0.0657035086608983, -0.002103473923761978, 0.1882465562986898, 0.1623446265486599, 0.21678165590830079, -0.0024428665961831464, -0.08642954099537731, 0.08464154173374017, -0.26666331995256376, 0.16391963596301506, -0.19099925589092254, -0.08016378817203432, 0.11281422248842315, -0.1430904583389464, 0.10728435987347162, -0.004180624496440188, -0.21761640347212127, -0.1254209828393082, 0.16695256610771303, -0.022590815999852937, 0.03724923941403008, 0.06728464006704105, -0.2603082149084493, 0.025593407984061123, 0.22628670238222426], [-0.2271051665536493, -0.22991736348202937, 0.25798752427954563, -0.09955279666675332, -0.1666093937125588, 0.13777983294717644, -0.16075931518624992, -0.1767519381827447, 0.174843518400496, 0.2242609729938, -0.010419812870185341, -0.08434504385519428, -0.02824030992432286, -0.029043375636538138, -0.21464813378145764, 0.22475362066845717, -0.20707799616825215, -0.08218896057140843, 0.14581502767772808, -0.0962653119037267, 0.14741163919050437, -0.1738412541839513, -0.1541900212417036, 0.0620925959135456, 0.18092614949612285, 0.17375663163968025, -0.14917187607756266, 0.2461009899322757, -0.13798618595840245, 0.09126625004412542, -0.0381064762923464, 0.017698352334935052, 0.01548929079588146, 0.06846055403303292, -0.19175771158602295, 0.21178491279389278, -0.2054032434153007, 0.22882423166874105, -0.07301416802474364, 0.23780828144735122, 0.13252889759765218, -0.21962440040475617, 0.25795030879387637, -0.09551452016446649, 0.2543399444749518, -0.2431756825567306, -0.03523583464171384, -0.13785219469744053, -0.09222401500083682, -0.25316454747938516, 0.04136474863238454, 0.25364374375828014, -0.25284486376837667, 0.21852896456896337, 0.00562457326345156, 0.07094958191588202]], [[0.1699869005184295, -0.21731526197051987, 0.1977107700634137, -0.22748621219703602, -0.23477839739743026, -0.11570352356567475, 0.06659504452138766, 0.08669012962541049, 0.14997315409269313, -0.09354536537198771, 0.06010892350232346, 0.22519539269282357, -0.06891023289389162, -0.09412042712560786, -0.010916714735511868, 0.23226385136733133, 0.12059072767292929, -0.2646434950101594, -0.007244207832315476, -0.20067475540482613, 0.12460147213544037, -0.24452310751638615, 0.2675579837467312, -0.1792222860680182, 0.16711691909123708, 0.03595370570001807, 0.1857314115523409, 0.0019495881245468773], [0.22460032530982726, 0.18450709463886678, -0.26280261060628796, 0.11407966596196217, -0.11942541935137364, -0.12516111740592142, -0.003832394738757872, -0.0038174280302873485, -0.20044180322148095, -0.16665248655004963, 0.10713241790385479, 0.1210832103935692, -0.1531658281198506, -0.25728681432562944, -0.17657894850010328, -0.06622280997369313, -0.02802632250095118, -0.11675838647033003, -0.06385571419919718, -0.18337300783580213, -0.24431657695671974, 0.2408826380918204, 0.022940662924010594, 0.14925584818697768, 0.07683642678449323, 0.014404398235588629, -0.09554497301976703, 0.1879547960732373], [-0.2326734477955979, 0.23516186715354742, 0.09399760382066197, -0.02685379245280181, 0.2171462320163829, 0.15970361264435481, 0.12238426859555976, -0.21633575722343842, -0.13600415418555273, -0.07323021793716926, -0.07248644303605029, -0.02870914956582054, -0.08528003081899653, 0.06345283617448581, 0.10665923321426407, 0.23997135492950275, 0.04560923960578514, -0.2186224862909975, 0.12405857294381853, 0.09728423610931439, -0.2362916191517305, -0.10507226248927956, 0.0062438402734978195, 0.21772867644903027, 0.057431744177266236, 0.19399809957782171, 0.21310273863709916, -0.2485873253394844], [0.20896582247362844, 0.03516499192099849, 0.20276761152240177, 0.09632134852595559, 0.07908402280738167, 0.24816433100345447, 0.18969114162421943, 0.24034374108169448, -0.2535769600741837, 0.06688007591204387, -0.09631040096783242, 0.12764743162524914, -0.2202340260774422, -0.13984042836188265, -0.2410142653714073, -0.10190608954540681, -0.07753972831028227, 0.1870150228105847, -0.0726401634574666, -0.061482866831915145, -0.09121618630336137, 0.2438745931723567, -0.17873690942058923, -0.0978762357617172, -0.017600948939153854, -0.15295093622538597, -0.005878126468055189, 0.14206522906204067], [-0.05355965832279946, 0.013285097904544168, -0.052726321030976436, -0.13475169414294097, -0.09308666702546262, 0.06815764539640874, -0.2599215394406917, 0.001463085519629965, -0.1473161071309998, -0.029890748866271393, -0.24719663407178782, -0.2626597150021012, 0.2505960271403728, -0.054944978162157765, 0.04290354640784508, 0.14341024366773497, 0.25353979216057165, 0.14371790085767092, 0.17840182358855014, -0.11700053456651745, -0.03152731690536223, 0.235866300335608, -0.11514287579299752, 0.07573640757486494, 0.03223850384993675, -0.23133652268082092, 0.1317968304977013, 0.1300891565752693], [-0.040675020617532476, 0.10577069445899176, 0.1758141978453109, -0.11750014579991017, 0.14518909819866835, -0.05526630532382973, -0.13936573750714784, -0.1281078820800301, -0.12308840628538892, 0.020851743385883675, 0.26144907177894694, -0.1636195392743642, -0.2163362662172239, -0.16292900577658678, -0.10134706267386864, -0.04543797331002841, 0.17269125689450038, -0.1609098681550261, -0.10076724864196224, -0.25289196831040617, -0.04895670868787205, 0.03136036154561356, -0.2605498758523212, 0.15831448046912233, 0.06614418478468416, 0.266206128221174, 0.2211084163107404, 0.13552537262051512], [-0.16019043524600785, -0.0519522354103871, 0.1612008561448326, -0.020578660348978678, -0.13577201206749323, -0.22858692325575827, -0.004239942233736456, 0.05024069000199485, 0.20714000060003745, 0.15840124391464502, 0.0737954871663533, 0.2578728452848631, -0.2492240270235646, -0.1407122847878736, 0.14730926743903172, 0.23107250568875842, -0.035535790015938394, 0.23435717261836087, 0.13894654761557956, -0.06136435180461222, -0.07637466842407525, 0.25937273903706803, -0.2587217998388896, -0.052201865976119644, 0.1582236882291534, 0.11437913099856499, -0.19954875530795294, -0.18468952927637006], [0.13465991494757368, 0.16822274653670866, -0.09563083308299708, -0.10208648256187797, 0.08977132056443649, -0.08721867984771678, 0.1056772726660291, 0.021051695545432136, 0.21375249358394216, 0.03579177779841142, -0.09292804816464381, -0.1599307516907547, -0.04288664796153768, 0.14164414816361215, 0.2043953102662579, 0.09348138240099223, 0.2117219567255761, -0.2560359943298144, -0.22294394200413822, 0.12383285554704482, 0.25324731610408446, -0.02187610854333802, -0.2308458826414178, 0.12881542572044757, 0.03490257946381256, -0.18457126772510446, 0.2584604242430323, -0.07317038281547444], [0.14994182794823133, 0.20987313658049928, 0.13501110624368853, -0.24169759236608357, -0.16752616985599222, 0.029180125298388145, 0.12445330229731338, 0.12566313063857235, -0.13424087657480374, 0.1444305934163102, -0.17776429704760527, -0.23616890591159667, -0.008695033907483118, -0.24000298988506197, 0.1716299242560744, -0.0652490310903838, -0.10869126589145771, 0.1595581141922886, -0.04714682878949123, -0.14419345013069645, 0.05372867063129089, -0.24839449949180537, -0.16788991805020348, -0.12708759052673116, 0.1129755331951726, 0.1449703664900694, -0.19365397951976143, 0.1881113284322144], [-0.17224709742677402, 0.11005552142378495, 0.12407877022980719, 0.13717175872415271, -0.1571090403366721, -0.24630865496762816, -0.05052880629647693, -0.05986079962660401, -0.1052739763425393, 0.19029896382715483, -0.04263094602793642, 0.11004597289540421, -0.02674084819367732, 0.06859994724272928, 0.18194875664304574, 0.1498657570266893, 0.0318933802252607, 0.21993629903698403, 0.20693272652443748, -0.006493390387306508, 0.008843894303695088, 0.012461070249945031, 0.05015329727887197, -0.16423112922210015, -0.19878758976856595, 0.2493614794988257, -0.020645608386203218, -0.01574148652346681], [-0.1104174481427583, 0.11311451905092541, 0.21925151389658357, -0.2158722413635491, -0.13313299862242478, -0.11897204024295491, 0.07919343507201088, 0.12163049938193829, 0.19221358466003452, 0.12901823825279407, 0.20623854731525135, -0.2400062183572245, -0.25282120089747506, 0.2099603847465739, -0.18738993648936414, -0.1288830102358637, 0.03097773197207593, -0.05403548247349719, 0.013548664582096843, -0.05238271216209779, -0.08387903662295118, 0.0016679616537610409, 0.0674226165237056, 0.054120631651652706, 0.12974963858759847, -0.02107077906859436, 0.006742240132394439, 0.2627218973153607], [-0.10453124093482334, -0.003406397761804855, -0.027642904758383716, 0.08201239848785685, -0.004114207936780136, 0.086515957245186, -0.23184943454460616, -0.22463322557000334, -0.04254665636145666, 0.1586066750554702, -0.1489953252981955, 0.14448393236251728, 0.006049350564188074, 0.22890646004338072, 0.024637027804812316, 0.11774035660475596, -0.25399062851452037, 0.1576436737189903, 0.008916191807098678, -0.0670331136918057, 0.16058755086353688, 0.14530126507308005, 0.20787037758481103, 0.15369891208765385, -0.23869786428814727, -0.09835496807524097, -0.0006540310812070355, -0.12422001335588949], [-0.18390729571414238, -0.22650038640368356, 0.22819609494810816, -0.05802092150358215, -0.2336291378041807, 0.23647491904953577, -0.03351986314759001, -0.07252240925982538, -0.26501858219284363, -0.09021136415496066, 0.17613517604498097, -0.11240530950192515, 0.21956992350984736, -0.02973431055126388, 0.1656197844522181, 0.10158434771008198, -0.16399263915949233, -0.03810068394947855, -0.06349053198416765, 0.10658259038813239, -0.22854844450320383, -0.032112188781919376, 0.11753229691910234, 0.0946273670868813, 0.2673607415553799, -0.01474935849307008, -0.06426026682786641, 0.0006837762760843093], [0.06541567612602095, 0.1118377411741896, -0.12320485070486606, 0.10565313453528746, 0.2605398711526571, -0.014751574240093712, -0.24033445071400245, -0.059024093269969845, -0.07714734879172339, -0.20085237443726203, 0.06558893109830281, 0.15891335221157007, 0.041675467264450095, -0.0998226830316982, -0.14554661431813345, -0.08953995181989466, -0.06309559642786224, 0.16123137601965046, 0.23740016683931775, 0.19106096009531692, 0.09903463611157093, -0.12134774831616124, -0.18747436638058662, 0.21457531843089067, 0.024126480944847335, 0.26249597024090365, -0.20145877088856862, 0.09953572840965086], [0.02561534201984075, -0.12275065008335785, -0.16989408425951885, 0.07621748201910972, -0.045913280478260425, 0.0723191539863102, -0.14100543267651286, -0.24551145370414457, -0.19046799613937387, 0.17308867967891572, 0.16554941983837043, -0.018054632588099372, 0.2659128996917701, 0.2570985848588916, 0.1402102403066916, 0.010402234624554358, 0.2520684703072032, 0.04239786417009578, 0.16405531301818504, -0.24679935939166409, -0.1929647065338167, -0.0401374052535417, 0.11862103485924627, -0.038644848158825656, -0.20004913373591285, -0.10876414067022519, 0.2194407411786176, 0.043041672006029943], [-0.21266564278951064, 0.13584128210097424, -0.12343077139328769, -0.026331458718136497, -0.12389178801616228, -0.20774815838210237, -0.04269079539998866, 0.10160738181090662, -0.1394695311402701, 0.14567221684559986, -0.061531844812094935, 0.23999320423217485, -0.22516790210669857, 0.2120292095562053, 0.12510351624834032, -0.1981595618408306, 0.10087961753513354, 0.09412468749092129, 0.10734723443594682, -0.016904845556330816, 0.23530719463235283, 0.25736488417928904, 0.005141236523142634, 0.005509214616482794, -0.0008731315934914127, 0.06270583824177021, -0.07767202421174564, 0.20259512524785908], [-0.22944022031179173, 0.20980443291882375, -0.1339363991749604, 0.16903513891806127, 0.231170792095128, -0.10770023639826078, 0.06327741290882614, -0.1652860262964591, 0.062392416875126255, 0.10920194205895432, -0.2232208179170297, -0.13397822470751836, -0.25595232596751, -0.005533359111715541, -0.06739998640456338, -0.2619436157040986, -0.21754804530822122, -0.26624441016219097, -0.16462512772796645, -0.16944990839056825, 0.17585919335468614, -0.24576498968958768, 0.1605416308952855, -0.24476081013759848, -0.09777662863505406, 0.24398166800059393, 0.08132398182235975, -0.1592015114740024], [0.15990751164583664, 0.13189228050152751, -0.24777830032057643, 0.02952148731124299, -0.044345659548962225, -0.09973680389806439, -0.187481812263274, -0.19294025899787323, -0.1668895875707062, -0.06349305235164468, 0.11718022062122081, -0.1803138704317913, 0.264545297688471, -0.014541858331402585, -0.1982483174169514, -0.22642784459384238, -0.05568708739664846, -0.08341212212307215, 0.2487166852982605, 0.23831779714701404, -0.15229425936602847, -0.001802199110624995, -0.0798803016272626, -0.22860836429844159, -0.22065275274846868, -0.07840616720546938, 0.0024504294214236265, 0.07244579242480985], [0.23444756556150767, 0.1921787911305176, 0.1410451505861589, 0.1469279344068099, 0.06753995142198362, 0.1464339071530689, 0.01908581117755749, -0.09817992870440784, -0.07037586684452615, -0.24154289288351496, 0.1516388243951195, -0.14948587890038825, -0.09773938439461977, -0.2398064781440393, -0.26604049738641367, -0.19930260428182145, 0.21646962854678853, 0.016220708414454884, -0.015146729601270434, -0.17083891955599362, -0.15143301361605904, 0.04438039531521442, 0.2236751564300238, -0.024644759549837136, 0.0512472406295767, -0.14298753745452236, -0.053578503733147015, 0.20331782046100053], [0.03995981759861661, -0.18267667534151905, -0.14401959260044303, -0.16443962109868826, -0.027502289635724847, -0.13183343824371072, -0.12071849910561747, 0.19031665224695596, -0.05227209100704844, 0.12857527616704745, -0.24736901647605408, -0.042804824950354745, 0.19273542730335566, -0.12064148058824409, 0.2300929683680003, -0.1773510436234189, -0.10718745982734021, -0.09960403844715413, -0.14185026645336135, -0.15156532110572338, -0.00029341940006372136, 0.23383620084502232, 0.1488336472900329, 0.022091612915354664, -0.14806586176687017, 0.2592500801695907, -0.10703687139759066, -0.1866945450542217], [0.19322284353352984, 0.2611527244817338, 0.15366178045020357, -0.25682064637205454, -0.262014241909781, -0.14386612949765007, -0.011878096490144435, -0.24096579330775678, 0.10043720150085095, -0.15256009985748034, 0.0227671200667956, 0.23253595626353957, 0.1473436580408359, -0.14833772615865648, 0.25652695998915215, 0.07968558219086624, -0.0625920621227518, 0.25146406723265013, 0.10007545294860284, 0.10052006122928803, -0.22864468251391912, -0.06991004917631462, -0.25190093583143747, -0.2557463648367432, -0.12979738280108014, -0.06777682419850663, -0.20112284056979446, 0.14638673798165688], [-0.24048303374930943, 0.2411569412831881, -0.2142836873229844, -0.06694439744349692, -0.021351755546695758, 0.10900809321488414, 0.05863113533752366, -0.08284294258571723, 0.16413284893725627, -0.08639149088891074, 0.09532293942943285, 0.060850059133516654, 0.1845754755843756, 0.18777160733651604, 0.034340892996255035, -0.2582050384764023, 0.17540210229253675, -0.13480071541919675, -0.1022732895555581, -0.09906904704591517, 0.18691506608611014, -0.2034354119110009, 0.06756888265515036, -0.15419349179272462, 0.038697068426409124, -0.16168339313596353, -0.11879112020171148, 0.1539436159641804], [-0.16451040953855667, 0.14509917013779275, -0.12021309779950337, -0.03891473076832813, -0.224832307233732, -0.1934851121399677, -0.13649178529076528, 0.2314260673234406, -0.22515428037998034, 0.05004919314654361, 0.1304177778572741, 0.2130776313702912, -0.025685598383462904, -0.08036067744544591, 0.1478318926839784, -0.2015575640966915, -0.18088846855564253, 0.09210283377625327, 0.022823405284595127, 0.0715894842092969, -0.16483020196764192, -0.028092743110670115, -0.04670299725730423, -0.017664074025261933, 0.13599743905631462, 0.1676800267873965, -0.11877706165324843, 0.021555331997699274], [0.1366513263684411, -0.04648641252841898, 0.0650196307748267, 0.15684798258431848, -0.06779818853708948, 0.2179891411349259, 0.20179378880197923, -0.19794422001390838, -0.097106539716669, -0.24933616437041822, -0.20260647395916578, 0.1810208970871513, -0.20205622344371596, -0.23469201349399885, -0.16588536994646713, -0.033960860315051626, -0.20519393973256014, -0.03673817996519912, 0.15392559322235053, -0.09291388318487526, 0.14458850758000658, -0.14004441472299214, -0.15963199631848196, 0.16741710291355533, 0.12300918817088323, 0.2252989013135479, -0.017502518866417672, 0.12268122610173711], [0.25176064230495304, 0.24406464404042166, 0.0894819752946836, -0.01999932519407266, -0.2613154938502359, 0.07155918421805897, 0.16533978851107367, -0.034261152627948877, 0.12975170517228857, 0.14871408953985457, -0.03182731091855656, -0.14945123457401374, 0.23646618541054776, 0.20572233205759322, -0.12227493601885982, -0.21941010832441754, -0.19577832244298773, -0.15560212836630297, -0.17671583898755475, 0.15174806229773485, 0.23474086469755306, -0.2181582201955103, 0.16952463668114692, -0.21451597397107208, 0.13662664956592968, -0.15693423078657118, -0.24544730212148788, 0.050194865458071836], [0.06978439667432663, -0.15551394745710748, 0.11980110784241021, 0.008366411633320081, -0.10664047134369853, -0.25677844893066004, 0.18396766658674688, -0.11084345679374273, 0.13238279422102134, -0.16900680835703044, -0.02815259398079206, -0.20402189836181736, 0.17410363454814642, 0.08005179976873118, 0.15708479946017856, -0.019491658426349607, -0.2116510131474583, 0.0957280774334987, -0.0023946573195040006, -0.04318985936747248, 0.11269363070591443, -0.22492408571924843, 0.19953070431888373, -0.19388191731935125, 0.13338041885060242, 0.14399084747656468, -0.24450748461948663, 0.21584749530574748], [-0.19831602188680045, 0.1857152647480151, 0.1926501001156764, -0.23030120348940325, -0.08875697455179722, 0.13752682826070298, -0.258428869874587, 0.10827811018546508, -0.16000555301547997, 0.1569701411084627, -0.023172135176591224, 0.12585018767317305, -0.1309655766040257, -0.08698713051776291, -0.23534065519123173, 0.10760231563331689, 0.21262020570590537, 0.15339377844335633, 0.2129638617707246, -0.01770028396467349, 0.17041796838514123, -0.1656742215579064, 0.015780917776516006, 0.08337212493841506, -0.24016777188433772, 0.08257847003163803, -0.10247398290944434, -0.06991782722405569], [0.06584588543949924, 0.09199250204818749, 0.03342096049602167, 0.16150693061701749, 0.208478166040763, -0.09463457479327285, -0.03432426265834464, -0.10578885563225934, -0.16129685665414448, 0.03009604507683429, -0.037728080476657315, -0.2571192409473785, 0.16416795190730507, 0.07496446890853858, 0.012892114312343994, -0.2320162866896594, 0.16055579373563472, 0.1241354736573589, -0.26286964337853763, 0.08219533627654967, 0.1453461823136002, -0.06001484278541422, -0.08829579498185146, -0.2645465534943579, -0.080398843748462, -0.12191879843031486, -0.1162408814807428, 0.09271245965233053], [0.00013129058196131697, -0.23901260684966466, -0.189951336863873, 0.027008399189499543, 0.07060385104571858, 0.14880061540817371, 0.14998244876624384, -0.04298846882157581, -0.20181309445106138, -0.12423253255879593, -0.04096875693086096, -0.0036520248820450223, -0.18645577700155141, 0.11012244914349414, -0.14694430230139027, -0.1597365629944923, -0.0714273721862145, 0.16612953378119527, -0.22713430053852096, 0.19746363923956894, -0.21481641781335353, 0.22149932960469643, -0.08877595551395245, -0.1441065542738718, -0.10937958192844444, -0.16347542055574674, -0.23005035274381916, -0.1311270711776272], [-0.026402763574065943, 0.14145927227545765, -0.01216382367709552, -0.227776230388164, -0.14467050223568262, -0.10219042355351424, 0.26135524475661753, 0.09541688025229174, 0.2521996201548201, 0.11230806645726833, 0.17551195054686944, -0.09392798624950677, 0.12910242032119543, -0.10773572376077507, -0.11401814214568895, -0.14024110948249222, 0.032378897918012184, 0.01025176063320335, 0.10859221864249576, 0.16999450862667165, -0.2571755449419341, -0.1634929545129499, 0.22112558705276245, 0.1793984671879436, -0.18422357894659105, -0.016657665564196986, -0.05665313226879706, -0.19434984023239152], [-0.13032262921192309, 0.11341244094930766, 0.16659512820299088, 0.07689329369834619, -0.24663412583232777, 0.17894015373011177, 0.25324550837845594, -0.03532727224508106, 0.19600855970672454, 0.08788300487321767, 0.015542390606406857, 0.20899828737711273, -0.24489242443151155, 0.06013385039865967, 0.20047532405127919, -0.22300599285100464, 0.2367592938245163, -0.04613907550740477, -0.219935240969989, 0.17499782761601007, -0.05807809906502784, 0.22949359099445635, 0.2501352595862493, -0.2632825677766123, -0.20132193992984404, -0.22689129917960937, -0.20742201304179497, -0.17224952198743337], [-0.037198555683756115, -0.13056217153781755, -0.2235181413761231, -0.09157430212284559, -0.1491456385059034, -0.06241357273087183, 0.056907057812182506, -0.025469639025710186, 0.21572962667749818, -0.23461630545196588, 0.037421372748571775, -0.2621159241691712, -0.04902615177744652, -0.1741215086566893, 0.08160248608933471, 0.008390658534686513, 0.10567112068456723, -0.04775413778472369, -0.1487603956997969, 0.08177795708266966, -0.12973054719903349, 0.22077139381072608, 0.13988923983140017, -0.09042081847952779, 0.20196604085807165, 0.13885558943690338, 0.15108601780137546, 0.11231600697229352], [-0.06432651007478016, -0.10773364243727802, -0.24620740886064182, 0.14281335152257635, -0.1912591198721149, 0.16462079520814932, 0.08716980603516886, 0.0790405682207115, -0.17947955917380012, 0.17354961750317394, 0.1736827137146275, 0.06728453175568778, 0.19652438238694403, 0.2031059864485285, -0.03426891191259452, -0.09818856571112063, 0.22485723335095367, -0.09144579539145925, 0.2566043160119934, -0.006015216761135922, -0.10863502388676538, 0.006684888437990397, 0.09108391540478049, -0.04336837709378835, 0.05326038381316221, 0.08869776191402091, -0.0370307543234445, 0.14205493566879115], [-0.03519180973328627, 0.0002533167252461995, -0.21790600250878858, -0.06959473414496897, 0.2262035146684978, -0.24520580446380733, -0.0499037897651254, -0.10592784571579349, -0.1816712990302088, 0.17254239007794397, 0.02623632488855176, 0.1001244257475292, 0.13899728847459092, -0.2389701467328266, 0.02999862682770038, 0.21421627024232384, -0.14278320089976915, 0.04540332922078255, 0.026800236195207047, -0.1576478631835582, 0.26085504323671027, -0.2597749168660002, 0.20765249105344943, -0.19419493763523382, -0.11675502859289026, 0.2571750590520083, -0.22734266886912421, -0.16545660658883743], [0.23948744432400076, 0.14521016283981847, 0.19559783629263838, -0.19103942500760854, -0.029246579752170387, -0.14461415238599304, -0.24822621289954275, -0.16334008324258595, 0.1030253583638252, -0.0616463204501526, -0.11871706330190365, -0.0022283259636109443, 0.15466887729262413, 0.11910302253882717, -0.12065807324992171, 0.12563567101868633, 0.01648122919902255, 0.1865479045789406, -0.19586720353197906, 0.03901202440529092, 0.17334632133368272, 0.03170862710718483, 0.17668048845690493, 0.02575545827099951, -0.023919547169018684, -0.24091664163289567, -0.07275504267739984, 0.09909731874786903], [0.01861105753760864, -0.06182029750401076, -0.1773638763980389, -0.0056416144334570095, 0.058074541245184665, 0.25456947600905244, 0.12267452359256875, -0.20556113425445807, -0.16168481258794, -0.13044479470030154, -0.03841586795540005, -0.17834873967141268, -0.10177157586440502, -0.10283055996869185, 0.23578002628118444, -0.19683336966011336, -0.19047751776360514, -0.25532399452650106, 0.17923787700253438, -0.11251998075693595, 0.17015931455448913, 0.13747662973252628, -0.06958849677420359, -0.017702482484756782, 0.1422254701240424, -0.11548981826402882, -0.2015610178572716, 0.20009193662459368], [-0.043332653142473025, 0.06969931955396064, 0.2654876615034333, -0.19541956139598665, 0.018114114656800608, 0.07147754379057535, 0.17074647397732487, 0.2337816167293347, -0.0007252888587683248, 0.15091758295467358, -0.13414786721865252, 0.151897266213446, -0.03483444490826105, -0.20982163916507823, -0.12579477153853974, -0.12382770338013235, 0.2627556426124728, -0.041350426188507136, 0.16289625779574873, 0.06992686041281004, -0.20823878762543513, 0.2636248914583139, 0.2603772073408224, 0.08353073178893805, 0.17606550301759746, 0.06378708013877107, 0.23070913799983794, -0.21762942790195533], [-0.06592523241788828, 0.06277826755166382, -0.1933021831672887, -0.2644781717966676, 0.20007398466842524, 0.014770111416190064, 0.18588381020066783, 0.1043268119594161, 0.12946506828221738, 0.19857057859836053, 0.041654924491032884, -0.0061855604189651175, -0.11725987191722273, 0.07660619224123894, 0.25727823836590946, -0.21233567085758448, 0.03411063846093154, 0.17220666630660852, 0.14271738070910256, -0.22656964587768408, 0.21178283234094397, 0.178437276911096, 0.1611930395478594, 0.03304193718601511, -0.009791650937829357, -0.23727637866002413, 0.26671849762521965, -0.13362744620808636], [0.20070731105088657, 0.21052315408965536, 0.09734100234315571, -0.17052137285078806, 0.18786502932833327, 0.0951149679525145, 0.16427683942023813, 0.00023862286461786834, -0.09108783562112688, 0.11529234325957127, -0.24235120976453786, -0.05007612491462735, -0.21156766211047742, 0.07154910693722855, -0.19904746434111437, 0.13079664391101403, 0.1470965671679134, 0.20398593780676572, 0.024415326741354215, 0.09180545869585693, -0.23652655181852064, -0.2000319465075724, -0.07987296367935193, -0.02440472381001091, 0.16948806776604347, 0.105786019015304, 0.0741089136645095, -0.07726685590878632], [-0.05743638363071352, 0.21166481318783423, -0.2416013193728388, -0.011613480147226518, 0.14823418394689342, 0.0031182075778089036, -0.07046243620897986, 0.02050460974787252, -0.07934998985348332, -0.23772481149396596, -0.004336852377338291, -0.25288114591725874, 0.0966634436136672, -0.13853707152924286, 0.0366929812269262, 0.22162339449449114, 0.07920639466337856, -0.2014651047341958, 0.015126789316571238, 0.03572113804267598, -0.012914486087210464, 0.11449809025897792, 0.06770011957194805, 0.06765640930985989, 0.20583959803821417, -0.10229296686342305, 0.19541376840389418, -0.15398339347946677], [0.06444170666803266, -0.20474018908876426, -0.14849674752541175, -0.12051111444820065, 0.03650581816858517, 0.21386413658555406, -0.010643293633747844, -0.1900998794784487, -0.1911057808540687, -0.06654144802776198, -0.03158735964507356, -0.23836813723707032, -0.13117103701816443, 0.04179270900967036, -0.154533707557938, -0.12472726728541898, -0.014740220526969845, -0.13445554039664281, 0.03875545518061373, -0.0017941032766635723, -0.05917676172716094, 0.1080277060351731, -0.2044939745039083, 0.027441318030657524, 0.10795096846263165, 0.21580929071843005, -0.016087832516189667, -0.17977122142294855], [0.2566915332998652, 0.1433906339684399, -0.22821827998207575, -0.07600203743970474, 0.03415167153126776, -0.12052335978846354, -0.24596158953721167, 0.08022414736452874, -0.09571594940578976, -0.16923766668100446, 0.26481789742104633, -0.11398315218431622, 0.1784185837806235, 0.13335367983836408, -0.2444250989298781, -0.05803918043416162, -0.20186872168800205, 0.00529223770414635, -0.2644625578327412, 0.16041665566922128, -0.23292618072384336, -0.20141526807793506, -0.1531953416626579, 0.0027406837855182276, 0.03487684836236922, 0.1346718675599425, -0.07030943129147547, 0.003060444859445186], [0.16110098114772295, 0.17976678642394817, 0.185131755806948, -0.16052457062405617, -0.0109372946217502, -0.16988258021342423, 0.14214833168634522, 0.08103966426365714, -0.2340544158744132, 0.20050484408473393, 0.1450161513658109, 0.11744248463324962, -0.09196067234822151, -0.2583798430310964, 0.1602326664664429, -0.25305832283577384, -0.26750427027870266, 0.2460788149553093, -0.1336440213326634, -0.1331102609027067, -0.21225351798161582, 0.025898686911524128, -0.2619937202543925, -0.14733477546534995, 0.16755072979337965, 0.2556477372505735, 0.16468344133557944, 0.1150450769707846], [0.08410786622809606, -0.2389210625361043, -0.24084932017385777, -0.0023903438392132714, -0.011692463622953744, -0.15084975781735954, -0.07457742561818387, 0.25705444161713303, -0.13398287622698835, 0.11016026763237678, -0.08626066589881123, -0.20352505852215091, 0.22425571251119436, -0.043819689973981855, 0.22088884210716234, 0.003794383645109663, -0.06172296556187002, 0.08275245230614184, 0.2462498814511652, 0.14669431589500406, -0.0826486539820954, -0.05226399146892855, -0.24474593950494994, -0.10222659576658885, 0.04651333604412126, 0.021219826120865946, -0.010584487162484666, -0.04418332474527759], [-0.14477010801513518, 0.15200569970029218, -0.16930686281613228, -0.10853765649073613, -0.08742501108604082, 0.2493621726266092, 0.06618159698863806, 0.14017600573442843, 0.1451423418660424, 0.21369153895097806, -0.14005132234739495, 0.10611157603969153, 0.13396098668179884, -0.04573838046090027, -0.00785178891162866, -0.025553843838340248, 0.03598842391772999, -0.14425263837700397, 0.18077034753928403, -0.09365680481623619, -0.21222173786934143, -0.2648144429208962, 0.26837031390495186, 0.07600194778004643, -0.2088393995249293, -0.07482696688732374, 0.16090801277591163, -0.2576755792216937], [0.13829058218107693, -0.2643544468832574, -0.18519786923313664, -0.1899945357346749, -0.21308956160906203, -0.1686866620418284, 0.021832894893735827, 0.011193866453600588, -0.03299844818864639, -0.025509296709447935, 0.2627293330047884, 0.15636687301978797, 0.0955519832307858, -0.23232878726993092, -0.14358001455467256, -0.26049425497804024, 0.08410156772611077, -0.07804938155641451, -0.15310498372424275, -0.14938938728997703, -0.17865048254562851, -0.122825866447062, -0.09281211233794227, -0.04762071258110864, 0.21364229637523482, 0.07782499987190501, -0.004296038403567689, -0.08624105113242836], [0.14487033574438773, -0.14146253047517954, -0.1023070209007168, 0.028810091636973956, 0.207013554020891, 0.09371255219626111, 0.05352531822754402, 0.19891772334688426, -0.14488158910904686, 0.23768849834456163, -0.24056500861770003, -0.25103998216529416, 0.26428154405979654, 0.1390195804501697, -0.053728723240090315, 0.1271141589087751, -0.23909234554873282, 0.23260536030163664, 0.12154182565163872, -0.175514393102421, 0.0381358103724449, 0.23173214828470584, 0.15248363665053086, -0.036153242751350095, -0.1784084752291355, 0.25153825574374006, -0.17338380153954538, 0.2595445704971866], [0.09588003352026908, -0.0016536716316462243, -0.16410085480008602, -0.030370841094410017, -0.04806571730297423, 0.16269133974138333, -0.21844175293565954, -0.08640570261604305, -0.17612947836878695, 0.021625329108337355, -0.006431158344503305, -0.03354793584211347, -0.20906443159358742, -0.10130666871271068, 0.18626793029098682, 0.15595022080304133, 0.10098708711875502, 0.16056641280542097, -0.2366288939328744, -0.06808762811742716, 0.1916782995362568, 0.13539140700400504, -0.16473119981075618, -0.21619776816936698, 0.2632850458755574, -0.14912869660658135, -0.25222722781520424, -0.22133401219654797], [-0.155364635314952, 0.05664359868419969, 0.021447370815308304, 0.015498918701401632, 0.2552426638401363, 0.08961763871278475, 0.08387409298161663, 0.14554203686026546, -0.06738866022533815, 0.05823013425700682, 0.263593065605906, 0.1962555295214336, 0.25555444627122514, -0.22686792767715402, 0.07333668705750546, 0.03246371005803059, 0.02849366631359389, -0.11884738734828922, 0.03792876625009714, -0.22202200085818774, 0.008073580101577715, 0.1855456617628397, 0.16275026403138565, 0.01832987971533684, 0.2033734654574366, -0.08227218780323288, -0.09984690672819141, 0.07066112782788496], [0.05807446680573742, 0.1594552126582045, -0.11404812659650895, -0.19837935141746582, 0.17004711921803528, 0.0922469451776811, -0.09442135407468072, -0.047817685753065685, 0.25907665999213725, -0.26222317315761634, -0.06518254957365394, -0.0556322929093134, 0.217083249158311, 0.13749546311329594, -0.16238156361804254, 0.03431157588186246, 0.1475114555434433, -0.19189703663496252, 0.11495982273655493, -0.19211537721325433, -0.01119067264381246, -0.07855256972523397, -0.1555107397328323, -0.10387214428553093, 0.05324315484903211, -0.03437628096606129, 0.25193793403969267, -0.0013239396320792343], [0.15190463517296282, -0.1526835899701942, 0.0901480854805311, 0.2448615521623947, 0.009374618045113269, -0.03840246000134154, -0.13732432819797571, 0.17541170490310712, 0.204755619465179, -0.18833220036235765, -0.2023090291007926, 0.08850761038342804, -0.18075563181273446, 0.17093372263815232, 0.05890604575744729, 0.20279941482378286, -0.011929836981863489, 0.03261088611307755, 0.06923006384095098, -0.1425073572977176, -0.11596723845794354, -0.17014326931301382, -0.1320829488039887, 0.029132078033273556, -0.15819166105875987, -0.15412414621240017, 0.22988378498181133, 0.25596965489146223], [-0.2132387189067925, 0.12166652581656791, 0.04055465054748342, 0.08516291666327752, -0.2242122487934973, 0.2539960180740377, -0.044306680292822156, 0.23645433517303893, -0.23819189286337564, -0.07937060455464286, 0.10590492537422508, -0.23287032297001797, -0.08008670598013945, -0.21273229146305916, -0.19682375687690395, -0.18302189289475784, 0.03127376706331184, -0.03643220407503985, -0.15939544204434733, -0.028301252729441513, -0.24402520463701638, 0.22630524205941077, -0.20129087541208934, -0.02589078279802312, -0.18265565105620973, -0.13209566314958104, -0.07617865593085663, 0.14466202977875509], [0.07528506568070069, 0.23188204481604777, 0.05485914158113331, 0.004875926893482985, -0.04873289768951081, 0.14884066765105736, 0.09774870876560132, 0.0172191670119541, -0.04599224462926496, 0.20512751701548293, -0.14195267556881963, -0.013656109468511297, -0.1054972945969904, 0.17038407817769913, 0.23529945334364116, 0.1305611243519031, 0.1715064137379196, 0.054031394368637735, 0.12054112174910962, 0.20342537474653113, -0.004393301051387688, -0.20810498514667836, -0.13711686137817458, 0.011962863107871535, 0.09929299715267537, 0.0506005717996432, 0.20632223294413676, 0.004220543978347464], [0.18277092450579646, 0.07597870021240338, 0.1646820722045704, 0.20332595698938283, 0.11859004309195947, -0.12291732592903706, -0.05437653441375218, 0.07803522905103893, 0.06488887188820391, 0.2604919349950139, -0.12255464400258627, -0.04875815495496698, 0.093248573151962, 0.25139116793837857, 0.06443742380389234, 0.11236351609875472, 0.02551460105011878, 0.21706925017315276, 0.021901529633345462, 0.030705316942324423, -0.07117226585418357, -0.26665744976746003, -0.1870499795856702, -0.16745227565453763, 0.23993634699458363, 0.01065869775742375, 0.05302497516022536, 0.144116173174483], [-0.011917856999060228, -0.02196140153001738, -0.25133688099517865, -0.1904805910468001, 0.008576012946789514, -0.22583458387286415, 0.2141032943057632, 0.2540820391813421, -0.1718117188639504, 0.06086975970092498, 0.16250516909765972, 0.12324152077763054, -0.006138909533724313, -0.05731586499951474, 0.10565391823814602, 0.027469969675771866, -0.2594646543056924, -0.2589543790113396, -0.12552966689624903, 0.15499423433035342, 0.2604710163976759, -0.2256005815578596, 0.06849722356647359, -0.09094524920436389, 0.12560369501272128, -0.2364949284213519, -0.045481941152931166, -0.11919194163956778], [0.057447134248571285, 0.026318604545099433, -0.0827900495466537, -0.08412508500357449, 0.15874633725717208, -0.2429223088313593, -0.21517660398535593, 0.1806299713816337, -0.04300227573251175, -0.004827544220767848, -0.08327745234665032, 0.04944723172548435, 0.18526040335586583, 0.25306722164851575, -0.004981975540294408, 0.21919849965839572, 0.06148143072102377, 0.13847042738299803, 0.23434901178320772, 0.20187329955819674, -0.11592395856599944, 0.007259420213354309, 0.19300289817492952, 0.09701726619191242, 0.03628633967005736, 0.22327897536515434, -0.06093041784980177, -0.028816062046490745]], [[0.2817614406701645], [0.36253096281757724], [-0.047315066756569504], [-0.34972406965867037], [-0.08026667301904508], [0.4369218616599532], [-0.05508257019102205], [0.16703598921532758], [0.3300662619113382], [-0.09210377379377481], [0.4541580722437384], [-0.44324015766453106], [-0.1511650212961934], [0.24375986465533067], [-0.3945956233253983], [0.1632354002923884], [-0.436801082799472], [0.2530964234804811], [-0.20174450061126006], [0.2702192384890497], [-0.271120578320781], [0.4199575952605185], [-0.34762589498251084], [0.12468616885572564], [-0.25299868706919854], [0.22345027560350986], [-0.2975212573086594], [-0.12441533627374089]]], "biases": [[[0.0025039100459616805, 0.0008737306565014056, -0.00020721208384328303, -4.538374295077131e-05, 0.0010865079176169358, 0.00019084910311560716, -6.651598056159035e-05, -0.0013159752552598769, 0.00012174276797545156, -0.00023195690319491674, -0.00016394718734055443, 0.0010830172868943225, 8.793126707929368e-05, 0.00020258698400082037, 0.00293908914190133, -0.000331146862934677, 0.0003008303167675056, -0.0005098404798227933, 0.0005761692165437683, -0.0011035466608618142, -6.62573127214162e-05, 0.00023159825534281792, 0.0014816534663472927, -0.00024119370687455854, 0.0005422852939728088, 0.0014273655760097298, -0.0011122545425340863, -0.00039890218560567473, -0.0032935982742866316, 3.134459968972116e-05, -1.8247522433956878e-05, -0.00021610601890213166, 0.0005049697520601174, 0.001312572286347517, 0.00028009522951963383, 8.712738423579696e-05, 0.002600948186090277, -0.00020318014738390393, -0.0001304743326539463, 1.5339068849593375e-05, -0.0033740093499102187, -0.0006127409795786424, 0.0011409560219304343, -0.002171684749807426, 0.0021041920030282326, 0.0014348083928735372, -0.0034024877975845887, -0.00013442546630324455, 0.002785186359824611, 0.0004375790675990185, 9.954985278062113e-05, 0.000886885770915303, -0.0019220505203909593, -7.309952687231769e-05, 1.6500883459393415e-05, 0.001727366825179068]], [[-0.004048059942450331, 0.0002660700651654201, -7.479083628114619e-05, 0.0, 0.00026114846900571073, -0.004075423996040998, 0.0004311402989466298, -0.0013087901980517735, 0.0, -0.0005233492042587507, -0.0014942513931958154, 0.005214945573639609, 0.002080654591977965, -0.0006219562717724234, -0.0015912035483546202, -0.0021860487474182895, -0.00031974705287704286, 0.0014133865116499702, 0.002806581590718565, -0.001316596238295877, 0.0, 0.0016882770689467675, 0.0063027890451379034, 0.0, 0.0019527472115140115, -0.0017461852627550195, 0.0038716724837151374, 0.0017463084296980079]], [[-0.012615950918687065]]]}