{"layers": [28, 56, 28, 1], "learning_rate": 0.005, "weights": [[[-0.020486923135339646, 0.02804849716777237, -0.1833985305964864, 0.26401620885184257, 0.06750898667585672, 0.1663509903711916, 0.2578206808149445, -0.10761019159805274, 0.10012744907350962, -0.20016524478926873, 0.2341144753307368, -0.03430984660938942, 0.031016865729274343, 0.09538111766280859, 0.11500279150971587, -0.18160447873146535, -0.11358561284641565, 0.26319815517983725, 0.0086965894864123, 0.13195599427748012, -0.24463940965701497, 0.06397531990194492, 0.23803475284631864, -0.07535140107552081, -0.1423241332515968, -0.1455340585469701, 0.27525720899458533, -0.24913238028228502, -0.16526252885894518, 0.07470759413013002, 0.1962310571507896, 0.03725861027411629, 0.03275744164250306, 0.018684569780588623, -0.048471041348452176, 0.17724180434274714, 0.12773076867708175, -0.15248064691195526, -0.042039001354483525, 0.24224893705271472, -0.04170447829806115, 0.18131853068968032, 0.009227717011773775, -0.13812639455802328, -0.13395444975099316, -0.24721281653855245, 0.2831303233887844, 0.10490772647321171, -0.12031806938379838, 0.012112317437964119, -0.03853864810171114, -0.19461731905436755, -0.07376168765073625, -0.09605973207921009, -0.005007601896543361, 0.24607922740039637], [0.16625391172479667, -0.14593412525010643, -0.14349199448483343, 0.1771719759303514, 0.06592926124700797, -0.0592112264922414, -0.28030521066592495, 0.03065849910621475, -0.01483354852135983, -0.21293397902391986, 0.24371760437075024, 0.10516411107617886, -0.0016265797834875322, -0.16255047849689575, 0.24312648117592098, -0.05310753739213942, 0.02342827100399117, 0.0041776462847696, 0.04481415460963749, 0.23551572255815004, 0.1535685424996945, 0.27583639153369593, -0.057268360134485316, -0.01514848539674488, -0.1306053679943929, 0.005281709739177219, 0.09045280550792605, 0.13216684791111752, -0.030674676341420563, -0.1070234246771575, -0.15657018822901794, -0.21847582263550397, -0.1309609084693896, -0.18504607730701456, 0.0803658518491796, -0.009702879045420018, -0.07491240077035938, -0.10251291298435547, 0.022086183464865, -0.2604834245820023, 0.14080626079032402, 0.05566095941210859, -0.060588362136891054, -0.06124116250968734, -0.01632764236535772, -0.04216654427831676, 0.10924349490909438, -0.19985793879287175, -0.0906122617404623, 0.16169714003592736, -0.1791769095923683, 0.18609133604117545, 0.03698379473416259, 0.21123692007605546, 0.15101248740355536, -0.15396458367532345], [-0.013714625667236186, 0.012781735428126766, -0.10041615167913978, 0.0013640445425196824, 0.21992231281875493, -0.183066956827492, 0.09645270724748825, -0.015779285687627348, -0.007133133741479952, -0.27738791039978766, 0.11123779043999989, 0.06549365010475237, -0.2015745758584372, 0.19089076846981753, -0.264930167511018, 0.05860121195795941, 0.01070241268018963, 0.17484663931821076, -0.02609804412737645, 0.22765799827772248, -0.016215232001571787, -0.04573399384219313, -0.08619253703267743, 0.24548098439512855, 0.10473887966946706, 0.04597998441763186, 0.11875653613328717, -0.2169321649972899, -0.2503572955887544, 0.18479135729914672, 0.19829582047157823, 0.19293242532275057, -0.21475937081762075, 0.06502409394547239, -0.04291681025849821, -0.15731831221433906, -0.2156207319809665, 0.17399491030324046, 0.03406057507962202, -0.29825646088806906, -0.02172683274570432, -0.06714256237927575, -0.1473221940100541, -0.08924536478569292, 0.15330950901375925, 0.09490656189865707, -0.30971056504874345, -0.06786113952491252, -0.22618848548806667, 0.05662018538755776, -0.07342030230654222, 0.10658817822369279, 0.16051772265528563, 0.03215098483402448, 0.2072626913756118, 0.11039844551928049], [-0.05904084851733682, -0.21829322730021877, 0.24197477229052855, 0.056100014922475294, -0.2392143057405048, 0.1267197934397139, 0.1269430181748381, -0.2092634555631276, 0.21461685921236318, 0.1337167061637768, -0.2381902215162973, -0.2573154450924241, 0.20844826911593978, -0.02441327536557314, -0.031530244232165605, -0.15402583858452817, 0.10305382656402162, 0.019097516909990897, -0.24358671840508633, 0.19189448183836905, -0.1988635784494926, 0.05346919497469188, -0.22739330486384307, -0.24368414947357625, -0.23562195318052287, 0.2206825375614832, 0.11361219550909829, -0.005920237620437585, -0.1059163595990201, -0.22573057702744054, 0.2418284250106606, 0.23548967452730596, -0.17737512139958006, 0.20805746697203992, 0.12819081963722145, -0.09861138204377701, 0.25973735404885245, -0.04985886579145277, -0.06353293250933476, 0.1108506199304895, 0.11727988735137473, -0.1625712358588512, -0.14976231756611671, -0.0704712030929634, 0.17115030352705896, -0.08196191613092457, 0.15261313348031857, -0.020000653757831416, -0.014418189484002475, 0.1686224838620281, 0.25604981460795173, 0.09936117505746223, 0.21621878349858709, 0.06375273558174366, -0.13922908119552324, -0.025746316108718664], [0.2259827724248863, -0.12125388150229802, 0.1954464610598628, -0.035784913825163106, 0.058935642404356336, 0.05529839815393656, -0.23995027739421876, 0.13951727622847254, -0.10819596845822124, -0.20342688171122061, -0.059132321993053405, 0.10034472306231063, -0.01933225887105841, 0.2002569133678222, 0.08159383689778937, 0.06352595309334047, 0.2076881720547396, -0.21297928533834626, -0.10921378537130577, 0.07733037856754332, 0.11952622312866368, -0.05481370192244428, -0.006753755152712038, 0.22940768271583029, -0.1825881405675514, 0.03506720944663244, -0.07129477682788782, -0.045398444003541955, -0.1551941410800029, 0.2658795770143152, 0.1453927065413853, -0.20403704292329713, 0.13193507862384524, -0.24770470212214624, -0.06761722273916784, 0.1170788537496022, 0.07966743250487673, 0.19894469712301804, -0.09946564195046184, 0.17671188204041138, 0.13677452578995963, -0.12994817220951024, -0.18082308765851934, -0.13982597943258632, -0.08823101163435029, -0.08813976497785239, 0.04400929498716799, -0.16604590992888324, 0.1505907713391776, 0.16142514258106133, -0.16142952689987564, 0.25860364411045267, -0.1781320625393561, -0.023258498542899436, -0.23031614629427263, -0.2222001680505959], [0.2582636268160754, 0.04349267180244154, 0.1007825451015914, -0.019797041153318568, -0.19689697962089756, -0.17181266129600975, 0.19447588589122022, 0.08354092355344472, 0.22554019049292973, -0.15981632021630393, 0.23793625100328186, 0.05060391337247988, -0.26084287657333405, 0.1455003325835194, -0.03286004946537341, 0.015494876608969033, 0.2607375389294895, -0.139649180314296, -0.26241360609366177, -0.07739947945748363, -0.10885587321898105, 0.23375132608214866, -0.16908097744630296, 0.18332948429213836, -0.15463348198194524, -0.030806589102120918, 0.19365591852686131, -0.024239393924280983, -0.20589079516977946, 0.23807453273803736, -0.07760108523731393, -0.05252584270256336, -0.11106102754635816, 0.017292887880475005, -0.08008443932519238, -0.2330707582467288, -0.18369884990516466, -0.22048552357242032, 0.13013271643121882, -0.2586622815312694, 0.15192991831523583, 0.2609145214904507, -0.04460843303413303, 0.2387661540155559, 0.002396569383417424, -0.21034481775449695, -0.04921308241949918, 0.22900261782373388, 0.10024836243023177, 0.15136031224293556, -0.24663765053550304, -0.23074592605865454, -0.2438647155156185, 0.04469920648081499, 0.072273291023843, 0.25397722386738575], [0.084328968473046, -0.007438103602920687, -0.25549352774734724, -0.07554099587854834, -0.029582428923710463, 0.08826121808024945, 0.17164986359082363, -0.011786928349419301, -0.21614630556118616, -0.2417093154344194, 0.11898849744859175, 0.10162533475039037, 0.2434013525227502, -0.14391759324397024, 0.1420489832689033, -0.042238455722983875, -0.08061328012525287, 0.029190390383208864, -0.23812846830186477, -0.10437198227779546, 0.09850840583228143, 0.17392724193880654, -0.07385822670672354, 0.1783397526574952, -0.25830470778025183, 0.038514589041149516, 0.22599135939465592, 0.042032274422339144, -0.26393361693281725, -0.03289574171323667, -0.12160367180046622, -0.08433241120955062, -0.08299619083065671, 0.021603217816474174, 0.22449376627403383, 0.15317627694213892, -0.11757699565277593, -0.18315471801344513, 0.2512284189926963, -0.14568936634962865, 0.10673177397897166, 0.06456470185323826, -0.2612129057498279, 0.1327256630079665, -0.1842797907434547, 0.1771602900423358, 0.08649563955702216, -0.13840539872828117, -0.10595286970692203, -0.004379943341576986, 0.04076419649985863, -0.23466615388187387, 0.20319574453287575, -0.04708160988705712, -0.12685800268699002, -0.2119166594175907], [-0.1217157537346678, 0.20930885436929936, 0.0986972647879195, 0.045461746080424165, -0.07702435786955115, -0.16420033447263152, 0.280610513563132, -0.17915710700290624, -0.1707719644218731, 0.1588472089189113, -0.25659548677312494, 0.19305833059958324, -0.18608647289030691, 0.028724532135241114, 0.17456444398551377, -0.12418166163724793, 0.23865982130349694, 0.18358325207438092, 0.227031769929891, 0.050891254852759804, -0.24245656335675173, -0.12889348361564915, -0.17235092704169305, 0.0870220954323699, -0.06722459858940011, 0.13644722292694694, -0.09674337042834516, -0.09539247685225385, -0.2697672623249417, 0.14651802894600682, -0.12297950804067806, 0.23905798111439278, 0.21153340041881996, 0.122867071132118, 0.06913165769652935, -0.08839018490161614, -0.128480544023418, 0.08394772761676206, -0.015899330400945693, 0.024541752462004796, 0.31967102138934955, 0.23403670884042535, 0.06544752992998164, -0.06179099986254029, -0.25779688445003807, 0.08264623070179984, -0.09794504053134488, -0.2021183088413287, 0.030330536304627523, 0.2537553061027084, -0.13130533898979568, 0.22382587702688722, -0.16187380188772893, 0.12989492016135748, -0.156349561141833, -0.08270412774889953], [0.014109472065243434, -0.09893782773980875, -0.02567410264862785, 0.07525275677839793, -0.23603092747158974, -0.25633701413307763, 0.14330863392549298, 0.11635608630899841, 0.16898538695393656, -0.25349189951565543, 0.21290585828464725, 0.2374338711269829, -0.20830524629870983, 0.07263224676317348, 0.13332741590612707, -0.1877848497204193, -0.05861941148620539, -0.1216688180425653, 0.07888061443705863, 0.12205296211738986, 0.043338593809735204, -0.20632909852396278, -0.030643843477337063, -0.19243417106150107, 0.14484872253766462, -0.15267567876060517, -0.21598962672375563, -0.13366891500881753, 0.13594024669263777, 0.06686446152378028, -0.08642226751484383, -0.15611224690614084, -0.23686765471857804, -0.04012072167218039, -0.26534136593206575, 0.17921917963252243, 0.08975426085264543, 0.11959733182005755, -0.08234685775563716, 0.1381970438579307, 0.09407773949279535, 0.21117491146346495, -0.052693022825688246, 0.08266866866051925, -0.1703371825753359, -0.007816608268870484, 0.16732977040332697, -0.036854997387846145, -0.10635062965209985, -0.24427627101997013, 0.16035909236176255, -0.098571281146494, -0.062476653432083945, 0.0014093914983521194, -0.21295639045963943, 0.07705918717746485], [0.15125342029147312, 0.03185306673204651, -0.17341575934831482, -0.05848832789547647, 0.04603511444188573, 0.19042805517104086, -0.1320611088558333, 0.17127254979732504, 0.17336997738555726, -0.06865778522372869, -0.1869958945052716, 0.1627007441528606, -0.21782769884083286, 0.14924358934488274, -0.037352186971460935, 0.04753268313646846, 0.05390759176788134, 0.10412033207028856, -0.11850428838994805, 0.12303848849363698, 0.021175687552171127, -0.20263046108975621, 0.10892322362193912, -0.12760348686517858, -0.16582479572128916, -0.16858179029928783, -0.1262887281136819, -0.15885905370072467, 0.07836669839285756, 0.12136203491740274, 0.08885068325145945, 0.1096222496074782, -0.12632319199845163, -0.1399102498084095, 0.2609106590669425, 0.1264882522964632, 0.16991603406777478, -0.19277101363468066, 0.23186844525133882, -0.035049946622892424, -0.14299362866784154, -0.19871292217105058, -0.1802400164600106, 0.09122513410494164, -0.24130699987807325, -0.20275325231367627, -0.23575648783891526, -0.09882948531123345, -0.04263718320293649, -0.2755723242234885, -0.1614328395878134, 0.09950037631348319, 0.22245952701088123, -0.14271502210864373, -0.06812191252469216, 0.22867021506636015], [-0.1331460741747379, 0.15899462129674005, -0.2240489885810838, -0.2073822867246753, -0.2522316542197378, -0.16239667551507836, 0.2722914229167267, -0.22996800589572083, 0.29387449422448, 0.07904574244828742, -0.03156888664661459, 0.19613784359527708, -0.1501893049643524, -0.12696662890495283, -0.06098201745753887, 0.21402246622498067, 0.04678358439162164, -0.20238413646533035, 0.09656111460002477, -0.1072800222114226, -0.03148764046689179, -0.1567533781398725, 0.020789369796864153, 0.10923300448335595, -0.16368493535972004, 0.1976676582261377, -0.26057411809694814, 0.1790428556701624, -0.16983059987866078, 0.06077383837179929, -0.03293719983645406, 0.2102272368574189, -0.1480119526600869, -0.11918164369240826, 0.18009541318610145, 0.16811599237959912, 0.21381697967031757, -0.17572151772763536, -0.03055058731607833, 0.10495461988477627, 0.0043098495329417005, 0.06847783612387963, -0.14100630634033, -0.018682549893803194, -0.17546028177205977, 0.07193753437707308, 0.05053362398142941, 0.21066962307436624, 0.26988461632763733, 0.008092093928321147, -0.023651035987866192, 0.06468093910651376, 0.04383251796902543, -0.21459394630905648, 0.013702468952369557, 0.07075441505801897], [-0.06983721944674907, 0.019027560795246406, 0.21190129963155963, -0.2816606642863727, -0.10125938389523738, 0.20066774505489668, -0.12280849983536173, -0.2801945347096913, 0.25240972549845464, 0.11377656575013513, 0.06122736153834959, 0.06831198832308874, -0.02247505338447112, 0.12739337495792555, -0.26247462207390754, 0.08879877080492529, -0.08521414161735927, 0.03347732311094969, -0.03281602138967911, 0.07023518424564382, 0.10731375026868462, -0.23171289274001441, -0.16855344371484648, -0.10763916745461785, -0.11087098980894466, 0.012332273198956892, 0.04420640937152444, -0.04244456067301916, 0.2032125259766565, -0.036722370800985886, 0.14425782946228619, 0.0580053087544243, 0.08668184666463956, -0.2706536017336818, 0.033000160142530495, -0.2762286768939303, 0.1296540314617343, -0.001096875208074192, -0.18307313130119413, -0.2198762671747918, -0.19218494790410792, 0.1952802560842546, 0.2674085513612659, -0.05945724955866067, 0.20667260130219972, 0.2556100869795515, 0.030452986003180724, -0.04256884447078671, 0.014710146111497582, 0.16200197395118807, 0.16254729185431735, 0.15002082457743243, -0.24008027935458637, -0.1052866389101994, -0.08816458204928243, -0.025537720419314146], [-0.17835490750553784, -0.029177715039843483, 0.22074940110835706, 0.1751641744115796, -0.025358030360807776, 0.11567014649101742, -0.12565132200684961, 0.031033773716151625, -0.02113779443503916, -0.23143367822048494, -0.11781193269937304, -0.2596154454948371, -0.18597993726143305, 0.02827128524969258, -0.1282405608416459, 0.11704550148367487, 0.0558056544453025, 0.04613636968273199, -0.20760966174218332, -0.13055065612181835, -0.09598238853817709, 0.005611467128779135, 0.2638759130591867, 0.24802570601538843, -0.044782132539442604, -0.013781995045199669, 0.1862234411657696, 0.2478774369837936, 0.09904262097264394, 0.11110662478889882, -0.2158271832527998, 0.22267812293847333, 0.027631859866142583, 0.10650921164272131, -0.0903051922430296, 0.21281272267223872, -0.26628907349578457, -0.24946346707466735, -0.013030063874974795, 0.22104493747708126, -0.21993800168093094, -0.2282691627932309, -0.17679579930422856, -0.0627214644446347, -0.02210720123411694, -0.06646566812892377, 0.22160530216291868, 0.10386593685274137, 0.048421032650803386, -0.14155297992904223, -0.07020718524211014, -0.08292857763049094, 0.0882026449585297, 0.09274711168301919, -0.09446173125918175, 0.25195139053280025], [0.1912490379210351, -0.18527838922175277, 0.12412074792563349, 0.02630508107057483, -0.1104250541879071, 0.07602012368500438, -0.24602174096871185, 0.12369002000783846, 0.10531509675961931, 0.11053946098823036, -0.21770350906961264, 0.11786522490924017, 0.0011229088220540695, 0.011589754677683861, 0.22974177473298024, -0.21083406858906, 0.09191075893691875, -0.08242936949609359, 0.23295029439639003, 0.18340538195605044, -0.17224207417741355, -0.024591768846074114, 0.09419343353079718, 0.244274661202872, -0.05228572654193456, -0.1469969467053202, 0.08507456955171966, 0.21462811496282275, 0.11838622745076971, 0.23187558448344242, -0.07292499420604809, -0.0929221835326356, -0.0365022516886816, -0.07594012988543086, -0.2584935417368929, 0.14292347291703655, -0.009464272868819401, 0.23267202957965244, 0.039506104768842365, 0.1209613932275514, -0.18945475358194414, 0.010130641443698685, -0.19876948364747082, 0.04386267174001224, -0.051283474903354886, 0.06856065664028421, 0.11946417766622025, -0.10968564370680209, -0.18731986071929008, 0.19725569109504837, 0.1182461982529916, -0.2107288317230392, 0.1874250886572874, -0.06946062995636451, 0.16163042191811477, 0.004523797276978547], [0.015844011036141192, 0.15065541835809454, -0.2523215010180154, -0.10517313566231878, 0.07875169438390667, -0.25104841809931755, 0.0772572142541118, -0.2645738748384329, -0.08422753197535099, 0.04731343987632536, 0.06168556857526125, -0.15930193064407916, -0.2348484983356831, 0.1205576952131937, -0.035047496865588806, -0.0971370474763516, -0.130254221094837, 0.06510254990101128, 0.056771090885751496, 0.06250765387230117, -0.0617601901278082, -0.12398462916499092, 0.15871446739286799, -0.16227864722346735, -0.12148621223012265, -0.23339312068011284, -0.06151722867018905, 0.2622246155886331, 0.20161717535760498, 0.19572662044141448, -0.1352424183553808, -0.1035217154153337, -0.11105015426218043, -0.14045906759955418, -0.1569410318501625, -0.07546181804524937, -0.007421965596126012, 0.016447782056768168, 0.0977107566169948, 0.07500268449899355, 0.07535241597266784, -0.22937664598905508, -0.036653564873172645, 0.09252633255951709, -0.06368749098253876, -0.256982772496017, -0.07708037344898372, 0.026533960056585926, -0.10894417423462902, 0.17124534590195378, 0.20668217555908375, 0.2231744702514637, -0.038587566429166886, 0.05125314171461881, 0.10511917607638166, -0.04481386596238335], [0.15098000257639388, 0.11886113705958251, 0.18207566174999712, 0.2181352106477098, -0.07246368206703799, -0.1496879890311038, 0.09200507070239655, -0.23413895300942264, -0.1877811359789331, 0.18989322841087286, -0.0899764014712647, -0.2328405543740681, 0.20209515340469897, 0.16504376579039104, 0.020471475860140087, 0.14690334113463965, 0.0424250661676393, 0.2383712070553986, -0.156672721791615, 0.1980943262878322, 0.04114971988484928, 0.04164755540177206, -0.19992740343203597, -0.05482838050420613, -0.2543270539663057, 0.19076361472272296, -0.18123005850228358, -0.008193838580341173, 0.18878973142517902, -0.07020232894598377, -0.05425098378238155, 0.2618594583227477, -0.13389484848180147, -0.2345078266315385, 0.06693387488061137, 0.0912263031751131, 0.16349353389525012, -0.08142466862189895, -0.03506241859390258, 0.25881489363824706, 0.18686519930404166, -0.2099975222398801, -0.23236904659025762, -0.11291089131827192, -0.22465805396489333, 0.06242142276093643, -0.2182050350264347, -0.038291171811515756, -0.23191165586732315, 0.1580391041376596, 0.019275098641957145, 0.22281059010567056, -0.11849572839078668, 0.20402514500309965, 0.08904590659992079, -0.2235474674511121], [0.002157312631253294, -0.20557211941766018, -0.07033437905088041, 0.10798250599706333, -0.04921982396762778, -0.07370521358874269, -0.22158006775469083, 0.18149223084313743, 0.04132032031892047, -0.0897467407690882, -0.1126512383849737, 0.024889829507858507, -0.1248847324806594, 0.2571969910109356, 0.1887047579349283, 0.2310375803098027, -0.14382134174597144, -0.16280729992655726, 0.060582698726930395, -0.097554380259819, -0.01318091470425764, -0.17899537518183, -0.142965638609823, -0.24053149111943772, -0.12756076286794651, 0.20612193266299245, -0.2383154212682804, 0.055451333841354145, 0.135832855128025, 0.22979867228782475, 0.11162225814720483, -0.09802828601213584, -0.13602504408205884, -0.2218948170630423, 0.1404683496469683, -0.16068111053638554, -0.15350566217418576, -0.1388055435257444, -0.17449407292471247, -0.10123666958767374, 0.10665062880783316, -0.251636517896195, -0.06497939174719561, -0.2665870764455693, 0.17260500670031326, -0.24738708526789444, -0.1603465800082607, 0.19204183325829488, 0.1174756198382329, -0.18805169881182163, -0.11095367535578413, -0.14215450795983786, 0.017741906200828328, -0.24693824905909353, -0.04648270769826754, 0.04868116910014486], [-0.031150663408070545, -0.24468385423323485, -0.07453063306477534, -0.01184730438702325, -0.16468529492246758, 0.08159496203129318, 0.1561835010285894, 0.027727664807004115, -0.2652883185680377, 0.24052200596899886, -0.1314849712798243, 0.259132813518401, 0.033037379114627896, -0.06190431759597903, 0.03494067437926496, 0.22459946005019354, 0.2067282320860146, -0.18942072111901176, 0.18833417729067697, -0.10266123884563258, -0.15594843646122802, 0.2188569625494725, 0.15423502650085552, -0.1843442509031846, 0.01408480235446341, -0.009484081389454946, -0.25345204290946527, 0.017461998556732305, -0.14913071842358228, 0.0712580649868702, 0.18045846622673478, 0.08867142679836032, 0.20371834854566728, -0.21799491186046743, 0.17250227192952505, -0.015081012305338537, -0.1080991372584515, 0.21348701478170795, 0.25273156556050724, 0.1860601205322424, -0.049993936214393825, -0.2518719781348882, -0.16930088827263384, 0.06071762930345442, 0.07206480670986998, -0.20243742135382478, 0.24104696931286707, -0.2538417052202425, 0.08746776320918764, 0.04360862633954021, -0.03987126815091069, 0.03166778876790266, -0.16227318734282675, -0.02339963946345669, -0.04410555747335762, 0.23691651594207774], [-0.17408452023878626, 0.05201228004089181, -0.1827707887388793, 0.19964515357930412, 0.2552011708710016, -0.06203418969447841, 0.164555208299972, -0.048002568569653764, -0.06826397734967712, -0.14582007850797513, -0.09311496086044138, 0.18275242954593796, -0.10588860378081938, -0.15553202411773204, -0.13327068036329753, -0.21968759614766287, -0.18441334281460367, 0.09048181994931459, -0.0511588517369182, 0.015188286296727416, 0.07948430517023103, -0.16698313380250565, 0.17320368993430296, 0.17658487866813766, -0.18951217863765119, 0.004283196833986758, 0.187134806041227, -0.2583900409766938, -0.25406578140282154, -0.23555651907078867, -0.01707483004508903, -0.16441174733187683, -0.06682474562018664, -0.11844025095220162, 0.11013618634645228, 0.1378424992315318, 0.09908631514355676, -0.08781187375137003, -0.006928373457739168, 0.043015886039420415, 0.04140719163061357, -0.00585699093886044, -0.17027430808137967, 0.18161730923653718, -0.05029473628473874, 0.0613439533559893, -0.05686707702093027, -0.14043787099102195, -0.10119522574025583, -0.26653550808309584, -0.19963655930952012, 0.08871093116570017, -0.21185836443821082, 0.25725487653083257, 0.15833984215898356, 0.062169871879198535], [0.12359860337784201, -0.21603575432633376, -0.08504180640560946, 0.024471684861584964, -0.07287065588945293, -0.16590467327834488, 0.06681885494732953, -0.050079888041788784, -0.002740873577533831, -0.0030517433472054822, -0.12199141304454095, 0.15251537043300473, 0.03581758276869523, 0.2142816212112449, 0.01629484346045873, -0.030172441462205574, -0.054631500203819544, -0.12985684496749975, -0.0871623822646925, -0.2226724724959815, -0.17500587321486283, -0.13843641112602104, -0.08112114598331663, -0.2098710906692867, 0.19318223826512132, 0.23673065260275383, -0.157101761704316, 0.02928700389494282, 0.11594207685124691, -0.05201173591966027, -0.06913064085728074, -0.02699514342654752, 0.018474952733828987, 0.20343760822101087, 0.23622694063771932, -0.13740455165047516, 0.23464403917212728, -0.1156859095243356, 0.09486909410655053, 0.24896884551572818, 0.16126665122801148, 0.16589604095483257, 0.2603548209056592, 0.006505716493202807, 0.23490165970767296, -0.23229586234344493, 0.1859332536710095, 0.2525101469579051, 0.04912055093601719, 0.08947860787630324, 0.011754559410462051, 0.06510725923854582, -0.1354394928378847, 0.19592686260053116, -0.16190242986995435, -0.015895815980402184], [0.10360404394015948, -0.17561260873340884, -0.2319288186295574, 0.2361733182232112, -0.23239144451138707, -0.11945461438839883, -0.05839355650025396, -0.12224100503625146, -0.15347816686556043, 0.24010021888824773, -0.26309914442804483, 0.07285599546065646, -0.24439630557702535, 0.21988040397862768, -0.08759852327876808, 0.24899896587357107, -0.03177125291644911, 0.1581004726068158, -0.2540006702671016, -0.17316005738636225, -0.055794867538920545, 0.24383335092436098, 0.26614622868779425, 0.0054434967099608045, -0.2329908207743522, -0.13533571960946647, -0.1384453868448545, 0.10446531772423062, -0.1680624726982664, -0.13263487913395727, -0.2059783743374425, 0.13849350894002277, -0.04468646166282089, 0.065584499757955, -0.10099694261661848, -0.19321846387137998, 0.12309053510723961, -0.13559212894532371, 0.08298305779429377, 0.022269295582307613, 0.09535786609380076, -0.10241716699324305, 0.007755826155670276, 0.20019823212019405, -0.23036421792397863, -0.07900138832867346, 0.1632627852551023, -0.10080281875723263, -0.25636452770025814, 0.12266071367256659, -0.2634003004736439, 0.028834327222038214, -0.13385482864919857, 0.1414447329561171, -0.2595199771411603, -0.16906081140165785], [0.1381741821275479, -0.10814494229374186, -0.007734440314335955, 0.060212847279424275, -0.18575749058791136, 0.1130358155987361, 0.11914349872563507, -0.2552786156649239, -0.046618370289012834, 0.03700282562320745, -0.20345572777866797, 0.14352067860919332, -0.08873601891456093, 0.02461438138875205, -0.004013330477517452, 0.16211271731527693, 0.09902076051882563, -0.23266323006890863, -0.21794523847745464, -0.031146772115401816, 0.24173836605313326, -0.09069372153986138, -0.1934783292354193, 0.2487782859855422, 0.13806470751554356, -0.06903595977445734, -0.2631878748587353, -0.25628360741024386, -0.013274486708948263, 0.2613180386052709, -0.18744801276454084, 0.008595807671091082, -0.017089560641481205, 0.2570547251973401, -0.2518555722311179, 0.19774077397509782, 0.22555946913958808, 0.05917838632681033, -0.02835283199509711, 0.12087061230055135, 0.04665985103555559, 0.11665839677036921, 0.08526631111988886, 0.057534688660385636, -0.2322264200604905, -0.12156677662689305, -0.027785371579308493, -0.18910838604968488, -0.09233163576237233, 0.1904549815449766, -0.22553324078948295, 0.03718480629836418, 0.004988420483702072, -0.19314623667693576, -0.19205377720067907, -0.18434897324480473], [-0.08320167086657082, 0.2618201492039145, 0.2344418626674264, 0.012004877650778123, 0.049989368138010914, 0.07577741315809533, 0.08981314123957951, 0.017502840360730187, 0.19738507723908455, -0.15229792400570505, 0.07981589502081055, 0.04425577414116039, 0.17790743664558667, -0.0628883930842088, 0.11049867459634366, 0.25652163440603715, 0.05925191660548679, -0.2561727661197107, 0.09636424236058805, 0.1850820522870748, 0.007981192280104021, -0.1569247399537641, 0.22863482176255934, -0.21688291970153825, 0.03561960301745559, -0.1835270231911316, -0.22473380964224351, 0.08232364652564023, -0.0021564335181454286, 0.11782930177180312, -0.024867782559762408, -0.2224356165697934, -0.22065108224751617, -0.09740881642661381, -0.13724643838489325, 0.10186806519252373, -0.1704253344791421, 0.1543013504075676, 0.1482681569360253, -0.05196634952758894, 0.19639745417763665, 0.11324371008017498, -0.12771416957701826, 0.01261996049446762, 0.24386262502980693, 0.11483561532827818, -0.06581881908702428, 0.20088936402412993, -0.08385461921745732, -0.2206346354929485, 0.14289605276854206, 0.008480597703414972, -0.17069949204268764, 0.2531736196551767, 0.07253103898760055, -0.1616132634659918], [0.022430141615324972, -0.04415724522358483, -0.01248769295351343, 0.07281865820674499, -0.03458526790800906, -0.08449368314416206, -0.07167424702647196, 0.1363881664936577, 0.16448510772912706, -0.13821204236186696, 0.22216111712667302, 0.07476318454929842, 0.1876490162597685, -0.031180134797612752, -0.08001049794502688, 0.2534541564332392, 0.112879089498238, 0.0021594263654530765, -0.07814479396362312, 0.19461703398255575, 0.2392000360105112, 0.18502877801006, -0.04596807682596715, 0.19350898009142647, -0.23119527632138934, 0.16847413302407965, 0.22597032556722524, 0.08770944105396478, -0.14829506523240182, 0.038595425129017036, -0.24461907268471758, 0.17303354993420844, -0.0433397616874758, 0.2350404723921915, 0.15104265595513855, 0.09194144096361195, 0.15428895804032283, -0.01442822959378165, -0.039390970469569964, 0.06568781172023097, 0.05068610595733947, -0.09616018441280869, 0.059178654216595405, -0.012107830137575326, 0.21324069603547857, -0.1477195981543366, -0.19387898836395334, 0.15779797691324016, -0.1308730215007549, 0.1399750166167517, 0.12630086585871797, -0.23314953645566, 0.060827454095652767, -0.1199016454375598, -0.057836802500899065, 0.20094271281170606], [-0.19345231211704778, 0.045032895307461074, 0.18775245016677727, -0.25388778836017983, -0.1806453055266256, 0.0947327107300962, 0.06331242967913431, 0.08038667751929596, 0.024864653841425777, 0.20067615564245184, 0.24625394755944197, 0.17114057143098493, 0.09546653359895774, 0.1859295306725181, -0.11580682774984322, 0.1892341268436476, -0.04029265125500148, -0.020872963127073124, 0.008520896660313804, -0.129586721002298, 0.23438805727311274, 0.25487908623253275, -0.2604717155721207, -0.04196296065262256, -0.10287371381189028, -0.23179714416852285, -0.021404176588993684, 0.21397796350582665, 0.0254797162210873, 0.0023122089410560487, 0.055070603350828196, -0.16808920480903894, 0.22722010325591846, 0.06214134481496281, -0.16619864661403894, -0.05689860399923996, -0.18886097362512522, 0.19506154488572663, 0.21717449493494745, -0.23485918366018332, -0.18693103816915652, -0.19921145598829038, 0.18406865440444065, 0.14573215699794811, 0.010415875709139932, 0.009535339821680644, -0.11457993863435614, -0.13637975817704756, 0.009097159629979812, 0.2574490618210362, 0.06200300590945296, 0.1552558458217081, -0.13482859572802006, -0.10399365616446118, 0.1834274907901714, 0.06439077645033064], [-0.1356448843529037, -0.06843145184709912, 0.13346308808575558, 0.11249911024669668, -0.21762602285725122, 0.07225473465793969, 0.2604245532934051, -0.03303227317430993, 0.00347241351207378, 0.24471085842083062, -0.09847757877751659, 0.0878328073134898, 0.18134614862289883, -0.1159224377725891, 0.0735260451461921, -0.12598500797431633, 0.2643928916900302, 0.1131303453979865, 0.25253099622478614, 0.19812613920561828, -0.2261644313977098, -0.19985374576579482, 0.12636362458816275, 0.20107408965507756, 0.25688440950558045, -0.2364554085951201, -0.2416894416618111, 0.008099173367976664, 0.1221628815860209, -0.052253418627914744, -0.2110650405673795, 0.04741756578291062, 0.04877226718547456, 0.11621633877035459, -0.14419239797032796, 0.17748535578909597, -0.09362280054927907, -0.1046288220945619, -0.1277743776797654, 0.1452550079421157, 0.2519623828969615, -0.16957367372101495, -0.14035058727506314, -0.12369276571103821, -0.22635773487327396, 0.00851523803240506, 0.23116622137408865, -0.11549209059751026, -0.10443662159153097, 0.13815109423168115, 0.06966522680402276, -0.07400397811689599, -0.21482624074426512, -0.12978781345348142, 0.2669334952189243, -0.1304634432271346], [0.015068180172821743, -0.047461926436701274, -0.151083376600544, 0.21255131509993486, 0.2542787058304714, 0.10699216277586077, -0.023457759899337932, -0.2504440268162177, 0.043234072972359705, -0.052813479475310704, 0.0023656887667964366, 0.26188390506755865, 0.18776036748408015, -0.054770635217287644, 0.14347999985500237, 0.10153090701840894, 0.16704260115265507, 0.029686694021123727, -0.15470498700480623, -0.09079349389057012, -0.1752570784019255, -0.000710015059433855, 0.10485595575230072, 0.24706796084909666, -0.17956949570475056, 0.24199760146653837, 0.22631065551817614, 0.09132980916469613, -0.06567060346025214, 0.19982542483806087, -0.21479936975663771, -0.07574902859375457, -0.20662110751134088, 0.08586486591512238, 0.012297790007031684, -0.2097480294333916, -0.03160800424044158, 0.2661562202263066, 0.23530584606346294, -0.26688525813429154, 0.25189470489539323, 0.17036834223591502, 0.027360275694945924, -0.12068588176827552, -0.0465964382969446, 0.04054074951814007, 0.0950051742307142, 0.20253610234009645, -0.03292210119052888, -0.16507322926777204, 0.16559499667699806, 0.0750928676993895, -0.0792685548167735, -0.2573881830650277, -0.1476147140820367, -0.15710959254058693], [-0.12223416292292336, -0.1747438537845278, -0.17492750006037094, 0.05473764221540972, 0.11582589853754433, -0.1264796764314639, 0.1764380609530632, 0.011943497194702335, -0.07104334858480651, -0.17564971061444584, -0.06821263128326055, 0.030721239249402343, 0.2105795786738438, -0.13082289817860676, -0.0783535741267842, -0.08076531195142556, 0.02975935793762663, -0.12670014843274024, -0.1364487826832025, 0.24934174607983783, 0.025060666137153298, -0.1723216640386139, -0.035144871466523175, -0.10035475340471922, -0.06658070630068336, -0.2020814613506045, 0.18588458378389977, -0.06082005605179308, -0.1940573136478102, -0.16317598298436747, 0.09400660115295667, 0.015211064534847663, -0.06897166298768573, 0.15017014659332162, 0.08744372594718847, 0.07055850255417534, 0.04677957733980176, -0.01611207078809851, 0.02534480114785126, -0.05969992238853403, -0.03634531340172592, -0.13267290403604012, 0.06852415410417467, -0.0534873119880559, -0.0009100073662877683, 0.047987793060688955, -0.21299751915670395, -0.2179937525671967, -0.08132399192116718, -0.03627484174905976, 0.1651760433412296, -0.09921610083082014, 0.19156907601615125, -0.06834307876411308, -0.0551589281439476, -0.21014253290308135]], [[0.0049675395962839874, 0.14341514982373585, -0.15711678493324024, -0.23056512862215214, -0.24265648645368648, 0.029128488323288123, 0.1244729761076529, -0.10333982796712274, -0.18087152145197377, -0.07895853291983417, 0.16456178598663979, -0.2472724983413695, -0.21536466323195008, -0.09835541124670649, 0.025251134848906186, 0.09306965721449227, 0.20518038155803336, 0.2608201172816459, 0.2362701954431217, 0.13417832462594734, -0.12085271601782237, 0.21089132732071922, -0.060053425516415945, 0.05434869698585795, 0.015926608577924804, 0.2589725167003986, -0.0443670244559731, 0.22133070308856223], [-0.23770131704956554, -0.09125609250436602, 0.2650612682003668, 0.22381777326750363, -0.2567166363480261, -0.2572013419331842, 0.13357730788206007, -0.07275116866845385, 0.03777523749613618, -0.26517198007731824, 0.05033584696326193, 0.09022038609210997, 0.12289970804275374, -0.23054924764798668, 0.11174922392905269, -0.20910304403226254, -0.11217906981740122, 0.06545944400373944, 0.2601982633037752, 0.09157829427878517, -0.11631932038094325, -0.25315269079995645, -0.08900180856877692, -0.1591773503451192, -0.07483714106830511, 0.10744915104694967, 0.2181445450453321, 0.12124305520753512], [0.0741659736491433, 0.052562524506542904, -0.17539914174963672, -0.184679179586419, -0.21592597690509077, 0.24911398829095058, 0.07298775359067305, 0.17408021113951805, -0.2344175414968421, -0.16952354945485337, 0.06445335005047269, 0.1262112551615781, -0.16345563157533716, 0.19304594212702003, -0.15794996863474553, 0.04622183141167994, 0.016260295642880396, -0.014973390273858071, 0.022783356607629018, -0.11851241689329947, 0.04505234968772598, -0.21960113155490027, -0.01860682027882061, 0.13622866056894514, 0.05761565278355843, -0.20617136697620478, 0.12517563433843693, 0.1090264228926844], [-0.05754467564665455, -0.14303968755409902, 0.11019199366367505, -0.21433040803298134, 0.08948371764456847, 0.19257490667656038, 0.19053496940688713, -0.1514985856311033, 0.04077494302662444, 0.13698350825839894, -0.10820762786568883, -0.10155825213080331, 0.06149861042852127, 0.11440049876554917, 0.22691506338825598, -0.23961478550066917, -0.15088217051647146, 0.06270924095837503, 0.16036397682050904, 0.11396047508692503, 0.22482689705632333, 0.12755196922375076, 0.16179180478769417, 0.19330325230377557, 0.033226614507204905, -0.09015224948039256, -0.13788724491711674, -0.01950327720588369], [0.08640589334444337, -0.1266653067596743, 0.11826733725757044, -0.06889796070783041, 0.10394805175471168, 0.26131748253546166, 0.16918324773220655, 0.19310209424937141, -0.24209226782880572, 0.1696007137772275, -0.10817715032493341, -0.15665625701320843, 0.18468543389414738, -0.011599831446714573, 0.24426034723093706, -0.18347613324110534, -0.08644033151299811, 0.15297924791944933, 0.15917155891020343, 0.2031957361090815, 0.11451889355582719, -0.24109891093153338, -0.0731648676466392, -0.028374928150680788, 0.021376940660876153, -0.0051942868504257075, -0.15775144227355942, -0.2587475967852159], [0.20143055865315618, 0.19213384813297224, 0.047325563942999194, -0.0921278609396983, 0.2448923688972351, -0.1981466258580471, 0.11542322432511948, -0.012880833204347852, -0.03493540770659995, 0.24486763444373913, -0.11660454888681364, 0.0685086016490647, -0.09460486214893107, -0.2175667878970758, 0.07964958953613442, 0.19180180448042702, -0.16312240325509528, 0.23421019938362705, 0.014263076317952287, 0.24676928767237996, 0.12168290449592739, 0.24176212678663397, -0.04411870866208823, 0.21374689493797894, -0.008885200005592455, -0.14800252584575582, 0.15841902762456905, 0.10564626579762298], [0.12884336672202168, 0.11534888712336369, 0.16142727107451044, -0.11408584942531563, -0.16525549469578843, 0.11284112129211649, -0.21555290053296478, -0.1699756017050003, 0.048860261150167235, -0.24698951143472814, -0.19097330067495, 0.11237895411121412, 0.08686845118028845, 0.2073618043402481, -0.015315576139075034, 0.07994245342077945, 0.051311764949012836, 0.018544791530542584, 0.34214607782925865, 0.21930218931077744, -0.21627616587485263, -0.07715783988968185, 0.30083036756604437, -0.12960277788998717, 0.10635023053458507, -0.2820408174618458, 0.1680923828303495, 0.18850776217080445], [-0.14848862155228892, 0.14948850215260032, -0.10116089642137494, -0.18764779034691242, 0.1021541008911175, 0.16798636638462836, 0.2561639069781205, -0.2487300755504099, 0.06601269875510424, -0.05827283699154179, 0.201581987183896, 0.2629716387625455, -0.23477015040050284, -0.19968468928978658, -0.18916112888513625, 0.04160149181511668, -0.1424050488920746, -0.05089651399320784, 0.13833694363740417, 0.22712414825864008, -0.212550423581864, 0.23949536138604421, 0.12984454474004886, 0.19497131661961528, -0.014320858689662715, -0.11628473657208599, -0.19143688046102875, 0.03976048532226756], [-0.030931151108361477, -0.17634718375075, -0.020093285224672325, -0.021982326658971152, 0.049696872259058854, 0.25930218597567134, -0.19338160795145753, 0.15821894065573344, -0.16035657811136753, 0.25520549570410345, -0.16201467391251176, 0.08926612282130894, -0.11211389123341742, -0.16520350847612977, -0.1350467441393063, 0.18710164187362363, 0.13083590794653222, 0.021445235983136173, -0.16404163644091216, -0.03817760052847445, 0.09443331909999086, 0.05120683440664361, 0.24716980971852462, 0.09712036292589825, 0.09765426135054736, -0.17178918907329443, -0.2220055850217534, 0.12432381470229632], [-0.22211863406312704, -0.20687768893637257, 0.06156414331114701, -0.08843641744255529, -0.10884417915440474, -0.2515237143829635, -0.07413723220011639, 0.17112594714517204, -0.07565067517129649, 0.06748499010556197, 0.11028894465041311, 0.022057302350984315, 0.08938824398888688, 0.19113896239262174, -0.1970177041385608, -0.152452850596292, 0.19014669350496566, 0.04081747357714218, 0.2508267841526833, 0.01313479585711641, 0.03829383309579808, 0.1692182024224583, -0.0022761530374675863, 0.1958289714238846, 0.08392280744985628, -0.24593980837480897, -0.10718544545566883, -0.23605809734297417], [-0.15374836552954804, 0.23743901980357096, -0.11099847209200286, 0.06996605763987379, -0.25756271691714944, 0.16262447726326373, 0.2377282968340616, 0.13615594917302404, -0.1514179347279499, 0.14901851961219698, 0.047676475611620125, 0.14531918283345815, -0.10267910213400189, -0.22273489486479447, -0.02793807791102269, -0.08146807245056539, -0.040089761678908875, -0.2184047534659771, 0.2569554852274208, -0.17867901280459936, 0.2325970100665143, -0.1958045843769614, 0.12811825129992024, 0.010423656062016506, -0.15380088254866794, -0.1468094810769165, -0.026423071246190866, 0.07326207036117705], [0.13665144193052942, 0.026143484723882615, -0.25034409367674837, -0.08994763865592625, 0.07455297013371547, 0.2593803278535754, 0.017771228503166925, -0.1097164738163399, 0.03417456756718823, 0.1820941010739177, -0.048585311520240315, -0.20397926797358382, -0.1830904397394008, 0.11611746792955203, 0.13289650029346525, -0.200202921186752, -0.08269325282862522, 0.051173998628964934, -0.224075461360128, 0.055464547262774354, -0.10147654148658962, 0.22408265138288375, -0.10741256938887722, 0.08585270112510048, 0.23904142365368156, 0.08103968952053459, -0.002432049737892461, -0.08759976133125837], [0.11776826839370907, -0.05670522747658017, -0.017403817933121207, -0.06234938957087982, -0.11997656972465018, 0.10571721986191944, -0.22732500310575487, 0.2264899476077133, 0.25894657559649215, -0.1932318803535924, -0.03853381797057304, -0.04186239145905273, 0.24096478214670491, 0.09040866848686843, -0.04430839237572841, -0.02091065654604008, 0.07389038625567534, 0.06578409723246109, -0.07499420107227459, -0.2021833318784354, 0.0674506197193811, -0.2509818886730802, 0.1612183154817428, -0.08588851655059983, -0.11509169538436435, 0.23427453386761815, 0.2223702596642817, 0.18039884699082623], [0.04064419833619998, 0.03546246132490532, 0.22299364457113735, 0.019381186386587035, -0.05548730437921013, -0.019311796119776188, 0.07639088971722863, -0.17199941700791874, 0.21141733440665358, -0.2196015298720153, -0.10029725117002149, -0.20764147677385938, 0.12033498784641226, 0.26234464674681507, 0.07306351958123304, 0.11470884386278028, -0.2120288783436288, -0.09609379649018206, -0.11645361637523793, -0.25539678676303973, -0.06763237336026823, 0.12171191560558854, -0.0073814694307452276, -0.1954652293081715, -0.08402990280041958, 0.27444556604429937, 0.07474374741493856, 0.2589632508149226], [0.19269632141621137, 0.0799456773709893, -0.2514627464538122, -0.1278168710751426, -0.08676557791722676, 0.0627486052366217, 0.036010428571705166, 0.0312718871770451, 0.11408518033043222, -0.2100504837131935, -0.19379315369767325, -0.053824940328387146, 0.21251394902938767, 0.04971030886061865, -0.02210052022161056, 0.1870079203892067, -0.2525427224125204, -0.16037701666076776, -0.02142390158492907, 0.108826641546799, 0.10852280451865592, 0.036532743247394826, -0.04872803407719872, -0.06890777067719207, 0.1244150852572249, -0.03968623623444682, -0.15700065145568667, 0.03278024358177582], [0.08393626838513402, 0.1462554982455239, 0.10670610215471354, -0.13667192995200528, 0.12743483774396638, -0.2250794409599662, -0.11012339611553315, 0.0110507085640561, 0.10727110499139658, -0.2452951588160741, 0.0459061257670588, 0.18183388725781113, 0.17005514604276717, -0.24848010591634892, 0.14512549072454944, -0.2295555738516707, -0.01678417325446891, 0.0016183347084784965, 0.19941878469313543, -0.17657188809958316, -0.07549516762264287, -0.19604060699696874, -0.17940898185469492, 0.08047413789548603, 0.2078604878541638, 0.1010516799543921, 0.0940924143439208, -0.2225690823678628], [-0.22281546011114, 0.14743266034893174, 0.18064788174489382, 0.1380620542566709, 0.17159111319319187, 0.17108430841856048, 0.12218378017784481, -0.07122906085470762, 0.2621403142150797, 0.08856180149558518, -0.2070541000197128, -0.05486549987262169, -0.10341655951311433, 0.027757416981798646, 0.1629388648657279, 0.1863719627837372, 0.2029135494255337, 0.03902221386690357, -0.09697980136871087, -0.05152634708515208, -0.1554975452726424, -0.11111182847617479, 0.2549248163744561, -0.19810356465381315, -0.10678941432132205, 0.020490557675448974, -0.15702570402166782, 0.1993539239822646], [0.23334077497850822, 0.11502542357568085, -0.11550652915721812, 0.14837891422508298, -0.041997630935604546, -0.021060179647560517, 0.23305558420465278, -0.05524020311109723, -0.2638758653479813, 0.13956969140463282, -0.20222304053495743, -0.14986057568886074, -0.0002512474190619638, 0.08359664748643907, -0.19112451664531813, 0.19634468684277423, 0.17140933020734012, 0.23140424003632676, -0.06261507191438402, 0.24088070404346842, 0.26715778762209746, 0.13560849250144996, -0.06039192314476673, 0.13091481548062453, 0.07092800562820868, -0.19049389147666537, 0.07122341376908059, -0.1870883035003506], [-0.06583945736002997, 0.21010333123787137, 0.21477224704832937, -0.2348070074563049, 0.15750818407479278, 0.10851915003802345, -0.16516941068035346, -0.08849555397647926, -0.23229698034798685, -0.0780565796030282, -0.20963804716515713, 0.199053359761993, -0.19288661208182012, -0.25175977071866007, -0.21135214903506305, 0.10460869903712404, 0.0910923048743095, -0.13849760633302505, -0.011012956588000758, -0.2446082709030848, 0.12410964223334778, -0.12082836359214519, 0.24637391295425157, -0.03678018235870349, 0.05266289550541714, 0.21007513920580162, 0.24342969341609022, -0.09983421106232646], [-0.1743289195501781, -0.1800287396975423, -0.25356232716834176, -0.18301741806076743, -0.004210735021592117, -0.12344822654670307, -0.24916273786375256, -0.13392648012753516, 0.16536215196249643, 0.10492720217767999, 0.21107109513198383, 0.23996865312132265, -0.17792187944470295, 0.10136256016482205, 0.11352845675587513, 0.06992253910822992, -0.1785302142959778, 0.17695054006754266, -0.11969164245993397, -0.14811447872045788, 0.07198915949151373, -0.2064882456387007, 0.07617924383311858, 0.22700966149913349, -0.16042801289178085, 0.004393067304024374, 0.20814475472241817, -0.07385003180380365], [-0.2623835599178545, -0.03485213104260348, 0.1931459493427896, 0.1731141937936322, 0.07548371827217842, 0.049799921245009135, -0.10334209803254246, -0.09854039492652922, -0.04437489870761815, 0.10029106671955175, 0.17404125911906274, 0.21404723017921268, -0.15586430823927466, 0.2661925943907131, 0.24119903042270252, -0.13976386873306984, 0.011715558132314756, -0.049330608203423554, 0.037859546612908, 0.24206526742919313, 0.1290896261124631, 0.14648856279092703, 0.2540218453883405, 0.1718729217734583, 0.0864700540258205, -0.043835348177362614, 0.15033076497415843, -0.12743731743359174], [0.13862900327743857, 0.05125163804776977, -0.026033925463478852, -0.06677870269514383, -0.059702534964270235, -0.06350326241409814, 0.17708487479556045, 0.17573257370498296, -0.030598916387501184, 0.1299439554221043, -0.09333617397131402, -0.0648258044485465, 0.1677745528701356, 0.05719901633878987, 0.24046037256667224, -0.2464274929635788, -0.11822799240619937, -0.20389029865418168, -0.2039371892856381, 0.08834794199910068, 0.02201463260414214, 0.24266774677125372, -0.15989474024456135, -0.25989795005473776, -0.1338114912967849, -0.2018471205559438, 0.22006677150040305, 0.20352764533089698], [0.0037776361056598836, 0.06024041598568129, -0.17719408906911, -0.10150943395394524, 0.24721484397218782, 0.012799521381800752, 0.26689753798851856, -0.08592770585975024, -0.13722236009676006, 0.08308897864132686, -0.20338525149916442, 0.05146776093630603, -0.10089061132973105, -0.09694051642245176, 0.12727919105447683, 0.25824502612991007, -0.1913958043636966, -0.2257843602316772, -0.1327639754992362, -0.0552300614833971, 0.23062556251922406, 0.13920144908190493, -0.18421895713094288, 0.15627357930593158, 0.10827544773584521, 0.1982002617429808, 0.033985141038459565, -0.11177158752398085], [0.04257664149321893, 0.10172370312836192, 0.05192070940591631, 0.21974374904367555, -0.10831838918088027, 0.15278379251438973, -0.0327905984471005, 0.20726493749008695, 0.17650348341229077, 0.07891775659101297, -0.15382587447657017, -0.08229302545300138, -0.1752563377528231, -0.17875326858692683, -0.25955228816344084, -0.18934579479912161, 0.10674446780711577, -0.04930959442626927, -0.1539137862769071, -0.12009072643065022, -0.08391309652735135, -0.2332935045298303, -0.014468653820081974, -0.03815535680596104, -0.21932822404562222, 0.19425183076617483, -0.02760177984758702, -0.2648295658432516], [0.12269007710291562, 0.06597478059124205, 0.05086736128544739, 0.1981758099426017, 0.1132522864107272, -0.040808591938944025, -0.005540444077708817, 0.2109164764844459, -0.21439675511045092, 0.08269196012110454, -0.20165266437909166, -0.20511246215425258, 0.2362064391420339, -0.029816225124374568, -0.11680448156724038, -0.02879742888253209, 0.1271175454796818, 0.1391450667355138, 0.15238555900004255, -0.0930125927933375, -0.042689082697592154, -0.21000297623822003, -0.25203924644480696, -0.16005284563753674, -0.10732529615844463, 0.03836154437878419, -0.20366956105711517, -0.250897001049591], [0.017493547126535152, -0.23399872133788957, 0.06806584711566199, -0.026789699783963256, -0.10471395380484633, 0.2012469752097417, 0.2661333439677396, -0.23043215913070814, 0.17246800740282997, -0.058538513765328676, -0.14539574237789504, -0.19563971772892463, 0.1971835542146692, -0.2671414104491173, 0.166906119054973, 0.250030035396278, 0.23101446229258468, -0.18260240894131752, -0.05571130613526941, 0.0777558094064047, -0.1015635294564261, -0.1222691556397008, -0.05898978812888668, -0.1671169642259824, 0.12313339814361662, 0.18262253668890227, -0.21917799617363198, -0.08056419128860647], [0.12828658908906637, 0.2541784803764663, 0.2566112496999018, -0.2614095795820502, 0.009239148626014368, 0.2642828770499826, 0.07343857754171418, 0.2266034922794714, 0.22646665202512922, -0.1021466612423971, 0.25724573828596325, -0.02091305039462238, -0.13141773411858157, 0.019371226013873068, 0.23464468685141585, 0.16774803205229535, -0.016818392114741086, -0.07227731809457526, -0.0023945346780713307, 0.10321789378451494, -0.10164918298469627, 0.03978900962369757, -0.10396482528033062, 0.04414854948156066, 0.037455426481565114, -0.1628528273162709, -0.12187843581468091, 0.1389279724520486], [-0.14733564333761723, 0.044104424369262984, -0.05739285109705419, -0.17578534249349298, -0.26172381338455936, -0.1526572352682989, 0.024792872560563006, -0.15853564105065415, 0.00030334363114373496, -0.061185733169213524, -0.12186694051182115, 0.2484847772680271, -0.07477058346543716, -0.11797674809195541, 0.14822599965548694, 0.0940647850913771, 0.09723985349036354, 0.2074747599871443, -0.05136090897627293, -0.14507188159356277, -0.20160052546780183, 0.0722858730193497, 0.23291196806154435, 0.06150999072472811, 0.0757438352805167, 0.04940804473812732, -0.04347096231405301, 0.2157106748283441], [0.02453607565289173, -0.02845141481198918, -0.008412345328990212, 0.18115204203494556, 0.12871369399427582, 0.17602415422357673, -0.1476858986875756, -0.23408276768742894, -0.10146886539551615, -0.0159537003721289, -0.17438794888323744, -0.0739130668877139, 0.06283233663210525, -0.027602178585393964, 0.08747328550251379, 0.12175131202451896, 0.2016674075744395, 0.00991550980932861, -0.2352640627573246, 0.12334329199265312, -0.13870919166180237, -0.04914830836807888, 0.062062146609483795, 0.08373443396342795, 0.09627539291835743, 0.14378545332914838, 0.14838191222806346, -0.08338683620870319], [0.03100276181278986, 0.1345560429454444, -0.009563573923778323, 0.042758166567677114, 0.2004311662743866, 0.10410462639472184, -0.1399696780288506, 0.09507447290552157, -0.10758517640874535, -0.0068573907914412195, -0.23484804676670054, -0.09641343868095703, 0.24551105253665548, 0.012721742368168117, -0.025866126796514278, 0.03598897600774034, 0.2133631496370092, -0.031183129565332136, -0.14107368220339186, -0.20402725198557678, -0.1402696084555669, -0.1831523254929622, 0.09546127081109426, 0.2258443554380175, -0.21641700435820171, -0.10243652142217301, -0.1645134081001648, -0.11760799675812929], [0.17971785847032923, 0.11824791319795984, -0.2088668904689674, 0.18213809205022907, -0.08922745491665121, -0.02526175509034591, -0.04868689116946334, -0.23167154026442105, 0.03600511342201429, -0.17401568810696152, 0.25861349480479084, -0.0008912716508644856, 0.14190254965104304, 0.2282548968084361, -0.24846987005671523, -0.15501687216457952, 0.23185605002754364, -0.012167625034227763, -0.1713050872541792, 0.028633864763202142, 0.17867816667328668, -0.09043358634799441, 0.007937922233250209, 0.24327346215859225, 0.1653208859861615, 0.17142196007821256, -0.016499515651405006, -0.15486870641473682], [0.13289066876351566, -0.17123749855249748, 0.06011776181712164, 0.01866118678863332, 0.2298611859740539, 0.06705656935045538, -0.2576507282299169, -0.1361772673750542, -0.0046089963867394544, -0.040530265831132034, -0.044223274340211116, 0.10869027942340782, 0.17834688159754078, 0.15783502077032552, -0.21009969338286585, -0.10876147924606845, -0.20569413894643457, -5.145751959287556e-05, 0.08132571884270726, -0.20392529672591714, 0.22326044850007812, -0.17048352244475296, -0.15062024536957677, 0.00010444953238539237, 0.05740545761597574, 0.1522700738901792, 0.001980017612721263, -0.07827426308982954], [-0.11259528433078038, -0.004388161496270063, -0.132517809791308, 0.18839481319695778, 0.2068429371127518, 0.09498885208517331, -0.26056464893327164, -0.1644774416353839, 0.05569815517151276, -0.2456205085698051, 0.04871944146170132, 0.2220611437796767, 0.14014865999354795, 0.09750192732602427, 0.07875990241708983, 0.23763527845796825, -0.18830596895553214, 0.19791554119300897, 0.10602738149730014, -0.170317254414092, -0.07774822055019194, 0.15858567911357116, 0.214409421730522, -0.23969216974265722, 0.23648270932117785, 0.011533170314620984, 0.0018345964376925705, 0.03523717664962904], [0.15074461646734028, 0.14409400759077753, -0.1483206932754207, 0.18139783775415164, -0.053363182646900306, -0.01803539950091676, -0.06774404231762104, 0.07355685122848621, -0.13834947422936847, 0.07414086057902641, 0.023982330648710082, 0.20056141959102422, -0.14840087357672418, 0.036889588263534404, 0.07902098757590993, 0.10931219038317286, -0.24271476009863105, -0.0020163426588888467, 0.1906087462074762, -0.1238334904485926, -0.14304601402398745, 0.2754064107463324, -0.04443406880492585, -0.16038370361602383, 0.03387845324003248, 0.03929712091474692, 0.13802947993562015, -0.03305176343586038], [0.15884507485382776, 0.12819011652329268, -0.07117109483819756, -0.19288651250514752, 0.037828541530095114, -0.011455245082377849, -0.1273127547481751, -0.12829711495543109, 0.18714710425148176, 0.04858791784698039, -0.1392214972297019, 0.24269604485920815, 0.12315896853264874, 0.010236604255251266, 0.19822696725019007, 0.22832921176974944, -0.13488881419377557, -0.02606321386850629, 0.05508071035872473, 0.04487814994216878, 0.14886799310382118, 0.1762823117556928, 0.005740053134563074, 0.21298795656339467, 0.056788292829291875, 0.06480326417544822, 0.18461190277234285, 0.022878921980808816], [-0.19940625131134604, -0.14703851279111763, 0.09551684604657795, -0.2665642458535492, 0.0041176434364063605, -0.16307799994355573, 0.02324493099387398, 0.25433306000044786, -0.1806359801848098, -0.14973921182145983, 0.042170390449118356, -0.22922151105804078, -0.16066043953992618, -0.23211655789266603, -0.19492813402441184, 0.05936406894455358, 0.10763769449372161, -0.26899186557464744, 0.06714246586066765, 0.006964635471857772, -0.1781884715716918, 0.20027004790950748, 0.0434774514110671, 0.10550098431082525, -0.258097892159853, 0.20625766609540003, -0.06332563362836938, 0.030747196983694443], [0.19962938456305812, -0.07571791521710106, -0.22209591418690883, -0.19451600449279063, -0.09871511961958075, -0.25328437111629476, -0.2505513994149593, 0.2185072387718494, -0.20208137848374627, 0.03777555576878705, 0.2600808760013018, -0.1572783134369136, -0.1306126517202097, -0.1628252113382032, -0.2727873114017583, 0.24828682295775417, 0.008137650767243597, 0.24737899313574868, 0.12381194740677864, 0.2023818677113689, -0.07562557043002835, 0.08788655517852918, 0.17100420577614356, 0.2691434846637616, 0.1781703122962645, 0.04841808954007045, 0.05557839815354565, 0.17689529247881158], [-0.1981257318958831, 0.023297584931472937, -0.2015684578740195, 0.06982326409907486, -0.22617158400806303, -0.04036015435986859, -0.1735431740215631, -0.0038805630601654317, 0.19024816232102715, 0.09807821294978274, -0.17321472333509524, 0.19944882634835986, 0.118708737912744, -0.07207504868444647, -0.04694081371117423, 0.22704441124896166, 0.11197708703482549, 0.2480953380428677, 0.22243944958196282, 0.19218642488263452, -0.25411163846119356, 0.12972265123077126, 0.1009548618803596, -0.016053095844334432, 0.0023759768510973854, -0.19395324623844085, -0.12177376798031087, 0.22544101075416925], [-0.18050901226217853, 0.2222176479274705, -0.13901483922900892, -0.09733491083681395, -0.24926169547427404, -0.10617741303496833, -0.052204411558041425, 0.0786297664877279, -0.2648418124427442, 0.10452849211241337, 0.20845440392621872, -0.2058547269681193, -0.053562632232495994, -0.04396478056830781, -0.10896468105865528, -0.14919488077973284, -0.0806350057576368, 0.22609757562066773, 0.006732580339967203, -0.04181186291126412, -0.06792133794467778, 0.2122998359030121, 0.06616177460341194, -0.003101312821383994, -0.1134072092251551, 0.11226959719254657, -0.12906229941203964, 0.1608700885474048], [0.25231782650314094, -0.18548526702231447, 0.0060910973132536905, -0.033483630980034956, 0.18849975122451018, -0.0677060957385758, 0.23447514354138932, -0.03776392844000617, 0.13483982276669043, 0.1843815891085145, 0.06753423834903816, -0.17812656577456287, -0.1281192089717358, -0.1831469507121407, 0.21986378622146194, -0.2021433480142898, 0.019626817884847894, 0.04597835750828211, 0.3581207891135705, -0.02392977732185972, 0.14973433879098433, -0.06557421158741265, 0.2040750629786701, 0.17608154111595187, -0.1248412014541209, 0.18518301067681822, -0.24291197629385083, 0.1361238653241282], [0.2770549237666303, 0.1624207799295484, -0.03763810093030892, -0.22525684259241913, -0.20141279267418227, -0.20675312471851623, -0.04485268246560192, -0.1122386862869674, -0.010107164114269715, 0.09333146317624536, 0.16062998945465712, 0.07302032951051295, 0.11574597117853773, -0.22830216676231366, -0.2559520981564647, -0.1707063694485633, 0.19785854697525485, -0.2755782929226901, 0.27802895795405885, 0.21623409808317123, 0.004631546442757287, 0.17050590624899775, 0.20529624788423448, 0.12342579927964037, -0.19959113991979688, 0.08703898602018094, -0.26237005944371516, -0.09679448535461317], [-0.19812626356610333, -0.11416975429687998, -0.23147630484822992, -0.13773616403234834, 0.18160704563516575, 0.07305537318032732, -0.14126892128431082, 0.036766349059153325, -0.10524244941973512, -0.2646850041870522, -0.0915098857624786, 0.04755822233047633, -0.10391564822018286, -0.05748723012043745, 0.15609836449854425, 0.266690961908473, 0.07724102220468175, 0.21020543366782313, 0.1631530524663526, 0.1107535054345336, -0.11685799491298296, 0.20006828145292357, -0.057581804194104434, -0.12652892388440018, 0.056967266175185084, 0.23451889409977186, 0.050488340110169005, 0.16772113690193816], [-0.18916570724696388, -0.02619791222601849, -0.0569466642049872, 0.12636513070361827, -0.10748025575999821, 0.14485217402163703, 0.07802536128432991, -0.0024777560695131706, 0.05499013999665631, -0.10414296541026738, 0.1985037876219568, -0.06089558624933568, 0.013671118975708274, 0.2546120436409951, -0.03247714430647061, 0.009739964458595833, -0.21975466115878328, -0.24773276709672115, -0.12960674410930845, -0.2648910657237333, -0.17795995163357892, 0.2010888944911383, 0.03834414265067258, 0.1736007886781914, 0.06424391968896123, 0.24107240212236591, -0.24665932887762865, 0.18359377103692867], [-0.10637227361096568, -0.14370870544508046, -0.04386673562701379, 0.13269897319109208, -0.23331502024507125, 0.2217625043538387, 0.0760943180523847, 0.11092153764856977, 0.17583107254986863, -0.06879285376369766, -0.15720418113358336, 0.10367601467069744, 0.01668133771154523, 0.1914397706693906, 0.2422187368541636, 0.2305850342239344, -0.16736279010077088, -0.1934914224607038, 0.030989513140290068, -0.22858725941326308, -0.12940113497109335, -0.011803990450931974, -0.14793824606384012, 0.2252266025391395, 0.16795928850662384, 0.22910137141673065, 0.048723278567528006, 0.03595705748318179], [0.01033538058028255, 0.07141822848781453, 0.22078731118708428, -0.02288521051178513, 0.1904015078199618, 0.05416706198107104, 0.1604890020857695, 0.06631010082680033, 0.1995917608364304, -0.2058653367605478, 0.06554774965466324, 0.09604040374736247, 0.13536710156138282, -0.0689465146141584, -0.060515142663632886, 0.17505929773494314, 0.18152400774759683, 0.03351540963546442, -0.1357904734153301, 0.0453003408380722, 0.20631368252516835, -0.07597246286649327, -0.2622096590047381, 0.07740439769143587, -0.10588085830008423, -0.013658408608872725, -0.2621135652581796, 0.1459697283836848], [-0.15085437175656247, 0.03983767428381758, -0.12828559946662096, -0.17949956060403027, 0.06278752223496836, 0.25853140383456846, -0.062489942882475585, 0.03165999982455392, 0.2088813152984803, -0.15591210705121922, 0.19506791481643565, -0.23764907603594068, 0.12243932042132266, -0.17872682466094153, 0.13884839985447409, 0.11107508668393891, -0.07136834352943602, -0.03478624567912324, -0.04364545463042465, -0.13933195127536857, -0.16034971578746057, 0.18216143701222312, 0.0337865742212444, -0.208104877138021, -0.19189889612649794, -0.08706988354576417, -0.08953603341027294, -0.22108875137271733], [0.2511506051320705, -0.18234529386189244, -0.2579114106335824, -0.10851198671310203, 0.2178267575262518, 0.04374354037062131, 0.007164948376126967, -0.1940136040356769, -0.026292448542046886, 0.026996174608313273, 0.11569643854724865, -0.25791644189116775, -0.25951458818487166, 0.1578409130090549, 0.22948084214880446, 0.2569086817285628, -0.08934270085849995, 0.13686356955282059, 0.24971454370667004, -0.25218793101326237, 0.10234650952286299, 0.08859947162783988, -0.08237644913477363, 0.11675018218520111, 0.14195790271774458, -0.2570707587233983, -0.031603164345168716, 0.04762591704872771], [0.09489306856991034, -0.033036268884828926, 0.08788555137286586, -0.07818711621124069, -0.11302589285501166, 0.23809899877047386, 0.0021039206163157576, -0.17215477969973753, 0.20054465731588994, -0.2610926884561428, -0.14495845223037507, 0.21194246342301956, -0.043781547977990776, -0.2160799808924664, 0.1810115026214937, -0.12387942757078144, 0.06001608964922687, 0.22897847177298603, 0.2824433150733412, -0.11639913664618115, -0.26657335153588313, -0.18402582193203526, -0.158794629486288, -0.16623173619247628, -0.0764127257593302, 0.16020710718851147, -0.21626783740192612, -0.0014398517615214971], [-0.044130498359130584, 0.16414065990812027, -0.1272989821934277, -0.2655724660966307, 0.2694023806395269, -0.19339400724002034, -0.10796679516427801, -0.07410772745185623, 0.08960325292433667, -0.12079874591563416, 0.006579967155629696, -0.11256300807120431, -0.04374558504882619, -0.1630277173301051, -0.0005520492682539486, 0.11307810501384112, -0.1129905380565718, 0.1179323631364945, 0.21254272360630275, -0.19891963231608883, -0.24679269373507798, 0.17423407894355467, 0.025574028464834864, 0.1960717679263946, 0.12738489560871732, -0.015291796286064993, -0.049154865245198076, 0.09025920682403453], [-0.23170077609484757, 0.07816865238828283, 0.07706513245849728, 0.07609159710060759, -0.014954600467528965, -0.0728924456775594, -0.1413801272967765, 0.20799353522041353, -0.07228211454756295, 0.12609494691289214, -0.033492683685543756, -0.1327497439290143, -0.045753001493830374, -0.13571215966769876, -0.25550871881128506, -0.10755585647140736, 0.02620127288357477, 0.2018411115457873, 0.1374913550865565, -0.05795983895969123, 0.19678993353034185, 0.16851437153750184, -0.06940400819743531, 0.1731843586397646, -0.13437893905942436, -0.062161623065258166, 0.22590638672190366, -0.180223968312683], [-0.22659786502858212, -0.26116443637122105, -0.13827167919353117, -0.2314125793505446, 0.18269594204187484, -0.2291175169811878, 0.11623642732105383, -0.15275493640841667, -0.159101816441517, -0.02519263499299393, 0.26114667206170017, 0.16234445465944572, 0.0705612389354496, 0.12356289225726354, 0.25402487902434895, 0.18894084877314843, -0.004572515971547746, 0.1812871905855864, -0.22264956661663132, -0.03330785995040825, -0.0023008844042490817, 0.03449156361533437, -0.04028068752087653, -0.17773524851980416, 0.12699300259513738, -0.1575754553668318, 0.19627311254654717, 0.05207121311530701], [-0.18909233954138135, 0.07296222643753177, -0.22108512865797894, -0.13602765031297745, -0.03505912044899719, 0.18373595835753556, -0.19530568550524346, 0.22883644664288683, 0.10761961841955431, 0.09856013022781476, 0.2667940480614435, 0.2139481253714907, -0.1587605719060337, 0.05620483716403098, 0.0927622848941226, 0.04585056504082607, -0.06590380355298671, 0.19293561996204853, -0.16178248929670205, -0.1129022075523506, -0.1017878107057188, 0.2159303955601439, -0.23968685641023366, -0.022033417480422823, 0.20275916381922954, 0.22295049479976134, -0.06511264506963393, 0.041637211832333196], [0.12689460389469365, 0.23558563571841368, 0.13524808934013305, 0.18059173554094726, 0.07689906097143236, -0.12949390021531285, -0.11358835976457221, 0.13671841918137145, -0.2230428782079505, 0.19602468409691767, -0.1776486426569587, 0.10177247517197256, 0.1897859314102115, -0.06507164676033347, -0.03422976007896364, -0.24457242180917596, -0.024810732808149008, 0.04308240343733641, 0.13630487850969686, 0.034970900505326884, 0.27639617616219203, 0.0626917785354813, 0.043786073186279806, 0.17223405404150677, 0.24951778076049322, -0.09900990195253094, -0.1507370389988238, -0.16787114100892836], [0.26585957140091027, 0.23640421300809464, -0.04770543461458579, 0.0022096127642300956, -0.01884965502995353, -0.17505034759072902, 0.16759530843884385, 0.25024130708077896, -0.14787656086772064, -0.15071389742597022, -0.07667808153915683, -0.21124728314368044, 0.094054945180227, 0.2088349028014799, -0.0992709405588724, 0.01851624844129824, -0.03566383685277969, -0.038318916064473366, -0.09724021323518985, -0.19158407852762402, 0.17290296956454848, -0.11439734742363226, 0.15888285789259948, 0.1545638390941433, 0.17087283498279177, -0.22928821683342915, 0.2268625999407064, -0.06498475302692594], [-0.04567129960061747, -0.2328631192410739, 0.13506722528459947, -0.03587979107383629, -0.24825235456239106, 0.07204527945809293, -0.03495778740400546, -0.020746711194760237, -0.12433250737480873, 0.05026167660932857, -0.14560678233732036, 0.1233552142641617, -0.04215039596349909, -0.009086187058748857, -0.14575363175566114, 0.008063932927889478, 0.1672826139443097, -0.24300417159214416, 0.033280907338461126, -0.020005415789145418, 0.13111395553387983, -0.02549100284972952, -0.2063622030307596, 0.06881595520562497, 0.09920743054066425, 0.2597502454608903, -0.26292538032122725, -0.016938391160696592], [0.017328296805901578, -0.23035288930450562, 0.07916158127550771, 0.15021509225831536, 0.15143456733001023, 0.08788010975227822, 0.006738735034023335, 0.09525054508295921, -0.2594788779566554, 0.20353709255468305, 0.17948420999569495, 0.13329968861628697, 0.007842349467516068, -0.19506189613260352, -0.16301521195947052, -0.03591929221091342, 0.05222968056084134, -0.10476831353854148, 0.07511247342066314, -0.17712759302988484, -0.002136227844771561, -0.06505294524653686, -0.16362198154750343, 0.06703815244603223, 0.06810690876237538, 0.2562494715784422, -0.1894613403543925, 0.14594443661955922]], [[0.2651239108904141], [-0.17695140580222157], [-0.3532366671070181], [0.2787443742973675], [0.058647271762601524], [0.11600623240530042], [-0.19231935963831132], [0.12167530652979669], [-0.06867540094480552], [0.07558898997275995], [-0.03881342982770556], [-0.17931203422147027], [-0.42613196398373976], [-0.44650209549514813], [-0.21850739143997283], [0.13365598754407956], [0.20574121793670633], [-0.12585357725085702], [0.6399982290503283], [-0.29667188216765455], [-0.23671650344691023], [0.204082919572732], [0.35289745431354], [0.2782606500477212], [-0.000819292899180464], [-0.3331321564259371], [-0.41113044378449437], [0.009053117294542392]]], "biases": [[[-0.01313067181812909, -0.039323066159646154, 0.006417071948678675, 0.011470002682542458, 0.007249505235052663, 0.002082189534362159, 0.053593156892355776, -0.029648662368140892, -0.010690147257245607, 0.04460744687666883, -0.005050777890736272, 0.0008208694734540649, -0.030522947579363947, 0.014119797753883513, 0.0001218128565069955, -0.0013138377528944417, -0.008789505557959265, 0.01523951044468443, 0.014726889406932404, 0.00923387260093339, 0.012364143652383619, -0.022097282386696414, -0.02480358469518548, -0.008077506635250847, -0.007803588775632816, -0.010998457319688786, 0.008040726213206428, -0.006618900851134584, 0.006237059511915343, -0.004976764397398936, 0.013358381460787466, -0.007137909371635499, -0.001864762354516458, 0.011879569113543242, 0.006662062006767708, 0.033216719599952, 0.020716163606113572, -0.020852368189057485, -0.0006038730609454694, 0.03363223426586084, 0.037104772051057014, -0.010919266602430052, -0.013465636677237703, -0.008999201470363776, 0.00821981337166938, -0.010522015959741185, 0.04800910443116936, -0.0226373118988302, 0.030279748194925828, 0.029918524045911974, -0.042174720129091056, 0.006846686849387688, -0.006802043350733817, -0.001496846246064614, -0.001497795576941888, -0.008614269353290953]], [[0.03067606633229339, 0.015252893032824621, 0.0, 0.0, 0.0042277473418932034, 0.012222530756924215, 0.0, 0.0, -0.007394411756020617, -0.0114211246424415, 0.0031738234093406288, -0.01371397152300679, -0.02740960699674116, -0.003021583501622444, -0.02405030096577858, 0.007122442505686345, -0.00230683460743798, -0.013579673199848857, 0.04610084428504836, 0.038035390905035014, 0.029218159344866414, 0.01674932935442702, 0.04730717202548445, -0.008532888368751533, -0.001526178273278463, -0.013558613425511358, 0.0, -0.0077827026366255846]], [[0.09185768132379768]]]}