{"layers": [28, 56, 28, 1], "learning_rate": 0.005, "weights": [[[-0.2486833380526589, 0.0302046004920182, 0.09373307416895114, 0.03240967047383619, -0.18165099472132817, 0.14859129688137573, 0.05587209128156401, 0.17071886591042615, 0.11744045780686661, 0.10955737975860534, 0.14415833836533676, -0.19842925372750733, 0.09523364242707234, 0.05931514889617542, -0.2106281866240914, 0.030634228230168738, 0.12379507709538448, 0.08238449881153376, 0.14569686419193856, 0.28724974487697214, 0.18366908119236727, 0.051548000152826394, -0.21429677731788055, -0.2347894475002993, -0.026089084867953655, 0.02232743398199826, 0.15701408159159608, 0.008177950143395193, -0.1310100641655219, 0.18237908429054858, -0.060599432085032434, -0.11109151172764195, 0.04470048510826524, -0.16068998431761353, 0.05600607462048753, -0.23313792838665567, 0.16199827823616836, -0.19334251589096133, 0.2414633341360894, -0.12718033935125375, 0.10714307129412962, -0.023026481003736353, 0.19785116472355366, 0.048205252875128765, 0.22995912550391331, -0.10933284628675279, 0.21447361604273535, -0.05604420549632284, -0.06857730947526737, -0.037827021250467364, 0.1093365633931492, 0.3089940121955869, 0.23586932224722962, 0.20952655108223145, 0.033722689780684253, 0.047988727458817715], [-0.11689702305043288, 0.2145294504591529, -0.18620674492698178, 0.18424982556357253, -0.23570366406522533, -0.131792118455809, -0.037622711255552096, 0.155533827105602, -0.21875604979457927, 0.13343697735411575, -0.11018513646450595, 0.20261333637530532, -0.20419219321988566, 0.1392249840563211, 0.264551048777854, -0.2038807004532064, 0.18377021360389256, -0.053559689999549645, -0.023289492307634094, -0.025540311113068134, -0.281452132842076, -0.09325442513141279, -0.0191009798604854, -0.19923303170289708, 0.25309650113264637, 0.15598302976185024, -0.24778408695749368, 0.07225403983397935, -0.21707682515351656, -0.02973786471819711, -0.12109828683894248, 0.025990081854017504, 0.10496951761831705, -0.09825457492136655, 0.009325276501997723, -0.13245340791716703, 0.007282152156221469, 0.17081749120221018, -0.2224795933927634, -0.2715599616331763, 0.2493015518594029, -0.0448998414992552, 0.05055600565090399, -0.06714829293080712, -0.020483526663335486, 0.17204587152651513, -0.0829393838397654, 0.0030349933338531627, 0.18291911639314723, 0.014525676542578103, -0.23281027026768608, -0.13036487820724768, 0.20096272701448656, 0.06007617687667739, 0.10764035932295275, 0.10726712393970234], [0.015152332233747913, -0.14514722967458488, 0.07797381025471663, -0.10484532363746256, -0.04093051113219139, -0.03394618393939561, -0.1303791964805511, 0.23660771962460422, -0.19092004637901344, -0.08036502874697651, 0.09203620068513581, 0.14393415836607326, -0.015910866468138645, -0.23522095412679803, -0.17844587311279764, -0.14455443855484362, 0.1378889138984086, -0.24218804998518503, -0.01722373415912777, -0.1923602262948578, -0.04225277932925633, 0.06678753312643453, 0.049062392252137654, -0.017670293405105116, 0.17771328881639276, 0.15954524544008244, -0.060512546296613866, 0.10822678258166947, -0.20702473160834464, 0.06052329358846061, 0.0807328645873991, 0.06088802545583044, -0.2520882720607087, -0.08936511678002892, -0.03837354816742418, 0.13223038883027824, -0.05193174794157262, 0.03181311032056781, 0.0012005008590824573, 0.09003536890586115, -0.005856088265487219, 0.12434987561378218, 0.0017506197771381482, 0.22977621504007914, -0.23886085749014113, -0.1793581752568266, 0.17916195599601967, -0.08527577874823443, 0.2181785959386416, 0.15466609714997562, -0.20482816798197398, -0.17887088103455095, -0.10765553166085275, -0.00493198989987042, -0.0692213820000319, -0.2330010648887148], [0.20389967270666287, 0.11429800216046299, 0.022916049912892977, 0.23322516489528833, -0.25545490238369123, 0.15944815603247786, -0.1894520972134251, 0.17601781785815346, 0.1569434291160412, -0.2322817716614921, 0.06503097002699726, -0.0020798146847264554, 0.044039661022892085, 0.25365164157711884, -0.049938691916426164, 0.17073221848398934, -0.13873469389096665, 0.2291332994350575, 0.20158307988861707, -0.22664810935658775, 0.20078427365366636, 0.2208722652342638, 0.11418844946045292, -0.1693545768985053, -0.0625815941132434, -0.17373304896797842, 0.1364210850712655, 0.17501259838720123, 0.026665729761804646, 0.22454761914982363, -0.23262248323789014, -0.1413716261248378, 0.16568669679885023, -0.2641490523785019, -0.16736761611659187, 0.23135215311119034, -0.06470610229501927, -0.1348104916766462, -0.21245150991491712, -0.12361843356275704, -0.23568363233557754, -0.1873955299399634, 0.15471311730803378, -0.0901761895337991, 0.056335044055800254, 0.06090509838943298, -0.21236458782990003, -0.034742016800497044, 0.25794031365917003, 0.2116550062486781, 0.2585528032651965, 0.0558363378693188, -0.07656384195244445, 0.2526317184268927, 0.014444450462219649, -0.2562374750818563], [-0.09707279146785147, 0.13327960356337415, -0.04412126527353907, 0.10945406696212451, -0.23269262539029137, 0.13852263130546744, 0.020321413489724605, -0.24416432439280364, 0.015536991894735064, -0.26277547355691744, 0.08798596576576123, 0.24494136672536415, -0.23957139075276024, -0.05194676088030345, -0.2645849314588755, 0.24074196409393311, 0.07294450594574886, 0.09912528289943418, 0.09945016847823618, 0.1262873936962124, 0.06286640527294157, -0.1470940571070657, 0.09390788736416222, 0.13058710066384982, -0.25036136248682395, -0.13044434537208385, 0.07193168056001331, 0.08304740261106636, -0.0045913965509467025, -0.15807805826039062, -0.22350270326336824, -0.17646102074462305, 0.01072139571834907, 0.16270576403862913, 0.04736421896718196, 0.17923696699457126, 0.02533158234628652, 0.2298564823128732, 0.23211651642488446, 0.007532127413089618, 0.13618965589938647, -0.24547620642494983, 0.21566849347714218, 0.0009189406622530649, -0.1425300089598288, -0.2381382501696376, 0.23039409842253677, -0.1933084330927814, -0.23811854244948272, -0.21044905778622922, 0.170919217781147, -0.016362525428812558, 0.25397053178468354, -0.044515488246600815, -0.09407829576371565, 0.08204427474964265], [-0.13702240581105304, 0.05490744445870449, -0.23289921784548445, 0.0911393140828971, -0.027942607660284752, -0.09199224946815365, -0.008823233820603682, 0.11707588687765169, 0.2549794808714386, -0.08735112370401374, -0.09055285364956014, -0.05219804181067708, 0.19731645515818425, -0.16045746724124782, 0.197490183849867, 0.262740702547549, -0.2660204499732485, 0.21151243281644266, -0.16611860796183525, 0.05796919156628949, -0.052959040128690626, -0.10335618184778325, -0.12295241846973815, -0.11449686448181992, 0.15502896940341937, -0.001785734414352036, 0.2256093454419265, -0.09241445871224913, -0.1933690719553663, -0.1442639194923132, 0.1911500333042212, 0.07515908861516235, -0.054866221750300065, -0.03714664657379366, 0.19121525079433505, 0.12981829113275223, -0.030765519345058112, 0.2590123274931859, -0.21068908797956648, -0.24017569716060053, -0.028377511341306866, 0.18440640063552644, -0.10403518917938528, -0.04447115442898422, -0.22846607714835032, 0.004875422981854671, 0.16632814438958632, 0.16265263107069683, 0.0001505775394232134, 0.022091274877674927, 0.08874805293678506, -0.014561072821058396, -0.10726401833390403, -0.0872684599244983, -0.027341032721883624, -0.07949860647271095], [-0.00277152845847789, 0.2184120453637799, -0.2176701617969667, -0.12239926777640317, -0.22664083504816962, -0.00793511180200851, 0.035472481694431346, 0.24386965330572274, -0.10623517446847658, -0.062449967026741854, 0.23096718549972667, -0.1835398401534427, 0.10187532350838602, -0.22411197868767554, 0.1966142195198355, 0.10425050991476081, 0.026792255444026192, -0.07719973966972293, 0.1880020629198208, -0.06481804037031852, 0.1366738664282806, 0.26164404932193164, -0.013323000660924567, 0.07741486185693958, -0.06409732381851538, 0.2449741900980651, 0.07176435889511201, 0.11832012430584532, -0.0661129915909186, 0.20222886919211008, -0.0685075376328105, 0.08295741549451358, -0.1296902696753862, -0.15316731118693497, -0.126757243716775, -0.1054548685124993, -0.08332219361522852, -0.13021777194404574, 0.13822209059769636, -0.10074444480399633, 0.14587647283693617, 0.2666785863986094, 0.040837070274623966, -0.1725772543814545, -0.05172501193770854, 0.10240508498003587, -0.12106460085976917, -0.14353171779139745, -0.18783420925870326, 0.20548664088880064, -0.1155075953535892, 0.1691592736149049, 0.029207212452826148, 0.11781706354305882, -0.018822225660420605, -0.02276736399019666], [0.20403249351733374, -0.10204250779118151, -0.19729361051606653, -0.23124933338551423, 0.25291010643072454, -0.1855375795331027, -0.03708138568061813, -0.2116459412822263, 0.20000613655428354, 0.23423163312144193, -0.15516813516655487, 0.12263851118436427, 0.24013029223362345, 0.14614617274705427, 0.0838725587394809, -0.07982861823084347, 0.12221654488682707, 0.15590708047566584, -0.0992123134159099, 0.047815716791711566, -0.09622341071685199, -0.1147046627994077, -0.013413050580506425, -0.028170023476886526, 0.08537460681922003, 0.19546935641186383, 0.0654504759396445, -0.23003480982592395, 0.059149830861613684, -0.09461127947238646, -0.011213078173296583, 0.17100939814168076, -0.18967777519253226, -0.2246963775585273, -0.10640001626726926, -0.17456955390205525, -0.2045685122695382, -0.20049740458688695, -0.019393919212367088, 0.1801034766423149, -0.25867315535640334, 0.04901289992168393, 0.21472485286251175, -0.09805949039530039, 0.134389654701891, -0.1845978664116005, 0.27802741079781207, 0.22554746672153683, 0.18038181592415362, 0.06977719540236427, -0.23921691167211717, 0.13095308091099125, 0.06117949976168174, 0.10086225751571601, -0.14746592550542204, 0.2132650243318346], [-0.045897059621741954, -0.2609914500286391, 0.14872197726968533, 0.0033566295756885522, 0.08087024847167718, 0.0004213555724612017, 0.2628469412705484, -0.04617958978434081, -0.1181749791835299, 0.22566960329976465, 0.05535153488875261, -0.1469861197848656, -0.039700816895259866, -0.17665688274575764, 0.24206084096859315, -0.13972839374221452, -0.2007618110634921, 0.07893605327470371, 0.0020834293267668613, 0.17559487280065128, -0.24751452595348716, 0.17995130060701248, -0.014486552153470389, 0.07747518922873087, 0.03452121767196087, 0.08476713551388443, -0.2565550506811045, 0.1751806570085595, -0.10410135338763937, -0.07033102981736597, 0.022868469576368677, 0.03652423152079959, -0.23300803501684095, 0.24755834925945652, -0.24643256330128177, -0.04257066266136658, -0.21528754615650908, 0.13213230182302727, 0.2089894862142211, -0.17174327420726349, -0.2603751718399277, 0.08459107161289703, 0.22225582948775785, 0.12047357055579022, 0.19323541494494773, 0.11733841066207717, 0.2275629388163783, -0.218683682298847, 0.08244269793657938, -0.05557826047746725, 0.20833891541841637, 0.06384558752375602, -0.029968893548598358, 0.16014876867462907, -0.0075137382636363825, -0.162362444300841], [0.05346029534146513, -0.14089562509714496, -0.11188904799015222, -0.17266812673315024, 0.21377926015703166, -0.13508348907281345, -0.032711583138162977, 0.08169656383393388, 0.160996154072866, 0.20167473025117108, -0.00866257270672399, 0.1060950016243611, -0.15506227836212272, 0.2246750330021662, -0.14636552555319768, 0.023271410853007275, 0.16988022951511486, -0.24209829607821956, -0.20485201800529984, 0.072529577347332, 0.2000005412450944, -0.2631614092823825, 0.1642943242533889, -0.1772348221977149, 0.17860508770479352, -0.20582999053834308, -0.11325052786446149, -0.01231805891543705, -0.157999895870179, 0.016758639617704553, -0.14231328382440966, 0.0674045781387401, -0.03431580497420831, 0.059724955159035364, -0.06882686589471136, 0.08204481967231403, -0.24146760637797357, 0.2714678010677194, 0.1323209601209711, 0.1486812553790327, 0.20390216009944007, 0.19678667823556292, -0.10976790434100502, 0.004856724766571523, 0.21105814163313913, 0.1808496916112294, 0.01411405552798284, 0.030454855659667875, 0.1405115368085597, -0.11515535528184359, -0.2311079276125005, -0.2512461766003382, -0.07200301012080007, 0.0058034529203833205, -0.09616710154306371, -0.28047904656165396], [0.15280963562651545, -0.21493320486556305, 0.16370571879522977, 0.2219633991825466, 0.11699397852494581, -0.06928261906578069, -0.05985852975675563, 0.2697761153046488, 0.052061690382412554, 0.1846812583087965, -0.2048917226077453, 0.20292008160561503, -0.1384333575721469, -0.08109896404915352, 0.09207350581921926, -0.013058450705619463, -0.09369052476449201, 0.015301960613479555, -0.1228409290901136, 0.1787418982890009, 0.03617446301924837, 0.11351633392373496, -0.07848904194856976, 0.03802656620808522, -0.012869346313069373, 0.008676381194768119, -0.12302517683452341, -0.06592307775344942, -0.2682973299646798, -0.09848983117775031, 0.0129315356685561, -0.11795252471173175, 0.2099395569455114, 0.16577768615180455, 0.09559493906346402, -0.20771841935571836, -0.1865327534927374, 0.1883821136719743, -0.2019624283647211, -0.26000905647746336, 0.0920987400053092, -0.2318184605285026, -0.04338767961944204, 0.011877736232560925, -0.21908371362715526, -0.052743013752544934, 0.25176538535847737, -0.24952780555788992, 0.22718275406923782, -0.11606731845189154, -0.21370092533818574, -0.02040131002411477, 0.2663407096298594, -0.1653133270358665, 0.1080168304603708, 0.03423336165253389], [-0.19006386519371216, 0.09011317911512304, 0.1914374907353877, -0.041728327906146605, -0.10198269443103894, -0.1041607530611128, 0.20323041306188094, 0.21336310096515287, 0.180822320779402, 0.1332315600615984, -0.11607071155283769, 0.24174469252915332, 0.2363632033867513, 0.2620004612955703, 0.07062526178293349, -0.1991710996327176, 0.14900272649504517, 0.2318165717908733, 0.10466398205009163, 0.1419318609210773, 0.012486434312362744, -0.0683705818880666, 0.010979764656034669, -0.2678538458972421, -0.04403944304574702, 0.07785698661781099, 0.13718955429809776, -0.15513884673978817, 0.019427637709470418, -0.20060893350529838, -0.21131682101524, 0.0578504336629595, 0.26557689534401174, 0.22070057978045685, -0.07512120535933951, 0.04422211956675305, -0.1619030920001979, 0.25856146295176025, 0.19378770776128226, 0.1973566897951279, -0.06702799552946068, -0.24692659597105493, -0.011657123177996897, -0.016389418871452253, -0.21406229600927681, 0.12631958176505279, -0.03012815700099762, 0.018717236051583243, 0.21423141520152633, -0.03540908175729701, -0.12557434644332716, -0.04422929857457923, 0.2383327439585909, 0.07177478225050896, 0.014979177851226802, -0.25117778950246694], [-0.067127669826398, -0.07784676736968513, -0.11960699381836704, 0.25333635832558277, -0.014027769178759253, 0.04531171026212688, -0.03296721794583829, -0.26073846367415643, 0.10792175551724942, 0.08993595005077737, -0.04826701307599787, -0.037694678315874, 0.009088950381158034, 0.24329254202639894, 0.09284747274052907, -0.25662199063821706, 0.09861182847371236, -0.13605467878333424, -0.09995413868879341, -0.07669219746133896, -0.17223402039398178, -0.21868229131721756, -0.1640748482596306, 0.1286529750034227, -0.09198290474892895, -0.09185278105804418, -0.2202621421572163, -0.10761974195839352, -0.2088328233857729, -0.15614282214344177, 0.20980676859023945, 0.04707906979517612, -0.0841925425272288, -0.0875696875201791, -0.19044048379019624, -0.20578491267669555, -0.221985316819549, 0.1335042302631823, 0.09439621802011466, -0.1151258061785689, 0.1913852487365334, 0.1105569522170064, 0.0035767639296923615, -0.08599063611298466, 0.11448190321978091, -0.16863478322921627, -0.12684156981837716, 0.10266769047610874, -0.10123249496774342, -0.23321040227431133, -0.04085053770562597, 0.07160566590075357, -0.22910485926424706, 0.04663526729309575, -0.23954708483141374, 0.030202870718156027], [0.021907141668984775, 0.07619600628986162, 0.21677323916548485, 0.21326042227585157, -0.20756968135854506, 0.12474230147701537, -0.1396017334895117, -0.18099588172892034, 0.24424857329711003, -0.13681867189025543, -0.19328503902863303, -0.17822087972165135, 0.050343207657830125, -0.0682405431701388, 0.1193866941281802, 0.016927379836400414, -0.047822374930226674, -0.1196770131997606, -0.13559471651510466, 0.10581235537442302, -0.17101512117890694, -0.1834093073506017, -0.11599851052766971, -0.20924188419635759, 0.05053583527966743, 0.1904937254294653, 0.02071174074477483, 0.08408387703793829, 0.1608717682860581, -0.1647185322028145, 0.07985935032027208, 0.003194479701604691, 0.2377430244573261, 0.06762464513714828, 0.17072926844011332, 0.14842240250872873, -0.09178481043992323, 0.1667965933039411, 0.07135529687211262, -0.04789976864127102, 0.21021934545495508, 0.25703205414624497, 0.03608992412548523, 0.0870708253015049, 0.15576623169987786, 0.19675046181060923, 0.030093009286254746, -0.03309949154639086, 0.2576233980351976, -0.014739767764673173, 0.22612814109301765, 0.055002859237294977, -0.21507998262479378, -0.11582519066855546, 0.2670114324875311, 0.10050220471295779], [0.11846796365224999, 0.016997257284487477, 0.020915894016884373, -0.19825829964653774, 0.18016660696407316, -0.2464986633030925, -0.013740776529131637, 0.1526055318612436, 0.2135734585295883, 0.1761357857387369, -0.0035230007823109366, 0.015180609322447192, -0.23955307001165513, -0.1809797816072795, -0.18522859729525637, -0.21076380648378434, -0.25357586707834184, 0.047276841466534436, 0.19287964975840105, 0.10440577106243815, -0.19545276647833992, 0.17777437265083745, 0.19225203183660738, -0.09802460394954979, 0.2509331950393304, -0.08565314642600719, -0.1807389888749013, 0.21454600651743766, -0.23052517532053146, 0.23805577345403106, 0.026553908677401872, -0.05988824899234871, 0.014848834062057115, 0.08799741804274841, -0.1391760127362743, -0.16417591345498794, -0.07013884494040087, -0.05886250988842015, 0.09004225981965691, 0.1392084418600003, 0.13283901658682007, -0.15194783666429124, 0.1019277920042348, -0.16128976509975995, -0.21569033063345683, 0.16923001658473713, -0.043695777585935874, 0.052366074119177486, 0.1533326552145199, -0.10574796285273236, -0.050145772727863, 0.20540566713748987, -0.2657248088612891, -0.03813657935044246, 0.05756575082015292, -0.018327872037968207], [-0.12430928393642318, 0.13143370448120328, -0.10182883291934858, -0.03477651997823236, 0.07896139614101855, 0.2285957181847204, 0.1876934865392373, 0.22607661630404446, -0.16954451610710392, -0.14401199294915598, 0.2214892253879277, -0.039138355925070506, -0.021629049648266757, 0.03635190879587219, 0.089844070641806, 0.24354661172013525, -0.14219466494851907, 0.04546048528311403, -0.1605881318758146, -0.12498446925314208, 0.17009257865976168, 0.11718243280728446, 0.06116590216613854, -0.10659557899221758, 0.22737942096391967, 0.2533624157441339, 0.042523655265387594, 0.2036354058306562, -0.047112583041885536, 0.20799392156101537, -0.18793313670688444, -0.1515232687306481, -0.23188030426534711, 0.08402972994193009, -0.1074877624678707, 0.23622702200804002, 0.17217093954559448, -0.09345898449573611, 0.1099712272555759, -0.18064498395542578, -0.12048719038353542, -0.04009448278919353, -0.15838689258952127, 0.19141695207432768, -0.26702130847900296, 0.03660614416298419, 0.10724248232839234, -0.0017908148202132046, -0.0014260449311059853, -0.20768881610990114, -0.02972551464783696, 0.05843978340408368, -0.10347658736337764, 0.16540630569795983, 0.1315772411639276, 0.2232168505191489], [0.2614300067076558, -0.20729535492753107, 0.18297277591866873, 0.2059188027866828, -0.16189816009674374, -0.24845749366115027, -0.19160587638300353, -0.18349481614638602, -0.017051073304171993, -0.2432146370212965, 0.14175621780224212, 0.008862935250973425, 0.24305091539380297, -0.17890759062428857, -0.2600620023093267, -0.12049317819753899, 0.05338448302399329, -0.18995329181952786, 0.025217035781363806, 0.16812452965315255, 0.24759535415795264, -0.17304244467264251, 0.18836743554905333, -0.1548617030663113, 0.06324702661904147, -0.0007672600748804825, 0.1635716615947308, 0.12264846251041012, -0.11417376991710934, 0.027362439779495595, -0.1259842876219495, 0.09577911190128618, 0.14599909532734423, -0.08500465825058551, 0.14469372781368056, 0.06703926149109002, 0.01376613195500076, 0.1839466562614313, 0.15750044641618738, -0.1053675496115895, 0.05538987804924217, 0.1935303155567954, -0.06880148668234093, 0.00767459936680126, 0.2521170423377552, -0.25291887818284664, -0.234806988253369, -0.018457417245840158, -0.17153215980958977, -0.2334960270231043, -0.17166155855501716, 0.24634820304260763, -0.06179930346596077, -0.16684370736394388, 0.07255818853477625, -0.0978360384498419], [0.1783936452523684, 0.26196043328514695, 0.03519177632257847, 0.11679034437042796, -0.08135474991217378, -0.2176421991561946, -0.13360673890686464, -0.1965341321323169, 0.1239779571583644, 0.21103361715430036, 0.21648167281641245, 0.129529146859566, -0.03808500616943622, -0.01739799654097121, 0.036645904055360445, -0.12943445362608608, 0.09559168587099376, -0.033742494290643105, -0.2626308913172236, -0.05043311405483175, -0.16742708550800176, -0.14137360777901944, -0.04357332467993874, 0.1080691082572694, 0.17016266817679204, 0.05682583102335692, 0.008880468813862563, 0.24676349130951047, -0.002759208872079477, -0.07677491052696941, -0.2181355003565404, 0.004445039355569058, -0.2372532298131698, 0.03891058061839847, -0.12095595429020939, -0.2001605559411032, -0.23618242452786894, 0.2346569508372759, 0.1568065066714514, -0.23545395883886275, 0.07859675491442408, -0.10972532418328082, 0.2134242690478403, 0.22705434294621057, -0.0035074084010850437, 0.08047061980699416, -0.1433748712864768, 0.022102703890091335, 0.21160358411444807, 0.025672756399711172, 0.04216995638603338, 0.2645742796543571, 0.026218824448357547, -0.19137776891425856, -0.05572029697588529, -0.1641793900898429], [-0.16598610590960222, -0.22315575193061668, -0.21195592294235666, 0.16839436576914846, 0.2559649468449293, -0.07702875319621133, -0.19483000340697498, -0.012006810548628344, 0.19512442517512268, 0.21841389162785135, 0.13393462887148322, 0.1295527828341212, 0.022090254840801737, 0.18031642961300903, 0.16124674113437698, -0.20193863204112852, -0.20536501779576097, 0.17747397878862553, 0.18262465429368718, 0.07297092378285064, 0.23498062475216264, 0.04467847477272113, 0.26480570566229367, -0.029616163073607954, 0.2118690578300999, -0.14418752511587068, -0.20918901864461664, -0.15232179520631722, 0.1450582360098262, 0.1281530540947265, 0.22344553020938684, 0.23673233751372158, 0.09093456000816458, 0.1045309275610723, -0.17480713798558853, -0.12170290446700777, 0.09400856337340263, 0.24288676021617317, 0.06775029292119095, 0.2384080875476534, 0.10112057605090968, -0.2217783344008364, 0.11525452869160441, -0.2204106418384671, 0.03285500296173588, -0.09390904727468224, -0.22913410474566548, -0.014377906008543329, 0.01876010060836719, -0.11456275055734486, 0.23445574207419695, 0.11935487309232967, -0.11721694467679916, 0.11619118637846032, -0.19062276684652868, 0.02700773712470228], [-0.19475562427935295, -0.22176356452770246, 0.1928148763028057, 0.09996345464325035, 0.25261850711337275, -0.2099783378025259, -0.1747076213676222, 0.0951851699117009, 0.2404009309160744, -0.19683603674734262, -0.016991994791569487, -0.003925899776048403, 0.013510128797837084, -0.2146902038660868, -0.07656246749917117, -0.04938468809861632, -0.2560959520443402, 0.19135790577348882, -0.23641547840428223, -0.11762628897529365, 0.2496841730874484, 0.14000231681048525, 0.21876846088081287, 0.2662901114968709, 0.1542822146399086, 0.24967496463831806, 0.15601942475500197, 0.055687651318624576, 0.21665414113508658, -0.008668008775568226, 0.2589435879181008, 0.23215666905671867, 0.10347512207621362, 0.0669575152040559, -0.05348840221755477, -0.012948010241750851, 0.019278449736814862, 0.12763825135756923, 0.03796221736803845, -0.24816742819216744, -0.09027386222948167, -0.1223324362891785, 0.18980179382966572, 0.002127705853863404, -0.10995357989208598, -0.1640068963056063, -0.14513417930362005, 0.23746489649169134, 0.20345961250860173, -0.02835401753593697, -0.09134423954422685, -0.15397516184974497, -0.0954928952757545, -0.09224152556673718, 0.13522293282664272, -0.1345803233078628], [-0.038262667540190365, -0.24039488335811499, -0.1750327394098769, 0.024331761682314157, -0.19699388429535394, -0.06554524568450812, -0.21693421495515935, 0.02982813205594348, 0.11817165871321167, 0.16157651899839343, 0.24185993993834387, -0.24572259278966696, -0.1699889657785161, 0.08404338393442579, 0.19809490714752598, -0.1521465399469764, -0.11161777930887218, 0.24390969656126482, 0.2168456368312756, -0.08108290154550674, -0.09188291240516672, -0.16440089121448068, -0.04151521247075102, -0.245492435279406, 0.16196054430472384, 0.22329868517989143, -0.24951856520898164, 0.032774076105364314, -0.16217252439075297, 0.08022602013115926, -0.0869587703571856, 0.2588274584137491, 0.017933604153678562, 0.029988684672380972, 0.20242330888359078, -0.23484998350068254, -0.09886814067511115, 0.23693225783046012, 0.07535937268215992, -0.1938639728463793, -0.14335996653074842, 0.14111713332358577, -0.09064223513135158, 0.19299763965439154, -0.1879189799553735, -0.26378824950190455, 0.18333827443103695, 0.04209683489111399, 0.07762735433037349, -0.25114837811808494, -0.10473409246512747, -0.14720290457611274, 0.14784355825723888, 0.26267014644724684, -0.08437864462201289, -0.2210164519334283], [-0.12846837799864855, -0.03149617509618882, -0.17131153848803898, -0.10307970128457966, -0.24006918317972584, -0.17580010805255153, -0.005222601944447847, -0.12660450196803863, 0.09166444980161437, -0.09964011074780982, -0.18685546844928272, -0.20783544440874524, -0.0014792040377932802, -0.18196847607876165, -0.17727423697258762, 0.14098804653933428, 0.08453014000517006, 0.14047603357161653, -0.08781732464813427, -0.26536832659825166, 0.13198844495388418, -0.0024959194597909407, 0.09156707052034968, -0.22514978895610818, 0.04867824124767417, 0.2013875544242298, 0.1906895188490133, 0.11291168084448011, -0.26079890243071624, -0.25029998421118327, 0.12884998615708143, 0.01149267702988821, -0.01820329436304588, 0.20731048009716418, -0.24700098007721794, -0.057825680440409755, -0.18606281996348173, -0.02202131227521495, 0.12547209771098894, -0.18872089148805715, 0.2332126684425786, -0.2408828215266816, 0.15147242848154152, 0.03542837012793576, -0.2025337091289291, -0.21023354310040807, 0.11096751893730711, 0.252080460954611, 0.20422376692681865, 0.11262933504797518, 0.20260313789436135, 0.12323089182577812, 0.04574796874066511, 0.15868603997861458, 0.14435638672321877, 0.11388965492639197], [-0.20295562047460472, 0.07227522309737605, -0.06651051763900828, -0.09063026661065812, 0.06619780801579245, 0.08286925859734506, 0.020041724005843586, 0.03297471014067721, 0.19706307372768977, -0.15772871610907802, -0.12920839532169018, -0.12959768994055643, 0.12045108594735998, 0.09678690763422498, -0.2559715752630063, -0.22476753898872637, -0.21837664180245847, -0.2347263737545526, -0.14175278669709862, 0.2633266228813782, -0.13146235777888413, 0.024248727157535677, 0.13972693728603236, -0.07366515910668131, 0.24716444716348218, -0.23157760184736298, -0.2374403889173342, 0.17398875327997804, 0.09554801974398253, 0.07230394215779501, 0.007854704666072021, 0.22702260189988305, -0.25126506805691984, 0.15624382560876354, -0.02825467099518883, 0.11913436195838073, -0.05400468247689849, -0.202974304449285, -0.20799794908874245, 0.06734457261845295, -0.01823572253647579, 0.06475001907446815, -0.1330464392379638, -0.1808440512107764, 0.05456879749317234, 0.12141728860183537, 0.14382859161848033, 0.2643434127408216, 0.07125545614231932, -0.19400730655385667, -0.11907897072324325, 0.16332992521253137, -0.25236990922006136, 0.057069635011044784, 0.080596808943102, -0.16205640482334227], [0.0488018670832851, -0.13055302503527286, 0.24474026697648388, -0.17752535386912413, 0.06943124232291714, 0.2001683428368427, 0.18672855417941475, -0.06569276198146481, 0.08521343258063685, -0.23223732606838757, -0.04247467713614769, -0.13234983452955978, -0.2488737204333763, -0.1141383175396227, -0.1317014305758044, -0.19391729517198292, 0.15054871564628786, 0.22168339530337905, 0.19187568764098167, 0.14682422510103998, 0.1814696739894922, 0.054729023427774304, 0.010228356623693036, -0.04550021339525981, -0.09141660126635232, 0.2379666727698435, 0.14164357433154412, -0.043092556397448606, -0.26387734057825757, 0.21952364872662317, 0.15422554960605023, -0.223411141723922, 0.09002379757625179, 0.05927625077328158, -0.15355511986803416, -0.15727394905569192, 0.21438946628536665, 0.19893242605114886, 0.12540544002061604, 0.04935822363281278, 0.031674889023043884, -0.07036557406904387, 0.025332273946278905, -0.1478406894481093, 0.10006380246755481, 0.22699637821265384, 0.01623801455121049, 0.20807206922749988, -0.0302451058920144, 0.1570331946114641, 0.04634051105244852, 0.1723293217813906, -0.20139573931074767, 0.2070478944352398, 0.07698230335565381, -0.030731075324053864], [0.047143103301489186, -0.1866163235311011, 0.11672656795932285, -0.0316850068745248, 0.18658977011742067, 0.208008884508958, -0.0022201311404108637, 0.11675740166090681, 0.12386039779715113, -0.1053853604307115, -0.04389425518483883, -0.21114902088636334, 0.2026505399414094, -0.02447272427397143, -0.12245929020374052, 0.16399422307481298, 0.15996281594055983, 0.09292351727906661, -0.10429783417339517, 0.21233984964357328, 0.046377274570926164, 0.2588099637282312, 0.23513235643003183, -0.16049709286663733, 0.1852899952197734, 0.19691093047827107, -0.07241160754076045, -0.13461863423042864, 0.11583431608150263, 0.21255243480424563, -0.002162636275517049, -0.11936652584189095, 0.12187444348730153, -0.1556457680519353, 0.13212523633857876, 0.05891726302769018, 0.0639942642517422, 0.012869757474104238, -0.24286463004598405, 0.08770004260108583, -0.21460859317851338, -0.1502091001115119, 0.05265801153291633, 0.25940769838861255, -0.23797573177535392, -0.2528611926877507, -0.00221695822248813, 0.08525323098022142, -0.033191943566126564, 0.06925025352456488, -0.17616147796205267, -0.1575369215688326, 0.11269805435154712, -0.10189437975846927, 0.10068169265126714, -0.07278770815992214], [-0.2018602003267691, 0.22495533093025638, -0.22654094188883775, 0.26290702056164583, 0.10446993261580106, 0.21395850358862117, -0.23306268571680272, 0.04234272200993877, -0.009307859704728139, -0.07135717539253425, 0.1064978856464664, 0.24925081857323705, -0.1062829237078067, -0.17872183612989168, -0.2604529147692272, 0.0646617237121841, -0.08144182618686607, 0.23031933000707577, 0.02707468658820611, -0.2043726428415234, 0.23479541743659793, 0.025039896934241745, 0.26146709112832534, 0.04441490210738519, -0.21851216001412244, 0.24928007795671003, 0.01936195826302517, -0.25366518342113775, 0.22164173134045412, -0.1839059092525675, 0.19900735029834798, -0.044132336012970674, 0.09646836145768994, 0.21262119172639532, -0.13821545746906547, -0.14616126520909195, 0.19395671797437797, 0.15908682834469973, 0.14059240256518962, -0.2004430939575672, -0.05886839798359789, -0.06113420335287492, -0.1578687955116622, 0.21740331248181527, 0.24962229356711108, 0.09342265524278925, -0.07826214396486375, -0.08369749606820073, 0.04754104113499796, 0.14299606535785991, 0.23204516706992778, -0.2156903160890004, 0.14195961370274107, -0.13830861766134203, -0.12868097880662302, 0.25237824728999636], [-0.1932751858543287, 0.08437319070003702, -0.06194310431299227, -0.037768734962841416, -0.2521228753626154, -0.015417783408771424, 0.003920250177707307, -0.13967400050532475, 0.09575532551973992, -0.18962433669066084, -0.25039370117343956, 0.024172686912217467, -0.22626260985761018, 0.20502371886095944, 0.258510255915392, -0.06704705100797448, -0.011375581067477825, 0.09846334735326945, 0.13756512125386622, 0.1869098100775078, -0.04072890119878872, 0.08384587510010305, -0.20140930661942041, 0.09580246455223573, -0.17778506083223927, -0.013027919262562138, -0.22835898893840184, 0.22718323951174318, -0.2005408625008399, 0.1654988065404377, 0.017565074292210714, -0.10207897574247082, -0.01729553493948513, -0.14492636235564754, -0.04952381797021976, 0.16472975498296855, -0.05929359640449647, -0.05218897350988547, -0.2554243430441493, 0.02891742916092338, -0.07214168922475914, 0.1529667522114333, -0.15613387983971638, 0.13092557356049078, -0.09871844769770455, 0.0914731815373086, -0.052684927308430496, 0.095392380801545, -0.18970655494419386, -0.157425222838391, -0.1529154573212112, 0.24933514794298184, -0.10875096513938357, -0.2554916011137675, 0.12841723109900832, 0.16524577667499446], [0.1941670575261799, 0.0054827642351803485, 0.1653722570833111, 0.2219631873752675, -0.17683817915308048, 0.19175004091659026, 0.1732287295212378, -0.14790736783083916, 0.17020055018467412, -0.05173507089182161, 0.0987476750525293, 0.149159640982087, 0.19155799900214504, 0.021867262255416187, -0.24441504586375787, 0.1234295452124447, -0.23573243949169628, -0.08627499336378333, -0.0071276414633704155, 0.11691995658986404, -0.23837612124002033, 0.06656515977793437, 0.14317932073782746, 0.10138667427332576, -0.07666534115814289, -0.1591387294519499, 0.07136173388231987, -0.05729661131987643, -0.1591830920888041, -0.027410392441445136, 0.2040553135730972, 0.15326020456666, -0.01770254085905079, -0.1949155905354838, 0.01753471219277103, 0.2114925256043872, 0.047687890736603344, 0.2603202037953013, -0.06889925435865552, 0.2194156375265282, -0.22875651043423764, 0.19656183950838835, 0.22634531777092237, -0.08617540150190925, -0.03355697639929453, 0.07645446971813968, -0.21272621947912823, 0.19291274082692716, -0.0016342588761208976, 0.21696773863685798, -0.1187331884851002, -0.11209911248091436, -0.24044600009751976, -0.039383111406130794, 0.20924277536850383, -0.0908063853851781]], [[0.07318429640118293, -0.04772986432121467, -0.03854937356046512, 0.23632132148953072, -0.045269262476279465, -0.20763925092898178, -0.25875345685389145, 0.2209498571880623, 0.20917835016599085, 0.20706003821456745, -0.10383184706571569, 0.09309517930713807, -0.06406405200541204, -0.02053480551097089, -0.158061060706164, 0.23718638993323451, -0.025688274614506817, 0.0042003856713444575, 0.05430567751960631, -0.24979451795206986, -0.09487112843876229, 0.05200819886496699, 0.18615073404796362, 0.05036384397529858, -0.1061499311579931, 0.2229914516234821, 0.23783625803998612, 0.2189722749147081], [-0.09835106781611869, 0.08797944870446367, -0.13000046622597222, -0.22116523666477372, 0.0749983858530453, -0.24448171279288722, -0.11735178613767305, 0.0774606590760879, 0.21697843074150233, 0.030339818339565235, -0.05059491343642317, 0.1653255384327419, 0.11338789093775364, 0.22851849687865022, -0.0823859525408641, -0.20998485237471654, 0.14708126431886245, -0.021017892386490857, 0.14897689778763115, 0.0017843161713861663, 0.021893908407519935, -0.09858882238154595, -0.23466344122199906, 0.0429435423895492, 0.24345289241844315, 0.12504027831339057, -0.01443819225849402, -0.12861591359392036], [0.14955274751040973, 0.2455303894762193, 0.07785211870960385, 0.08788712027026169, 0.2615596802264242, -0.24614681872848534, -0.1407185493867904, 0.07480989863078968, -0.07291876134338401, 0.12270432145631154, -0.017704551225641213, 0.0389445353425974, -0.017176576411373434, 0.05231503589958597, -0.20972240504688172, -0.002252166578305359, 0.029848158574872607, -0.0031958435907808963, -0.11328561754222671, -0.17627355637376974, -0.21846959577490804, 0.1533435044313747, 0.06372564776995417, 0.019608038007441708, 0.010178322270060743, 0.2197750464841655, -0.2561177838668935, 0.18323315754101532], [-0.0969894100828416, 0.11146724924591145, 0.12773506229372733, 0.14522539190972425, 0.06724703601930992, 0.21869050760749034, -0.24164203931917638, 0.052148115173616394, 0.032820725874363244, -0.23641498293682267, -0.014535750589599716, 0.10014955680757737, -0.26626495481337537, -0.023182649121612914, 0.24389051129983544, -0.003988015976368017, 0.12127591181536802, -0.06538893795053563, -0.05388687837604457, 0.24580051029442462, 0.09441186326764356, 0.22042213471676386, -0.2083161864276144, 0.1488343136905131, 0.02259403536860559, 0.11883360208449627, -0.009023133669059324, -0.1543757831981662], [-0.23706375085828724, -0.11496625769749144, 0.10143643847994627, 0.07620825344999957, 0.11329551411489225, 0.12710289544391498, -0.1914267516475497, -0.1654192311374747, -0.2052044216978935, 0.24170161358971112, 0.21031031132995964, 0.14813696286562583, 0.1603459414988118, 0.10167289319576257, 0.08922205735741151, 0.01867964333259547, -0.13091428146618037, 0.22288765118778583, 0.08163704087537159, 0.230919991942442, -0.24652214173236053, -0.17542953598578737, 0.11281574778193282, 0.20468917841156586, -0.14694126348823355, 0.18751972765428349, 0.06962989226419421, -0.2595525777616887], [-0.18068581344184542, 0.28265563001839217, 0.14880788929201239, -0.24697140549277394, -0.02736368564121794, 0.1953823165375867, 0.10738720122735407, -0.04023564527022097, 0.25263653257796437, 0.15202173778984726, 0.06233998619709735, -0.10341730932919271, -0.11972003052993489, -0.011174906303738375, 0.19634602278310428, -0.12470187724299242, -0.03373929975409101, -0.06527242073211081, 0.21873399105629912, -0.009603344817983722, 0.0989320208222054, -0.2668714650630949, -0.23481887352022668, 0.13703352879457015, -0.02973404714422881, 0.08933106923947154, 0.02969417696893805, -0.055103766257791134], [-0.11173275843549446, -0.030623428855836576, 0.13714245144184817, -0.12838944999362958, -0.08526264852852392, -0.06408869794386858, 0.2420608393477549, -0.13549387266091475, 0.07239838667655922, -0.2504633764183801, 0.2615552913301491, 0.2504472656491602, 0.14277543848248747, -0.05803822711786133, -0.0909328966064885, -0.051765130796478265, 0.1317746217227239, 0.09654239366059397, 0.15067557292954795, -0.2193648880396235, -0.06012024407671701, -0.010623163614106892, -0.19704113214297472, 0.23397460881500598, 0.11806247400685042, -0.1713782333909507, 0.011765473202360266, 0.16611269680458218], [0.15980350212589722, -0.1279686269164675, 0.20310364859883967, -0.2680310020602822, 0.0878647467388387, -0.1434539140648784, -0.01587905033024517, -0.20249195355297805, -0.05398489341001803, 0.07217785534800403, -0.014343145141089031, 0.08088639783119383, -0.13772094636130974, -0.08985052990345804, 0.22677856020821466, 0.1696348195565536, 0.11939616543278138, 0.24673650502821434, -0.1439419895127491, -0.19815855527768028, 0.04228957179944682, -0.172183448545892, 0.24318218503758524, 0.20508209753705187, 0.2497397649035469, -0.017070517441632852, 0.059034421586240504, -0.030299492883994292], [0.0020860732222257286, 0.04898479935004737, -0.17191227734561396, 0.24860075668694664, 0.03444849648051401, -0.0013919880360740012, 0.24067891909675343, 0.2567342504514954, -0.0034939605821088264, 0.25166536273767515, -0.03015209900738902, 0.09358376792607542, 0.1766103872510861, -0.17414764586911088, 0.2225165179026849, 0.2218401156800785, -0.1661452336105652, -0.03326422345536177, 0.019479710514268337, 0.1175477496252937, -0.13081550626528443, -0.1524216797975271, 0.2381249633917811, 0.161855908859608, 0.1344628618583909, -0.1332789200064713, 0.17905970559060988, -0.15223485514314933], [0.14149601397846787, -0.17055627800602174, -0.04827039599663924, -0.1310092985126757, 0.11338514850874282, 0.08519089309655489, -0.17021215869740766, -0.25278814146342393, 0.00902244953016729, -0.22025565733298128, -0.13538173615414578, 0.004271991483631055, 0.26046120549402496, -0.2570275851665054, 0.01768002351684489, 0.11780727571462336, 0.008189375949229501, -0.027534431377857434, -0.03294971364213561, 0.1282168040329995, 0.19484062454431866, 0.1050942849181348, 0.011306496430897572, 0.10916917270230642, -0.044200704534141017, 0.09033362167898787, -0.04634389180285345, 0.11072233650539359], [-0.005354972533825287, -0.22078752437696494, 0.1335565282808192, 0.08048763330275766, 0.13800706537549196, -0.05156051481473182, 0.18775408745805094, -0.2509227950945946, -0.13689103774918288, -0.0861653698633527, 0.08186708047314106, 0.22066738649502343, 0.1392200056389163, -0.13402823363273847, -0.03667265179317657, 0.022664666765620695, -0.1834825252612306, 0.15010243884218866, 0.23523203811003834, -0.0886782380978532, 0.03823137077651581, 0.17515641781426552, 0.08969757515116467, -0.2602825617856028, -0.019995531639081743, -0.09612114655942675, -0.015651836477708243, -0.2254514006187692], [0.09970886804318797, -0.16055376182249825, -0.2053860407308077, 0.24663987885719071, 0.07444621359217463, -0.1022173706056983, 0.09549494820341364, 0.029217898845685153, -0.13326170561551212, 0.28394356201893256, -0.006658491785728138, -0.08889296260280177, -0.09180550157168618, -0.2179727613791627, 0.17096375586437376, -0.06894219861543886, 0.08316626128719352, 0.2515754222643715, -0.13337312920741168, 0.232056753816287, 0.13232213918565813, -0.052623153084435215, 0.08861365407575421, -0.23730503365465858, -0.014227814719482486, 0.17879061467080834, -0.08031053903222357, -0.2250171719846679], [0.0563121206143058, 0.07730611227616152, -0.02615627654793326, 0.15397076604844995, -0.21194229497613856, -0.13806848577770886, -0.09848684809812966, -0.10697910176115831, -0.1133655235449914, -0.22502225998121506, 0.0011303072726795982, -0.19822299986355651, 0.2341157765861723, -0.1751657302170336, 0.24245467555905495, -0.007112829121796475, -0.10802933492272063, -0.04813879814111261, 0.1327759471767116, 0.05043088647467604, -0.265558885658696, -0.0681629105206461, -0.09572003507203114, -0.10326281673145904, -0.0569740016936815, -0.13223350747321086, -0.09060888158703709, 0.10642610726085097], [-0.10145856630354094, 0.09952021765680297, 0.05833540883298387, 0.24601855854150542, -0.029132716222540822, 0.24671071049294324, 0.23262821068775458, -0.041358077727881276, -0.13810241365526538, 0.1721929949231668, -0.14853899153231143, 0.18219890077200657, 0.026045331929761162, 0.19154129349665114, 0.1299744511387997, 0.1406557743425837, -0.2382035549815954, -0.24332567082023812, 0.058214860601715365, -0.04606100665862639, 0.24154604042341532, 0.24602810048787657, 0.031234444211359236, -0.006722996605289519, -0.17690892619182394, -0.24398080934761734, -0.2545595024224128, -0.042114119323852436], [0.17434657629455774, -0.21346854833495366, 0.08453344789035386, 0.15798657901302485, -0.11815588224350362, -0.11493785458784259, 0.13744451378276118, -0.24408216351644374, 0.1648041476524229, -0.15392948319389377, 0.025436312500562885, 0.24727238448840005, 0.21634105101459072, 0.11555607193171614, -0.24059753644788665, 0.22929115028481142, 0.10552668809821095, 0.22600000686407962, -0.11664980084421551, 0.15580210710317757, 0.12663632385194373, 0.16479092895745398, 0.0402113030322529, 0.11575034653265164, -0.0993240568652747, -0.20592478879935566, -0.08568348285750502, -0.038621691683563386], [0.1981646672732118, -0.07946065375191337, -0.26670648104623657, 0.006394859876963001, -0.04901618731981902, 0.22161363077829127, 0.2092369127344343, -0.1797149103266079, 0.10400829389306024, 0.19314419345331515, -0.025662546132622643, 0.22210738898057758, 0.2193982839354834, 0.2605743993450281, -0.1522846734282191, 0.09266400620886289, -0.029651288275579724, -0.022668305714779867, -0.025073837546005742, 0.048045702231575185, 0.18677868278396137, -0.1744258884716264, -0.044592632242547725, -0.17815751914213176, 0.10051165781792798, 0.21459093799772122, 0.02897154364136594, 0.06877984207186685], [-0.08184946509886595, 0.0002898608707201378, 0.15181116751907153, -0.12990421243434128, -0.024402570899754977, 0.1472865848602759, 0.11820552901260434, -0.2257884207585875, -0.12991347040841458, -0.11557321426465499, -0.1888209007398781, -0.014310273205663249, 0.09481362072917693, 0.22681640620650959, 0.23199578938751778, 0.21071316719452038, 0.19909816975450811, -0.12754896572812474, 0.11119892186397726, 0.2251423156535919, 0.2156000777452922, -0.10804376397393989, -0.0946426722661802, 0.02523662143317502, 0.0713613927964925, -0.13409366699814773, 0.16340820766296416, 0.044298262004393796], [-0.17378475710613345, 0.15764847894681047, -0.17671917412861743, -0.06947232610363643, 0.12146859823350548, 0.01653492372664373, -0.11844056281982648, 0.11638827032025889, -0.06832420598953545, -0.15874771023687942, 0.0002307223011114301, -0.045047440815590645, 0.27650498561352366, 0.09131035929371728, 0.2293719170408337, 0.2616624865953753, -0.05328779343778944, 0.2691726127862978, 0.032194494999231806, -0.227960591028005, -0.043902959998483974, 0.03225416446153504, 0.002270347658147956, -0.08292801243953721, 0.1030521877014933, 0.02486234970992454, -0.18198049326271792, -0.04257745541459476], [0.19255767756041167, -0.007030156278002948, -0.24855491387559658, 0.23411684892770918, -0.15735609341790657, 0.1309459576597156, 0.11582397274985318, -0.2253608539180257, 0.2566638841276855, -0.18308270415670863, -0.13141615454050706, 0.10133593365691368, -0.1270214507133696, 0.1785527444016065, 0.21126169139995807, 0.24477498520391064, 0.19845990389979576, 0.1596873909047736, 0.21247654268850158, 0.06880222664594057, -0.1665679181425139, -0.19068444554412803, 0.03378001269660165, 0.12179147128410994, 0.20912451448168662, 0.08593562166053634, -0.12286868176907938, -0.10450623398104379], [0.1134351780793609, -0.1579403455138268, 0.16678894409113293, -0.13734515823767265, 0.11492281032926832, 0.11663534889437102, -0.122142500983275, 0.2150218136046361, 0.02645066422314365, -0.020097892664664177, -0.1536013302444616, 0.08982090990528191, 0.024136975472425357, -0.2570952810499131, -0.1925136730589454, -0.14377129242344874, -0.2544804861852716, 0.24965915255678184, -0.09859227076198938, -0.031529616054421, -0.24676369266455953, 0.03129994872859014, 0.2276546166648772, 0.024605460516818667, -0.15513056459677416, 0.009435899796903945, 0.26270196685174135, -0.22933078378509747], [0.09446493950543719, -0.02645738084422945, 0.0721489328846105, -0.18785322450837408, 0.03239463263187048, 0.23159461810316312, -0.08137879938944431, -0.23836660018614303, 0.24847859215796816, -0.2398747317134041, 0.07017772751398033, -0.20501900627546316, 0.2679575112077697, -0.09708612234719086, 0.006683783726402117, 0.1424570905617001, 0.2063042640370203, 0.10373520345138618, 0.13294590969130043, 0.25359598959031365, 0.012172786018132093, -0.2339934562312901, 0.17659427708141007, 0.03531528527092308, 0.0959200373357445, 0.05024130042573849, 0.2403533128944866, 0.11915007571063682], [0.1268167945001894, 0.1715378711405406, 0.17081083023512644, -0.1451149274956426, 0.10606820843186054, -0.2261136645256677, -0.11340112285228818, 0.12842114580202746, -0.12633239209530858, -0.21516739775974017, -0.2632663392532828, 0.020208218426578772, 0.004440047429884145, 0.08439544005714054, -0.06821358917840076, 0.04361618243970882, -0.1538866745692993, -0.17072142678037092, -0.10275849344083969, -0.09917398729738977, 0.24827649039475094, -0.002090083744776321, 0.19540612313681985, 0.1599854607259561, -0.02432590968634572, 0.039641897156262935, 0.10448784688693974, 0.10365868858353795], [0.03147930337379107, 0.0015110409103504807, 0.020825733686930872, -0.17570751206928492, -0.25595629688510113, -0.1856570852866616, -0.26001481714217617, -0.13315003187071855, 0.21126664447841614, -0.038144383971181965, 0.12408990091612865, -0.08309026283396295, 0.1364966300769344, 0.25880392837755245, 0.09987540013330418, -0.19789378910145788, 0.060319782074417905, -0.10627099095017264, -0.16136248424357158, 0.20221940088247342, 0.2681331041108524, 0.16405375272126652, -0.07998358665288355, 0.12544183054006902, -0.12219585963495638, 0.12269782672703988, 0.23105603410302217, 0.06840924711405595], [0.19337139911542442, -0.23899604602538857, -0.24433861639617546, -0.17783212226885012, 0.02833222963515558, 0.21136752582648194, -0.156521595344701, -0.08138090995719087, 0.0161494962794251, -0.20975221722277693, -0.1299863155244402, -0.13341075084235546, 0.2639953164795853, -0.21302699739209838, 0.065842860555304, 0.16590830515259777, -0.060744819693075575, 0.1010494273687098, -0.24437940173471628, -0.19808889019826847, 0.126716302492335, 0.021091701671623497, 0.21147458783942985, 0.02063731811198516, -0.21584046775931753, -0.1704266668090088, 0.2009150577295969, 0.08107779436532303], [-0.22673648303014182, -0.050315951617268206, -0.1211746281570653, 0.22739577790406673, 0.08237666552289696, 0.13190726310737905, 0.003203799248318817, -0.06007411340967486, -0.016108241022757763, 0.11612591928194606, -0.19381488637694871, -0.19393247097800592, -0.07968200426978306, -0.21956085032795086, 0.24767769556001692, -0.13586158414124536, -0.22972323652553378, 0.06218950409352613, -0.01212323828514278, 0.24962266784844958, 0.14183791138534968, 0.1285593888234373, 0.003283702676645739, 0.07551734504059908, 0.028645035251488482, -0.14046196677952907, -0.22727446594511236, -0.03267069064476511], [-0.08395439873639615, 0.19004671350624722, 0.09130689901125327, 0.03266798603710354, -0.12646270496586806, 0.26254646447919294, 0.2653430623812655, -0.0846431843389309, 0.22730046681757565, 0.11732271655908408, -0.1361852938215229, -0.16149382054148023, -0.06565115605573064, 0.26028376585553376, 0.07820874186198778, 0.23429436029083492, 0.24154614814461517, 0.0027496451798601413, 0.17924109904746477, -0.00833456846609609, 0.2581173095857259, -0.07277915637547126, 0.148054068894812, -0.02877841137292858, -0.11011793742653272, -0.12629977752213062, -0.16992553964750512, 0.09245227359940848], [0.24116539178980545, 0.17163807695905972, -0.2594812292629825, -0.2352732914292702, 0.06640770399066748, -0.08935058629867913, -0.2525957478168381, 0.2461611456292304, -0.1959660999753484, 0.20792505278747142, 0.11911247839233402, 0.03580343092149274, -0.2190809949241704, 0.1287059256621615, -0.22976781556075637, -0.1647160856877432, 0.1207668758363944, 0.08087377543957724, 0.11929567814458392, 0.22214276825626877, 0.1601238748159652, 0.02724784369299943, -0.11841185384725664, -0.06291811946866313, -0.03682645552897568, 0.07882260963006288, -0.034216145837899066, 0.2373385460961195], [-0.20091317009731893, 0.11617690442879086, -0.20716232827913586, -0.1389807374031592, 0.09703059797546087, -0.09222605474151341, -0.0049308990715534184, -0.20112045556205205, -0.2305038584420164, -0.1814432883613675, 0.11130881021824757, -0.13735747147858618, -0.002575189085850249, 0.19584917974700786, -0.07139014222492608, 0.17381621817426657, -0.15161401820567397, -0.21398959667635628, -0.045336150597947204, -0.15179076776472492, -0.21651302966992553, 0.19492809109190576, -0.21136158488921525, -0.2076790540344243, 0.00439590195605305, -0.20949766595509053, 0.19520264477849386, 0.08738547595912374], [0.25796664512159845, 0.16075303636853583, -0.17730379354236336, -0.12750445279512748, 0.17248920509254856, 0.16364712495478137, 0.09296289519844753, -0.0661390471183789, -0.25165042751052547, -0.14628111749718994, 0.15212908582492085, 0.14784631731729492, 0.05348105327117759, 0.14831525420209732, -0.1994060580329496, 0.1064664182808202, -0.025249400356030155, -0.11615135314036103, 0.11294844916170967, -0.052038613427993256, 0.14273311050850987, -0.09503981223815902, -0.10414767657748439, -0.15201722455904312, -0.2073315997699519, 0.08239134059190639, 0.22445266019105004, 0.2046739614428229], [0.11244934273989643, -0.08176121988949711, -0.1335646734330458, 0.23302380071958512, -0.0426962172105792, -0.1317057004960436, -0.20112767080699048, 0.22660680515148685, 0.20423027650644346, -0.15543403247646595, -0.10008990638882478, -0.18629438525209763, 0.2419930902298923, -0.17105327317530816, -0.216347424962934, -0.060236433879348864, -0.07577206712798382, -0.14480541337322123, -0.15900602196935337, -0.19970736785977264, -0.19971287025108506, -0.20364757032095424, 0.04507222123479465, -0.04401042400412006, -0.08395198632703432, 0.25483673219289993, 0.26588180670971967, -0.20598144537563737], [0.2531969193728115, 0.0634177558772246, 0.19345386097070472, 0.06452713437458348, 0.033413557706178154, 0.25134080043650525, -0.2667081513188348, -0.26359735908219645, 0.11019626535396627, -0.18129015764549558, -0.18550548216967033, -0.10290050467178438, -0.07291117670635656, 0.20334257717997667, 0.19279170300150192, 0.20372681244780408, -0.03953840072679912, 0.015075575410592025, 0.08792124144075406, -0.0936741991043084, -0.0762087621019827, -0.24292620140795135, -0.26038033648134035, -0.15746954065928698, -0.15458887667271087, -0.015762953459317608, -0.07068777564941402, 0.161512272933532], [0.2186952731714337, -0.1974416227418176, -0.09634165842709728, 0.07154177760540512, -0.09869434214329412, -0.24121707885663926, 0.11355780805757015, 0.026028613488625896, 0.18095424968157262, 0.1840052061407195, 0.19428326078551106, -0.16975923948906368, -0.022665251270789565, 0.04959185597704455, 0.060578575394980905, -0.07364590109396635, 0.1934588119622358, 0.1956859128422211, 0.08305414762439058, -0.04670289633331771, 0.05688241773044106, -0.10165813066578398, -0.11793813506128259, 0.18131417628480734, 0.24158825542229356, 0.14032538617367335, 0.020847647401545988, 0.2506721973279962], [0.2771468153006397, -0.1300741667549802, -0.25249615113400026, 0.042255464771958066, -0.1329454456273985, -0.14863993983575227, -0.06273422404563192, -0.009237799579552286, -0.21578438822831728, 0.12536582418557918, -0.1885888131910035, -0.2042738012766609, 0.08373647966802206, -0.17154307591448967, -0.20548812276607684, 0.230937970117087, 0.17849295579324836, 0.28401608126828354, -0.07978535089789544, 0.05127229158404203, -0.21795041572681575, 0.1425593204136892, -0.004109094111418695, -0.041748593569821725, 0.2460014375938908, 0.20146759269965359, -0.15933356342006388, -0.13939010246561348], [-0.2520943691851814, -0.2564186515728606, -0.2142088721368082, 0.13226807914062513, 0.11098886858474144, 0.18001555768966115, 0.01725177144613993, -0.16401474279739003, 0.15672858692002517, 0.04800645729643767, 0.20802775254064704, -0.20818000605542428, 0.016752071830036186, 0.0872133715982637, -0.0933593825635484, 0.0554598286382485, -0.1711380809007368, 0.15540911951095698, 0.1223004471159398, -0.05784926270578031, 0.056731425235221074, 0.2172225912766471, -0.02824121212920364, -0.055082629361583736, -0.1011639871623871, -0.12259180191051978, -0.04568168142385157, -0.09529876994765328], [-0.1511062982693302, 0.11429411656592954, 0.10912158066060407, -0.20547995692466914, 0.140316473829542, 0.15764725597984564, -0.10414975947910535, -0.1668918676523475, 0.15717999988132378, 0.08247924213480011, 0.14358388858844512, -0.0657973756653952, -0.048490551208481336, -0.18668502996226505, 0.10526025172943486, 0.05800653092606232, -0.2578532290225774, -0.19063826981699575, 0.14744336665097896, 0.18298485546970808, -0.23152324449158002, -0.1151872398523342, -0.15132110154256337, -0.08086124915423343, -0.18558164764014787, 0.23467197150847233, -0.09491504542721889, 0.02200280255677907], [-0.16950785774039162, -0.04715743425890767, 0.0806439008930429, -0.1516637307798164, 0.16945902824095094, 0.1033576793547219, -0.09416968781691168, 0.18806025502649487, 0.1510009974666749, 0.26982499493700446, -0.2088980629977146, -0.21755828400895647, -0.07881769753006507, -0.14820885601253722, 0.24353030336755307, 0.060432171409469805, 0.03170434708113273, -0.19544119371416177, 0.11378930642806352, 0.07500308281251253, 0.2674763368890712, 0.22180905405781368, 0.24512245057487558, 0.084403395170628, -0.050493944826247056, 0.1346576641805955, -0.2573063504352758, 0.27235766380874327], [0.13162245548840937, -0.24208215289238266, 0.10417397945462842, 0.25123623459191846, 0.04790991206448214, -0.1455252761528473, 0.1477150384006526, -0.23800408245234134, 0.24677939718796205, -0.11786626863865492, -0.22949159675985303, -0.153575329187357, -0.04089561987122621, 0.1742768854422465, 0.16270246523982715, 0.19251116426069745, 0.25430413901531346, -0.13122179326806338, -0.04050172243188025, 0.2638091342149768, -0.1673948097273553, -0.20870131828233973, 0.04588856360388871, -0.07045430902980235, -0.13071844457509715, -0.11018878836972479, -0.12222997429738569, 0.14412616986139304], [-0.07965834805311534, -0.1983492659150528, 0.029371670910494987, 0.1724219134340786, -0.26188729440492603, 0.09520900908719487, -0.05811370931547302, -0.06433110258393607, 0.08436314177943953, 0.2655591692219639, -0.0386447533998355, -0.017734174836303213, -0.14550278680658002, 0.12260324201235193, 0.28137585004888854, -0.09278969912670867, -0.26306492490359706, -0.06981950830198108, 0.05825462436644493, 0.007507731824066358, 0.04481405098630251, -0.09709142687909399, -0.2500218870199811, 0.01351237429629854, -0.02332457537931998, -0.008072993332126018, 0.10541999948052183, 0.13518031868573957], [0.19949136259263242, -0.021335187313592366, 0.15889096171221273, 0.08116406562096039, -0.04990530236974622, 0.07960131062643808, -0.06716450584131717, -0.19416225275144627, 0.24004980817005914, 0.12170636523502057, -0.21522431603859382, -0.05553953335749512, 0.0685982617591391, -0.09757545573784732, -0.16444803941864441, 0.09147511168932404, -0.25675380963409067, -0.15552590201073785, 0.04938367481099361, -0.12712263611107022, 0.0860925207618604, -0.26094538176857884, 0.011303703038836821, -0.2662302514163952, -0.23206692297277387, 0.1837687210262382, -0.16280047841234271, 0.21838716132382616], [-0.14058787424119162, 0.23353365389319983, -0.24673107786904142, -0.14014922835946803, -0.24601005622112354, -0.13476603069647025, -0.2485491447703161, 0.2546330228856827, 0.22472683854717093, -0.03673550282311911, -0.17665309684810176, 0.2468665160725465, 0.07518177922569022, -0.04191000562089467, 0.19064685345902932, 0.2257455303060499, -0.18717545780232364, -0.2605889033175589, -0.13925643141755353, -0.07996182006736689, 0.24301495366467937, 0.05013271673328193, -0.17726218414182845, 0.21667165785545392, -0.24802322528373272, 0.13603081524475868, -0.12373089128283657, -0.14233761309756662], [-0.17479711986251195, -0.15238907292019338, -0.045569939781093784, 0.11581278676444932, -0.03990371081888852, 0.07966887656764793, -0.08393606961694161, 0.09376435571603303, 0.030750443831896578, 0.2693883654257378, -0.015037573386876057, 0.10418925627959419, -0.11383671663563691, 0.2656055957828374, 0.06094809173272451, -0.04432626169363845, -0.08842555875533675, -0.1945832712129527, 0.2260809791697117, -0.12268963930026429, -0.013937623433478699, 0.1664732054332345, -0.06557185506709626, -0.17240772972495164, 0.16294614165013405, -0.25094141023527844, -0.20916916268215183, 0.26889049563009243], [0.2284550192349478, 0.024070514363817973, 0.1164406615514917, 0.23844406234117496, -0.18449962492907745, 0.1954964460325141, -0.10833327277448604, 0.07022719572501211, -0.2218497594833875, 0.0646375279449352, -0.25580573436289306, -0.13865842453189864, 0.14626683053558026, -0.027577007503833302, -0.015908511324634805, -0.04033522243559266, -0.05272671092155132, 0.269684531340086, 0.25184086078567613, -0.061738022012764925, 0.10648830748543302, 0.20260574862615, -0.01536198797896804, 0.18033505523453597, -0.08922467683992191, -0.026852762589442275, 0.03403809016967131, -0.00777999174022685], [0.01258877806278322, -0.06701704402143276, 0.14452522491265257, 0.24115659911432785, -0.17685531574306373, 0.13716636356682393, 0.12834726877178032, -0.06380608948298386, -0.2656580322654292, 0.2057313768097972, 0.18681071420592749, -0.23711717286949674, 0.03654769716050923, 0.1925976065731043, -0.09450413934059634, 0.01989377532866108, -0.2221710233085678, -0.11988976907228954, 0.19389904634100422, 0.04623116801162457, -0.06792223531350558, -0.18235513609953302, -0.1703487525445927, 0.1532318764373648, 0.07394169621777424, 0.21822091748392286, -0.19461065938690222, 0.11834370244552868], [0.07134734556745342, -0.12827460162240145, 0.10470175806118098, 0.19765179543917466, 0.11635343530780429, -0.14379586901196895, 0.26625324691660857, 0.1820646358735047, -0.11761758307354125, 0.03925605646236915, -0.1918579233980152, 0.054835959153948455, -0.08564618720482953, -0.23246161444505506, -0.1367843583777169, -0.15383913308224445, -0.05884291231701691, -0.22108328404916525, 0.023541501231530353, 0.034924418095224036, -0.20558966118899202, 0.15446994250789953, 0.1657185805956709, 0.24884248769481843, 0.13318819496751144, 0.0010815433809340247, 0.12834902822903516, 0.2217336606984174], [0.2770701996895456, -0.20754440248144618, -0.05081259947136224, 0.20977266358358335, 0.04310034920181266, 0.20513180190522023, 0.1287834720786638, 0.2555520499419738, -0.12577224639442597, -0.13105481513594464, 0.22987948849987794, 0.118783167775037, 0.07004730447769225, -0.04974649544064606, 0.1479220554427083, 0.13723602819859324, 0.049308173065648, 0.014294222311386355, -0.0055170364831240645, -0.12337012334905056, 0.13614628021006212, 0.25144002149055356, 0.09549596627193507, 0.00815320213207199, -0.22039169114313661, -0.034209005480548615, -0.056283570371807645, 0.16822935420553226], [-0.1649516802611952, 0.24271603090181704, 0.20242345287407318, 0.1838129389484045, 0.18974923433398888, -0.22753477727994248, 0.03156509075738978, -0.24159165169062632, -0.26423538957326015, -0.12570700015679498, 0.06998533150838043, 0.19310780249721965, 0.18918821772669686, 0.15816932562790087, 0.10445703950491195, -0.15708046688001256, 0.22677353550516918, 0.01255487918618274, 0.2625314204211735, 0.2583617910884454, 0.16835576492862975, -0.09596078722348696, -0.17837683884064826, -0.22235905087831018, -0.09334722366927053, -0.1847844588444387, 0.11463254547538665, -0.2302290455688333], [-0.06165110859176193, 0.19220661335409472, -0.21036848601448466, 0.2181381742299479, -0.14160798672245478, 0.20288324453925177, -0.2214145794089116, 0.15516248325043763, 0.12324656700074046, -0.20840226538822526, 0.18689034164857482, -0.24928991230611217, 0.16185191969396764, 0.15615985906733704, -0.01227498489260043, 0.2802219641695782, -0.2543301848512579, 0.14864677047582983, -0.089756470777587, -0.07645257693009268, 0.12972788945827435, 0.03532220244010495, -0.22623365975786988, -0.05413258674376581, 0.2531370539601483, 0.19007318493701647, 0.26325460880413415, 0.12966963283552108], [-0.1604294797991112, 0.21115736256416517, 0.2628811732141253, 0.20831384896222105, -0.16744829850762705, -0.06380926916041019, 0.14001290798537885, -0.12604529038446874, -0.262053451794522, 0.12823362923852596, 0.02583019386271429, -0.1067703723228734, -0.06428679893532893, 0.21223782058277024, -0.01792930599395498, -0.19587105486745243, 0.19777570019299956, -0.017036450603170175, -0.06563936185700092, 0.1423097563389034, 0.04058201159732628, 0.06998330238561407, 0.2639637355917692, 0.12813263129536806, -0.20747946276589382, -0.07998480145443354, 0.11063529034966584, 0.2112507027773695], [0.25064371317147743, 0.05359918912233219, 0.14404107551796175, -0.23753448427993537, -0.08425636754042151, -0.06422198072864696, -0.04392798744568266, -0.1378972445696089, -0.21966297460726153, -0.04896518687191568, -0.14268744012927392, -0.15949005572974106, -0.2080003811203391, -0.13267572943924247, 0.05879554511823281, 0.08382064586626212, -0.012773128271336111, 0.1104955683449865, 0.1978025063727467, -0.07228401728702832, -0.047088010304364644, -0.20437332387633164, 0.09752697849575784, -0.10583764260795821, -0.07194449558214046, 0.07472089930331825, -0.05923894059174306, 0.09279544370292324], [-0.10091799974763169, 0.1865311556019039, 0.14973703564731436, 0.12303426681756816, 0.13445281829800348, -0.01657476736735617, -0.14415015535396164, 0.1867393655644108, -0.23274332901336045, -0.2276909612332136, -0.15160984188811194, 0.010898862773495555, 0.2462651030334683, -0.1346131430803013, 0.13799999150708478, -0.15035650245789936, 0.17634700414703214, -0.16999360108336473, 0.14668442231070156, 0.06663075075153103, 0.16124671158036552, -0.04272647617772676, 0.07372238579911256, -0.2486552156295732, -0.0971209969205491, -0.13790064191426674, -0.05344699489025652, -0.041210672524851416], [0.010560339262836446, 0.03762120377478867, -0.26253694588721804, -0.04395638339691355, -0.26606267521671273, -0.22576549254258496, 0.1801357765744721, -0.1900984307314778, -0.24982225269057237, -0.2293680831762614, -0.13169285554263224, 0.17654778494735696, 0.20197758511987687, 0.2052563462797254, 0.06198922115892881, -0.11126950711497074, -0.16610227194905758, 0.17987314601733118, -0.24329591347875001, 0.1954006988794037, 0.19557148071313568, 0.21927460548665378, 0.19109431199406934, -0.11121403178789713, 0.06251899275619582, -0.1278070500063521, 0.009022961157218134, 0.21111647554274113], [0.05794780364043958, 0.30110230697603624, 0.008995106323777813, 0.0475305032633127, -0.082772095698489, 0.19885856294231077, -0.10963980854971392, -0.06429498543281634, 0.17071815889368575, -0.11160906160711243, -0.19384640722357155, 0.022971022313526546, 0.24704541677673972, -0.22410361616549457, -0.0772389446761104, 0.2592067421474188, 0.040997358470635924, 0.154712898200386, -0.08833083862161424, 0.16924849907832223, 0.11919851049051595, -0.24313656618867244, -0.07479205825226026, 0.184187894784674, 0.06864012814319194, -0.25151719042596726, 0.2975310099481344, 0.15090182559731352], [-0.12387212518781615, -0.2341911048093981, -0.0571749112980694, -0.013736752520736096, -0.224690315750539, -0.010490551865789344, 0.02004051723828021, 0.06777635448442021, 0.16355800558800715, -0.0561417886835097, -0.12942005529100653, -0.20804506264632522, -0.20211493947893328, -0.026587334596677947, -0.1464478744875677, -0.1892357192176802, 0.23117272276885437, 0.19345155979499673, 0.22904249069766933, -0.259025650770438, -0.17863663453200712, -0.10269049188475271, 0.05330792294038919, -0.1433244069922742, -0.21723715721911196, -0.06468316240121769, 0.13089219533172058, 0.07166236003710713], [0.03742532984825441, 0.09975571446954383, -0.08174618991869737, -0.13128971628522199, -0.02420414549227748, 0.11852937185133328, -0.23480508001401365, -0.1605706544571781, 0.19773379834122706, 0.18972246481526703, -0.07367439152953723, 0.028677284584521845, -0.16985739847025297, -0.13435766068218968, 0.24267749760732577, -0.15682185921048838, -0.20449460037051367, -0.1674697866022109, 0.2152940437623925, 0.008907555259618897, -0.2565249751863401, -0.031063508886387176, -0.2264543289780237, 0.2327847477574937, -0.05625169487424331, -0.2321326536286909, -0.24609135047968997, -0.06982889392786366], [-0.16134806796082998, 0.14984676808758435, -0.0542643941503162, -0.13201441319271973, -0.1073623645368747, 0.22917740773070816, 0.0767273856765538, -0.08612549482295964, -0.23936425403625844, 0.02769224929303922, -0.04257084862028837, 0.05812813880487783, -0.22862278136546815, 0.0013595006794590025, 0.14035580560025868, 0.17593496383396431, -0.22554343851358685, -0.004304974950498824, 0.15424664272938826, -0.14866483137994085, -0.23228112332825254, 0.06287986657421431, -0.037718103904942034, -0.2148102561809389, -0.2452464593386821, 0.17451841713996707, -0.012251088948065703, -0.21145640088664175], [0.07172549004712023, 0.21181239138500993, -0.07084682290356173, 0.17037148154571613, -0.09068050964651073, 0.17532315577121663, -0.1861018680390013, 0.19716014964640605, 0.16343199603097494, 0.24172183605053582, -0.09166633129177515, -0.06341786747731257, 0.12654225278911677, 0.05990733503769991, -0.24052594014645948, 0.19588523991506177, 0.24412635422563783, 0.30188820072725203, -0.19171651937207496, -0.21175570699017018, -0.27011594024193325, -0.24867088574405755, -0.0759871660469465, -0.15924447208168055, 0.0837308331030745, -0.17559563941120146, -0.09471963742362655, 0.12414352756789565]], [[0.21178952757964384], [0.3502107852093222], [0.30137317439944344], [-0.05623774442504009], [-0.22447836618117506], [-0.12998620081854817], [-0.44470555802990913], [-0.08078150897260776], [-0.22620463152096287], [-0.4240383177094386], [-0.28434476602775677], [-0.4158807458964462], [0.5194306157269336], [-0.008341458994558995], [-0.4390741372493641], [0.5027324232175604], [0.008395316464915115], [0.43795063974806236], [-0.05421429905924962], [0.11911042004119421], [-0.17729309690630257], [0.054034906049344154], [-0.17606158412647857], [0.34756369616828275], [-0.4147242736588419], [-0.09549227917925508], [0.3681780502760521], [-0.16019724654837855]]], "biases": [[[0.006444089358540619, -0.003572576540729081, 0.005774468654606856, -0.012369602160669936, 0.01973626795973617, -0.018791861930312553, 0.00554339617703056, 0.0024856551186425127, 0.019932717321865814, 0.004669939358570851, 0.00549214669678925, 0.021710753824495853, 0.00974468408672534, 0.011946851950632551, 0.0002566218357567377, 0.004532937201895024, -0.004415325791961911, 0.037380090902110426, 0.004234420148417567, 0.020928333421843432, 0.02622051279945189, 0.00824718386335665, 0.0037721633635057965, 0.014385424948789687, 0.016548008932327714, -0.0025080735958227744, -0.008690267973816742, -0.0047443742078070094, 0.01014549030586275, 0.017858658789866894, -0.006779305916511332, 0.015619052274055197, 0.016376740141995888, 0.008261193319715227, -0.01640592638867661, 0.019720007042341694, -0.011800336544117959, 0.01205194057681903, -0.013194864698681228, 0.01296734687035878, 0.011871798849963115, 0.010374823499339558, -0.0195477048247966, -0.004851152047177221, -0.01709125015497344, -0.0028436223737224615, 0.030127716651230013, -0.011727525038883826, 0.005643325336406583, 0.0052480012754662275, 0.012424066450600667, 0.05040853889128556, 0.0013506704996831954, -0.030317791531946588, 0.002253717803312061, 0.03728694353374314]], [[0.026872316210481712, 0.038661865898996964, -0.02870362106573436, -0.012190239044885419, 0.0, -0.04210975393294023, 0.0, -0.0011080629759076767, -0.012207945874945409, 0.03124010764526934, 0.0, 0.0, 0.05568425154932115, -0.0010124651991073245, 0.00010724406658308802, 0.06552998081047609, 0.0001957207940083928, 0.06442623358368796, -0.00427091763821109, 0.004440066786033531, -0.0016132196939379708, -0.000272803354460723, -0.012929143183365327, -0.01768759651632796, -0.0198029511552448, -0.009885321205338157, 0.02687235068193222, -0.009002686966339641]], [[0.11933374968100377]]]}