{"layers": [28, 56, 28, 1], "learning_rate": 0.005, "weights": [[[0.042201647846457496, -0.036484016242560244, -0.07991458579674585, -0.16255816902799347, -0.06824767388164675, 0.22244653634567038, 0.03634748460658724, -0.046837038230357626, -0.12428447166810043, -0.21875132880721543, -0.07348626758636277, 0.15854091116931435, 0.19883635036724265, 0.022736493616536305, 0.054488400960009446, -0.02636224841902962, 0.17982220440094424, 0.15123662573401342, 0.13532388649222843, -0.21479172964445778, 0.2676189997660859, -0.16527662698165774, -0.2810878063209997, -0.06824605940143354, 0.003321137349674325, 0.2699783355505201, 0.20916609517883147, -0.11957628340182593, -0.13274375550815354, 0.011950139538400201, 0.1340762147256233, -0.07706881394033627, 0.28055302809901994, 0.011468144769062358, -0.22718758379866405, -0.16181122654597885, 0.1381916821252517, 0.002795414700284008, -0.24959736013940056, -0.22365118179293153, 0.1024955479490697, -0.23360998121336807, -0.010990971044782838, -0.18989826431954984, 0.025072864427098374, -0.1888865858192277, -0.017108932277036863, 0.07773708391198625, 0.04811891669463422, -0.10373491412782118, -0.26607595282246854, -0.21861674069617967, 0.12295350718310638, -0.05284899322158814, -0.040139130343112374, 0.15476929738865025], [0.07660255046037011, 0.14329274989451646, -0.07953958962956327, -0.2060099893280063, -0.21016328264230283, -0.20616093223742088, -0.06753522770556769, 0.24000737760658786, -0.2082994501030317, 0.10388217759789159, -0.06649619033681982, -0.09720567882353116, -0.019449435216430153, 0.007591868106800041, -0.037783476055614926, -0.17581102306744822, -0.2195533561758234, -0.07598954946955876, 0.03969221376766716, -0.08870605265246136, -0.011528779053622488, 0.08016082672569226, 0.22278558916297184, -0.09438429556433257, -0.1632318742245531, -0.21686364258557325, -0.2681454223696294, -0.019152245303773952, 0.013227667961133182, 0.022570354489281106, 0.11956627838752856, -0.18526125885255545, -0.2636300355848813, -0.2425177796791252, 0.2659180660551542, 0.07307597955030422, -0.089068019985736, 0.2474468838131474, -0.0776243682658412, 0.11518963523146276, -0.004366510233697239, 0.24582207070822013, -0.06774797218791251, 0.032965402288482215, 0.06120060712723757, -0.10426619382680337, -0.18453931410005034, -0.2101232823601519, 0.2621491500254671, 0.08518855192964112, -0.15603429910107178, -0.23356143669259466, 0.023284198756631406, -0.22083299571315027, 0.13916881104330786, -0.01006004926105817], [-0.22059453376641516, 0.044556645814675735, -0.004803681679747932, 0.008902578925209476, 0.08858137071805483, 0.16794596584485413, -0.06940738034223339, -0.2044289924323517, 0.005988252052760429, 0.13248049246276908, -0.2586822129073556, 0.18499981118588277, 0.23796658301364293, -0.2495226311254348, 0.14599377931526558, 0.20796817122730113, -0.027924029469136493, -0.2664386780855848, 0.20107460943700828, 0.2149212261915105, -0.06531621916348461, 0.2490219810904769, 0.1480336470292934, 0.004101152420712997, -0.1762365907339918, 0.14087421323393837, -0.17532455762518545, 0.05901264843620831, 0.2765686317707191, 0.10324757081391073, 0.23520195478187705, -0.029001050844717203, -0.1920755527291148, -0.11794822997624708, -0.031203233621545683, -0.07456390305265904, 0.06705099479599397, -0.23070229775448972, 0.08173141559859189, 0.25508598064873284, -0.037114073040247685, -0.1068070175969654, -0.12640699726553042, -0.23263838390861222, 0.10349536699875102, 0.02836515860357758, -0.18552195149787826, 0.13301461818385385, -0.026412846545965304, -0.022796554254093403, 0.21411373229036001, -0.1052723947221023, 0.17027197652525886, 0.045327301122399334, -0.14368705371110616, -0.24442168218448462], [0.1156040448525863, -0.2654697147891865, 0.09131632019855906, 0.07081923406003104, -0.16610532908456155, 0.07197903634422537, -0.07362641314340568, -0.2360126910901952, 0.09006248695800356, 0.19837488162107275, -0.14383025976478636, 0.19669833988762775, -0.024632820877442285, -0.060872667391977, 0.10455368914022051, -0.10655495362286857, 0.14911515139162435, -0.10268194074351367, -0.07741163336883311, 0.06849609142278795, -0.24828160641815225, 0.06995998871883058, 0.23439025017630122, -0.13036652381579308, 0.02604368273808233, -0.11601328592606772, -0.1326336548510834, -0.23926314937287457, 0.08313257886827424, 0.20009774605289948, 0.26385958403261645, 0.017347671211994875, 0.04636310086642975, -0.1737688439542895, -0.16957040191208828, 0.18938004603484693, 0.08549197931425345, 0.017160767186281956, -0.033373629232943375, -0.249442266986051, -0.08965346410037084, -0.09279284927312254, 0.028603355356996818, -0.040153411233237235, 0.23893589023887685, 0.00620944050339528, -0.2508863911254288, -0.19213375662437226, -0.11957743266869394, -0.21831807514581922, -0.027981079043345347, 0.19804719176252655, 0.22067001139491293, -0.05065588111765054, 0.0671225847412325, -0.1711646247763426], [0.07631316127330384, 0.24624820368538092, -0.17167104412191764, 0.12746486041268845, 0.25759276315186264, -0.18375737997218236, -0.22347850873354394, 0.12617463637516085, -0.12468709852078524, 0.1977156088642978, -0.035077316709055784, -0.1596097953818581, -0.005020895509679435, -0.0013933461098887268, -0.18264998333105142, 0.11975397561693818, -0.25650145632748467, -0.044767962122619825, 0.17893029834543245, 0.17929552498067725, -0.16578011583047952, 0.21397553620032506, -0.1554406099486349, -0.24436446040401863, 0.10008704323522577, -0.1049984200386381, 0.0884029277403856, 0.06782099948614578, 0.164997214975996, -0.009586030227784537, -0.12755817065067956, -0.2211147033549582, -0.01059622998185672, -0.1347931018420657, -0.15012435335580476, 0.1682610978413554, 0.25025753631400016, -0.2032260033527057, -0.06609196752921759, 0.1612527454799385, 0.24216539810676752, 0.2175921907663128, -0.06843697607798474, 0.1858510232796418, 0.09915811413931103, -0.18006260941658553, 0.15760503351935357, -0.23341566850211323, -0.13489835461262412, -0.05158323679756449, 0.01336752290859472, 0.06716804979292718, -0.1908106298059877, -0.023439793052142277, -0.14196786056762775, -0.019341476844931094], [-0.260879407575115, -0.22441135645043883, -0.18422597662634088, 0.0951138264172241, 0.24042452522395508, -0.10099004761166216, -0.16205418814045458, -0.1677190085402926, 0.15672566918578795, 0.266666766490984, 0.21175486390809384, 0.060028402784859214, -0.16436488600506827, 0.09292056188465941, 0.0803426298554768, -0.2443798782504448, 0.14345073188114044, 0.2432388076389771, 0.056048194782108596, -0.021052642654818682, -0.05480387961015329, -0.25336195740116096, 0.09314704167309712, 0.10801557097754111, 0.12184321248363977, -0.1837575132901918, -0.11072050238825906, 0.13476605640943468, -0.22621264391758786, -0.19992748371527236, -0.20730259049135288, -0.18145300640219642, -0.2218742031672103, 0.0004943217092553964, 0.24251927721676525, -0.14364534132879084, 0.24780056724496713, 0.1756349487057518, 0.033056922085940466, -0.17944429515456464, 0.12284911116171232, -0.22082120839584574, -0.04971968322268827, -0.23454088150593128, -0.010881074063415153, 0.2236713076967593, -0.01895392259680495, -0.11945611140580908, 0.17490231583925514, -0.25046474150714015, -0.06648367661833957, -0.10895204347397278, -0.12102988391886274, -0.16469599789705908, 0.23414473876433306, 0.10871953682876895], [0.143518814207456, 0.20875581663971432, 0.08135794239246552, 0.172216795364932, 0.17142062349419668, -0.22046261918899024, 0.19517763681830308, -0.006901535083670085, -0.12144859434092789, 0.13207401375888073, 0.005253133808353794, -0.0853542146144107, 0.15938913327255166, -0.11909507093873975, -0.1941168910429023, 0.07142132966027548, 0.130525466333137, 0.12179453825896108, 0.1270421456495342, -0.04895348438985686, -0.10921727827843769, -0.03565064847923646, -0.0025788324681410013, -0.17132782875125235, -0.24413718297935064, -0.12346453087162171, -0.17895011732370011, -0.13305076370326988, 0.13196773296996228, -0.08447599701277153, -0.00915096968270207, -0.2030560636576102, -0.07969528919296548, -0.03914072568907215, -0.14822834673316268, -0.21451416578821286, -0.07367405565973018, -0.2092404377527874, 0.10092152090708628, -0.06876350393722544, -0.006031675919950075, -0.038067636227950646, -0.16200752144111127, -0.20116765158872907, 0.07947973374235312, 0.01744913967020617, -0.16139845766816296, -0.26624196891557733, 0.231397798009095, 0.20593617949688664, -0.12972508219623827, 0.023179516445701154, -0.12886882730342217, -0.11669649500768575, -0.15220913664705155, 0.05331972493314796], [-0.23822697024420492, -0.24383193177321927, -0.09611830613458694, 0.11676917604376316, 0.11624607544419899, -0.24294587062098585, 0.05173393186568994, 0.09789617695963204, -0.10912382148006777, 0.16710572656064274, -0.03373960214150516, 0.2332155381014962, -0.19551237305438415, 0.009961258743655912, 0.1348248626385487, -0.14829933554474428, 0.20990974859608677, 0.017644437881935336, -0.15135049460243705, 0.16883404828753926, 0.1387808662357769, -0.13282014400740624, 0.04741172952267606, -0.07390825047741013, 0.0910565081787856, -0.005555985954586605, 0.1469493268483937, -0.01563198634999279, 0.11689499853093177, -0.0221352862017222, 0.07910127842887779, 0.19602338934065155, -0.08147187105670796, -0.26370176204518736, 0.23590464639626993, 0.10227835020631382, -0.0005436499963152847, -0.2568321149715838, 0.0476539820397283, -0.17792825890127517, 0.21228772552669053, 0.21481176660395343, 0.23199143904409777, -0.0932178930433354, -0.17315140331857976, 0.002565580402520536, 0.11231629960026325, 0.25939351702428337, -0.28565806404282296, -0.2293111616995567, -0.015229528103998172, 0.22713536796391587, -0.08910242045803983, -0.17807519053796375, 0.12463275891785702, 0.21974216783493816], [-0.0049111895349339685, -0.07325935181794777, 0.1433838371303005, -0.1976385559451533, 0.020170411410691258, 0.2616443078949051, 0.11909877028178195, 0.18508724211565236, -0.15363860615535263, 0.13117581191957717, -0.15476130899715695, -0.23912113005805868, -0.037326345594974414, 0.23889768443418335, -0.16475959550899844, 0.2558883576159652, 0.25094955050895285, -0.1803133200857115, 0.2449867011387804, 0.2568680070728925, -0.07220129889307211, -0.2655599498925238, 0.019804081594368583, -0.029542331250890203, 0.24847327161641664, -0.2538178211302112, -0.17189260564294184, -0.032091291237067776, -0.13853661522499452, -0.11859224073564048, 0.23026720719845195, 0.0643458530490868, -0.0008946816096985222, -0.23573834084365275, 0.032426349492689355, -0.14523443047265033, 0.14009887290896478, 0.09944496871035913, -0.22677577763037343, 0.00962881929777587, 0.13597841259319532, 0.1813614461849345, -0.1402086228450358, 0.04604025667478384, -0.06635552509964548, -0.23312314006456225, 0.022046890508204464, 0.1703558623850308, -0.18740484526924067, -0.1606663685249547, -0.19271275137306676, 0.2211050588714813, 0.26456472311471013, -0.1317068062095701, 0.18058878120242372, -0.04342348302855917], [-0.003986420687962955, 0.1892779531613859, 0.11123552739682258, -0.03648861594858299, 0.15928104350500139, -0.18092438480074557, -0.16096721086108046, -0.13926929254416326, -0.13460754812340353, -0.21166517690675307, -0.09458103996106842, 0.22567850088014801, 0.2410615789515359, -0.12626131154046577, -0.180898415096648, 0.10448758661015889, -0.16650653444954372, -0.2584530763279001, 0.23983502916751465, 0.18138156767127755, 0.24220955859632753, -0.10258622047511007, 0.23804871946491069, 0.2330732780336392, 0.15950998222786972, 0.005693530752487741, 0.15392562798324988, 0.038015388808512074, -0.25352657944617063, 0.000693816727562413, 0.12903336185614717, 0.0019987493921995725, -0.2072398898807079, 0.1781578109012758, 0.15177589784672174, -0.1723824340486496, 0.2465964557597783, -0.06982258987505546, 0.08220878938610693, 0.25034671868036285, 0.11491562070493899, -0.2528387262738124, -0.011200645940784792, 0.2197624346714961, -0.16815542162322963, 0.22721348184233758, 0.004107072316950067, -0.09678268600459386, -0.20039649376160262, 0.001949812588401545, 0.0007752329229222532, -0.09143505046541722, 0.02924449035620874, -0.12748546731045288, 0.08193400451385296, 0.006804790281908335], [-0.03709333892091572, -0.2504598607824997, 0.2310252568255443, -0.10361984902147534, 0.09260188343088438, 0.06540290133129346, 0.04206341496016321, 0.026108896288942626, 0.0610367034319223, 0.2732351519326107, 0.03118706658942448, 0.02374360247141112, 0.09736635996200367, -0.017205251747003845, 0.22840902135603391, -0.12675973239270158, -0.09727907131796688, -0.15443433579814175, -0.0019003115244240296, -0.2257050060487496, -0.05578770038411542, -0.01675704071471455, 0.291614660310782, -0.04840721023308193, -0.057275987746056876, 0.17679295501391856, -0.16307885146864484, -0.12687800229912258, 0.20479653887320207, 0.18505883194843642, -0.11343187830273012, -0.24006053831835159, 0.1282111065581116, -0.1683732979324353, 0.23932870002518275, 0.004242421754841825, -0.1531628250818715, -0.14504291995444854, 0.12690530715997175, -0.1317898319724611, 0.11463887911693214, 0.22850689552864314, -0.2568957817562132, -0.14617304532502998, 0.026222674734598446, -0.06017433891077922, -0.00677358706897812, -0.05293108205071624, 0.08636486039366105, 0.042635844115467, -0.1074839841246365, 0.16960294925890576, 0.16198960135218857, 0.26704173046439333, 0.12218353164218546, -0.00020207051688360948], [-0.16633521998606993, -0.06920757862296052, 0.19887307669461923, 0.11103133330515302, 0.020614414877769566, 0.23699143684778332, 0.01644958805786565, -0.1061963003733459, -0.09193555417648432, 0.17860000942120716, 0.20317177047979412, -0.08825220931989856, 0.16665155200645315, -0.19638056140285026, 0.09856610536549847, 0.02393155510190167, 0.18526693246498316, -0.2016745803233208, -0.052206496631498824, 0.04401463432447648, 0.012074468168627525, -0.06503511572928906, -0.03772493588735422, -0.0012137474730007606, -0.116451570210199, 0.05913813420191348, 0.13314265384322385, -0.04837167122397038, 0.13060890758119176, 0.03805388109197653, 0.06507201290457308, -0.12756995026697954, -0.1865812479237003, 0.08974638256641224, -0.1519769862824892, -0.049835628030331286, 0.02780539858757614, 0.10821956708570084, 0.020676060794183913, -0.23605382680628242, -0.08159197778001727, -0.05420072555221103, -0.22723030243351033, 0.21261266695318826, -0.23195172806756997, 0.15034759168057868, 0.09743822703252196, 0.040319481699714735, -0.009183094162203111, 0.06774659452543844, -0.2374385177889891, -0.10823005392398889, 0.1786624953196664, 0.23454693533971405, 0.12716753419383364, 0.10069856174396787], [0.05416776572003962, 0.19062427359205725, -0.15886459140606995, 0.1788992706373575, 0.030761984930438968, -0.17788491252755206, -0.2438099020346439, 0.046539024286047004, -0.11107427610907206, -0.24575439387391446, -0.14818800567884038, 0.24938287098959688, -0.16648077300187525, -0.057256808567405865, 0.19585805845846443, 0.06331615370842886, -0.05199859788907801, -0.006073966272875431, -0.12269423153572853, -0.2387929031047293, -0.1866390252764406, 0.022108282825527625, 0.17261857958064103, -0.04001911401747282, 0.01069368639694207, 0.06995912486784694, 0.19818989787778102, 0.09990695731194166, -0.09430877733657808, -0.15138550999741512, -0.12309850283920176, -0.1381721597606503, -0.2261732294464211, -0.12721469258931986, 0.12740404962629193, -0.13113067184072938, 0.10895505869309324, -0.0651757651975689, 0.017825456863974076, -0.01144359338202694, 0.2155050316628065, 0.22789344609854478, 0.0037023081229993204, -0.09380319043398488, -0.010487490652126064, -0.17968225760490106, 0.025840505773852107, -0.009510341528786714, -0.02990460699025982, -0.19517164412110677, 0.17611070416344976, -0.18599967747039292, 0.08196070852294995, -0.03637971124134651, -0.09952215416049032, -0.21879707006284138], [-0.23558089069712798, 0.19725677966621913, -0.024189496906311392, -0.0802189425717727, 0.03887083667301283, -0.11338991470414833, 0.09477889924678384, 0.07902706079897798, -0.09697344196462171, 0.019635619119238834, -0.2649118396084675, 0.00846713342917188, 0.05746944312898622, 0.09497186163433186, -0.11726201922726098, -0.21576819280146814, -0.09034903738710298, -0.060168327086251916, 0.06558432342080589, -0.24630496480549335, -0.1794478244256283, -0.05192090351394557, 0.07075105645238106, 0.2142886780038311, -0.10681362172674486, -0.24198754931097077, -0.26405158350669855, 0.14961956840036422, 0.2319137805844212, -0.10590111144896716, -0.11660291074860815, 0.08660565844075391, -0.22997506645874438, -0.257550064699737, 0.07019889525325418, -0.01583968474770958, 0.14521638538941872, 0.024575751355331743, 0.019082919082276384, -0.24459797929082333, 0.14377799379238237, 0.06953012933387387, -0.018362899123831877, 0.1650860633464854, -0.10939925007054296, -0.014540601459923919, -0.15596120106696626, -0.17118393318936515, -0.026796566619925466, 0.19404627115048545, -0.17811534500997406, -0.2602609054362287, 0.21013625414478226, 0.023974001425117963, 0.08282379087747566, -0.24978594309045563], [-0.028408777391469936, 0.21511331328820743, 0.2583577947536072, 0.26062763421193036, 0.019770893880114604, 0.08964455161408896, -0.13141124901613607, -0.07914401059724133, -0.2033949691930627, -0.21286023768017429, 0.15205830375063062, -0.18217876074296008, 0.01917136770866351, 0.10596942473772403, -0.15145265911610378, 0.12876827593671286, -0.25277660453911044, 0.17667427579050832, -0.01687985528368957, -0.12366126722032722, -0.09054946028564259, 0.13359893937885303, 0.21373177384894032, -0.14180634739899486, -0.18790517240178228, -0.1581703904862113, 0.2313221351779398, -0.011707157329603979, -0.051606132490555956, 0.19207954628489382, -0.1694971032090561, 0.0743075746748505, -0.02724747666859495, 0.16835992114298892, 0.12435533282771088, -0.2352262316769666, -0.09126269575208845, -0.21044165593209202, 0.26376387408844937, 0.17500317446287045, -0.18293913256294347, 0.0740853825515172, -0.10868314288190492, -0.043285673576037714, -0.13268478146171986, -0.042655388131009275, 0.24340182491616236, 0.1310902866847613, 0.01768202259254642, 0.22448099522421028, 0.23371405378220633, -0.0635437373599893, -0.15287894196281127, -0.1293011856897808, 0.1422848365758808, 0.24483307406600252], [-0.20898387931800844, 0.13981177764995661, -0.08801818899524325, 0.1904306840639049, -0.21597926321065003, 0.16080064178817927, 0.049452560755866626, -0.17689949689462445, 0.2299237999479799, -0.1313488596256719, -0.1257175913714984, 0.09673372733979652, -0.149079164607252, 0.22432413256646727, -0.03051884774054861, -0.08603748527676747, 0.037863971718865685, -0.2437417083809796, 0.10152500037483692, -0.006704092919151194, -0.07860918693023891, 0.0554265987464998, -0.06933701456382083, 0.16117405457997935, -0.21640353532573597, -0.03824760333566002, 0.10329360871603466, 0.21975186581928624, -0.07102401543343206, -0.06760184637855426, 0.0502238367500657, -0.07410648223472924, 0.22602290068029268, -0.22467336670342783, -0.011615184988059135, 0.21407711718756461, -0.03638529165483176, -0.06650626956307185, 0.24046153062244413, -0.23039646288410792, 0.0767077341751764, 0.1172826931491342, 0.08876304122470874, 0.037082395393453316, -0.13502314197730164, 0.1873368788312621, 0.2391655931307748, 0.2339244865608181, -0.2508862533457854, 0.12991366099197488, -0.1336833249267629, -0.19186919715813755, -0.23655267322001644, -0.07254185916333916, 0.12242604142600177, -0.11053090963399584], [0.03182499187184468, 0.22565458387534465, -0.02437773585128747, -0.028002224239525947, -0.04208031003727092, -0.16857479997249658, 0.12529155183917035, 0.09932018030939249, -0.12428545671548419, 0.0036241298824437607, -0.23609878712245794, 0.2308733164294377, 0.16374236731838032, 0.21071052712549743, -0.007039602887380814, -0.09096452605887706, -0.14228107795981626, 0.2658284441318087, 0.1971977592217526, -0.2501424831266863, 0.16007960736019078, 0.08559566812909314, 0.07350786709039486, -0.1872448344719946, -0.04351259337748242, 0.013176617393567014, 0.04745161241178841, -0.25680854045904344, -0.13422743738520732, -0.15552900047964807, -0.15479820344505407, -0.12419857223328729, 0.07494153019933375, 0.12551591249874666, 0.19333039477735547, 0.03795185176490162, 0.09966359646024142, -0.005198185826584767, -0.09024219049821033, 0.05964531552982244, 0.007147412041579371, 0.08533205028556273, 0.02893252286599307, 0.19386754143930307, -0.04399806253844926, -0.2003833630121249, 0.17280531898241497, 0.01144970429113451, -0.2262489685064948, -0.11415165061028282, 0.2546534843328885, 0.1580047182008511, -0.1370185971429042, 0.15842218398768743, 0.12495628126974884, -0.2228444332922551], [-0.21252505759826895, 0.04700188071681899, -0.0087584279976331, 0.20853607821807735, 0.1532151915422693, 0.12590993932499872, 0.2208444461571581, -0.194249713947804, -0.1331611071748312, 0.13302938535950798, 0.0020865777847611233, -0.022338087219500508, -0.15253880317991508, -0.01711523750317373, 0.19530971834856686, -0.06217104068449436, -0.048225069124290254, 0.12921279703471594, -0.0963599459833307, 0.06040827429397588, 0.1828041478844712, -0.2008305592015116, 0.19547231168238327, 0.24434185846688417, -0.096160403465267, 0.25434082315720574, -0.014310677569524255, 0.017717816642256523, -0.16366689058966075, -0.26517549785659256, 0.24531110318949056, 0.06544906838643572, -0.21952440092196132, -0.233235373970662, 0.0983509434521102, 0.12235173666284233, 0.19755002686147954, -0.18420358985969984, 0.17667468600568764, 0.26039175001913584, 0.21886860604799113, 0.09730458714099655, 0.07887274186952908, -0.25274514610265986, 0.2625586670601525, -0.004198648702268937, 0.09239221230869465, -0.008499633253065686, -0.12917862632135435, -0.024277668164628535, -0.18881253166151804, -0.1777173093451486, 0.0649887341518175, 0.22215436774768943, -0.2516097140731138, -0.12744795715180035], [-0.022005753549116658, 0.2132639223770833, -0.16380260960620063, 0.11223839453027606, 0.08764023179911351, -0.13613818948071477, 0.155262793503198, 0.1482941025748304, 0.04685737197252554, -0.004954026989545224, 0.20448281446150307, -0.11451469445689816, -0.2350621475003492, -0.2213035230703765, 0.18431637384193705, 0.06474221119346396, -0.01810665186060842, 0.14572318179833244, 0.18325044741315144, 0.2540158439121063, -0.06627072463365807, -0.17461540525487704, 0.05882871771075848, 0.1272843904632095, -0.11157363106985899, -0.03489764377799642, -0.08940773409724759, -0.016688711573378756, 0.18955528508744574, -0.13887618933548146, -0.19430816939826837, -0.23900143880276556, -0.1411852397668789, 0.22354251441771145, -0.20051631952041166, 0.21719431299395386, -0.21753364515293175, -0.14055420660167567, 0.059256431170336354, -0.08120878004039528, 0.19281745396617206, 0.26235503996394227, 0.23603282409850934, 0.2071506877837116, 0.058775561353882344, 0.18275163836209257, 0.07369162434436521, 0.01412966681056077, -0.027004104609607893, -0.04420591235045335, 0.01408221717146807, -0.10005422300699454, -0.19464811884619587, 0.0707459244962736, -0.13657281740420832, 0.04657508939185062], [0.03883632276268534, -0.19951936921418287, 0.013776401611717337, -0.055698017855112275, 0.0684586021040896, 0.10417302850682914, -0.14256088005858641, -0.015778959875171528, 0.032998212206175825, 0.053737802351288666, 0.09628414230031929, 0.22545198658008153, -0.06309304148208514, 0.15925554135488973, 0.013925502499439302, 0.06342828095227354, -0.18603599826038097, 0.007194270297576244, -0.1005416239108061, -0.2302032163410398, -0.2581143313826859, -0.2621979083164151, 0.22955181084058385, 0.19319918813404924, -0.0016241425488930927, -0.03979046204085063, 0.16401140107254897, -0.00581108296408378, 0.09976629008532278, 0.24419480434432617, -0.20407278936507223, -0.21415314666230367, 0.003512893585265131, -0.1420734732386042, 0.0002805435192443362, 0.25087273156226997, 0.17620475176976375, 0.1993226108991833, 0.14676672016319375, -0.19684170166388215, -0.2666433288429474, 0.14963369480963584, -0.1374859050841903, -0.02667877384128564, 0.07131786323042705, 0.22976778030627598, 0.03471805831578967, 0.11231461838417378, 0.22834560046264463, -0.03877316120217497, 0.17330273101135196, 0.026074195008503553, 0.21998567991630408, 0.12281888161190502, -0.09402677347984939, -0.02621208983965495], [-0.2236380080862495, -0.24274943451843883, 0.08009900606705755, -0.15022019663466746, -0.1901834493722914, 0.09766271182772446, -0.15102496388332212, 0.05776283676468513, -0.009072476051571299, 0.20388998515619533, 0.16685936488917602, -0.0308249252019564, 0.15230832081591816, -0.08370163107279871, -0.25898049813106894, 0.2575791826626036, 0.06618808071950166, 0.16532450100251983, 0.22954252304181244, -0.1442964747577175, -0.03260540073210405, -0.16006415835147528, 0.11037197238979701, -0.23357081994062434, 0.061319236477907935, -0.21361296974762617, -0.04515130313836527, 0.15910832624490662, -0.09990577848667972, -0.21022230838933625, 0.10827228183992843, 0.23730211832422643, 0.08200146774313882, -0.25685809552455985, -0.13148106741750956, -0.26582980991569355, -0.08151944705123346, -0.0015016737976050742, 0.0794243789653662, -0.22260387318366834, -0.1048197042837393, -0.09912726831742688, 0.2279494816480106, 0.0030938599109682774, -0.1568290399886138, 0.24376145418571304, 0.04843872346497269, -0.01767626288133292, 0.14757838906648696, -0.1947994832496173, 0.14236035598991087, 0.17483384047133943, -0.11964911111903123, 0.08809735839092475, -0.23001223419191277, -0.15572516332014374], [0.13816616773771434, 0.09674815371646378, 0.2557035027834803, -0.23890080086983095, 0.1741475557921882, -0.23330860211753773, 0.20248432086773566, -0.05442034880896521, 0.24191955900971795, 0.08201015181206933, 0.010392901767773743, 0.20077438520710095, -0.0785422521594204, -0.06188061643861881, -0.19128083491694187, 0.22942636500015906, 0.1683233515656809, 0.1982261164467647, -0.23366066277079306, 0.19953749265341852, -0.0718315176810469, 0.0902881654227714, 0.03914296774219056, -0.11797844535810009, 0.06396946974679307, -0.2600695299707388, 0.0747318468856858, -0.058183071702185174, 0.26229830888518946, -0.047046659379652744, -0.05878694598556608, -0.05653224508617469, 0.14848451089568798, 0.04083788892750312, 0.10729110433881422, 0.25995695469512325, 0.054187313986691354, -0.09995168663694398, 0.05654577941401029, 0.24565503227870134, 0.1866253841089407, -0.1829935607828793, -0.08842902300621133, -0.05011258845670233, 0.2644246733530977, 0.09355901042416714, -0.08938334331379635, -0.10751797937118984, -0.25769588161677864, 0.14178173770829455, -0.037350793818409084, 0.16514070532455377, 0.2055347285058129, 0.20867658598278205, 0.193053287410359, -0.14606552048685112], [0.026390879154242763, 0.12357582387736155, -0.23110434494864474, 0.10612894636627868, -0.07088576324380033, -0.07682144913825958, -0.01746408091127777, 0.06989335188515367, 0.09082261305050177, -0.19597008938302002, -0.19843168396093713, -0.20540232676022263, 0.09649868722633048, -0.12625263990383806, -0.18585803926955885, -0.15933206375312747, 0.04544928197171538, -0.20281751860027136, -0.19178794225907186, 0.19503560008096688, -0.17011268025078635, -0.18512388629393547, 0.13976452273530365, -0.05646968184944337, 0.21716377143958981, -0.07351824080299821, 0.031035705102652245, -0.26036767982565406, 0.04425319303115155, 0.18175834023757959, 0.2662249768886338, -0.055901128814143886, 0.15510553192321047, -0.1843119234496927, 0.16362666340316873, -0.16648881100425206, 0.13697271471729827, -0.196880880999978, -0.04140581250600042, 0.08970491345465598, -0.08867125843787055, 0.10991943815045208, -0.16244424964836507, 0.2546209569385538, -0.13363965605914394, -0.1931333698877794, 0.14537328682263895, 0.2566834324541263, 0.15782634875567148, 0.018689217939537373, 0.23873446556529876, 0.07094372464913234, -0.07525206381506855, 0.17574733811187915, 0.010912502959182557, -0.2017336607203304], [0.16450897300330292, 0.20544074667194911, 0.21788852004336967, -0.11687277838182886, 0.08837770168669024, -0.20194964678940863, -0.16860857493928433, -0.0662561050928547, -0.19128369945080187, 0.2668143352963118, -0.2651293937337411, -0.23208315365840718, 0.027439632220983223, 0.18545951781415193, 0.1638968739041043, -0.20260330497841428, 0.06239830543456654, 0.004413473945197699, -0.07360798503728705, -0.10275269213617552, -0.22496281699369522, -0.1322204275562142, 0.07973749543604425, -0.011977005769269966, -0.19217505615268607, 0.21648814649020293, 0.13212591439210636, 0.1845361095056547, -0.16700929953513452, 0.10204966438859292, -0.10457794481840688, 0.011138181775050882, -0.2438754332991297, -0.01659892640136862, 0.21281476270020538, 0.013652836558962378, -0.1340232011649803, -0.08609211236300016, 0.15130446860981944, -0.13683791885286903, 0.2060467857632869, 0.13313866135295066, -0.10270640618145732, 0.19996540868389845, 0.10385742871125841, 0.22223391056119657, -0.04004883868819503, -0.2659748581368196, 0.10858105563777742, 0.02762712809782375, -0.12306686142427792, -0.13028401532505635, 0.09913947396501, -0.030941235897941344, 0.07638188862092699, 0.10879432204213013], [0.1484084946826238, -0.03248820152361789, 0.11311478981200601, -0.15089251479477894, -0.008525728125495624, -0.1338333643677302, 0.038078681038353546, 0.22903990922739775, -0.043752875499567356, 0.14685763580206163, -0.15612475667474546, -0.021181510865349168, 0.13678419882310522, -0.2611737799867955, -0.23709202938227486, -0.16436326561840697, -0.21937677765963204, 0.026723192189256728, -0.0986076467427969, -0.07883625601795796, -0.12232371297930109, -0.09087266977620964, -0.04566400517006122, 0.233530200890827, -0.05478366031395329, 0.04404956086805856, -0.11364432075544931, 0.15223294753678818, 0.22559984236102015, 0.23329247549073606, 0.1261369338044624, 0.1157173418398269, 0.24956105511531956, 0.06423842585716066, -0.24539069602462812, 0.021763786374453475, -0.13029621435273028, 0.19650448785699665, -0.12013993919701113, -0.17153750896972586, 0.24085730548013295, 0.03143860277393723, -0.005192167810824377, 0.009084479456859695, 0.14836015192746527, -0.10004269899535892, -0.08520539540603572, 0.05129081839443933, -0.18040556257173912, -0.14211154245981528, -0.2041476891642533, 0.04265603443920951, -0.05781873986123709, -0.13262367011461726, 0.19641836995621242, -0.01603627151874648], [0.020048709316016433, 0.08201212367187177, -0.1004952741382818, 0.23767090082560471, -0.20392844380662478, 0.21363680133141083, 0.04177122526820709, -0.16660660236946656, -0.07035867096399176, 0.08581651154135111, -0.09403010362857897, 0.01989447590075527, 0.18490367519749268, 0.028217910098569332, 0.048109674709643, 0.04480663223434195, 0.12044850204495083, 0.05213313481258486, 0.04260054836841354, -0.02584615892113412, -0.10130085224938828, 0.0638395171764995, -0.25530354267424893, 0.04317601065546661, -0.12128207705168295, -0.21433086461457945, 0.04323075582523034, 0.18960233746941052, -0.17255541068961472, 0.1668437711920524, 0.10541921355808914, 0.1095897557788102, 0.2581299309813476, 0.0032364728822505406, -0.026475865680188893, -0.2194869167759582, 0.03120245507738656, 0.16660592929433266, -0.25074926284790205, -0.2597654668858453, 0.2627561536895675, 0.008827262092538757, 0.023227318148614118, -0.09355276372799795, -0.1580398063676055, 0.2406366768496524, 0.013445589683487968, 0.17122009411685218, 0.07679641077167954, -0.0818680241924728, -0.26402353961498737, 0.21138366272404052, 0.15619812153161133, -0.09118202065290071, 0.08570864109908471, -0.1130758981087496], [0.22022957211446437, 0.10796879865850867, 0.17331299618766938, -0.16710694870656975, -0.13290693601746265, 0.11138417005142731, -0.24649248224291082, -0.25770054576949325, -0.1692320635026991, 0.06414602574205375, 0.13958862188860433, -0.0006242896885418348, 0.25097476192380774, 0.2501705554851589, 0.0363671094625686, 0.06170129927946355, -0.25703386525114474, 0.17109730581623045, 0.15621645318827465, -0.12195335818312791, 0.09136737690537472, -0.040372992737470526, 0.1792539902913342, -0.1353590158320762, 0.1484180117402606, -0.050268115241563494, -0.20037115580315212, 0.24704640230532815, -0.1869795617015645, 0.13069659527014627, 0.26404572505849555, -0.1916633808802091, -0.24654812931182477, -0.09236038843756378, 0.02604525686145598, 0.1253368110746927, 0.06197166920551417, 0.19413137146816228, 0.002384677217462272, -0.13022266780895211, -0.16078112645712328, -0.10887122197200097, -0.07559923249380704, -0.24478745156317325, -0.1448039572455166, -0.1518187429125643, 0.2635384172987939, 0.1353979618433485, -0.1092641719264277, -0.2640298837936275, 0.15375183113052454, -0.20144574017096378, 0.12101181223399288, 0.10268177481357965, -0.13782727250348303, 0.0014078583737231476], [0.18212208103101407, -0.14410989533334928, -0.2509921315367609, 0.035425305826496445, 0.11280677806919409, -0.22866702539463712, -0.11685924024542574, 0.26147946474795547, -0.11414551755372984, -0.1974223425803901, 0.08981641148943231, -0.1704110416281469, 0.053392674365454584, 0.06533661011673492, 0.2341326091787962, 0.007217508266576578, 0.09256245649412698, -0.15367000869795727, 0.22475897992201477, -0.15562999317542253, 0.07842932211024778, -0.17814631585491267, 0.22948309547916473, -0.03568115125316543, -0.02753192685653469, -0.05439954798046809, 0.01909230319836447, 0.1445890230776698, -0.22403769825668657, -0.11997630876776821, 0.0633768438113097, 0.03961446308686217, 0.030040108213787664, -0.24501385804153572, 0.18793011001125098, -0.1177595104120317, -0.1304571094017365, -0.18799322674567312, 0.20416309698216567, 0.1945831138400802, 0.12274134815492266, 0.19745124717742468, 0.04057445960058048, 0.04241537629860015, -0.2525782764747469, 0.1329459557229789, -0.0006969668457354472, -0.2284728087191876, -0.011313366767077948, 0.11868102496749416, 0.12671229362490039, 0.017347344251277708, 0.01782502993754187, -0.07944407805836531, -0.14451564804733336, 0.027647015066509628]], [[0.04891964133170146, 0.11927590193739464, -0.15736732865825118, 0.2003171747008402, -0.19888999841510158, -0.1539841605592386, 0.004914476417299918, 0.06946089867158928, -0.21116944832040935, -0.11021606486813004, 0.107862467987385, 0.2150224570935601, 0.18472054779030223, -0.1178485209824165, 0.21789700476585033, -0.09020169667844927, 0.23332745501379284, -0.1294383416411207, 0.22950802821563093, -0.12540008523080176, -0.10711979549269396, -0.20834476168105343, -0.14675504822001012, -0.028745906915928265, -0.04152339460391394, -0.2185695008698329, 0.05790113175738607, 0.2546551374263008], [-0.11893599220571778, -0.0026162355158881124, 0.1943995907592697, 0.02662613245519549, 0.08701020275182096, -0.025303186523304124, 0.1513044428374495, 0.07194545421560723, 0.2509264161385434, -0.25972034980789416, 0.16750283225124118, -0.18158550777188875, 0.05181355702327628, -0.2430689272634668, 0.12399727793850339, -0.17588212043360085, -0.24964082688926553, 0.12726572184546092, -0.13895170679702248, 0.09666278426900647, 0.17712008715713162, 0.03787466750585983, -0.20224069445343354, 0.07348057625254656, 0.2441668459064136, -0.035988594080138575, -0.20068502347388972, 0.10888415331988233], [0.15243029038994127, 0.16632556865418993, 0.028478105518518537, -0.07018062871400271, 0.18284229639143137, 0.12868521532189997, 0.14508356068997538, -0.1565738988720681, -0.16600490852028557, -0.09607807208939612, -0.09340052693611747, -0.24072651523489624, -0.15881528970714495, -0.024062310326419388, 0.0931583380119533, -0.2437503755091141, -0.14862637845966017, 0.11950661239071264, -0.2058307002038334, 0.10177899420965711, 0.06598950301382082, -0.05265264006674936, 0.09460112143988424, -0.02100149997121392, 0.0611072105599492, -0.06721530333484302, -0.1630613605443028, -0.09912773067143961], [0.050388803820176464, -0.009545272764559331, 0.2611087580547939, -0.23377616744394922, 0.04241115265128226, -0.21416136449105713, 0.26687837335670994, 0.11018508027446929, -0.007099339416825242, 0.25852164327655136, 0.025293816944768125, -0.25674794424593367, 0.12082636790574675, 0.04467970156934109, -0.2507588206843676, -0.1863100085588622, 0.06782577811917674, -0.25539357654180406, -0.20061572905176944, 0.12385783293416563, 0.2317533438055256, 0.2664179351775282, -0.06298285277248318, 0.09591808764637455, -0.17195431103125675, 0.1908633086226204, 0.14780119241638368, -0.0012054017816650992], [0.18831008783672898, -0.20028798726407654, 0.0971665727536754, -0.18343985389616627, 0.1175983246851342, -0.1744435745547175, -0.18971412340276111, -0.0027286609160394604, -0.21448346902277163, -0.0728820634522526, -0.1369796913518225, -0.1419822500003699, 0.175338813511853, 0.2065218604147384, -0.002012945649925546, -0.05913476656468314, 0.04881502127884395, 0.11126189406913914, 0.20242509946596346, -0.05142493866804118, 0.1284903145551124, -0.05793683040683123, -0.21609614801153992, 0.12287493601558813, 0.08113061034675711, 0.1648182423513352, -0.22405191647941272, -0.1776403633942728], [-0.13986324076136014, -0.026840716501336903, 0.04220158060273055, -0.20504204044493857, -0.02371367577223701, 0.18824095749728817, 0.07678340332389358, 0.1211952570634695, 0.1310191885168164, 0.04828859650073575, -0.163438022458189, -0.25267854391066435, 0.15929103381065612, 0.155142356645256, -0.0048438533045132215, -0.1279982853635126, 0.16715544348326333, 0.2265503578237902, 0.2218291396541403, -0.1686643796555933, 0.2540642709798625, -0.14090657261674597, 0.1208871660036352, -0.01602307362497324, 0.18412375687393487, 0.025921011439683783, -0.01972332960824337, 0.15518666619281843], [0.2133810218120336, 0.21734701100493667, -0.12231244391594849, 0.03250296929006868, -0.2460903939786426, -0.048730466013676726, -0.1320317355631099, -0.1804504212324171, -0.19586032829338032, 0.08734453518614343, -0.18124101232208786, -0.08859307727512328, -0.195135135815366, 0.053496407407014335, -0.0642857001945085, -0.1908459936819134, 0.22113103185665198, 0.1285058097288723, -0.006542324783301978, 0.09436923380724421, -0.24638837821236909, 0.1856888323738528, -0.07236547233084147, 0.2087994430242004, -0.06328642292232398, 0.1004916417654978, 0.030750454390732786, -0.10538485462651502], [0.14678588894045058, 0.04055502977438399, 0.05475660002427149, 0.05295284734128748, -0.007308408825997148, -0.24275698956113242, -0.015579040577171022, 0.02820014893111693, 0.15494712591527549, 0.10962533194810564, -0.19896183045962423, 0.25010980676026706, 0.1869372248467696, -0.15136923215459272, -0.17026695434977518, 0.1890125702533615, 0.22862904904844242, -0.13103117758333455, -0.09440018707157231, -0.10259120283805048, 0.09482634061826067, 0.03121531943307637, 0.2026685154488993, 0.2247915394490183, 0.05170949055309576, -0.12227708072463214, 0.2251704975817745, 0.26454737891430125], [-0.004846359262488654, -0.08541548810658701, -0.10424007720707362, -0.03454621052835284, -0.23613246939813512, 0.05381086087996528, -0.020949478919441253, 0.022448417651427185, 0.10971947143282215, -0.01748476332890228, -0.148662470902157, 0.15482045339827294, -0.11070235100515707, -0.012294847463511354, 0.14854151764174553, 0.04897029354568744, -0.05146655463193531, -0.24897645482173378, 0.2531898900729973, -0.11089878745400049, 0.24729042133351112, -0.021017749635989125, 0.0037424103789403906, 0.23011174308608462, -0.14446989169744923, 0.13533705143262537, 0.04015202427689753, -0.06901331757773164], [0.1431455827007969, 0.10648393491569677, -0.2319067830211577, 0.22181268594691161, -0.18932516151584908, 0.2453019002303987, 0.12395122232325273, -0.18270261733471743, 0.1960630603667772, 0.005686736256712066, 0.14068717184420637, -0.04958908847590465, -0.18401968948370712, 0.17413229214699003, 0.2593477844806694, 0.12289345442358562, -0.022076054362452746, 0.25130701771571906, 0.03915101966185752, 0.17993698784425094, 0.1704751596554214, -0.1783647587499066, 0.16617633079866578, -0.14011430723933888, -0.19894494107339916, -0.05971850064046444, -0.21403487444468702, -0.026872155104689273], [-0.21600771362063081, -0.04651795700535598, -0.12361739391553997, -0.03498154690210203, -0.09935767241818975, -0.052913068283560356, 0.007880348290919059, -0.22499654656411333, -0.22956262235254132, 0.20743029777558847, -0.23890442473031911, -0.2156186171609718, -0.02664638301222763, -0.02281413820876243, 0.003415429542521986, -0.12412319809404099, 0.1775622759957819, -0.07587105695839329, 0.03941009910649468, -0.20963577251020213, -0.0042288950283819625, -0.1684168525484849, -0.2645622553450591, -0.16861028687277682, -0.1947808914225256, -0.1822689658525442, -0.16356940582007728, 0.236567244482439], [0.0467424032916372, 0.16206250339526115, 0.1595490380597553, -0.16150803614356463, -0.14056745630241302, -0.22840493778221677, 0.045458249883731094, 0.1550505430544091, 0.15338801782601807, -0.014336251487579887, -0.16654406424774038, -0.09352383050169201, 0.17771841818208983, 0.22461746202373167, -0.25616974058514735, 0.06289585694518629, -0.07419665513604874, 0.2761274621399365, 0.1590085490187861, -0.18631834239721973, 0.13932506816803375, 0.07208939866162128, -0.1946079475884205, -0.1834433150539419, -0.20561231131504054, -0.16955658874567067, 0.11060602800114225, -0.10241986615636309], [-0.03386112688923685, 0.1557026075024447, 0.11604112186663679, -0.11564421247024355, -0.17274048169584827, -0.18740115569621085, 0.2555112689175356, 0.05998712185164961, 0.11388482250386715, 0.14969074897481316, 0.1819133287324886, -0.09642605192732306, 0.2003928861630605, 0.1978287231214306, 0.02055829495140875, 0.07574172358880865, 0.09975775289952227, -0.22955191129418845, 0.24748336543095073, -0.18914164709494652, -0.08521295497129969, 0.18252010175147565, -0.06939907739530106, 0.2292154240603742, 0.07329521660174128, 0.027145581251910023, -0.022737111880243247, 0.1130635022828374], [-0.12173179506331466, -0.045013593457256966, -0.19275929012682555, 0.2470346545124923, -0.16766927013578203, -0.09781808458772613, -0.20570113145505398, -0.10548827240900417, -0.221233862154583, -0.18117185527678542, 0.1827859442276811, 0.08233974884341586, -0.09616117406425756, -0.22366407497680876, 0.08320859420799287, -0.24539465979911573, -0.11372999189607094, 0.19360509435192166, -0.16570758664759727, -0.18775826160589337, -0.16513375070055747, 0.04203285300594933, -0.06423320205480954, 0.1605543791473314, -0.07625857920094128, -0.01701011332463037, 0.19777726031354503, -0.09861505752137471], [0.24432324431248126, -0.2398516087677061, -0.24758811964153446, 0.07379437195882647, -0.013468076195423078, -0.09481949109507364, -0.2080862835729661, 0.11177309988447845, 0.1485692922667202, -0.005987055150305509, -0.13438230049227856, 0.1901930263483088, -0.14006997679713207, 0.1295661761706802, 0.1974899806883491, 0.16660548296827715, -0.045171997044241935, 0.21683289676337947, 0.034981551666238675, -0.20479630545063643, -0.061076424789510815, -0.13522836956598022, 0.04742865337278197, -0.06446141088134794, 0.06067709102061968, 0.22490991232198, -0.15821489621414273, -0.07788480591597395], [-0.14821815770447797, 0.21451119179021494, -0.02302098564322158, -0.1874597833689331, 0.1850951198233202, 0.13906853487920143, 0.24724990487236884, -0.05372473101345564, 0.12068423133484113, 0.13221363218070137, 0.10759032932041496, -0.05681133299317481, -0.26645677032258497, -0.2414406386587567, 0.15959878416020665, 0.09798669098775004, -0.0731010803532483, 0.11813409261216964, -0.233867308661336, -0.002088833450557612, 0.011257725308269266, 0.17049222476475684, -0.15558111859101667, 0.032657039070186356, -0.12705521059256014, 0.12895354371423257, -0.1636683289362968, 0.17944463232571758], [-0.024685835451246974, 0.19080901343828013, 0.24869889216756547, 0.0014301555469856233, 0.051743688871134674, 0.05738055317187601, 0.05357293079024317, -0.12227215733242486, 0.1101927637706286, -0.25081932405779644, 0.24858417762594412, 0.17652617536623424, -0.1224662925846293, 0.24580541653127386, -0.003186152804828868, -0.1738666077082635, -0.20090466999663512, 0.13502818920690993, 0.22388576964097476, -0.21824865720660763, 0.2507419736903128, 0.01372062990216133, 0.1700041000770405, -0.15679291072558765, -0.004523088792560415, -0.1845179640653664, 0.20850358059669957, 0.2475713829179338], [-0.11034400885527579, -0.13544631711967542, -0.17432042911971926, 0.27830571974383517, -0.04547851282261631, -0.005273443900583355, -0.25530870707091335, 0.22945216296110849, -0.251917658171434, 0.20350516047578115, 0.07238502267890484, -0.016674536003294844, 0.05256901172724582, -0.22868731350582588, -0.18825769345720839, 0.06317460251279439, 0.21068883731472665, 0.1937044991005314, 0.14873503806319938, 0.008768341857437079, -0.011713203627058744, 0.20474695075380878, 0.24575126217858514, -0.08648576789059786, -0.200913598348383, -0.002956699389597972, -0.07697842168980175, 0.1952357240726907], [0.2248220608984271, 0.2663595083754266, -0.13712676525466885, 0.25003857004361535, 0.08872087836654581, 0.25928210539524965, 0.2333347119849662, 0.2609528169169862, -0.02405728106033087, 0.1828921595938735, -0.13683663079849262, -0.0853552960539837, -0.23708813912541823, 0.2612194653197027, 0.015578583659840262, -0.10789881590087066, -0.24759541097857776, 0.009281135139940302, 0.26367297729840833, 0.12384715555841384, 0.14890880870730064, -0.2667596747222607, 0.2153812084716695, -0.06965505083001827, -0.23014842463835988, -0.06468143666533563, 0.16692741720663126, -0.11117655618993473], [-0.07637207934803025, -0.07876194775027762, -0.1467931121503787, 0.016566979454855826, 0.15336092457693556, 0.17731591505653452, -0.25407154327074305, -0.044574883560943766, -0.12894017822872295, 0.23559918210304853, 0.033528745162441094, 0.024642723090236185, 0.020481383454517887, 0.027619076268256604, 0.08399454641803406, -0.20827145263620656, -0.018329744958153944, -0.10657712992723813, -0.1673169937390912, -0.16614208957036697, 0.2022528305152263, -0.02951149986751972, 0.11277108971016438, -0.06491072969242936, 0.14455926697291904, 0.0560607987543808, 0.162224466760285, -0.19646637017930954], [-0.2517245190877407, 0.15659061534945895, 0.16215378934789934, 0.07467539249786702, -0.13240394492357963, 0.17258858630957086, 0.15987985213920525, 0.07170972265603726, 0.23761735642641413, -0.11632138068531164, -0.231709922085953, -0.018074501158615006, 0.16771450288217227, 0.1345772164458528, -0.14518988517755005, 0.10266919541390784, -0.2509173974242329, 0.23342064198078274, 0.20846894500809446, 0.016116535980236768, 0.10590708153330824, 0.020374480082146096, -0.1663979551088939, 0.08659872343457514, -0.16245004932647222, -0.20158109568110344, -0.05739131934349217, -0.04136120269119332], [0.26821883750181263, -0.04312318096307337, -0.003206950169665823, 0.20356765992730305, 0.11430757037937345, -0.02914596197480126, 0.18765438475518684, -0.2600200973924928, 0.10721752960346967, -0.04266757078983738, -0.20149469961528282, -0.2113223952712757, -0.24169328435176451, 0.16081433317744623, 0.009841219886708174, -0.020209963861155145, -0.16775437709119675, 0.05057348003966926, -0.17857566642983114, 0.2422820639329503, -0.03676398968721703, -0.2313998290241433, 0.2521803541853097, -0.05680689676545486, -0.1778822644905636, 0.19409418832555908, -0.19793119111895724, 0.16338876915739176], [0.2692916021658986, 0.29578363954713927, -0.16310786440835157, 0.13306860472319185, 0.19320774029132903, -0.037934904816753795, 0.13449865991432847, 0.1637457318429354, 0.05095335219106583, -0.1855632431639973, -0.18980857257202705, -0.21586013393810982, -0.2604184788587845, 0.10715426260940279, 0.2788385231309983, -0.15982431201492253, 0.1674613396548132, 0.06810043835639588, -0.18885257280149803, 0.21327666719211555, 0.04710815791932585, 0.17787791754644405, -0.06359978317833549, 0.1642427492733981, 0.10592021981736058, -0.09524258130385943, 0.20642191715896718, 0.018162905948971044], [-0.20155593393823096, 0.2573553453590443, 0.14774820854042497, 0.2061413852550884, 0.1388069785339381, -0.04104457105001804, -0.16085566731206571, -0.08860328136379389, 0.0582728130398283, 0.006476105907929186, -0.07401244619628428, 0.14945818296937569, -0.0030309410830574035, 0.12977140165950873, -0.23936958309581163, -0.12744198921299443, 0.14595560340110242, -0.12773659694712045, 0.08100397648258745, -0.026776937007795903, 0.16125182261643553, 0.20376449879929132, -0.0486815444446091, 0.05675386880599087, 0.2249979387932705, -0.2095716544193921, -0.23455132300769874, -0.07897472377944605], [-0.23284536138350453, 0.24713163869251947, 0.14735887197607767, 0.19733377224787338, -0.16612053607718025, -0.12237694620203074, -0.11186531672910985, 0.02903908016595795, 0.0069330129729223275, -0.2050318525452887, -0.025309258420297572, 0.2656613957922071, -0.15139293300479575, 0.004924325484801428, 0.13542213945530868, 0.23423908958437345, 0.22704811986028728, 0.2655917060722985, 0.1546818966826943, -0.1146951188764973, -0.25379970575815, -0.010970289326657445, 0.11587070489036692, -0.0969479778034314, 0.22731660489082883, 0.22847614908284852, -0.1521739735635044, -0.20869431136307734], [0.20741490823041314, 0.23561420144672934, -0.21148804993762846, -0.03884322140229449, 0.19948488335366732, -0.15803181683611278, 0.24640753722266784, -0.029646377732762443, -0.1263658163667216, -0.191264169829994, -0.05697132289385934, 0.21451423241685097, -0.047894334981793046, 0.08688129880906992, 0.08139482217562122, -0.0011175827423574036, -0.07536863343654504, 0.048925384630431265, -0.2066176062518399, 0.03386954397073455, -0.19933686456419863, -0.1899376185354864, 0.018412786331594745, 0.09995687999886316, 0.06177757020496494, 0.039486225613029, -0.01520047324787331, 0.09537104294725518], [-0.1618418867635531, -0.04800965815977791, 0.17213971469431855, 0.25804164635338445, -0.06907031923757853, 0.20291495957019273, 0.23096332441198092, 0.06782664523367198, 0.1131585245317406, 0.14514475083255757, -0.2113482270594701, 0.18978024804113847, -0.22046602749599567, -0.1828893059262539, 0.2577367873494838, 0.03042331938507087, 0.2334987698866122, 0.20089179922141975, 0.08586897277690876, -0.043781750485833715, -0.03708447915777491, -0.08556723158974339, 0.23743923528897376, -0.07066778192132156, 0.13789355373506668, -0.03716658770520698, 0.21183052182068932, 0.24315205999339232], [-0.009315350180157061, -0.10700368336593646, -0.023904634147124515, 0.05350861595733883, -0.15274374499507395, 0.09518077729636938, 0.08027252018356294, -0.18216966242773128, -0.04152573517951637, 0.04851313661965079, -0.029470854245890188, 0.08418537852106706, 0.17428258288149784, -0.11148128865368169, 0.08426550087876306, -0.10476030893127913, 0.01696180321156121, -0.15979444330939616, 0.07564490366454407, 0.09435118015855053, 0.09548797626449756, 0.12946878779937937, 0.03841542033083444, 0.18111409817003193, 0.06416976514928581, 0.12869606433535957, -0.010092312947481903, -0.12629553104334856], [0.14975637838268643, 0.2440455332340676, 0.12960333156380138, -0.03428511885553139, -0.22361830609254346, 0.16843997358462737, 0.1323283480660537, 0.029239894378825022, 0.02784396568085458, 0.1958792842449784, -0.1658496105508384, 0.1611491917625918, 0.11601234985742848, -0.002289087011881645, 0.2783840465964928, -0.21735161133517855, -0.08172699871160669, 0.08478115383460262, -0.0767611229074498, -0.14847123607472779, -0.17690575999554103, 0.20489830295341088, 0.10837427379471945, -0.22279774724573465, 0.24525849606327335, -0.04280475971382716, 0.008884108782576894, -0.10504004921346416], [-0.0038191513455099967, 0.0313234755511369, 0.22253151098602758, -0.07880031546790228, 0.22704758341864015, -0.16286021903974687, -0.018674020666671405, 0.07595047538047879, 0.07460263698851723, -0.09267379250996174, 0.04150956607117512, -0.2271369140925646, -0.001330949570001183, 0.07670219337739882, -0.2424934579266939, 0.18125146104836487, -0.0414755338912714, 0.03339472252950155, -0.19306634325441568, -0.14472073202077604, 0.2501272269343334, -0.20092541766199007, -0.25571048487466186, -0.23201200325340918, -0.008785487685806772, -0.1038759119812204, 0.24964839816142778, 0.058425324280550514], [-0.23801083218863428, 0.225037720906402, -0.24092355315137484, 0.026288990003602904, 0.11660160075047397, -0.017505014288757587, -0.18416541366574488, -0.23363695611024884, 0.08494694978540768, -0.054492108558790164, 0.1275841354238887, -0.26173110910395025, -0.2617479107164607, -0.019851931938163325, -0.22699917232437053, 0.23073096967082057, -0.16815994701289683, -0.15333479711327927, 0.08984850721359167, 0.17698318987142653, -0.25782309198335635, -0.265660685107008, 0.11563795417364083, 0.18565085045147306, 0.10059126109892026, 0.08314883086342972, -0.16060867277033034, 0.11934245290018146], [-0.2550923785393178, 0.06849784976473118, -0.25783570413196644, 0.18822729049114162, 0.03159054168534914, 0.2448070221647344, 0.17787855327249802, -0.11711166254380505, -0.023271190496062258, -0.1830687174589441, 0.09399677860118834, -0.022256195684709264, 0.06926224937423503, 0.05630391299702581, 0.22074102354367375, -0.07332975677761111, -0.051264401266149846, -0.11382871767658342, 0.017667819863089924, 0.1683323585838496, -0.1072651355822728, -0.22767785611678218, 0.22621912466889024, 0.16265955977785296, 0.1849475028038154, -0.09717453677834786, 0.01015920027265339, -0.008585283518828913], [0.03353703478141007, 0.2026602704294122, 0.2382152438819291, -0.1549899948881633, -0.044749660014907544, 0.056926581066790376, -0.23414439561162415, -0.05007898749978726, 0.04998177281839019, 0.05180266067562178, 0.022553254477356687, -0.0561547413427634, 0.1984922354045942, -0.25160295152226236, 0.1749702999153891, -0.15504766869585962, -0.20390423696385693, 0.20553700284514198, 0.25448312509516785, -0.22724904561773976, -0.038000146741296925, -0.08172175727228456, -0.17815594671002638, 0.13284995109580044, -0.11668380233598474, -0.16858376406422737, 0.155921831126496, -0.13544598762962898], [-0.2666396214353805, -0.1268543081105688, -0.22647674379863938, 0.24312649158364782, 0.05826180030548678, -0.013166224728814081, 0.16422351545089547, -0.15184373982346916, 0.1460096616089262, 0.2008184884900871, -0.03677532962078868, -0.13898115318693202, 0.1433091667967034, -0.16774471070967745, -0.24549997093757966, 0.24812168999024342, -0.1040207439554242, -0.24089145751109328, 0.002668258397657677, -0.1718512186580947, -0.03329585745687727, 0.10307774370085493, -0.18810635050447813, -0.1715276157328532, 0.17687446794426925, 0.18961642171594717, -0.1671864941157574, 0.13187215756323448], [-0.04907611515306891, -0.18679903549441282, 0.17458017216134136, 0.23807059809970108, -0.14945302382313363, -0.1352478972010547, 0.09970517316060974, 0.14557798739153294, 0.1084471536956678, 0.20871821780797717, 0.07337168653843207, 0.1298783567284087, 0.10304677817719332, 0.09237612798569149, -0.012183081343951083, -0.0800062784718451, -0.11586623234044313, 0.20734175570443156, -0.2621915853276842, -0.046465271632731876, 0.11597259734931298, -0.06528204281031338, 0.1934994292286671, 0.10403326545713332, -0.12487825054527417, 0.20486804646559525, 0.22658630958170634, -0.21241686639749485], [-0.11711318227639175, 0.03259096179613749, 0.08973268604592, 0.03789524356511354, 0.2560259799828715, 0.18920895284877637, 0.19767758034015562, 0.09120411797126286, -0.16862134242516488, 0.18398700350274255, -0.10012659225972093, -0.031699811554389, -0.11191546274361902, 0.15355248882861822, -0.11074206229345737, -0.06164537543194276, -0.22578610387350545, 0.05833053937097601, -0.11990942652417322, 0.24420955654021215, 0.21996727459242807, 0.0397301060339425, 0.09695171978397904, 0.20213510977810145, 0.24851520946098168, -0.21311324907819795, -0.22823752135641165, 0.08397517088486858], [0.2558941309819065, 0.1670433709303209, 0.20300976557105765, -0.010349171458877664, -0.19451178297206675, 0.09161686832724338, 0.17920947831443318, 0.23648079385413148, 0.0049506206554928095, -0.14829293120000991, 0.2285113377901118, -0.21750272644930713, -0.0860771937563258, 0.15488904780490798, 0.1283247824136063, -0.24196503611071532, 0.25277859222350574, -0.19817071102733919, -0.10519134874352962, -0.19919044395865598, -0.1055044524585545, -0.25210102004197305, -0.1852702737786493, 0.0961875930044051, -0.1300664873722852, -0.19936948073302735, 0.05982328417177004, -0.18671102382370094], [-0.2314096125257096, 0.25515498367170536, -0.1383759475320823, -0.12409632737348694, -0.0002285335045576642, -0.1829837126094069, 0.06958819864388163, 0.17538871109320653, 0.12893769187099033, -0.17478104244271367, -0.193067884620644, 0.16641429756376874, -0.23537796589128526, -0.060048134259043914, -0.17703193956053287, 0.25712853629250865, 0.2449435753630892, 0.17885853905144786, -0.09998097580001852, -0.026490260311379053, 0.1102058781601708, -0.12415866104162018, 0.0955302024386456, 0.2193583290960287, -0.05510984465485918, -0.17061232089774497, 0.15705734974057883, -0.22768632549192697], [0.03561249409121384, -0.0031719395643496654, 0.21732055303385878, -0.25800295208441804, -0.2384054453646561, -0.049428383935577386, 0.05228650359373945, -0.17719310161616322, -0.16621816938162984, -0.13829075716366213, -0.048130433873217804, 0.22981628839552237, -0.1770196698146489, 0.010815172934538507, 0.08128030887617962, -0.2465499241026082, -0.16205976957697482, 0.2093483999822619, -0.1468576127722009, 0.02706352874637713, 0.1638091288567055, 0.041308973297408735, 0.26317442883761705, -0.08509368728266364, 0.13262895298024208, 0.053615493106366485, 0.08722244343202164, 0.2526564643598954], [-0.19588018040870725, -0.07665993328926016, -0.21750425038321836, 0.18477542897189947, 0.2540353087833134, -0.2298174619374948, 0.18280114259254115, 0.16949553221207286, -0.008624542026299514, -0.19804175803217622, 0.10352522374401629, 0.058579094371062845, -0.22284652034601252, 0.0436388901254786, 0.2673272645848983, 0.008097333422890485, 0.2129387786383204, -0.013761048467391079, 0.02654000988802191, 0.11485201878549643, 0.21141582425049898, -0.060153577470833136, -0.08416319087373937, -0.13572916833641266, 0.14484595381932347, 0.1832171465656961, 0.09082564644133424, 0.02929090438768017], [-0.03369029651854241, 0.058937608964110315, -0.23617131915215406, -0.07898469266163381, -0.22873110876111769, -0.02515999264129463, -0.11873145805751589, 0.0372200792239722, -0.16878958406570932, 0.007260416204617703, 0.15481751955485826, -0.20634724148380934, -0.20006287480378399, -0.17654074774420764, 0.24755884105993609, 0.19037859385472217, 0.05847134326594714, 0.09177656314060009, -0.17034238041082728, -0.24039173693669574, -0.20888674346619168, -0.09260282883803866, 0.152545797384615, -0.04121552890455965, 0.03630518003437827, -0.11754948585950123, 0.02380327053613739, 0.055611293205894176], [0.0798267201760694, 0.06717644499563834, -0.013730213065875907, -0.1778744555084939, -0.21694874425511348, 0.25445609120619833, 0.24175720349840815, 0.06927326613291637, -0.15350114773938198, -0.08897997613458486, -0.029618225035481727, -0.24375334042533559, -0.25229756333301157, -0.09129472945973195, 0.07195325869390426, -0.1969545278779673, -0.23763028600552177, 0.10176046759909618, -0.14347181354165517, -0.2623332450253787, -0.10267098442836031, -0.23159072069947217, 0.19635375747979394, 0.18717594109176133, -0.056798280214784266, -0.22782541022772027, -0.08446925107666639, 0.06373501383694577], [0.15693694638844718, 0.09569788811083284, -0.1565572553949736, 0.20179027911843747, 0.2605019893289101, -0.0750916035456226, -0.2462434782011803, -0.20166498099834593, 0.09395355720427602, -0.2113452412191213, -0.24350020057120217, -0.15023017645149278, -0.05924844625605774, 0.020805321424539114, -0.2561295606487256, -0.20988171399894157, 0.21588669265189267, 0.2653790163832071, -0.12263535678830374, -0.034407136555461154, 0.1611726092806786, -0.14030660521930233, -0.20014512483455935, -0.2425975892134778, 0.16020402449830068, -0.015553290682244036, 0.02253429244673868, 0.05579901435927793], [0.21836300673212686, 0.26005665961735847, -0.21029111306938145, 0.02459745769155166, 0.09567866061380657, 0.241133808949577, -0.072606792394636, -0.07064196071133176, -0.15746229331278142, -0.22698166335525088, 0.10349444761395715, 0.2515267685479806, -0.007262979365372679, -0.09337264351771127, 0.16859687279546462, 0.22883758007017296, -0.2535508612266602, -0.1112579161820583, -0.06478642769932505, 0.21330064279412356, -0.08815456236213379, 0.005799153517360933, -0.2620455438834589, 0.03450065522896889, -0.12345980052008555, 0.23749772601310692, 0.04967254875350186, -0.1640221533634409], [-0.1256562090427177, 0.18674060005792656, -0.2517434714525768, -0.2604100834246644, -0.11025132967010283, 0.04946932600333309, -0.049314619834085395, -0.2503116525210512, -0.03473291852992174, 0.0002623060152001644, 0.001229032298232735, 0.13539265781767312, 0.228992117978922, -0.06379223193146275, 0.12922976014349105, 0.2638564275288735, 0.12496286399674283, -0.05688363215158634, -0.07051908593308404, 0.09321275635202661, 0.20995198287277567, -0.24787545993768265, -0.25434941040858217, -0.12909914243821116, 0.14175811542679048, -0.024701231659026462, -0.23524806838867943, 0.1044436171353143], [-0.1524888787540459, 0.007848880504862323, -0.1913528153722332, 0.0017602259699078804, 0.13615669508781528, 0.19062730959678967, 0.2324853452078009, 0.09261458291927267, -0.1419247524642365, 0.23228775329865697, -0.14461675468783755, 0.16904686785715706, 0.18045941173002367, 0.18496811675344746, -0.14315529709435437, -0.07176861171218385, -0.13344933408438273, -0.16673753572405195, -0.16875400962280546, -0.1044243088547844, -0.26282475690055074, 0.11083069073596896, 0.08345343362960929, -0.20734536173328189, -0.1014243102081926, -0.18184512468884473, 0.18821265753559108, 0.04988950323918699], [-0.11718194532509577, -0.04023995689148101, 0.2291193616448054, 0.134850627604396, -0.01661397323952951, 0.04517643503929976, -0.0812824718838801, 0.1383185365210694, 0.22786354239550752, -0.03692961001781617, 0.00203566651190918, 0.16599749437070452, -0.17222250124560448, -0.09757010601091559, -0.22596453652090398, 0.023670577078041155, -0.20669382271322048, 0.20785097273482905, 0.14975411291631663, -0.1404027685147465, 0.25637599241658915, 0.10041467475956833, -0.029938681564856896, 0.25915623628049966, -0.2605317412675614, 0.0567996027560741, 0.15638795567955374, -0.007313628159945582], [-0.21839934785942508, 0.1700636630246479, -0.18263422696212855, 0.01685646660640424, -0.01710565069925174, -0.10664313401099526, 0.03925553547136795, 0.23679019927549835, 0.12503234503843058, 0.0023904391021076776, 0.24152433869926873, 0.04436715736006511, 0.13001043660351863, 0.1391295117697629, -0.07500219230641189, -0.005525038122343007, 0.010118877200568978, -0.17152896202545234, -0.0808135636455613, 0.03456011569211098, -0.19614243961987843, -0.004889794025723315, 0.0010343028390136931, 0.059895411268953425, 0.23021704690027917, 0.05411632210540518, 0.1479895708980427, 0.05147652504873214], [-0.01930322646464683, 0.012814160713266371, 0.18994884054925526, 0.01474735443889965, -0.26458321394786893, -0.14532843903521747, -0.09816832246291916, 0.16726968955147617, 0.2485411129131677, -0.008375093817879542, 0.10137346362676197, -0.07157284833367278, 0.2189220265300897, 0.04822862440525405, 0.16493631212098625, -0.1776089833485008, -0.2658822866997748, 0.20268068466749667, 0.23103704520748541, -0.20514923066171264, -0.00040415652738624874, -0.06576661825863414, 0.08086839891356778, -0.1855963593280307, -0.23108629454226307, -0.13592743807800875, 0.18577466543048363, 0.0996353099643669], [0.0746049855702967, 0.04223064854465225, -0.14726319862969975, 0.0320914994648011, 0.23069522834443984, 0.20268522621962343, 0.12749286191664377, 0.07746665927375121, -0.22027418454444098, 0.0865022971586214, -0.07149412710874012, 0.11349007393429605, 0.1332325563492865, 0.2359520610763716, -0.2357556797481857, -0.11681874951054833, 0.24241809104725665, -0.09223871253480506, 0.12242813687615506, 0.03318065672778788, 0.0193471593768044, 0.26565310212836046, -0.19402789648779478, 0.16143079380730369, 0.16598692735696108, -0.14640957841456856, -0.1899966688967758, 0.2036252862381996], [0.0015558982990617753, 0.018552931963553936, -0.10259775119110104, -0.15209918396041114, 0.014858679678442732, 0.2613655453237438, 0.13054171576771806, -0.1957997808697621, 0.25238308797806785, -0.009306882085526713, 0.02937583856288631, 0.06761512745665654, -0.15617606468364859, -0.01267630235243522, -0.23200839617727148, -0.24009085766084365, -0.011561082179149392, -0.0037817617211836907, -0.10287028455173663, 0.12828591246510057, 0.15722772108761107, 0.20662829751413098, 0.10379777381190183, -0.2313758799592498, -0.10715751463259393, -0.22453354334406833, 0.07891924917045845, -0.13127475639102948], [0.1894474301939258, -0.17205904356164764, 0.2233046156869154, -0.11624884268356177, 0.22094273350494714, 0.12017424385083175, 0.2074736021404639, 0.06164656020560521, -0.05371124738201368, 0.19436756233043406, -0.011231415582028344, -0.11985375476317732, 0.1310938682047908, 0.1791099272249696, 0.10350749213347143, -0.25939788538221575, -0.09229986975833095, 0.11338872921905155, 0.02336167600515275, 0.10319309240902824, 0.18527272491432917, -0.18033662828611516, -0.1705417239507967, 0.05204767243633357, -0.19773045005830675, 0.17207739041653725, -0.0031960690214505195, -0.08736478023487029], [-0.08678588993255011, 0.11392467764890203, 0.2627892911892131, -0.23969053206542812, 0.23513049530924907, -0.0448799175294203, 0.2645854973873343, -0.15173505422643171, 0.16086302617545856, -0.15764375386787105, -0.03969367828100395, -0.053967359771784934, 0.05386159588735251, -0.017643035260668575, -0.02642334702672088, -0.15051320089153797, 0.2524290930142241, 0.08084417320888235, -0.19070775718705335, 0.005369543184267139, -0.2456148479239498, 0.039458514777468534, 0.16845803120224295, -0.059599032667181584, -0.13776122309535932, -0.05147638599228688, -0.0316948107001174, -0.20112158866756313], [0.22955369840175693, -0.07713469519058308, -0.19828509439832007, 0.25311533975618855, -0.24655975412232828, 0.01001410006470818, -0.051393696655639, 0.11959677949990301, -0.22887593239519385, 0.09045900664898998, -0.11392968601791467, -0.0801638357905633, 0.12755984218583244, 0.2466206109872026, -0.18035617266802872, 0.2089341253209458, -0.11890293776741079, -0.03351531633719131, 0.042307291552444504, -0.08611897797533194, 0.1762729534675987, -0.08328302544481087, -0.06276498071238268, -0.03977973110188196, 0.20747324832445516, -0.08725083579504322, 0.24921450186472657, -0.11292077673631071], [-0.21460714332730926, 0.049426706766978856, -0.025301176842694145, -0.1793397545644102, 0.2155210532189797, 0.18006913577300204, -0.1779854662774044, 0.1261991784033299, -0.05369091161022965, 0.249138310435285, -0.1643661182165559, -0.05742949979537956, -0.23926716810529233, 0.07770800448442346, 0.1515930456514517, -0.1114262444657877, 0.10781547923677226, -0.2540843198405544, -0.24220435331202533, -0.25849074920289394, -0.24283639216206968, 0.19483839867636454, -0.19801589120422114, 0.2359825278555796, 0.00795981152317218, -0.1352030954458177, 0.0534029713489417, -0.05765747242623442], [-0.1964865536114593, 0.08598905621974, 0.11676059920063725, 0.0003265521807752421, -0.21874239584427918, -0.11511807424069166, 0.17656821023096936, -0.225781587830725, -0.14429161251369718, -0.26562283116165053, 0.12602701365290075, 0.1209918265869256, -0.01760553458717612, -0.1905053823601554, -0.07858106505510062, 0.1722541185983371, -0.02499708005217144, 0.2827682398487581, 0.0478856366265865, -0.22831034065498773, -0.03557503438239401, -0.14421919173666178, 0.07971705325868253, 0.013691483412735017, -0.05848318573389236, 0.22307648002563868, -0.2112653033133427, 0.1718296043543803]], [[0.4783542550806708], [0.4908477565815586], [0.029618664072134288], [0.22751291709785945], [-0.36504220106064333], [-0.23648344942812674], [0.38349477347837174], [-0.2570664288459022], [0.16984010397715982], [-0.278612836102323], [-0.20052719127881388], [0.26105968188781475], [-0.19980477025724303], [0.3489518556548604], [0.3502763647642983], [-0.4264855518851849], [-0.11427013466811002], [0.5658130935754191], [0.16794463072774748], [-0.44829055935259693], [-0.321600154662827], [0.1271109936825277], [0.045929024063352086], [0.44842232021192646], [-0.1387149834885851], [0.22417354737887413], [0.209868542275769], [0.27030564050635647]]], "biases": [[[0.015555053757838926, -0.007066942523702903, 0.0037013400402425988, -0.0273255332799478, -0.017298487892898222, -0.003433451509895032, 0.018264617273278425, 0.019009410777455583, -0.0007689223865151153, 0.024826325388251226, -0.0011332580401472248, 0.03125767523271441, 0.014032929381595121, 0.015386712745824122, 0.010351098720391695, 0.004828036138947608, 0.04404975232371468, 0.00419134915849394, 0.014948825482755968, -0.006772264189421278, 0.029784072127458882, 0.0212699763764826, 0.020710794035381057, -0.004699618067507559, 0.03169023733574301, 0.023965294298280135, 0.02743429525316613, -0.000824076813652936, 0.022315346193709118, -0.007427127528980656, -0.008782077120499922, -0.006631096066295631, 0.02600891248295178, -0.015494553879888188, 0.007138942823831939, -0.01724045957158297, -0.030945410194760884, -0.0022984907273927574, 0.013320934283114023, -0.007201798607315815, -0.003241628174539676, 0.011745803095319206, 0.02719404354460556, 0.002499061999362371, -0.006522042743945718, -0.0022013895225245876, 0.02576498175453379, -0.002985439697833299, 0.021279870764276877, -0.011553350892188367, -0.004037985563246419, -0.014918736668086836, 0.007350576792269507, -2.9409069070030974e-05, -0.01758741643286929, 0.031353286315250035]], [[0.02989534123744871, 0.08854528413868645, 0.0031196492202589274, 0.03592815486751347, -0.018597127029737884, -0.041943259605683285, 0.022446437156444905, -0.037830993967176, 0.019888305590890065, 0.0, -0.013767158068155427, 0.018010173293369628, 0.0, 0.020630294938735198, 0.021267728925489195, 0.0, -0.017986976283153825, 0.09885893064087002, 0.02011367058964386, -0.00919543508720983, -0.022015905935448016, 0.0, 0.005685635627097454, 0.0, -0.009677829763863421, 0.0, 0.03795597579082859, 0.05161427547193693]], [[0.2062187629744139]]]}