{"layers": [28, 56, 28, 1], "learning_rate": 0.005, "weights": [[[0.19924008793314013, -0.15217102284457992, -0.01167126041995854, 0.12068468122571654, -0.2129589577382317, -0.17658888910483106, 0.04713740806593491, 0.24432689874175387, 0.19668336891995594, -0.1769666097101547, -0.2247692014332248, 0.26475809322663646, 0.24251689992339012, 0.11715346663191308, -0.11015274549427896, -0.23319099606229654, -0.11480672118900784, 0.008331790424692568, -0.04139202465653148, -0.04849566021060145, -0.006508189398604781, -0.24188486063639222, 0.17921654086213717, 0.13788492554789344, 0.1453896081797758, 0.13249749663556268, 0.2166496497579732, -0.2194189920287463, 0.2586467347731057, 0.20951074506930287, 0.12925829498343588, 0.21191824759377964, 0.0260912753425763, -0.1615197081698328, 0.13745141516113965, -0.18618035540536557, -0.22620758617824654, 0.2587669004791275, -0.00730853324339266, -0.10607333697798774, -0.10592523887993745, 0.06071120603289964, 0.1516819966929263, 0.10286897456364624, 0.0619675205952062, 0.15491560459802084, 0.2164473410594404, 0.035288015877084314, -0.18356649955571192, -0.10248997905353437, 0.07473526688023323, -0.24808771410645183, -0.12316227692457787, -0.28544851191028076, 0.026820695540065505, 0.007617820406785664], [-0.24921730425873329, -0.0305738617011424, -0.0779413546012119, -0.02496714785445274, -0.22158569438455075, 0.061647452265977856, 0.1436951207671884, -0.23910554743184234, 0.11046623174725878, 0.09629365981630904, -0.2402872679808143, -0.2629182419217973, 0.08050200889801527, -0.06939237531744179, -0.20191160925332496, 0.023096472905478026, -0.02249893928782058, -0.02598500731118968, 0.0801229568547902, 0.05192720988925764, -0.16622446857301515, -0.10055349230607168, -0.0054446412931606035, 0.1106232284269064, 0.22436994201459853, -0.20751219106030686, 0.16302935416568776, -0.11104751252758918, 0.25899714238144794, -0.0972124542173115, 0.13745825724211416, 0.12557781649273866, -0.08924529090143021, 0.2716696462331809, -0.20095001813202304, 0.04305829910029219, 0.006059445912385907, -0.05396614272405661, -0.0378455310393725, 0.09426424348471457, 0.05940923331113232, 0.1686339550217845, -0.21057627284533498, -0.19112156727710786, 0.018170653872357705, 0.05473485059223664, -0.03602785895099983, 0.09379388946982598, -0.01813672722044994, 0.0477228347930276, 0.18482774577715363, -0.08834506999257122, 0.10036807154528705, -0.0358583580111368, 0.10381015540825732, -0.014478552901292841], [-0.2595849596577943, 0.27635569456740133, -0.2561852438947058, -0.10361463247758158, 0.21443439613861556, 0.17687804906886026, -0.11087393177403011, -0.006171199652122244, 0.1965806356740098, -0.009637779720063695, -0.1980970289360491, 0.044223903085742526, -0.17294984802698685, 0.10152222044704351, -0.041064214763417706, 0.13315196127430032, -0.2075862420321783, 0.0017072239739120473, -0.07275056879702453, -0.05102233505317491, 0.1954830822900998, 0.016004390690696407, 0.2448129495113298, -0.20657507457769195, -0.15489712612750492, -0.005445430592549275, -0.27734799335463767, -0.041223749462831874, -0.18918107227295272, -0.23986323251258237, 0.02396186470352599, 0.030756874312759502, -0.1365670191772171, -0.0956901192362882, -0.1521589332152263, -0.2756011758711953, -0.22302067694030764, -0.2001250934059679, -0.15359520175701116, 0.17346046425078362, -0.006156732413030303, 0.016299317605711697, -0.07437181982608633, 0.1607743256700718, -0.29275592463300876, -0.017596624694083216, -0.14636869626343316, 0.02633094431462058, 0.08607741219721805, 0.21461620498423514, -0.10105631047217493, 0.001424398213271355, 0.1437255063803592, -0.07927252344892845, 0.021560921265197874, 0.0961578234698582], [0.090388657229511, -0.2338448271607931, 0.26670192582887287, -0.0230715128045475, -0.2651804451590282, -0.24547004460977198, -0.2128641492224289, -0.25015465725004477, -0.046344862697239, 0.0674647746868351, -0.16080204423655575, 0.05530814033006959, 0.07589399403834701, 0.17685357604040663, -0.15444437894947904, -0.23506632832165486, -0.16942382253647525, -0.12006566675416094, -0.07085555914515129, -0.02630387820253005, 0.025206945229426958, -0.037659532796017775, -0.18997421419918925, 0.03514149589566312, 0.06185432691238607, -0.09210331790887016, 0.2279019994536014, 0.1730388328577967, 0.08640833481546462, 0.2538332514530701, -0.008286039958830649, -0.10020900375896336, -0.17649583553007625, -0.018308023471051788, -0.15177584098290672, 0.024034646971552276, -0.1299505747012716, 0.07827080343684362, -0.17920165391455745, 0.011531744956683299, 0.20019395160511128, 0.22164386201393632, -0.012071475054920233, 0.20491049540785128, -0.13470441837173225, 0.1544247381135676, 0.17014831737926572, 0.037440793741041645, -0.002113061260660798, -0.0971588563504428, 0.12992068283648922, 0.13724862807101917, 0.09874842349036356, -0.20589784954288448, 0.10622921731964641, -0.06947115245453522], [-0.1873769039911179, -0.15272858138183742, 0.12052340948685925, 0.018314145531982795, 0.15932518863709344, -0.2670503091224167, 0.13438767540147906, 0.03749157427191341, -0.22133527666848957, 0.0529344619240511, -0.14072695243440678, 0.0036297715931541408, 0.0015210240797166041, 0.2335446450524744, 0.0024130590833760235, -0.209089461442569, -0.22518150449244273, -0.1007725963787588, -0.17065070989411268, -0.24335046453575193, 0.24111885061292293, 0.18057259767251377, -0.17408616290199064, -0.14172257143675315, -0.1870714224589411, -0.06118356761623864, 0.21792035928659798, -0.031815276870688775, 0.04213099436421308, -0.2454385274243735, -0.02383670386352954, -0.016883025323887857, -0.1558498532789065, 0.0168685253145347, 0.25511949715786375, 0.17309402970723053, 0.20603110242139694, 0.06225089857739413, -0.22981127381359798, -0.20526296610337236, 0.22989202544653203, -0.1589593753962653, 0.2390947153051659, -0.2218222863176877, 0.09671758474426462, 0.02066498363719399, -0.23090027526615123, 0.1842683537738311, -0.012668335949236442, -0.24858341883254056, 0.19126789251878973, -0.19820338556393396, -0.08018706391575478, -0.06450694183588557, 0.10430418930117996, 0.05219107778647186], [0.005711574796649355, 0.2422048376329965, -0.21353859660443217, 0.08863543601539298, 0.2529431850166006, -0.17361115992756138, -0.17622364663481344, 0.11888876131817477, -0.0519040953127263, -0.23554892062554159, 0.2200190908392473, -0.2052012075153719, 0.1587646535519991, 0.11711269436194005, 0.2192937922757383, -0.0903485334400709, 0.0797340397033256, 0.14935976604141188, -0.15522041181890367, -0.26456333713857855, -0.17139806868021767, -0.16348462079402443, 0.10128101146112078, -0.21993643297457563, -0.14636341310845175, 0.1329439463024814, -0.061310302321406523, -0.09838327894963841, -0.1968433587342805, 0.00260976130447671, 0.058616086295559144, -0.23189055197152317, 0.013135414311332583, -0.10612363259866531, -0.2389281160083098, 0.08690217342035894, 0.12172860820594655, 0.04110456163958481, 0.18017332014960025, 0.17273149815215505, 0.16591881259905156, -0.10146133534461532, 0.11251992890123563, -0.13758736024480137, -0.02276444622254653, -0.1397325966083453, -0.0372766899933101, 0.14748662589807704, -0.22581579406404145, -0.2412111873685683, 0.20711781638653032, 0.17500103454804788, -0.18824863855347695, -0.10779376590883818, -0.22111822534348075, 0.054578404634344324], [0.16645306400807192, -0.009742168782751415, 0.05220377619824507, 0.010768944393922564, 0.17760471633174152, 0.0719168155704345, -0.0778311952741155, 0.13293925334936735, 0.08097881016139175, -0.1144672226739833, 0.23447397192552077, 0.010464204984703906, -0.26711539027051334, -0.2595883728273778, -0.09602306636951538, -0.2661630381254399, -0.0974559713740217, -0.09409359610775583, 0.08764574232407157, 0.04762282114591615, 0.18391634705735338, -0.13726712868222413, 0.25088451050151417, 0.06095558208525198, 0.2267726575170183, 0.09672653415367788, -0.2495393682976751, -0.24706923462992578, 0.10176973969469955, -0.19002329351483144, -0.211406025237163, -0.19370742156675302, 0.01816118528870636, -0.12763754785979997, -0.10021665282888187, 0.16149118322946487, 0.2134970015292711, 0.09063053208280686, 0.005968802971230147, 0.21079913777728926, -0.07781982670432327, 0.03946067469113973, 0.06919492947266642, -0.18067390956702334, -0.26225680808141366, -0.21414955859748572, -0.09756917849542349, 0.06567873688774051, 0.2653207948354094, 0.07960904006309427, -0.09522317893535645, 0.06236257411220386, -0.11512258930919739, -0.06795000927284739, -0.02204629745048381, 0.06463488817597185], [-0.002054697933503177, -0.044148027453975766, 0.07490726298124477, -0.17867111160726779, 0.19832710140463947, -0.14520154718135575, -0.15713741543367868, -0.06479826271733609, 0.17654048399247937, -0.20887512835525665, 0.1102255756320537, 0.15353970657015262, -0.06206597030139765, -0.039693456709307434, -0.2541711498662555, 0.02272094719004238, 0.011899932322198728, 0.016800410841567342, 0.08854190609150835, -0.049503363343805076, 0.20318899635888735, 0.13407694938386844, -0.07891727437170613, 0.14914652303293788, -0.22349225896790437, -0.14343486616670975, 0.21798834536492434, 0.04222503499020223, 0.25771042522037446, 0.2054221119632885, 0.12653353353969995, 0.1396132190302057, -0.19334873807301292, 0.24082047197821824, -0.05389077579907764, 0.10654494050525468, -0.10980370590118751, -0.268388544647685, -0.1987012612005864, -0.012391138165309974, 0.09325514563760501, -0.14751157659293843, -0.10983446377685327, -0.21220926052204264, 0.24234018883035136, 0.12382313277914685, -0.03974525046716741, 0.19367055854163076, 0.07871410672734132, -0.04431043915551999, -0.2580756760950907, 0.08826591889230535, -0.2311666594809432, -0.00984405654719109, 0.2402131818744119, -0.12182412092994956], [-0.1989674486068309, -0.15693185629104814, -0.05327551293747115, -0.15408312395999818, 0.11903008988776187, -0.09945867759489146, 0.01971669840664625, -0.24581152983062482, -0.2661298843331074, -0.2561434747521294, -0.20949126292364162, 0.026905265847461612, 0.06711474444289461, -0.08622755138504626, 0.05563703846375789, 0.01744305049658018, -0.044018780445681666, 0.26090618628670237, -0.08094606549678149, -0.19442374055498973, 0.1288229259464418, 0.1579768501112726, -0.1657623847484475, -0.10126577664928935, 0.03047897042005021, 0.01721211800476452, -0.056686011814194914, 0.13617883183193968, -0.19584208069168163, -0.2407739059199683, 0.15066437749948253, -0.08234301265179161, 0.00022423796306125787, -0.1515331060633538, -0.0054008834424573715, -0.010943141513060417, -0.18316118260353514, 0.08330707244795016, -0.06685994084881008, -0.11815255406903327, 0.08110852114581302, -0.25859267357488447, 0.2593520858500211, 0.06503615277175823, -0.20938910153195922, -0.042536691179012126, 0.04229099505143896, -0.18735453409117617, 0.2082934551097419, -0.2101814788311696, -0.01949325236275279, 0.1717266538969457, -0.05146177044665978, -0.007295085121522771, 0.21274536139100636, -0.059776385900189494], [0.017473655239919016, 0.18978182155609308, -0.14530999301674238, 0.1717185842241123, 0.23787314349498334, 0.10686625156555159, -0.27847846591710756, -0.018325181006943452, 0.2562290116953377, 0.1049773067627279, 0.11032430504279304, 0.009760091245256109, -0.06584053345320065, 0.26118817978808423, -0.003915326665898881, -0.1354626396810312, 0.23914778560611674, 0.08785806033407205, 0.12543534639470555, -0.2254028500833952, -0.16987931262363068, 0.09410177896901617, 0.06703685137219458, 0.08889588864832916, 0.11730370170618416, -0.23806142134155378, -0.1898690641025726, -0.22760286800457022, -0.21320059356331003, -0.28645431139440825, 0.11263825632467903, -0.23118089098323805, -0.06473305891439687, -0.12723582388374197, 0.10853204872716897, -0.24951361510569978, -0.14767847509501253, 0.16547068428169584, 0.2581902346867653, 0.14093979441609814, 0.09725863451815567, 0.17259839093756874, -0.09600767814085205, -0.08713536310228563, -0.1166116321563561, 0.1454465507640301, 0.21778859587503482, -0.1877766993993453, -0.16314655253300397, -0.07004193016740395, -0.24278821397475114, 0.012869072282353995, 0.12235102770495894, 0.2147296137250458, 0.006688361340812747, -0.24562671287304153], [-0.14234660658803344, -0.21191674969205013, 0.16985806218228727, -0.21031002097868365, 0.25131073907867, -0.05227803820219453, 0.1556148742492117, -0.19001866681276702, -0.10650297651055439, -0.07951285706997328, -0.16149496118545204, -0.19703881001148638, 0.2261317594915504, 0.007333229646392746, -0.18555593652498176, 0.128522483113252, -0.2745409561481887, -0.1150222775918041, 0.14920182942411114, 0.005723656364616654, -0.15309083696980666, -0.1916866428503716, 0.19765401139833852, 0.16010718884542086, -0.1104735661515294, 0.08657326557982284, 0.0012702303969324008, -0.012545430773735098, 0.004470355218655286, -0.25245002948103007, 0.09082626027251371, 0.048622556921542395, 0.0807076669965631, 0.026603811308746693, 0.14669964805782376, 0.1877458008802974, -0.13657668540819387, 0.08193840705453648, 0.20803139782224989, -0.03855417553893087, 0.21176208810888247, -0.2631091509944878, 0.05793292504786238, -0.08755856685261132, -0.09201192022172747, -0.08506195236148383, 0.20955393092357702, -0.2605135191608183, -0.0429415457264239, 0.20444723395722458, -0.021485153573815752, -0.05501200472096048, 0.05128503486496874, -0.24998760312228935, -0.2046843534452173, -0.026481521112635874], [0.0007815364544682532, 0.20984417124602742, -0.24392330764946185, -0.06265457615363566, -0.11012665762841889, 0.05885649809458945, -0.24118738973765966, 0.16702030349581753, 0.08661253047714866, 0.1415871012879216, -0.08748036590984087, -0.2225819195708996, -0.09252967971463351, -0.10614049394159339, 0.04401901709518351, -0.12448243471285338, 0.03222421252251479, -0.20539168668957708, 0.13074885621083177, -0.21067842509349094, -0.1371420860521424, 0.2679711490985336, 0.06626344454023109, -0.09641539721835134, -0.04228650943895312, -0.2437736545773148, 0.03125799739273023, -0.11676521401578717, -0.16523068481330916, -0.182504125136615, -0.1624676024726389, -0.023886191858015098, -0.08603439116933687, 0.05802053770000286, -0.19455097153949485, -0.06859582482581981, -0.04288066342419728, 0.21784365439941009, -0.0006246279383926736, -0.1913575216337187, 0.0315137801824928, -0.11551438114939126, 0.20151507343146308, -0.12990311513574407, 0.17990473378387126, 0.13749878376336977, -0.09416569174445318, 0.06141324824212973, 0.18032420259033652, 0.24501540076449116, 0.1113549896552122, 0.2048604433995347, 0.21796480645059477, 0.14883267437792735, -0.10330357804701973, -0.2580495270824367], [-0.22755137596803135, -0.2574573252564047, 0.1990539802273133, -0.15353649756205878, 0.05794627233038291, 0.18927745246948502, 0.21626078107000318, 0.11321389411682287, 0.07056465327333156, -0.20938846468195227, -0.1512887737369104, 0.1493407609590724, 0.0003520811683818126, -0.021339156661308867, -0.1585010703545166, 0.13519631807185617, -0.17285560171766506, -0.04087191286316286, 0.16615931091443675, -0.25646948754245275, 0.16972473312131942, -0.028853925846431122, 0.1886007154940476, -0.005097778709861112, -0.25097256052710587, 0.1881394212130969, -0.04508548664107814, -0.24914651267113766, -0.09699473799517719, -0.21957859366861787, -0.15162102367593872, -0.16412901267194985, 0.10279749164725771, 0.22813181260163967, -0.17656280185920048, -0.26008731309297217, -0.1312526576745351, 0.19970285940142896, -0.040340703010414175, -0.17015619493693862, -0.07303041119000786, 0.210340685298536, 0.032801542428389285, 0.07231163428378368, 0.16873732820583692, -0.21767388552821193, 0.2265044723351513, -0.04155285680117446, -0.23718803225498203, -0.1139701065687519, -0.16245989571664887, 0.1159907341836956, -0.1846901723212402, -0.09382375875041435, -0.07782361272018251, 0.22073548973575163], [0.03269898417362194, -0.04626803217488573, 0.02230566912825499, -0.1317057460189977, -0.2564229634215771, -0.04655002567206637, -0.007122723176674728, -0.08345070404171576, -0.21341306468221324, 0.11280560854519966, -0.20242627418019835, 0.11641887405742668, -0.15778323887336732, -0.19399576141930663, -0.26004234915230207, -0.10580321956103278, -0.12280653901904065, 0.18735081659516123, -0.26579882316392717, -0.14804397098160504, -0.19174937809879622, -0.16386987144265597, 0.14600175511306113, 0.030502520351542828, 0.2008805045145579, -0.11036994202042891, 0.1640993580745871, 0.2497120682119458, 0.14610286563469316, -0.06949527338243308, 0.17152983929857862, 0.21685097787099378, -0.25560854395098476, 0.08143987657444113, 0.2573133548570884, 0.08674420565100138, -0.22021483973098288, -0.10846623433719133, 0.0837069640136926, 0.25512517980075167, -0.15322551970928483, -0.24333129754387603, 0.20488630131213303, -0.09616194591414085, -0.20536149290576186, -0.09046563105775146, -0.07781358179265066, 0.2210302224035262, -0.1804445786670691, 0.17467425604381748, -0.09627913120578174, 0.06560213113417207, 0.22618183005612486, 0.03645713618234531, 0.147351519884794, 0.19051175139492255], [0.22982662671424542, -0.17484492516409228, 0.19756113051284374, 0.017252470296790334, -0.15600101816411463, 0.04192054629236025, -0.017478566441396975, 0.16332636867103817, 0.09554032227874021, -0.1240583017296589, 0.01986022102633256, -0.012599387360261116, -0.19185416704485264, 0.07475245109740974, -0.18349257361095023, 0.08130617989389188, 0.12773928792297118, -0.12656569199085677, -0.25702919795627455, 0.21572206514149128, 0.1448383094115041, 0.0631210993305209, -0.20107329187894873, -0.2310747526342654, 0.15330592847693453, -0.22703414102401426, 0.13011558550644392, -0.2248545377638077, 0.1940883267810734, -0.006337749815390925, 0.050189784663203674, -0.11522127725628986, 0.050754776320431017, -0.005292094742312403, -0.036506440153803665, -0.07160451799285347, 0.1475481057205817, 0.17482649193072536, -0.11105802209081245, 0.21104460652907014, 0.020570389202871076, -0.03712762090370303, -0.15653714366306665, 0.16813744781911627, 0.2355950368482298, -0.17565922542665868, 0.2514681668095339, 0.00867083894117232, 0.07272182188895615, -0.22572445774259653, -0.14059492278793884, 0.015471549139157936, 0.2643075203877375, 0.09710560256549006, -0.03914470622068081, -0.21621029075150902], [-0.0017526724362669777, 0.06827916489944891, -0.03353844455600688, 0.17509980420961896, -0.1213975852657053, -0.10365603101671936, 0.07701301581556358, 0.15216882456334757, 0.192952712714279, -0.039390063122145186, 0.23676495292134458, -0.010507672779915433, 0.12525635175932381, 0.06610046704393846, 0.12770637528094742, -0.16295660603382423, -0.0017175835716649601, -0.06283673549296837, -0.19194970489449473, 0.007638976974644718, -0.02872406438957434, 0.19017247673891174, 0.21549278681929374, -0.13135915674263293, 0.21256126196861708, -0.23674696364939374, -0.22715771799960247, 0.17424867381596365, -0.2466759392460463, 0.2401483385755968, 0.053862091508751875, 0.05594115230643515, -0.05335794611408212, -0.03612645588588348, 0.1926014426674829, 0.17344209507510422, 0.11422423905986318, -0.01388692794209112, 0.15902634937204213, -0.022337055657799643, 0.02539029067370452, -0.14818641304957475, -0.23072072821870654, -0.03678542457391748, 0.017855854392719195, 0.1413325506433314, -0.016248807484979477, -0.16382122093849955, -0.08084317866440835, -0.2181634342912765, -0.03700826229718884, -0.13471585972004488, 0.21906306944970455, -0.1923343875833935, -0.25032551139884185, 0.017356851723944522], [-0.08209352701379663, 0.03479177378507736, 0.1132491917581161, 0.17782031791396863, 0.024237863348120003, 0.2097259014782084, -0.10562392146656704, 0.22005226823348895, 0.22257179436832536, 0.22222444189974444, 0.049704325087280565, 0.12815646951827797, -0.18156997314328868, -0.1131912002896433, 0.23668388348998604, -0.09404179832753898, -0.225706261167464, -0.11739704475152257, -0.11990459088921751, -0.17728315899725386, -0.1414974936513358, -0.11213972848361542, -0.008928488940630086, -0.04957806558240477, 0.13759157251789744, -0.16506673111041298, 0.05857279875201532, -0.06163347343835501, -0.10824322919707913, -0.17180955761627809, 0.015899393724801814, -0.22614479022643766, 0.025050857011045646, 0.15349117723963063, -0.011801649283008808, 0.15659678240800112, -0.16474901336935147, 0.20837513368634142, 0.17339068428328286, 0.20045951243554522, 0.15348289010503136, -0.11911855474069696, 0.18503843654302904, 0.06976745665304473, -0.07195466548639526, -0.21757177079619425, -0.2560272683190558, 0.1568815836203757, 0.013730978279946904, 0.21603730985573594, -0.1349080048564738, 0.18044040418985557, 0.1115443518713169, 0.2236307014416346, 0.1609357597151861, -0.05889284059201433], [-0.1724539982679331, -0.1540123882034558, 0.13527185618524162, 0.15371783264679723, 0.1322600373364688, -0.14119647588797338, 0.22041525754050895, -0.21055491015484093, 0.21606683827193812, -0.0011123196092390764, 0.1525345749919827, -0.09710246449880353, -0.062172293313933175, -0.07323290670523575, -0.2171591177141597, 0.17633580984253722, -0.1677397785672335, 0.10705309505090466, -0.008214020352439622, 0.09649847167972786, -0.18679899168360875, -0.26258780634153317, 0.2549402111563065, 0.14366044415590268, 0.2669060775037084, 0.09375838253124902, -0.14648013765688273, 0.003840035995123725, -0.026756442464979796, -0.18696516155451703, 0.21271186116138574, 0.2635672481710316, -0.05905689589374255, 0.18223339510237213, 0.22714072668760604, -0.001649092910744443, 0.17118944348129012, -0.019995319812017714, -0.172294207101871, -0.13126065030476683, -0.14298463762051744, -0.11356413906080709, 0.0565213917568102, -0.14933320775448153, 0.05459915985302227, -0.10504737063993846, -0.04884975852518478, 0.1289394818618127, 0.0050848715398060795, 0.1448135806729413, 0.2180497050042769, -0.0694498848633032, 0.028634291312372384, -0.007113958031754686, 0.05745517916927817, -0.06778948313574401], [-0.06205086188366424, 0.15484768993353887, -0.008641461665744476, 0.04124397368952576, -0.1786796334269576, -0.2468190839469517, 0.08343659998773201, 0.18289149083316913, -0.24197094467939465, -0.23480884226733711, 0.10693409874299675, 0.19466033149161327, -0.01394835230719893, -0.14279610698802664, 0.023231591764089787, 0.10282768860911928, -0.02740095889553726, -0.17171092263676635, -0.23289896285894854, 0.07200961112412951, 0.18954745379961702, 0.2246184470791875, -0.08878317330275037, -0.039902925451467175, 0.022143829478160126, 0.11984806976679907, -0.023161282194767513, 0.13111865550642615, 0.12002838015902656, 0.15761794847855792, -0.10179100812762798, -0.14492895016473673, -0.12167318315923498, -0.007426312696820869, -0.0786642812950781, -0.17382790413094534, 0.05373706122540434, 0.1438645202310041, -0.18926471544878448, 0.14715901532181247, 0.19487084891560558, 0.010539378184174941, 0.07574577624216972, -0.10868095974055789, 0.12463831305628387, 0.02537254498240954, -0.2605518925877303, 0.008436114386315197, 0.24187019986767933, -0.0845641141128124, -0.23198581512374666, -0.07940984347261498, 0.08781441448271304, 0.1309048715372913, 0.23970560164904664, 0.09249060847620139], [0.19565868711122342, 0.03032863766142413, -0.1481766874921072, -0.2445228050071672, 0.13566774153096084, 0.14048412414516082, 0.15876145534502684, -0.11717523527647858, -0.26163919659107016, -0.24057500030881257, 0.2252071500027411, -0.023365221378725792, -0.021693388984620227, -0.20123436608725392, 0.09334851062748623, -0.20045309745054696, 0.21770516007652413, 0.2165302767539406, -0.22822093502845064, -0.26169815018693887, 0.2436071991259714, -0.21050289163237546, -0.07056910575968808, -0.03996737307772877, 0.1380027244615149, 0.024556179361163444, 0.05113812384542049, 0.0926607049617546, -0.14228562957494634, -0.1220755941632315, -0.19115007187736727, -0.03094388418760985, 0.043650439452916745, -0.1681265285255131, -0.25300641529911766, 0.1998714910757084, -0.19832116755724982, 0.15412875015104194, 0.014821628545489629, -0.0966213958377728, 0.08772490538626965, -0.10526397377899283, -0.26397379151651934, 0.01710033261593935, 0.0815236948910622, 0.06567784872556065, 0.0853936209750718, -0.020861003141863538, 0.03054638911801616, 0.193702764823661, -0.17756508796592346, 0.09901812146375155, -0.1895568338147552, 0.24895442443684135, -0.003837530264512723, 0.017470815480046697], [0.15946112000099588, -0.11783563237820652, -0.13735983918990352, -0.10551350731172252, -0.23905607997915448, -0.17828898161346202, 0.14693294196212264, -0.08453182381860769, -0.057161344083081794, -0.16625113339514896, -0.06144609186658767, -0.03268833473711216, 0.03968622575730257, 0.17105175206890733, 0.20520020475184797, 0.24648665130287317, -0.018126966537892003, 0.23321952751918007, -0.07484540568911446, -0.16421253670730687, 0.0409228593466644, -0.0026568629213536976, -0.12128590055267835, 0.21307709367933414, 0.2667335674898994, -0.26295205409133043, -0.22136596220986351, -0.2524263797909656, -0.06314688052198303, 0.18076538554485427, -0.19047419346104755, 0.13335106625241588, 0.26171066763040063, 0.09832766932708903, -0.08569297033034592, -0.07234597278217167, -0.14631375249771683, 0.02195212483070408, 0.22538585917882292, -0.020807767448040027, -0.12442228910897316, 0.25790822273060976, 0.09498798013209969, -0.07963812792007727, -0.19321857694161038, -0.0321973227067206, 0.23387525557897038, -0.25543885295640784, -0.20175641717805953, 0.11281727265755243, -0.15192906201710968, -0.004110931140973273, -0.10279623811573382, -0.07346723631303698, -0.03778741997932053, -0.1392645382640464], [-0.09077551768961062, -0.18565171711574896, 0.017691699276747963, -0.06768269907257649, 0.06536319267817875, -0.13153917128337242, 0.15229906344967475, 0.2050352679794359, -0.07768209840576276, -0.22416970831972527, 0.17897724759490619, -0.24154980914445387, 0.07299030311442523, -0.18513411146591, -0.1443998364958966, 0.24581318345921765, -0.042394814189877755, -0.23244971332009776, -0.030796062194307472, 0.009436288456509068, 0.13650801201279977, -0.2274288442421368, 0.07220668349229681, -0.13555214691775763, 0.13322964667585524, 0.06787939243909163, -0.25759463140056416, 0.2193641778844067, -0.1278820099460687, -0.11323435903330994, -0.031413016501057794, 0.01586177975703401, 0.08397849605348795, 0.19458866720180812, 0.22656022173670864, -0.02391853883787254, -0.03633083167118298, 0.1399647289728106, 0.04666223414722703, 0.2468033950917835, 0.05839989652072203, -0.07822607805063686, -0.06360989475051804, 0.11064672544889159, 0.2535510107503075, -0.02757832086281853, 0.2035355487944105, -0.07666736097190133, -0.13327198298861975, -0.1609027322795276, 0.01987483746082558, 0.046221820984787054, 0.00022444078667899214, -0.12806517062903214, -0.04343443505408967, -0.009748072557548282], [-0.10202590897199018, -0.12694851270011498, -0.023950084597593735, 0.2090164329743654, 0.26007830130403065, -0.25688165886469233, -0.23511719001275333, -0.24991167054994295, 0.09463591878285432, 0.24402727107246347, 0.004384767445827498, 0.07835247390822708, -0.04516882569060318, 0.1281751371674899, -0.11096519638769203, 0.06218295028110754, -0.019468664158544424, -0.04326330128339348, 0.1453337161380316, 0.08231558870816158, -0.2605548483759919, -0.1458533432219606, 0.044613190060987795, 0.02548994596615889, 0.0004334851188836919, 0.14972026350159134, -0.07797774773415775, 0.07861540888672414, 0.24902044375814825, -0.14629878376859012, 0.022473435382217244, -0.0054064608093509214, -0.24587514092537685, -0.24430526035998223, -0.23043501396280833, 0.2496353022550617, -0.11423901454473803, -0.1923621046890488, 0.10253225114223335, 0.02785121363122267, 0.009508995295427702, 0.18414384996010613, 0.25769301113772447, -0.0864555714726882, -0.26388586497216, -0.07463716747786048, 0.2200718347543264, -0.05522483317595556, -0.144303762173347, 0.15606624733795427, 0.18785303756583505, -0.11684590952231455, -0.10034845396271908, 0.0576283534316665, 0.19816453208055718, 0.02244667101094916], [0.15696335020724517, 0.20318927908874612, -0.19618250749125277, -0.11107286867678068, 0.20728253539041414, -0.18433184857864676, -0.20722687512370302, -0.22796638858035462, 0.07920485447599912, -0.04012608514861438, -0.18750517543835057, 0.1537563223553416, -0.15846136718884568, -0.21933872543210928, 0.025399009528864536, 0.24901351795927773, -0.08365588276842056, -0.015036194867545705, 0.11199142510470356, -0.21187953450589533, 0.1979784222797779, -0.05603553744773279, 0.18994971498667512, 0.0753173417192835, -0.05215000778710094, 0.06306686684623175, 0.014635055365625094, 0.15923153985220623, -0.22178881888714613, -0.04390210822795962, 0.23269109685101402, 0.1181452841891269, 0.057032997666037644, -0.0024490083810126406, 0.18170526524803154, 0.035786981235993776, 0.13946386146401912, 0.053694213780744626, -0.025893101985320355, 0.04348951406109325, -0.2087928190940172, 0.20806143282794792, 0.12250164384639739, -0.0846374151433581, -0.2362712052696373, 0.16567422856134856, 0.2392748029687065, -0.13813055635249483, 0.07253138394430314, 0.03903872405455944, -0.25483797905473715, 0.041410660009055245, 0.18080644458837836, -0.23318765115301643, 0.12936915409484412, -0.21183962597112155], [-0.18557380682663827, 0.10075803657335708, 0.0914229907166697, 0.23764702468419108, 0.24583793172084845, -0.12753552078108205, -0.24600851802273435, 0.10115146518114021, 0.17192357601073532, 0.06699521476196069, 0.24674013346833257, 0.052747148343404104, -0.132157089005134, 0.014708620019611873, 0.20347081080865254, 0.1252143681286622, 0.20271861689687892, 0.014927799107807116, 0.15326263126713885, 0.12307335667867914, -0.09379544181901786, -0.20770142207094805, -0.07643903807192351, -0.25639518378956766, 0.007625386675135071, -0.05164835493143746, -0.18516156368467873, 0.08691912328578105, -0.07450833044830976, 0.1924701541618925, 0.12799346106276233, 0.06992687011341553, -0.07876812811618389, -0.0804281599775846, 0.06606821857766121, 0.12624488499313447, 0.08151686049979578, 0.2013808701403063, -0.05123336711164991, 0.20582865078797957, 0.14621351781412356, 0.11605077260618996, -0.04874650340702397, 0.00795763103395647, 0.07977984406522132, 0.15791256056692626, -0.11108640660201363, 0.26568195221961644, -0.12424826777201467, -0.1642216454291617, 0.1223449024897893, -0.009444316025134236, 0.1485844914077838, -0.04607211848478379, -0.05709657645770155, -0.10806118163821934], [-0.07236180430745104, 0.09057627291273379, -0.171869107874437, -0.08833638726415546, -0.10171986837058228, 0.16896192675065325, 0.16493258573965308, 0.03953221720188049, 0.00483410726617195, 0.04645754051047579, 0.028768310438622158, 0.048323968018860575, -0.19125024108320812, -0.032535875101620954, -0.12518284135409846, 0.24232976046120602, 0.02383729101514903, 0.23752594276370553, -0.07894966282283214, 0.08877148069261609, -0.26213236254260885, 0.24888929572167928, 0.16688335356924416, 0.18646525468210406, 0.027959747685202485, -0.20377517181783403, 0.11454483601752818, 0.25798836467905817, -0.031712814891777685, -0.011058578308824063, 0.11342555106449048, -0.16843485093562655, 0.1632214428725881, -0.05525718858440071, -0.05955285093336385, -0.052153816995773955, -0.24947611115234133, 0.2056616843406559, -0.05838632707443095, -0.008384916086778937, 0.03985189513106624, 0.11706374554965776, -0.09716309346382507, -0.21614992527300814, -0.2299563793519745, -0.010216604613864533, -0.2153601394361322, 0.025690744240653374, -0.1923805477905171, 0.03898153167933455, -0.167526269183013, -0.08139014291145857, 0.026764290857729245, 0.2339228089941111, -0.2046839722433345, 0.1632848695347372], [0.11571999189709664, -0.031094067178494417, 0.06486405479118451, -0.2046234172608017, -0.09753975847992774, 0.15927431684846066, 0.20532189877603002, -0.12419866903462679, 0.21201724514590198, 0.16222011255407626, -0.15879502400988016, -0.06718896108286629, -0.12323804536635308, 0.26067542471618566, -0.00342295060994674, 0.12369152502340763, 0.13914010498224966, 0.04019080817698212, -0.1127912047819192, 0.044085578466950714, -0.018044025447866124, 0.23857266367660446, 0.1389953064530467, 0.0825821158748073, -0.14727963087548335, 0.012578221242131093, 0.24934014902314994, -0.26092140307010303, -0.1295112142489339, 0.2500491515189467, -0.05051170008768627, 0.16089065632781657, -0.08237711394205141, 0.05770930905965094, -0.05384358142913212, 0.24781534726473775, -0.057963858734269014, -0.11130868970993138, 0.16125249454700896, 0.020749747440598876, -0.07257873893073338, -0.0593455274741336, 0.13633761644801895, 0.08359567283598796, 0.011880354596123188, 0.005684174230068562, -0.2381177228574312, -0.07609872393730532, 0.14780853443252273, -0.26674550298743016, -0.1834668698767391, 0.14893801348246444, -0.03793672091485992, 0.01860741874116767, 0.061511938392620036, -0.05445010464141112], [0.04832866811420067, 0.22834924441244142, -0.11389783919683094, 0.13526225649499818, 0.08283318353931851, 0.17935259248729712, 0.09611271507611918, -0.030226821213338667, 0.20319203245692485, -0.09182551965280969, -0.09586182985131037, 0.25383194401494635, -0.03502272025135811, -0.09036854188400648, -0.10473032287461873, 0.036657949601913487, -0.0037226954412656887, -0.18133850753184624, 0.2566298147593321, -0.15952745637350094, 0.16163100609935116, 0.05001066139652677, -0.11585794955827575, 0.027821428765307576, -0.11018248916954038, -0.013157546363135597, -0.2614072985685585, 0.07718337560785665, -0.16277528038098588, 0.24504203376484301, 0.10570665241535782, 0.03708316481767243, -0.26075111982351995, -0.1459196006634667, -0.21055738492325607, -0.2352482154308695, 0.08674101659744987, -0.04283916097715684, -0.16791078083845715, -0.1441559534818618, 0.16512866563088124, -0.16734313063312897, 0.05981447259306222, 0.25780462286852734, 0.23802327243319377, -0.00021377717194892565, 0.07553181810018195, -0.014688332660068637, 0.2214873767984029, 0.14186282442546677, -0.03668504499934702, -0.0075537195133655866, 0.22687347769367905, 0.1380657440643186, 0.10253991418725361, -0.017020975636817925]], [[0.09152713891045218, -0.11798391094783323, -0.14744775595077655, 0.25500984738286836, -0.05703699204214849, -0.02009805024709846, 0.12367034851362388, -0.25991563911443877, 0.057955139663728894, 0.2768055644487708, 0.2555931752289376, 0.2531319782981335, -0.08738990838325267, -0.2364103398669773, -0.20773791784161885, -0.15631235711381744, -0.17156489894585128, 0.19450711818682737, 0.15893510103332237, 0.22302032920521403, 0.241159261316579, 0.1421679491849469, -0.2001826130328936, -0.1284687359756742, -0.1363693025144369, -0.05212905417551886, 0.03230178459294375, 0.021510908020196895], [-0.10971337814149451, -0.21736276405130522, 0.09549325268059057, 0.25589479167291185, 0.294001563989812, 0.08915136575817534, 0.01563535063808087, -0.24067823670513971, 0.16693880750041573, -0.020329205961067916, -0.002181260173282798, 0.14720105368248954, -0.2084651994809142, -0.09973986823429126, -0.1173514054375735, 0.009149376209490134, 0.012128437982722501, 0.24098415601823223, 0.023102694238955668, 0.14692888285701317, -0.25226462674464795, 0.05400047340612927, -0.03358070323247131, -0.2304928669558412, -0.15087472320700285, -0.19419183656356806, 0.04402161241443736, -0.037051203299722786], [-0.09251328019905163, 0.19893283189413352, 0.20250605611006056, 0.24319818885607847, 0.19469202849490855, -0.09027625288654041, -0.1583334922604961, -0.13913885216804792, 0.00707134339014059, -0.16385581830809634, 0.1034940148527465, -0.12712888661534333, -0.09363325709034195, 0.12625588866546647, 0.0005437785398230699, 0.21599094263241103, -0.2138027370243851, 0.25952172072616897, 0.054381735079826965, -0.016038473388629647, -0.07023846022230429, 0.05976665303965728, -0.23322114320444018, -0.08154581476743353, 0.027577418244395944, -0.10097974008327015, -0.09284852403923588, -0.21666407992629502], [0.09441364210292391, 0.08379298055272788, 0.1158186578641762, -0.09500983811264402, 0.23789611119240545, 0.0017337856561832538, -0.2028959482724162, -0.036635776739814024, -0.1400501856728842, -0.16687041429384186, 0.2026821200997669, 0.11944033571861462, 0.12055141729412289, 0.0799514461170314, 0.1918900565085918, -0.20491778909927477, -0.03306766578964811, -0.08717534705322362, 0.10619341014283325, 0.18221451638163924, 0.016439482547091815, -0.11241563978312137, -0.08295592329557105, 0.03647749774667374, 0.03814916754911818, 0.0983247357966277, -0.06264882887534795, 0.24690778206045938], [-0.16027292845383936, 0.2570198778542868, -0.16739508275819745, -0.23694250131657124, 0.08054566158519885, 0.14714779697327499, 0.26259838512164707, -0.1101695013458775, 0.015616626105748918, -0.20940568241653185, -0.05016612497743127, 0.21192844753016876, -0.04283104628221723, 0.11880189107743232, -0.2637798948277551, -0.027786194605341836, 0.1604297307187115, -0.25914927436826596, 0.14987776861727142, 0.08498422054358051, -0.08936655316571249, 0.23759966731784676, 0.12195655071541733, -0.15242199062826572, 0.1885422309085546, 0.22985253380283674, 0.008462997354849844, 0.17329876932468163], [-0.03945184963044285, 0.2143455821690507, -0.08808483854208783, -0.16193249220383354, -0.01441918694991799, -0.01953342655990563, 0.1162599292287226, 0.14981941010305494, -0.07004490031393239, 0.16540280465175275, 0.01205132913410723, 0.1432917547012243, 0.03460325404627207, 0.21285445440230513, -0.07263827592083094, -0.09454488645096235, 0.09815458202829837, -0.13037209952880943, -0.12769186231641186, -0.027770840772010443, 0.1959359264837136, 0.018023817710304008, -0.2657898898890901, 0.038618323977260116, -0.21212069007240356, 0.20967285102669997, -0.24900048580751752, 0.18069754549251804], [0.04805321707403386, -0.12738980602314787, -0.025443177984621538, 0.09851395804800547, -0.25674892471063127, -0.2399126057673605, -0.09440223678914356, 0.18628780741034412, -0.2185069471730871, 0.24079954562285782, -0.028901143137559267, 0.2209004526829477, -0.18614093402497994, -0.12815669432659446, -0.2612511051498036, -0.19186948809884952, 0.06996110861865949, 0.07804907410243547, -0.003972904121737997, -0.2287305122253583, 0.19749192290517076, 0.09905654721865026, -0.12447513132542914, 0.0417075508095872, -0.18050859211078377, 0.20983702204190358, -0.11162950394896143, -0.2547298288911136], [-0.09816911609263464, -0.05605705519908502, 0.15779944568586898, 0.08762135182783605, 0.19240381439944265, -0.10394922624106936, 0.20774867377503714, -0.24776958501759658, -0.16048421342397823, -0.21345615884408653, -0.08515445300634139, 0.02792410965122137, -0.02617252008490495, 0.17132607157096125, -0.17336999437538347, 0.008801096901608872, -0.04659080882772101, -0.14936481793866616, 0.23000318820644972, 0.24276813432637387, 0.14023483429387157, -0.019364157015463013, -0.14393432280292212, -0.15854230319981333, -0.18633594983027607, -0.08282743900459436, 0.07617096492753067, 0.09370156480958175], [-0.19413312403650154, -0.24075840897661227, 0.04398270845326485, -0.23060879598334738, 0.21400083674861045, -0.1019635087668059, 0.22806203695189778, 0.22873725843165132, 0.05468730953639646, -0.11081678823775182, -0.19191665698281535, -0.02522939104016473, 0.20556415609676837, -0.0916144780654647, -0.18818675280367697, 0.04658374853582159, 0.19392832871553767, -0.20525459336027482, -0.11670946527118092, -0.09895658933150837, -0.042536983779972226, 0.1680847127506193, 0.0772284811280542, 0.005387083561346928, -0.22587787882367028, 0.05690795781446552, -0.2330189733149933, -0.03872822826524555], [-0.08478086771488078, -0.02126905161242984, 0.20015034424988298, -0.1464596836955053, 0.13974858833716353, 0.27757198069334266, -0.13294710715980068, 0.0689681836753635, 0.2286229455229854, -0.20730510548526038, -0.23794654959202508, -0.2388071926275168, -0.10674903739897182, 0.26085610240748147, 0.2145502632877549, -0.1719918182785608, -0.09345296225337843, 0.24672765619256898, 0.18363543731263907, -0.15328080449272752, -0.11481172515339373, -0.22897047003946375, 0.252248079010178, 0.12752566758352207, -0.2624878228534576, 0.25282631094019853, 0.11161453270730981, 0.15037588942575167], [-0.04146641811928634, -0.18765899574659034, 0.06740537600236131, 0.09987988099408167, 0.04824971113595742, 0.1952773098790337, 0.1640030216904414, -0.12890637935496163, -0.030606802705439168, -0.12440766991758487, -0.03842739210836367, -0.1391931770817315, -0.23639379612746128, -0.1965237387097551, 0.14983309058479216, 0.10704409149812721, 0.2243711164891164, 0.07893906692921383, 0.010601017522533887, -0.22489400464501455, 0.16306675086754333, -0.2267777559539138, 0.13119388028826878, -0.06250343610430226, -0.15637321936560838, -0.13711153745439944, -0.0463451129200452, 0.11970131739234513], [0.18974480699200275, -0.10631141197821314, 0.020390003308677063, -0.12457891088137606, -0.14817544403225733, -0.08448904445791613, -0.034714242516093105, -0.20054365245685102, -0.23207995648804003, 0.18857916911389722, 0.2386878037200709, 0.2482178817313789, -0.035377494626914446, 0.04722504472076977, -0.18300818040406752, -0.002658100995083638, 0.14074384795100978, 0.12533527038227832, 0.030943277261046395, -0.18926242160809253, -0.00018843860546973498, -0.1735275546085498, 0.17452183880449812, 0.14138201826190855, -0.20559070587294423, -0.22283386584290954, 0.17666028013205554, -0.191686463224632], [-0.14818746727316423, -0.12711082209752547, -0.12277299339062872, 0.29733798840825115, 0.18463067984600698, 0.1299812269138183, -0.05599411403636668, 0.19956592171465115, 0.1233073400877606, 0.16251310104341907, -0.20713897654729624, 0.13662055266535306, 0.11554665004710607, 0.09941463768026797, 0.16792834520742, 0.18538711464942184, -0.21097808758632097, -0.008686501790336683, -0.11810375424266911, 0.2138913279695673, -0.01961806140783467, -0.023813311627024075, -0.12988928062914532, -0.2555131889509794, 0.14739409848053597, -0.05163303461504354, -0.10810421783000579, 0.0878843125487544], [-0.1098932825066368, 0.14486266597970343, 0.15715295445126531, 0.15164230294804448, -0.06370906741390887, 0.10993214353318768, 0.15490323286815705, -0.2616586842628408, -0.1108797442096978, 0.06496309961037933, -0.1637207982100067, -0.19165440289390537, -0.23203541026331137, -0.08230518848825333, -0.044086845662777735, -0.10639736276221104, 0.2395031784760881, -0.143386731141623, 0.13821104627466024, 0.14281310337539177, -0.0516245092857483, -0.17462527067807956, -0.1388854928026896, 0.051266739451145515, 0.10291403247915626, -0.12071287725911424, -0.12628205120917027, -0.2596271712363902], [0.11810713835678677, -0.03745151297287566, 0.16354504543795514, -0.09952764517931445, -0.0026406182059323592, 0.13003139166212113, -0.16596899426377487, 0.1449116789759855, 0.15054812311686488, -0.021716482971466007, 0.2620262292892551, 0.004056998067070582, 0.256761326539082, -0.07667321922546867, -0.059654684196274066, 0.1450162158353938, -0.18324358431705043, -0.23576006565442514, -0.17194179472835425, 0.041644876535888074, 0.14377258659947278, -0.02669746943107294, -0.2069407292923262, 0.06331972851570544, -0.05947010834576255, -0.1482961259049216, -0.11697792181389, -0.24774892861648537], [-0.2115137569028064, -0.08460456914307485, 0.055462964621561604, -0.1823890401604942, -0.2671242747220907, 0.11300111019940384, 0.04130713567613819, -0.026364579984441583, 0.1548365071660662, 0.11016089500074766, 0.14933100180006334, 0.12364204728681401, 0.17828559416769352, 0.21901891544098034, 0.2029623675709698, 0.24772419510351099, -0.1854535437140054, -0.21936655355850246, 0.12274971682474735, 0.20194834700839823, 0.011169219728340883, 0.17820305780810133, 0.013757796423164548, -0.08247410716993295, -0.060184444145235924, -0.21030906140383793, 0.23516532002447765, -0.1292201222755153], [-0.12157656888225042, -0.1080614590999183, 0.09858650462505515, 0.1742221275528392, -0.006026350437462005, 0.22427775843253875, -0.18536879514105786, -0.2429612207394988, 0.19702363235143672, 0.18799016742516944, -0.05224891200757526, -0.225467063269194, 0.08400165916648339, 0.0757405897990335, -0.24321471945438827, -0.150801997881181, 0.2508083381233385, -0.2229893203743686, 0.15021062729472767, 0.09058252267807626, -0.24027937951935466, -0.1746677750346385, 0.016125981406417467, -0.013706995613907442, 0.06104548668379767, -0.22917189575191177, 0.24850824994786502, -0.18947584355277886], [0.2177131432182947, -0.08394476385658281, 0.2041184798133018, 0.2054310049037826, -0.15358767292021597, 0.239617272274638, 0.1813479601402533, -0.16098986452996866, -0.24091022300422738, -0.21210465393832242, 0.019618883165376123, -0.14574646887924864, 0.06749556911983684, -0.13745473348404696, 0.023004617372491376, 0.06057813895075281, -0.08567308893974313, 0.12714659580697704, -0.23517592934651627, 0.09993726341572932, 0.04320514041485055, 0.029096439220227678, 0.11675323903892476, -0.16004714765613115, -0.06208945896088311, -0.17717922145948384, 0.1946371569935838, -0.1442003645743013], [0.1655548055543238, 0.23761871395678535, 0.05691922603716861, 0.09608291388782764, 0.2094586372303364, 0.20148426144085052, 0.14148068893132004, -0.15084417654620166, 0.050843337312409954, 0.23440190155613858, 0.0664824536320377, 0.18542773052059527, -0.1772394598139501, 0.09659266522298755, -0.05283854593568363, -0.18277735847499946, -0.24868644039393586, -0.19254334752463664, 0.11818413100592448, 0.18890310413817962, -0.24645284369210785, -0.06837507096179611, 0.07104940167022394, 0.0021598652482338054, 0.060092448384882605, 0.19717288876945904, 0.183962665353685, 0.1171522824688368], [-0.12068314059429547, -0.19107884736877917, -0.2169099142466669, 0.22714827989981093, 0.027595875032603343, -0.034862905935845935, 0.06252729604793546, 0.2544743539191129, 0.23546980880441426, -0.10167038961618922, 0.18772963100559203, -0.24718238183547292, 0.047379657305021305, -0.24239848449481735, -0.15354242825540365, 0.23197985181698683, -0.061138735353834656, 0.2709573193316402, -0.18551050169166536, 0.22921271297970428, -0.007744734164848149, 0.11499949988977765, 0.017616175203542306, -0.17592824154619344, 0.22163720750777208, -0.2042510897015345, -0.09699737280365409, -0.04028569307336893], [-0.07849892547701973, 0.006837752174765177, -0.09846997940648401, 0.2308093854315763, 0.16443674096199054, -0.006150016310226325, 0.25650036990721586, 0.035803516307710614, 0.044097935544775035, -0.10636882698201713, -0.18235020415207442, 0.26900626919807674, -0.19282280113677738, -0.25350140396370074, -0.17587742988743754, -0.13285466585688274, 0.2196110561199573, 0.009539913420006403, -0.24376889411434527, 0.005676030492787317, 0.06209488138105403, -0.2473451819403237, -0.0038573107613246727, -0.024876441675030482, -0.04316859997691705, 0.13349115477375956, -0.2028154929210254, -0.05088945592439004], [-0.14519374169568505, -0.16458956476730002, -0.07893310403110332, 0.1164436000373571, 0.16778641411334805, 0.27330235400946506, 0.21468694941874544, 0.04064901608630789, -0.21553582945957017, 0.12118287987822159, 0.23762799250008396, 0.16266395457434651, 0.008352946530195582, -0.03833928854581199, -0.04849259675500747, -0.03576277655956617, 0.15403755203977745, 0.09045505070804159, -0.13659682331505646, 0.2320958491985989, 0.15698887826791905, 0.2649346480221421, 0.03346218549602803, -0.037411068593659835, 0.18978385565834827, 0.09138791034967662, -0.17784633928870602, 0.11971089666014251], [-0.2374527072776852, -0.24625549400522545, 0.0029722095222798547, -0.2119303340670882, 0.10613269604944793, 0.042273866547028915, -0.23051878460202624, -0.11206958067317704, -0.008970952836559715, -0.024477174361088466, -0.002104373836908517, 0.20888977878412762, 0.04474415137144372, 0.24703473431538864, 0.11720051336525883, 0.053808883319467274, 0.0029234762561306305, -0.14784830300772037, 0.16530602943411643, -0.19867878541678113, -0.11984468833951102, -0.19638030539051293, 0.13032471089008535, -0.06849064487053505, -0.08417472463836233, -0.07758105760796426, -0.07227681972191885, 0.07616595281137975], [0.23648909139046576, -0.11743289332493481, -0.10379151156550602, 0.08822351810715671, -0.27820803763213464, 0.03108418124695522, -0.22273001981225557, 0.01862505733212355, -0.01986370618482044, -0.13417578861431081, -0.15809077098772478, 0.04604331662820637, -0.2563986339087306, -0.24001514454635536, 0.21967673449008268, -0.029167235932843552, 0.003918163252775617, 0.06435303811701153, 0.17351614284281897, -0.037413359155737506, 0.126983750623779, -0.2365789536058161, 0.04031135359347432, 0.13770123763694486, 0.12852500197634456, 0.23748247289259172, -0.2030218817033555, -0.08001617804010296], [-0.18327185126712675, -0.0784393899687155, 0.16709512222810094, -0.15083481032566945, -0.0740435161168062, 0.23605421791186515, 0.19107485348258782, -0.06223352578909208, 0.2443888334765133, -0.10575833425211278, -0.059583539934916455, -0.062190735146660674, 0.2660944665135857, 0.03932221602529309, -0.10283263638670753, 0.026230440888486212, 0.10608687874864195, -0.09840200578786625, -0.0004857063325690729, 0.023785369113319903, -0.0814062530321216, -0.21561906997706332, -0.038494548793123196, 0.029013978288431552, 0.13496332878544687, 0.18203885240181442, 0.08858213682940302, 0.11344262720291844], [0.017884071855530464, -0.26018077266870004, 0.1626794182037672, -0.036518097187601815, 0.11777115038394703, -0.051364422209408164, 0.15976372015896365, 0.18010487100161593, -0.21629496091456163, 0.016785354433119144, -0.0604108666229481, -0.04733370522502754, -0.2349982134921408, 0.011226682769802232, 0.05041415130303989, -0.0027613827389720755, 0.18605984276935875, -0.14286321830329213, 0.1985665319102143, -0.23750506825180326, 0.2634531961222095, -0.0050961725511600164, -0.06874242343087586, 0.19621594068563894, -0.12897979622274322, 0.07566774759864803, 0.11416534097958275, -0.1805749744618586], [0.13182690325676738, -0.011068858589272423, -0.2152296788659415, 0.15950814188712215, 0.09606054308224922, 0.20282711084974298, -0.03612019667528285, -0.18741732648435228, -0.003026601361377597, 0.27728502170738795, 0.17679142987357124, 0.23726058547327694, 0.08937659451703905, 0.17850881593334575, -0.052551793729045254, -0.14881624084422837, 0.05239539534901733, 0.02318040251881975, 0.19252242308017908, 0.18838655857574393, 0.06484269616741074, -0.1429030725071198, 0.12627285509801284, 0.14837211183667914, -0.029450716931501413, -0.18095969757035607, -0.22166192455620762, 0.0079250645300107], [0.15743340018841848, 0.19347771021725374, 0.1965114352975357, 0.18342301206132258, 0.028220400522544577, -0.06614053117008079, -0.25594742234238427, -0.19474527173941614, 0.191090941386848, -0.16677543147724908, 0.14735030373288635, 0.03149959643171087, -0.05037490836403402, 0.04821774082142127, 0.014278831255294833, 0.2006972152795161, 0.16191671743990152, -0.04270939666311917, 0.08480841558941046, -0.03772961058519043, -0.2286330525669189, 0.128648119437757, -0.01301774550731083, 0.23221801419484023, -0.16780864294462633, 0.11376930232394811, -0.059075697061407834, 0.04718247177953355], [0.13161257526754466, -0.008672763072556156, -0.03962252929157576, 0.26956887743251384, -0.22813411605114967, -0.2256644701411766, 0.10218238277335742, -0.06198093275264202, -6.497714560303768e-05, -0.22645012737806597, -0.201326900267279, -0.2191035008905611, -0.17221598868401117, -0.2387820642052355, -0.1481375775775403, 0.0853312546155532, 0.21728165793976612, 0.26989544165868784, -0.06074325656671571, -0.0679080394188893, -0.05690475710073091, -0.09259627142763363, 0.11296090589955077, 0.11818438528524235, 0.013659663216153776, -0.08052226638177956, -0.11390452118723496, 0.022205347105622632], [0.011872502157954802, 0.18648975527657458, 0.2453634691400444, 0.06701646547281143, -0.1301255204216003, -0.181344975390851, 0.2596108023902676, -0.01190613400977586, -0.20357168104877427, 0.09883655152693821, 0.13857067888246544, 0.25769260901266733, -0.20880039475294557, -0.07227888642923347, 0.17686095301920063, 0.2516066807063437, -0.18045520358193226, -0.11268364275168045, 0.015201909346017043, 0.24499671911744805, 0.04986188170445112, -0.1040960284493396, -0.22227946078858732, 0.18364626442254764, 0.06714578777042901, 0.2560699107923564, 0.134145956739804, 0.07167805370214825], [-0.19524043300136593, 0.0934434049050214, -0.25429121525293885, -0.08700979673542722, -0.043620907152156295, -0.057099069459675356, -0.04933643732514396, 0.06610654543920896, -0.1522718920396492, -0.16085178174227296, 0.2013032656562775, 0.19997769943779764, 0.10423394127051527, 0.03503112494372529, -0.2358002955408483, -0.12423685004235548, -0.12445632163348402, 0.08281528704317617, 0.12023561086748759, -0.25582120174032147, -0.059149671559792186, -0.09900238501473671, -0.16200291033136674, 0.13137267281092252, -0.1415866034833443, -0.029819044713577936, 0.2304176623846127, -0.0892746607874404], [0.264422148905033, -0.13656186398810757, -0.19940100205163613, -0.019960419862966126, 0.2497579627410906, -0.06475305283324993, -0.13060900753497356, -0.21434949472646614, -0.09754480114423265, -0.16084102159657748, 0.21430957436903136, -0.15664876140707076, 0.010275318227156494, 0.08485154453446411, -0.1301566744037679, 0.027342039189883562, -0.24519485405856908, -0.12091960514141754, -0.073467027785271, 0.15254324163440525, 0.04672120701218011, -0.17216503133286465, 0.08895141878520718, 0.2337693142838794, 0.25405418886261266, 0.04360493064740523, -0.25737679857359597, 0.032172721309862956], [0.07118268907265259, 0.09387219979666717, -0.054951995526114523, 0.10537723211425278, -0.033120015937163544, -0.1697079523062146, 0.1114790716093367, -0.14123537240633421, -0.21218241641877264, 0.01570604555031865, -0.1343177011021443, -0.2403927015156423, -0.17993896482474403, 0.23102210606509063, -0.2643134517785569, 0.08884296228085346, -0.25589574084238775, -0.1783796307589848, -0.19023983132671687, -0.1444432247385538, 0.20113709112619, -0.07394737558739517, -0.09435075209355043, 0.017333487584953528, -0.2246064259374393, -0.22957298351337452, -0.19969131043388988, 0.13756863988841556], [0.04879545756897008, 0.029159082302855077, -0.24677443805891083, 0.02086731427842547, -0.03140616953117037, -0.014119209324436277, -0.016750497600602987, -0.0090005084370684, -0.011718234810952997, 0.26719014890981474, 0.21430221225409407, -0.15580067425379723, -0.17479063523287391, 0.09603047092401712, 0.1682519681422453, 0.0019063116079268503, 0.10718329357752165, 0.2502552827993223, -0.00664642077804458, -0.05275992821070949, 0.16719715751528352, 0.09461304803526638, -0.1468518765685628, -0.06417886979398352, -0.0012805878677425871, -0.019725898395664743, 0.08535598825696461, -0.052041485139702734], [0.17324775388646707, 0.07916392307459341, 0.1256316608213634, 0.21923407034901699, 0.08860561728687281, 0.13218008684123647, 0.24084818633960584, 0.18390460498104289, 0.01828420403450187, 0.2399094116764333, -0.2108664977249279, 0.12754023411138476, 0.2560297628654856, 0.16085356648967675, 0.08378429743398191, 0.22544579296829823, 0.23391694080915637, -0.24766661693264128, -0.0256769371631417, -0.1335253753235322, -0.21938120975378567, -0.10715781216025688, 0.14036777248859367, 0.09830258246926082, 0.10152108975771337, -0.004222518928527541, 0.15595872443989, 0.07662704812104314], [-0.046816763650435606, 0.00017591055075577566, 0.017193942052145764, -0.15363422296996304, -0.14836050322181604, -0.02802190602258248, -0.12209304356424919, -0.10389943844262994, 0.2087174227841084, 0.2516007780164483, 0.21763352787396828, 0.11345061326207585, -0.14036265113266, 0.1400791874267833, 0.03969357335506152, -0.15519074123530602, -0.17868464191791922, 0.21066370985659194, -0.07684762502258481, -0.1952530841637351, -0.26217172001805616, -0.20225221544160457, 0.14795424039609978, -0.12196645388449774, -0.1304251928957454, 0.1838555213539393, 0.05556300755988808, -0.18588199468253203], [-0.2646314524447559, 0.06645639471185866, -0.1765805705777276, 0.17109361980825874, 0.0993627138081602, -0.23852504709828018, -0.06910877845485146, 0.1803714567968175, 0.09398501607413634, 0.08732893743232413, -0.2041147512985968, 0.06924081628466063, -0.12845542822518655, -0.07378372671945031, -0.07484044094627365, -0.18787318252635438, -0.028024838540676555, 0.002514661882233167, 0.10217156637292327, 0.025691901266586773, 0.23378482801221254, -0.21955646027127612, -0.042746396444691054, 0.0004333550813436486, 0.13293590513692682, -0.02475998319662359, -0.010042288445661685, 0.10437702040743932], [0.14979411121856392, -0.24275033983302333, 0.2424037473787853, 0.20434429385623593, 0.18446178056141005, 0.2485588965197632, -0.09086810198005124, 0.149975636710535, -0.13251570122785708, -0.17210293080321537, -0.01064607534401707, 0.22982755390085038, -0.20926945506487846, 0.11788588588618652, 0.09481781815035112, 0.26213428671469946, -0.13075441448372768, -0.19934081290633543, 0.06388806612140421, -0.13192850451891022, 0.08704450005385127, -0.13563529998500637, -0.09071959997977469, 0.21875537909400478, -0.06910098193773492, 0.17719159031872356, -0.14513600381585762, 0.2585344003512064], [0.08858566852299518, 0.011372292851119403, 0.08899259001617525, 0.05738637539617205, 0.10285366004474765, -0.12838896705514002, 0.23784857936196582, 0.1328552453443368, 0.004506079020129157, -0.04818131432205864, 0.18434381047183904, 0.013860105281041656, -0.042018945573331024, -0.01976112914339437, -0.011965463767807993, 0.05404495242362912, 0.11214374423638912, -0.0830445458774659, -0.27178731007047446, -0.18401150159182109, 0.11297520193016726, -0.10596396735487122, -0.10851361958018699, 0.0705664662668376, 0.051517140803900734, -0.24937643048464267, 0.11758334767038192, 0.1512292689932856], [-0.2309471765991557, -0.04933661285151761, 0.11955136737794432, 0.17225385455999476, -0.1528417331462494, -0.1024298564052726, -0.17750672821558386, 0.22849678308176685, -0.1406046123229778, 0.2249223970713711, 0.1304522434965092, -0.03711853063189885, 0.213393298955519, 0.11463866025115224, 0.1550474391392775, 0.13944752696743945, 0.07526666565256379, 0.019401544738908896, -0.24340956865071117, 0.12860392068001333, 0.24863186980519472, -0.16585972213802186, -0.03723380521050895, 0.2103545231171327, 0.14759118453419817, -0.1584968902791144, -0.2669807074670705, -0.1761218288812957], [-0.22179408607084555, 0.08949064775651427, 0.21830175009145353, 0.012873640978703766, -0.23460469657907093, 0.025087135473230254, -0.05117831616431302, 0.007329525632217948, -0.16731132666646856, -0.003958941125394448, 0.032577506945550304, 0.17180436764244594, -0.14568233099890354, 0.10446075161882672, -0.15894710947370144, -0.22873723476971086, 0.16126656145292212, -0.07157882577102131, 0.12826885237818098, -0.1372662765398194, 0.04371957598923388, 0.21093563309192317, -0.23988515118739392, 0.13341226225906133, -0.22459792811328286, -0.26221316223335633, 0.08001900566250192, 0.18589062336250534], [0.047346887292325, 0.01748648498051497, -0.25229335678011033, 0.03581669373721391, 0.23198597196887424, -0.021440043047564427, 0.25562088324608373, 0.19268304084987942, -0.0378674416483897, 0.1022396737510985, -0.2249484810686955, 0.17522007466571088, -0.011100184516665335, -0.07230771772555415, 0.225729087672351, -0.10423367761076988, -0.10094668716848466, -0.017991719161481158, 0.1288808943509403, 0.24424918913988097, 0.17388360227211908, -0.02563053117027604, -0.24389384502723743, 0.06349907179053998, -0.06506991533200177, 0.18190661856004134, -0.20318875456617122, 0.21683938850933404], [-0.00619809635091384, -0.040395744891463886, -0.04545577355237773, -0.21852187773233164, 0.04576759249953368, -0.12233961303547111, 0.1901622466525672, -0.1744255752274369, 0.20681167249960286, -0.12109013135173435, 0.14781971268238586, -0.012277381918676519, 0.024049162546234126, -0.18753032730256636, -0.18421432079564665, -0.24105020285267556, 0.03953386104825022, -0.18753833431060005, 0.06948938074991089, -0.19169137653394883, -0.0989406072839746, 0.06548183749632724, -0.10311669838066209, 0.22733879484982952, 0.22225670403057413, -0.25093614127843633, -0.02078716974116951, 0.09108620485867742], [0.17272266482767443, 0.11800999998205758, 0.048370146021269066, -0.0758337506557656, -0.02852050629308983, 0.06687779559567397, -0.25410243154337653, 0.11856567080438157, 0.11544408447417015, -0.06827005310447407, -0.040750113831606344, 0.16971709253276734, 0.174879686340002, -0.1980518379297005, -0.06560840183351643, -0.21238421554039622, -0.1800576392106512, 0.2512927388602611, 0.2511177629606106, 0.18495954258582256, 0.15573201656057054, 0.05587574537301754, -0.030590852024985654, 0.21060345791996218, -0.2256351461060226, -0.22489103643805725, -0.2553208492296959, -0.1947733042818232], [0.1666234273110625, -0.04677595802910514, -0.09526003396347525, 0.2545031462289072, 0.10340649445347237, 0.25758799004929156, 0.08686714774193582, -0.18857703030051015, -0.258870667055746, 0.19000636188654157, -0.046271863056383686, -0.12668205052571313, 0.011241523868620262, 0.11160852702514651, 0.1044751748436355, 0.23695144233497742, -0.04847178825443389, 0.1921279829768259, -0.22652476163458227, 0.1398469971606716, 0.047996567237781645, 0.057133832736202705, 0.1199273761643237, -0.03085255476651538, 0.044981928853096015, 0.002857687935344133, -0.1638858844053743, 0.19065776612703103], [-0.03854043172029758, 0.15642706391366068, 0.15085696604419116, -0.16849927452250785, -0.05699193447176106, 0.08310630313255447, 0.14075430150996376, 0.21766789773697243, -0.22919726658652304, -0.25340178537187236, -0.22128937935135626, 0.16914963833407887, 0.12804094486496254, 0.10683033436414915, 0.04645644292617229, 0.2631572373704833, 0.04264682940693371, 0.0026019886669302597, 0.1787340219873611, 0.05787761343947392, -0.07010133927852095, 0.20849955155322572, -0.14828435087779868, -0.07842219109931207, 0.14423739927939627, -0.1462595981215937, -0.18040197059268315, 0.10954852347746455], [0.25401391275484037, -0.009230623790089931, 0.16931920842521614, 0.02495760278699801, -0.05471525174299064, -0.25856581779105864, 0.16730612401366235, -0.2101137641272133, 0.11721555383343056, 0.145964117716938, -0.15578006571050163, -0.13968450853559441, 0.11838922690855042, -0.08847496376310786, -0.1372093941979904, 0.06013430316074383, 0.1028750612896518, -0.02139200505395738, 0.13952124514827216, -0.23539105763954543, 0.0700697973109687, -0.18492537788512425, 0.004923920087451683, -0.07524255147277988, -0.09425094295805084, -0.25370489439754473, 0.1141329246884572, 0.18081323233107294], [0.20854307368322528, -0.0020571378163379284, -0.144859480524714, -0.1772597425528909, -0.19735726668808187, 0.19289560678402268, 0.2719378798663594, -0.17497296081549343, 0.0695529303618494, -0.19835405077693077, -0.10660380055488505, 0.20584611540010184, -0.06666830319298953, -0.25679256050198374, -0.1954284965725216, -0.08191168308912651, -0.23379832528733838, 0.2097238355073213, 0.0947914519826738, -0.21895008972082658, 0.24810655307185187, 0.08858357206686363, -0.06513101861479784, -0.004904810210084735, -0.17263923172586051, 0.243300500527742, 0.06808077476490276, -0.1413725137597649], [-0.1458434420400646, 0.18223264338823175, -0.11835552054363935, -0.1428620854058852, 0.18080474752538328, 0.22929655295108856, 0.025500617055785883, -0.003978686469155335, 0.08203899611595059, 0.25183779603718304, -0.10201784756805422, -0.040232752768739305, -0.12875608963150897, 0.2632972162871057, -0.03722809323523227, -0.1867594494465573, -0.06922227539777162, 0.08711804858885305, 0.08560130685402262, 0.04834282165197814, -0.2516387068449151, -0.20800902062562038, 0.23243332648902526, 0.2345877619752622, -0.1494937577089201, 0.007238596479785938, -0.008242159911307834, 0.21191436997492175], [-0.21445952783310435, -0.07598255619000521, 0.11677832106969106, -0.22500027493243488, -0.12042789722128064, 0.21191361629329, -0.060924123302904906, -0.2557741169634456, 0.22047729508357017, 0.21056740390325432, 0.2239434214964252, -0.05001714027628757, -0.2632332914398825, -0.17176881823882065, -0.12163837772280534, 0.0995864305851204, -0.24422419828607114, -0.15506958823611583, -0.018727183224657183, -0.18732065440125603, 0.13860007280273295, -0.21855635979765092, 0.11745371056392567, -0.25861279695292466, -0.11071752394931868, 0.0746393177771364, 0.12281468763138881, -0.15112378249629313], [-0.07167430656312854, 0.1819469997041568, 0.23712969442080317, 0.2520173820741096, 0.08852278611378388, -0.09817534390253817, 0.09018536358549466, -0.13775207647103943, -0.010783411562568478, 0.2082665423546974, 0.27556453231782474, 0.10723845110084318, 0.08208966700060583, 0.0942728328240259, -0.012454734106052356, 0.08207378514687441, -0.11101330500780218, 0.2610019789958036, 0.11737711371069666, 0.14026457620879798, 0.2654033896521388, 0.09138758555344076, 0.14865351586528325, -0.12361714538568053, 0.24689617697092509, 0.08663062622615346, 0.11371872712633285, -0.040544677471865145], [0.2644039659488149, 0.22769873361913445, -0.08756079530394217, -0.1241844826490679, 0.26986227949682895, 0.04873456293995685, -0.21193811823822212, 0.132186017343969, -0.24135320062958585, 0.15169819304902132, 0.18226910007206737, 0.233560420253091, -0.01885818808413356, -0.14247221219889722, 0.21325159982411995, 0.21699083886571563, 0.24892724105086927, 0.07456337278156834, -0.15606684722470993, -0.08904064338829312, -0.2275186475201395, -0.12766261537381535, 0.13131578942325428, -0.21597275260061644, 0.21926571171140036, 0.049396584062709255, -0.0791613780778449, 0.12238108837197068], [-0.23237109487534777, -0.10456446174662656, -0.20708189831880477, -0.10833876821893725, 0.021458198434529552, 0.19495263776907068, -0.199874035099065, -0.18729043070151785, 0.2578932198473786, 0.1299570721292512, -0.1200105756605159, 0.2279898715275086, -0.13844323016950075, -0.15812073971617485, -0.11194124969288707, -0.12822999252575104, 0.020483975636585557, 0.1627664560962802, -0.07429058711380168, -0.015895548204533098, 0.26523877467416074, 0.17359006860762516, -0.2009269116016658, -0.20168918479856784, -0.13377320564537765, 0.06098131754127035, -0.06799275933902924, 0.009577343177079591], [-0.00026032915582119287, 0.0914306076705324, -0.12761811851911378, -0.2372578584063099, 0.24019447469535843, 0.2393871062470077, -0.02659526671608379, 0.04954754501508263, -0.19796484724776664, -0.05271607036751467, -0.12198609042248593, -0.11582164308835276, -0.07732959651658863, -0.06385559815656869, -0.031416336657656446, -0.2517831851882553, 0.12022699260982377, -0.08915326709073161, 0.118796130490117, 0.04748294179870185, 0.004864341804361549, 0.27523695426885686, -0.24771766496874223, -0.2340907142312639, 0.16529894065663842, -0.14864221154128152, 0.12124498003036188, -0.197093831083347], [0.06990530775999595, 0.04328174597656448, 0.19035692633606788, 0.10802283441774167, 0.06371598793418908, 0.20896751706794273, 0.22759518326165476, -0.2556566517606103, -0.1446567193904176, 0.04529702867550502, 0.013226446423227864, 0.1504475134338282, -0.20574515649335862, 0.24344231342288028, 0.11694110157297433, 0.2509999402626186, 0.011731852465769882, -0.0399553503406626, -0.24862859945279753, -0.1192588787714355, 0.15027022512235255, 0.19685402143337244, 0.022898024700998165, -0.25784472376990547, 0.2599846012733419, -0.26480836938807534, -0.14396424060942611, 0.18789199084444072], [-0.05959552857145918, -0.15763513839134227, -0.2596474292197633, -0.18557788584036175, -0.04719657845225681, 0.08520328322063875, 0.08385386540636293, 0.05052327302060272, 0.05770048151521773, 0.16974307570851027, 0.18950017300194422, 0.03379575199336568, -0.20446724136336142, 0.010664425855731694, 0.12325796716445742, -0.2459245878840229, 0.2133788163749356, -0.10758684348193948, -0.21404381084653193, -0.23814332920749093, -0.03765250134938462, -0.11101102702075444, 0.15192865189599591, 0.20549748688135233, -0.011580298923910994, -0.13435766082617923, 0.027664743190441266, 0.01365943565501103]], [[0.4027785638594622], [-0.1007786399932844], [0.13254840080009753], [0.5189825489699679], [-0.46729529555288685], [-0.3578461403649085], [0.31962883979665674], [0.40147031192678134], [-0.39531762148134836], [0.3095457358790666], [0.32480463509057683], [0.4307253766389351], [0.11074237911680479], [0.004541266041969714], [0.3882677100234981], [0.2853542745543359], [-0.34504708290019137], [0.2367384223113652], [-0.19136220357837577], [-0.10621355694599179], [0.016085234007641308], [-0.23411584251244066], [-0.32663501332210254], [0.2882322331020609], [-0.42496591660947364], [0.09398251171635776], [0.29257704240061594], [-0.16587935816568833]]], "biases": [[[0.018180525751588003, 0.011487435343031762, 0.006981943868587739, 0.004689631924317708, 0.01844412112429429, -0.01210646309052283, 0.0480999999137178, -0.005784992318529247, 0.02235860828205688, -0.0032172858353351082, -0.0033626386818790344, 0.010506108323098057, 0.003307744708010149, 0.004876839846282294, 0.005807864147224624, 5.086530336927441e-05, 0.01686168194717221, 0.008586893883183198, -0.006029029764080606, 0.0005344608684192498, 0.0038941489242007034, 0.006588390875276749, -0.014419712074572369, 0.0016805242799335614, -0.009549579831378404, -0.007004241582762412, 0.019764874163159588, 0.006132275101435938, 0.008757392091946188, 0.019470863789604515, -0.0008949039723731017, -0.012235929732400577, 0.010200230081580814, 0.008868114624882475, 0.021447240427737324, 0.01298061266111201, -0.00940238393806354, 0.0040830994335782946, 0.015394186051420594, -0.024785630728878502, 0.010251819879044248, -0.004358402287299498, -0.034594503720378894, 0.002364909879182136, 0.029732659243583582, -0.005846070255181644, -0.0007919458225705963, 0.006580424278321053, -0.014463090048590388, -0.01671562395731068, 0.01002260948639597, -0.0056687465359279085, -0.006292878152542886, 0.027021206276942322, 0.013049315931388606, -0.006118916041986438]], [[0.021541324271605176, 0.0, 0.010337183156760632, 0.06745591068661368, 0.002791942419125417, 0.006804347740487775, 0.005426726589611266, 0.0, 0.0026605277418883123, 0.011456666211343213, 0.04208352545104383, 0.01656167696195101, 0.0, -6.173253380466259e-05, 0.0, 0.027321046303321463, 0.019488771441143644, -0.003455711413970926, -0.029134089519314267, 0.007840316252491434, -0.000597583845995204, 0.024140803832235644, 0.0, 0.012841726777886166, -0.007432480191697828, -0.01030932852317429, 0.0, 0.007946029500556655]], [[0.04008361795505467]]]}