{"layers": [28, 56, 28, 1], "learning_rate": 0.005, "weights": [[[-0.13757246591931788, 0.14863653449352834, -0.016931050705500245, 0.042703756879463185, -0.140487893589363, 0.0017772676356016793, -0.1781078604106148, -0.016942206557283953, -0.008480812879952317, -0.17767167791747285, -0.15510420177517445, -0.14475023059183262, 0.1731804672948968, 0.07409701785883982, 0.1616991592551164, -0.0861439175354657, 0.03859775359873439, -0.14798599190158893, 0.1903920090480773, -0.13177783853203792, -0.03549579367475158, 0.1208395653288699, 0.04562402044644602, 0.15905360691258422, 0.21331127953454154, -0.23268781105147618, -0.18255771065532997, -0.22870984899067892, 0.19101721695211749, 0.14010073842390922, 0.032238261165466825, -0.008837592263522803, 0.10070216135341575, -0.13914547569509364, -0.17559136056802951, 0.1914301088385413, 0.2645208068103584, 0.09445326987528013, -0.21302104405219796, 0.23429499010454863, -0.06059354250349244, 0.07739972329996543, 0.26344376449293067, 0.11726024979441522, -0.02251655449315306, -0.11491345279212425, 0.13662112788672087, -0.2474263667414475, 0.15401149891855095, -0.23461348610436783, -0.1682147000698045, 0.05143546286600506, -0.11589298780342358, 0.1197154109359744, 0.18454493600429284, -0.07646385016022422], [-0.006132145950352562, -0.01834312977990736, -0.07537829420293224, -0.1991370368686432, -0.07043355080952693, -0.20170449668260707, -0.1591341844953912, 0.2729540442453794, -0.2200897181953286, 0.21196335822105344, 0.05403147159794025, -0.2748616828380195, 0.24233431007452833, 0.022476875960859205, -0.12521366252689883, -0.10086801720314272, -0.055515174941462554, 0.059999502159861384, 0.1484855462813136, -0.23558160134401718, 0.08523814894360451, -0.16794850719977003, -0.23894359273495874, 0.05401876560795507, -0.20342819959821493, 0.16853010187654605, -0.11678045118852771, 0.1826165693624337, -0.19289256502094337, -0.19075741084150938, -0.19861198472128425, -0.10726656049505857, -0.02872294669796086, -0.22343845947432697, 0.19094260157853254, -0.1594856621208666, 0.2486191625123933, 0.11085080351846387, 0.01825087279050185, 0.06370599141863233, 0.19304881521979275, -0.1468320198903617, -0.1467962600113216, -0.15540422072769888, -0.19951042723857576, 0.2687325273941039, -0.28900311317476574, 0.2947978036315369, -0.03720252770751183, 0.11896081288705268, 0.1815855015341084, 0.1816863527316341, 0.06388222933285626, 0.2667253211591006, -0.042502370608299506, -0.15892866746796458], [-0.13570198444246315, 0.22450336129445894, -0.10464712755762483, 0.03238568943956904, 0.11866216272975583, 0.17023801591048152, 0.18958410419620553, -0.10752586366602838, -0.04305827888766118, -0.018384239417293113, 0.1158784335707988, -0.23909746283064723, 0.20135090931148597, -0.11351468957564437, 0.13547804798532512, -0.026271663585959622, 0.07482912772663772, -0.06120676254815658, 0.14572767420658572, 0.039021015162623525, 0.08061012070749007, -0.10828929514089547, 0.09234914051950076, -0.13502427136566728, -0.0375594830990312, 0.04660557693234084, -0.12816691214503692, 0.21118996271381923, 0.042449573617337893, 0.19027167141499307, -0.04668333613674274, -0.06769938605668377, -0.08617994380686969, -0.054311761527142545, -0.21610628048275662, 0.2503470920099229, 0.055681039714042736, -0.11083875539169881, -0.11737614858768933, -0.21893078326599394, -0.2346797553889931, 0.04198853461760285, -0.05509082159504968, -0.1435902262744233, 0.26918382708562455, 0.11243543883633277, -0.12815455301592352, 0.2148501964838537, -0.06919726471114383, 0.040342973784488506, 0.027368092359081806, -0.2736585662737774, 0.1799717109183898, -0.24633587346725727, 0.25738357764648573, 0.26700429073864224], [0.04876872775573998, -0.19496638887885198, -0.017408382405153466, -0.007520507854325398, -0.24696955354505074, -0.21551286747500276, -0.22948606477454894, 0.1264686115716781, -0.026435649601358052, -0.08613795619906278, -0.07234750839815793, 0.07740213365297521, 0.06113951811284035, -0.07959488133279335, -0.10156900091818546, 0.1046110437088772, 0.0762335846020551, 0.14309674575961712, -0.08682245420603385, -0.10950565008028654, -0.0018372238472329494, -0.11523349744424191, 0.18167645180343062, -0.11649916470469207, 0.1353206181054335, 0.08726195346572319, 0.1607838113010539, 0.08230911016852288, 0.15510611298452975, 0.24723989111163458, -0.09210857516920004, 0.04077811995094732, 0.034814204028477014, -0.06201185236479553, 0.022400778430025026, -0.036297409492360294, -0.19952634759386717, 0.11702735361501843, 0.06155322410574332, -0.16660398180994157, 0.02028697650044431, 0.03924922396940084, -0.2587216469468756, -0.15926497796808442, 0.1308781144312044, -0.05842755592801349, 0.11603129418265135, 0.21076082848378852, 0.26413266634985144, -0.15903539262934605, 0.22783708126440294, -0.23710504467285473, -0.08757710053490997, -0.12577756490582517, -0.04986452086386933, -0.10493003270867368], [0.26554741904059465, 0.15505568720964352, -0.09533843815170556, 0.069060944408528, -0.11928677383268455, 0.09700247715279503, 0.2479571602937567, 0.14679904329945154, -0.14063283607088561, 0.17038864586411145, 0.0051225986957059155, 0.23104030732603775, 0.006457039127254982, -0.21035877011383247, 0.2467307059948588, 0.08526587871262725, 0.042786964746441725, 0.09010140439020553, 0.20048658745250075, -0.13253784315940317, -0.2433259101414347, 0.09225712474850878, 0.11137879892775121, -0.21553781822640167, 0.056133014477096066, -0.13413978027858928, 0.0689868547640175, 0.09471644125305745, -0.12347944216210252, -0.03450055188462428, -0.242351750590028, -0.23643517995871982, 0.1866420003094712, 0.15989416713224724, 0.013261736539256774, -0.06855830678674132, 0.1456254910040119, -0.11834023664553023, -0.02528710253203062, 0.22290914671316803, -0.08665596436227296, 0.06720677984698276, 0.24176786756005475, 0.2293944558272521, -0.15130578605226064, 0.056851348003193414, -0.21346496209155535, 0.046901511520746675, -0.11154266082911574, 0.18780627199408945, -0.2016241347005467, 0.23381357226332666, -0.07616674775463131, 0.07973753627509855, 0.13677180069170614, -0.21360657324217636], [0.14069306573442059, 0.25823236038157804, 0.046495401667387415, 0.2355270521299624, 0.022196076712375334, 0.013145433468138568, -0.26527911072338983, 0.23151223095006385, -0.02469605992492216, 0.02848050570466243, -0.05412711515697777, -0.24259713853447662, -0.07635617845146658, -0.011858891357907964, 0.2653073438790179, 0.08319769495291324, -0.00749703536444607, -0.2168367960187315, -0.21428572296847148, -0.17108139269767864, 0.07286983354079746, 0.13486059244473364, -0.19922992926538988, -0.12242988715962708, -0.07836841425185678, 0.20238840017621457, 0.2347979025131326, 0.17321726768643791, 0.011107555625137766, 0.022709908228567166, -0.2664284382844961, -0.24319781660175382, -0.2190213441503267, -0.18935516782211642, -0.09409130191541992, 0.2506153861851397, 0.16256863290729567, -0.21212028401783647, 0.1610886264145599, 0.046337335324035944, 0.032743310670753756, 0.09641097709579238, -0.23102355919343523, 0.1838658848133457, 0.08047039568333625, -0.266656979592755, 0.0631575248785467, 0.2506223615972277, 0.0764807974528855, -0.11731242084008123, -0.07139125768774032, 0.24023652809136908, 0.20141707197217512, 0.013814564185285205, -0.18477339472056903, -0.03789517208892168], [-0.12420912789060684, 0.08835202519184204, 0.24935363968475066, 0.01947533896250181, -0.177165196543604, -0.1694011843053197, 0.0751092008570095, -0.12457911138134176, 0.21954147254118317, -0.05310400102855717, -0.16340226787962975, -0.16780217164917688, 0.22026769544579883, -0.2401467536158366, -0.14929110866357406, 0.06672942328120723, -0.15652075538138005, -0.24054728839339842, -0.1814735408534764, 0.15699508292687414, 0.2163921872523848, -0.08250255192718567, 0.054514335787622825, -0.047137818639337636, 0.019821473156191538, 0.10846469297212696, -0.046185440708979675, 0.13541978877165783, 0.12281406444955156, -0.0028123333742562373, 0.1583916918964814, 0.26077541306049146, -0.04172156577550723, -0.00799907736216543, 0.13898932550601079, -0.20705818471029952, 0.20833326516349515, -0.23734719955923367, 0.13662788925181418, -0.18006104225112657, -0.17028985576310612, 0.10130404053970887, -0.2273436184889013, 0.0821926918222543, -0.25037192768496225, -0.13181248710035082, 0.23876308876923347, 0.16117629772203818, -0.24361069561443308, -0.25811331770056484, 0.09894808997277876, -0.17700961592995768, 0.2075762380095058, -0.11158430943144604, -0.18118762736404437, -0.2237885737615224], [-0.032478666317100176, 0.19941768982519886, -0.23711194346570566, -0.22900695833935436, -0.11064497925435086, 0.0960685211724141, -0.13148527762446555, 0.04386214326088827, 0.15298525770381044, 0.03576224771521675, 0.16092701296730053, 0.08584630407608537, -0.2619409864953364, -0.02552325391581387, -0.06999413560702515, -0.03770546674852043, 0.15636361414262068, 0.21778999402854032, 0.24665705390303672, -0.04706893368235585, 0.24544655237745772, -0.029449790856600343, 0.11183495923448486, -0.001651850598000574, -0.1716145825295798, 0.22345712152008013, 0.11764927462720724, 0.26190232276526193, 0.25535969236156075, 0.2509117260886631, -0.028720724279926446, -0.2495861610909034, 0.04152567083955667, -0.19024750901457219, 0.055097207514423714, 0.09849037465635656, 0.1706742283071556, 0.17236573153126183, -0.2710133676766321, 0.045256590509375076, -0.22653758150833916, -0.03413537129611596, 0.026411543447084802, 0.1015003166060425, -0.23549999070139915, 0.18451942252999162, -0.0052987827824505125, 0.18718298632350147, 0.2507630171241629, -0.27186589944259765, -0.0830373064187313, 0.048891736330879315, -0.11483050969374028, -0.008407449137984378, 0.0192147922000106, -0.17068967380702238], [-0.0432821220341377, -0.21243788912965017, -0.08445427856095442, 0.202014539314336, -0.18126463572833626, -0.05508718447797725, -0.20503696186869622, 0.019763696121633756, 0.017246593656124187, 0.04756599168822134, -0.17994974219200852, -0.011785993585183618, -0.1642499841556937, 0.12372731925198871, 0.08143771685451201, -0.263360133279725, -0.1994163890652645, -0.0905702071447039, 0.18292028381472386, -0.08059231489038096, 0.2040866989962417, -0.0982755000287028, -0.24333234555160171, 0.24487185089230967, -0.011656556585382116, 0.15431130816139488, 0.1272555246047366, 0.17723500067276066, 0.14443103248925254, 0.006089922567942441, 0.20825932478633424, -0.18458318405160756, -0.019986661775587278, -0.04069502347356202, 0.20126720174902762, -0.2093897208660756, -0.1896209589906681, 0.16903945784987556, -0.041386206975165735, 0.25581178085574663, 0.21063536351475004, 0.21651397797412336, 0.24441685887232223, 0.09384444812846565, -0.2165521252912561, -0.03716927291944544, 0.04693090571545194, 0.25520162501063093, 0.025190085298350984, -0.19757329299906964, 0.026031066027189964, 0.21832249545717453, 0.040659176010029385, -0.19274747230952455, -0.070358168728932, -0.09919722461399502], [-0.1809098228022969, 0.225159273944592, 0.09352466108460128, 0.09531758978284682, 0.22198439849439905, -0.07473073667814242, 0.020745361489773018, 0.11972383409414089, 0.1892534516477425, 0.2359839557582477, -0.07436849577582427, 0.06386250913442637, 0.048889308801810194, 0.22584123816292678, -0.1890882240912139, 0.22282491674831179, 0.23712888034427704, -0.0903978540526541, -0.25408983147963216, 0.03232505502841376, 0.1743475130615335, 0.02000484348750403, 0.0026231993941026044, 0.0947506122992749, -0.10960967397313429, 0.1658101366915734, -0.19106148276169765, -0.16504856318651764, -0.047608819359439114, -0.203061559025647, -0.1765217192725195, 0.07381857099777483, 0.10526794101081183, 0.07523953984232012, -0.027964137001125294, -0.18868361408177567, -0.1305337985908622, 0.06655713944404257, -0.24208821809589987, 0.046595055550075815, -0.04170604223743976, -0.005977935083931185, -0.1237596431905375, 0.031118156029487254, 0.011730121026663043, 0.06000967715027261, -0.11059766663249096, -0.20010836343411464, -0.16889567413278256, -0.18564306135686592, 0.10392043042016752, -0.08331462777722914, -0.07247706659230632, -0.15575561727731616, 0.15014618719635242, 0.24758726849191892], [-0.16158415231293968, 0.26322239723419344, -0.2524303038858027, -0.22708980751949534, -0.2332229460850603, 0.05771831569881504, 0.13515291788787281, 0.0003338063240380066, 0.03847136141476696, -0.04982541415330485, -0.008701676644727926, 0.08969037001311386, 0.03159829991161315, -0.12895568966274845, -0.15780543562223934, 0.24753805627896458, 0.09331208830990699, 0.1939323251415211, -0.03727383254215771, 0.05870049169096704, -0.1921962991882732, -0.17982643960354863, -0.033718858457261684, 0.08071081183309871, 0.11996303598428086, -0.2066103643129126, 0.02219896738370532, -0.20834303920878483, -0.13570668679494932, -0.12765437786495568, 0.20758222942314064, -0.14786677878372198, 0.26705392868960975, -0.19463958515317203, -0.2735571338204447, 0.22102214053095107, 0.008807231959661743, -0.2290438865161927, 0.20724191576315532, -0.14214046366184588, -0.11255225640727848, 0.0460452967240115, -0.022985763101059698, 0.2048887339725647, 0.21969974932975078, 0.12096643471600609, -0.024262595746118335, 0.1055991779156033, -0.040465364710045124, 0.18985075118284694, -0.06086086433050265, -0.05005586958733167, -0.22553281154713567, 0.24997001880635988, -0.2095317161171766, -0.22368325726269367], [-0.0757399984950551, -0.23161242661763054, 0.0007797715945569375, -0.1960846839628567, -0.06363042625181332, 0.0723695218857275, -0.15730175714857758, 0.2401878911470539, 0.06060392913560309, -0.2501931109676168, 0.031039561481251112, -0.10873360337580035, 0.022722955533178296, 0.09105135518758317, 0.24317607235434952, 0.07158408903427847, 0.046849027550060963, -0.2677199169249072, 0.018093733268031, 0.1718587441443329, 0.11207381016067641, -0.19272477668074586, -0.08455744404142403, -0.15058085123371187, -0.11964972764136116, -0.10275260914267247, 0.14372529587414548, 0.23996624583516457, -0.055993079024342286, 0.23542005723930132, 0.018441432384349882, -0.2356365237925094, -0.16576048584103187, 0.1854679824069249, 0.0025839855820305913, -0.019542621620241247, 0.1525284944043922, 0.16610090290603843, -0.04328031201396657, -0.08104554356819099, 0.22084789791808077, -0.1621839139691046, 0.035851426966608285, -0.08951654789581667, -0.1315086648579215, 0.030261481234477892, -0.025255376619937327, 0.11332091499171382, 0.22072245411414013, 0.19843227660061696, 0.1228178592053613, 0.24637959858320316, -0.24781015968933243, -0.0660029032604329, 0.0840896923146711, 0.08814003817799462], [-0.2591584942662214, -0.10591286437771588, 0.23785352090971879, 0.10977137988255864, -0.13227723277559753, -0.07279045367687056, 0.056723082217957854, -0.09966217450493134, 0.11153991330516583, -0.039927587089022915, -0.176955813982416, 0.07318998708043833, -0.17060151400300244, -0.058009475674697886, 0.0225405349675617, 0.23832220208293275, 0.037929075594574035, 0.17399568398959986, -0.22503713458291671, 0.06848685858379144, 0.11901751895311968, 0.26711488974766684, -0.09650205549875798, -0.07228032715906829, -0.049502444009047214, 0.2191769073337944, 0.2355172668249481, 0.20342158032698066, -0.23573828390105903, -0.20202089386258187, -0.15044797363743556, -0.19213760512023736, 0.18010531471408653, -0.2268514003529456, -0.14533103687134521, 0.13561652946799574, 0.07186160484989151, 0.11205788658161331, -0.22750292804322902, -0.25082405073399766, -0.04320557767439859, -0.052367795542529155, 0.015006549430438887, -0.026223363757347046, -0.0808233816365295, 0.26146494791040553, 0.12551063567786602, 0.2581634030441081, -0.02089928456737991, 0.25541876337830116, -0.11189138285299019, -0.26094546052290957, -0.1489317126428236, -0.2469323578734344, -0.1811496364556553, -0.2166303170387236], [0.1452603133210036, -0.24297712591826012, 0.09735341252050156, 0.2592742757068718, -0.16208278455221725, 0.09265144740766268, -0.03277221187248805, -0.24268885002952229, 0.029258998860923535, -0.12769063556923285, -0.17800031169440989, -0.16842703217802737, -0.24150259807035038, 0.2538088686721036, 0.15366424381254795, -0.2526772284334823, 0.17629906534486067, 0.2128112318506855, -0.2052386924881983, 0.21162962845479333, 0.14119621813406352, 0.2166777149255118, 0.13024981271962588, -0.21675160535673907, -0.1046041930542243, -0.2648625663637862, -0.047229267066756314, -0.12443709542809472, 0.029311876709901874, 0.08974512335169571, 0.26390995432722275, -0.03440644486545974, -0.13250182549859296, -0.08910391767730444, 0.12230104499172606, 0.1231982553261326, -0.2567009853762435, 0.19488645805974825, -0.05353705299902997, -0.21267442934818911, 0.1635454296683101, -0.22915711060753044, 0.02656351957044628, -0.22900048530224382, 0.1848554254281265, 0.24374975656707343, -0.21744283304194723, -0.09188437297625676, -0.03551302412096716, -0.016529340627098876, -0.23484016839047267, -0.18111128085832154, 0.15186220973143133, 0.07554485313315557, -0.1386530319295472, 0.04873938034211217], [-0.08418021445950769, 0.15260403776842163, 0.08963232020241524, 0.12838584515451046, 0.1366523202855972, 0.20673369938220293, -0.21262185362826944, 0.22561090520757993, 0.20780156901466595, 0.1225854987672455, 0.25392186669232764, -0.09364214672074758, 0.14323289709211573, -0.0693892865122106, 0.11292529790060912, 0.21810878168455522, -0.13631423302392134, -0.22991786956064997, -0.18504947812295958, 0.002350461821434502, -0.2406399185203003, 0.059751803701037054, -0.15742500272019394, -0.05393593489324394, -0.18402669876761238, 0.24768794417941786, -0.17125713106058094, -0.11760422384707939, -0.1378913147275607, -0.02554589962345502, 0.24318984242505637, 0.20470179470199334, 0.08772373700303421, 0.24572492875504381, 0.23459078047316695, -0.11812384960732991, -0.2440778962860518, -0.003176313566645328, -0.2187008978415081, -0.034601869924680284, -0.09989869992986228, 0.006682232233867491, 0.06207591710320848, -0.09969870229593461, 0.0463424109123583, -0.10734797987222947, 0.0020800930165875697, 0.01332285667361327, -0.15873007233498576, -0.12521498385790414, -0.13139704305454009, 0.2339752764943296, 0.1696620836989477, 0.10122349408235637, 0.1964338430827659, -0.07117863104393315], [-0.19441266074033053, -0.0731931172031472, 0.24638461584725213, 0.2077739766170208, 0.2601794597624719, -0.1076154230370176, 0.17516514138215827, 0.23611899101256528, 0.1699691051111189, -0.03397731119060596, -0.14739526443896375, -0.015269832976994246, 0.15174918685835137, 0.12105651105068865, -0.03241577937551704, 0.14291842040583352, 0.12966100628713179, 0.09471739923721972, 0.16431754375264013, 0.21496022646568314, 0.26082129601183135, 0.26408677335403985, 0.03597163042503676, 0.09394618414441841, 0.010996085255782051, 0.09678574230019316, -0.25331044007921916, -0.026591450044070153, 0.08610038954718724, 0.04710583042876931, 0.13976098963115047, 0.07383277061630761, -0.21112296258327495, -0.1870805553665042, -0.21386171606249887, -0.21864418866809754, -0.1836262755818838, -0.11541531255557183, 0.08558705256910659, 0.056956056454621984, -0.17458696861171785, -0.2597006816240486, -0.00569895875526627, 0.014794915921382212, -0.13750951478311418, 0.08365810238746574, 0.13133368923568361, -0.004010677895814996, -0.23679122996536647, -0.16292545133581382, -0.15816418941336688, 0.035623968313547694, -0.008921017475513382, 0.12250094142681406, 0.018657851739847464, -0.017560835716363993], [-0.1326194923336249, 0.1749034974072527, -0.13079612934294788, 0.1575961661184952, -0.19617491265691633, -0.25781589139985145, -0.1675186899334516, -0.041873521529344204, 0.21887054610753387, 0.22634026444195188, -0.24214805598405809, -0.18605849903295335, -0.09095205961332703, 0.2392158461041628, -0.05981042320008326, 0.1833109066066424, -0.03909046214119724, -0.18733644581070863, -0.24204132222152472, -0.20727332689639555, -0.13554212157496917, -0.15523455643885037, -0.1609037910660353, -0.023228640438723386, 0.017801081708318345, 0.2067475040481418, 0.032865321451405194, 0.26721308968296154, -0.1689193269026411, 0.14458357773827762, -0.11926419810339933, -0.12420981477040482, -0.1519824446916573, 0.026875554457489625, -0.10585211482381235, -0.016303536220112935, -0.23895890352308846, 0.1491849973759274, 0.05071663614856908, 0.018425743961373364, -0.06301415151252523, -0.07997903645378454, 0.12239548141501327, 0.06605378523286898, 0.09513980266671662, 0.20575374315841555, 0.1650805007505045, 0.13884296472173324, 0.26157813009333797, 0.09808644494990615, 0.12014455585618783, 0.03393564473286631, 0.10550707989284658, 0.136497527491311, 0.07740281720577424, 0.21740145101452318], [-0.1638074659429256, -0.019281530698937843, -0.08561440530614398, 0.07289499216641449, -0.020110614463460602, 0.106574923236545, -0.158310075678733, 0.24211346562146563, 0.2557926160791033, 0.1095459640712127, -0.17530860859054864, -0.08285540079375692, 0.006620313901996466, 0.18363785888869955, 0.022084457656249556, -0.0142427937748843, -0.05141635276071441, 0.2626767121082666, 0.237070784472594, 0.2082652420643631, 0.2407659438385671, -0.169847953716375, -0.0025503717727690667, -0.00557024146445978, -0.13415934361532886, -0.0933731040922186, 0.26484782292024267, -0.0013325391214352167, -0.037339211024737085, -0.16261542131330486, 0.0867561340784474, 0.050420256275159, 0.22634880085948766, -0.13100734314455917, 0.022794410516096486, -0.09793090198702209, -0.20550828102002272, -0.07752688403488267, -0.17365763462588046, 0.2468183825582525, 0.0032810794710613767, 0.11914225316726945, -0.2166223949742927, -0.11928856486960898, 0.06780630776688967, -0.023714759125557733, -0.0471052131801073, -0.13965015649425705, -0.18712671683347876, -0.2542883028610622, 0.22810698426048898, 0.1933646311370502, -0.26299462934197176, 4.9030246306092096e-05, 0.18365141939874086, 0.088426649393611], [-0.1909985387716033, -0.1479260248737031, -0.06415709004167133, 0.07540044790101919, -0.14825301096494653, 0.2059962548310536, -0.04441763155064529, 0.14675417341022218, -0.2115833716144131, 0.11400572148750071, -0.26157618534055244, 0.03328807330455685, 0.1774094468935008, 0.1300968523734497, 0.2635456590974842, -0.118706908787714, -0.2668215361717618, -0.12407693074085846, -0.10980362971725452, -0.23170668276834722, -0.09377468762633126, -0.21341148964742798, 0.07586976986757338, 0.21225169758916834, 0.004173735008482171, -0.04098473430382352, 0.056997188446700486, 0.19306542788889314, -0.12713779234688566, 0.19036795626441944, 0.09878614246056033, 0.014237164680822534, 0.229271044689071, -0.1422860198468296, 0.11158368922355089, -0.20970071057913134, 0.1129589980212865, -0.07080002705291766, -0.16703520910070957, 0.10210458852553383, 0.06506555115575541, 0.1391183433266035, -0.1671646578753058, -0.2480466196006911, -0.2236798655278037, -0.03183980581411097, -0.16328834504384787, -0.01610795222490502, -0.07091261619106318, 0.11937483983943142, 0.25898702423046627, -0.02093223602911129, 0.22740529916616492, -0.18020585072648881, -0.15250759894021026, -0.17245988512798588], [-0.04711401184015235, -0.24617310326517955, -0.054630081694577975, -0.11103460401459489, -0.010336166134905622, 0.12438135516260262, 0.042957830777287265, -0.09273549519122726, 0.24827347751840134, -0.030748559076539617, 0.1785857369710978, -0.1300514224496568, -0.13482523260292936, -0.17085434834166077, 0.20427877018299184, 0.020937360417230377, -0.1570357713735333, -0.1712348963920463, 0.03613647905099354, 0.26477883709614836, 0.21934477276004266, 0.17321525081940914, -0.21741340317648436, -0.08629587450774417, 0.09232880797471665, -0.2571642092950981, 0.21816936705328865, 0.15948754124170084, 0.2228136864482031, 0.11946518158799424, 0.19653664153919337, -0.016663467793904208, 0.19150707079668317, 0.22318365711047572, -0.14136420080128226, -0.01277559030376385, 0.072338737934317, -0.01111247872087262, -0.08748117008247563, 0.051928107877963314, 0.025182689540594216, 0.11855536269331951, 0.24375309759022457, 0.21514775023313853, 0.237948965316642, 0.24615814401603509, -0.1371228219635957, 0.1875376607643699, 0.2489326770620225, -0.1982779970377822, 0.09266470835644847, 0.003197072605880702, 0.025518637034384783, -0.25305851624523046, -0.08781740108253286, 0.14127379256531603], [-0.07754870615047058, 0.17191076704763092, -0.05241553330729856, 0.07870176842473664, 0.04560276042839978, 0.1848803666977245, -0.24257364353663985, -0.057744100945340104, -0.08033990487907813, -0.05106192586665295, -0.03826504335460287, 0.13487086130694725, -0.2618903771633309, -0.2346205047216114, 0.10146675710840863, -0.024594316784143977, 0.11967481825510601, -0.26396294741679804, 0.22595913619815683, 0.2494494720079673, 0.2053625187341851, 0.21883544004438377, -0.16376868559277624, -0.1802587229841561, 0.2298276110059379, 0.055420637935491124, -0.19179797048491543, 0.1102759096735288, -0.05712920215889436, -0.12699671500532556, 0.165760423750398, -0.026040054710780164, -0.14875818735824728, 0.07877780384450478, -0.13285375391868046, -0.2520209777583659, -0.23885567724433932, -0.20149991196178113, 0.09478932119986411, 0.08967712686690033, 0.2288164193596368, -0.22411435770846527, 0.16849010441595919, 0.20742443435918906, 0.22094210326939728, -0.06021808327954398, -0.22192188657427164, 0.1836298025798172, 0.13412063963092763, -0.17296960554140473, 0.048268547172987675, 0.04978254576586805, 0.26121320921663094, 0.039836135662324246, -0.08751963798537896, -0.21877089209431622], [0.00760699843498297, -0.2640480133649267, 0.08707370000359321, 0.08229016656459598, -0.0821864151777687, 0.07823615045255661, 0.04325918515901672, 0.01291810062874238, 0.048432526493554284, -0.23518055206720445, 0.09577290210232375, -0.18034099850476504, -0.1056897189181279, -0.0823556211984861, 0.11605247556540471, -0.2621727891146112, 0.23138987890321688, -0.08786270070846539, 0.12232252629383178, -0.256438613623432, 0.055698645914747436, 0.19273469502929158, 0.22732355252413528, 0.05150278361091237, -0.1371257701575023, 0.202032259706599, 0.02321178299658505, 0.1571859468278371, -0.06697442244113644, -0.21796565339537982, -0.23902952719031123, -0.09710854153520215, 0.21826204224196494, -0.2024636963135863, 0.22406378553008177, -0.014049867720735965, 0.05334110702777256, -0.10856631907528438, 0.035582836316155664, -0.08220349838971708, -0.05045836337425755, 0.0588952670411258, -0.056801898509850485, 0.025072484677200968, -0.1741095266929913, -0.24346357748668235, 0.06797709702591048, -0.19369251700633244, -0.0024591091748542016, -0.13233925749268954, -0.14836668395349462, 0.2421586180348364, -0.1407344846541321, 0.018208064658703893, 0.2142556511312967, -0.12843701555863937], [0.152661809081576, -0.07614724118366148, 0.08004194659147179, -0.08603180358749515, 0.12701661747287146, -0.22619649982270223, 0.0006551350347581142, 0.1793592537499903, -0.09572612061342414, 0.2604102819526126, -0.030313457216454343, -0.2441629413851653, 0.056508906736551845, -0.22098106073239515, 0.0658784550472582, -0.18354693976725675, 0.09971359199001906, 0.11495609048352945, -0.12752342781197795, -0.22025678183846686, 0.19513492717357916, 0.2316539606888081, 0.24388905042009534, -0.09921292528590797, -0.08882877366309652, 0.09275085321384668, -0.01878942155991542, 0.1359983232945744, -0.15735387348471438, -0.1293395565869756, 0.24800329509461705, -0.25641630585903413, 0.24316333458934725, 0.08136445543873161, -0.12371079288905865, -0.1496537051985439, -0.2595474406021205, 0.10796857799231818, 0.11819677573160292, 0.06094750565017154, 0.22126177096322186, 0.05759729309025757, -0.18505074394947613, -0.21372213613503926, -0.09113213892745547, -0.14009082636109543, -0.06686106439444595, 0.22258958920905642, 0.02904807511903651, 0.09364430914010263, -0.05775410839786807, 0.2148204552208577, 0.09400532085318719, -0.17057059047578593, -0.23623292280312252, -0.03822418218137397], [-0.2086591892001295, 0.017454830154257583, 0.15598032552880964, 0.13697374020069353, 0.16491152642520596, 0.02984646933170637, -0.036096317549612705, -0.07818319187318001, 0.057848677547576555, 0.05496571489574281, 0.1304850007790812, -0.22931546109686807, 0.08447449028160131, 0.22442290526543984, 0.0346623801572597, -0.19096708524914813, -0.0692199606410982, -0.2632258736162006, 0.05050634998701242, -0.02749386403026871, 0.05981302118576476, 0.04968522319765212, 0.005230570148541169, -0.02115102222962742, 0.2108679651539539, 0.07454467637423073, -0.21494636730475197, -0.2157287394744836, -0.06648765349212452, 0.029751880791510477, 0.08978594605430057, 0.04086911788106784, 0.14511105391759238, 0.233570890035962, 0.13706554228384554, -0.22888568129969378, -0.14844395196719523, -0.2559910996233004, -0.042125852208922565, -0.0493915811178805, -0.04373557455700103, 0.05655083495960733, 0.1596503291091637, -0.0475520520040591, -0.2249606812243801, -0.22681376044757076, 0.11177258841048054, -0.12675619222463294, 0.21949935152646222, -0.14180989368820945, -0.008331253546808304, -0.23425024777330228, 0.03643337394337487, 0.1607520876854398, -0.2610326030088145, 0.25028541113389247], [-0.17272490157239462, 0.2105101541094817, -0.20266131597334322, 0.22509810919984607, -0.09715582136850259, -0.11604843693827199, -0.01917479837159497, -0.12347418927304252, 0.024915858409547298, 0.019680011464789482, 0.18280123975864543, 0.15412391208913256, -0.15797394388540997, 0.1352610828247507, -0.17004168577717216, -0.2348320707001023, 0.04848245352527736, -0.12158482447591912, -0.2341192432992778, -0.20176721872875464, 0.06544092539315693, -0.053924598749108016, -0.14065422625074947, 0.07645410815067805, 0.17306358711258385, 0.22345166230018937, -0.09912988358161315, -0.04942269935336105, -0.19800102394456526, 0.07119906500324347, 0.1605519889400409, 0.13281767190305327, 0.2554385574068849, 0.04415756030921325, -0.20495391711882477, 0.011218946104201044, 0.03474515980861215, 0.02440822132603354, 0.18127547035048325, -0.166941267911499, 0.2526222911633791, -0.2603602724594305, 0.14820149555069145, 0.16821148129652957, -0.018471175639744958, 0.025501209638121802, -0.2336002645974096, -0.1640457774119358, -0.010769147478580876, -0.04434036088533114, 0.028819463688509517, 0.1738091289192264, -0.24984985302563328, 0.0637914753403907, -0.09434339656755591, -0.09818486320987344], [-0.0156914870226334, -0.2566738889994756, -0.06314422935857611, 0.0805064888931653, 0.02932143985923663, -0.01243899089200784, -0.17003464786165723, 0.051236703134170725, 0.16987547608395537, 0.13120330595735197, -0.045908268457300255, 0.06801132445208569, 0.17918363024929318, -0.15495268462627937, -0.10894664881050725, 0.2573220663783804, 0.03818416819193765, -0.18940797516029478, -0.03458178781427798, 0.026066708433659103, -0.07918059304509545, 0.09036901674737174, 0.1663134340122785, 0.05345310501488226, 0.1812848386157882, 0.03831730253614957, -0.03573014663335128, 0.12290853053570278, 0.11495332594675628, 0.11937843836991541, -0.08249445283479417, 0.2554928416574347, -0.24024291374132137, 0.2659479312025931, -0.10515955989464487, -0.07216298194576928, 0.09466266258278411, 0.00967586098758122, 0.004703366188482105, -0.08095633453295381, 0.16383738042924584, -0.10247369357900787, -0.2583891108226657, 0.20478501272326655, 0.13344779367483234, 0.12001975531410669, 0.20315276824256528, 0.23647801618554543, -0.1691150497830472, 0.12125193022099628, -0.2358407420541812, 0.13635658091199093, -0.0755913262045711, 0.21539402346305042, 0.14188546499017302, 0.15193202013795043], [0.1290777360722511, 0.18613844172251476, -0.0860234357902564, 0.20389353699235035, 0.021126921518875963, -0.26373165502350315, 0.006131923789491289, 0.03169062409011608, 0.2469376270466035, 0.09916680913792703, -0.16061918330279973, 0.206700480794842, -0.09387090632772194, -0.09713301212311179, 0.22844017441145514, 0.030427432830904155, -0.07330322240996792, -0.04099236604508241, -0.19560916573117382, 0.201127396005145, -0.029616970546829935, 0.12296324458595947, -0.06571895938310951, -0.18957222865758738, 0.06554826631614902, 0.03714718541758988, -0.21092091842151733, -0.2559420648496063, -0.24281085510729733, -0.2333066393133622, -0.172223691969552, -0.12553503617960235, 0.2599844943101519, 0.126316608240514, -0.02766545782524968, -0.2314536168526314, 0.19290418851899466, -0.2412408595154366, 0.2610348897438217, 0.1045458595634065, -0.10236401823285235, 0.1970076209658302, -0.07600834559272437, -0.18855347613997248, 0.10338222241964357, -0.05160439664841884, 0.04871963817064118, 0.22987698772884058, 0.03326486290062208, 0.24155969449378933, -0.06969664730950073, 0.06542987598181976, -0.146604839179798, 0.017915579048122965, -0.2659641147756288, -0.12458225844849527], [0.1461834129671687, -0.25454972279360616, 0.20629917558932737, 0.24886493217614025, 0.09685687918585478, 0.1855023117954397, -0.02184509760601283, 0.09496450563585457, 0.22477057025638736, -0.1573576311305939, 0.03940485380358588, 0.09434299790964884, -0.14205499158389867, 0.21060732651765446, 0.08847857188295838, 0.15772694162458717, 0.1613112684112319, -0.18163403017969398, 0.029771647978869775, 0.15396314898496266, 0.020907623689713994, 0.21831023767241514, 0.26544593368362135, -0.00839199302717153, -0.008861269548992745, -0.2601348759416291, 0.16235593429706063, 0.036561798688617364, 0.06001024185780801, -0.15709254994392874, -0.23326024587771277, -0.07047505486039132, -0.2553001247611698, -0.17952881019085506, -0.14861230815654014, -0.14096932677780227, -0.14261177399760105, -0.211721825729845, -0.26662030822791466, 0.11943160778521456, -0.1946040411689413, -0.035885482565423205, -0.24349774317765158, 0.10929132063081148, 0.2653434728175894, -0.19386758004127846, -0.23500515612206915, -0.17528763286823684, 0.24734890153758848, 0.11160702449462839, -0.057118081740370336, 0.25727108265061693, 0.2376759191786234, -0.042709862810828225, -0.21805283734681447, -0.18096407196875908]], [[0.25742325072836514, -0.06971667950751131, -0.03231989995662994, 0.017954772044209477, -0.17086320438918687, 0.02199334273505843, -0.1362973626734435, 0.22836798353616372, -0.23503656543476478, 0.04667990734486567, -0.22956761915170462, -0.18935443169202615, 0.04442867782506199, 0.1252375522233208, -0.06721819156111014, -0.172402926877257, 0.031451719360650006, 0.1400868503789665, -0.2576973444578574, 0.16193437505753883, 0.11591956706766382, 0.082574044405677, 0.0629943796744657, -0.22192448082360072, -0.0017616085764888012, -0.14476667505486712, -0.10895441639487648, 0.13620880674109598], [0.06310490085681547, -0.08195022257269072, -0.21047804470451578, -0.2258090185998976, 0.08973426594452144, -0.20992093564560377, -0.016817143433142, -0.20866856996297276, 0.015149578163131979, -0.049824579459064405, 0.04971929510557177, -0.11472953056132557, 0.00029278916142766453, -0.20956112699618187, 0.14472303661234825, -0.04533437655491869, 0.1215869649740628, -0.054073347313979225, -0.20423404853830734, -0.07649837190175174, 0.18616445304729706, 0.19469164614450132, 0.20517312036965846, -0.20357283135440513, -0.09947128284231985, -0.14207672898332238, -0.03560914172845475, -0.08988453748363301], [-0.00013606694072604286, 0.2166542345528757, -0.055916797463605665, -0.011575252376321954, 0.2382247114422733, 0.20342376324079697, -0.14840204674382, -0.06105982307485267, 0.09803200971859322, -0.15708114515062055, 0.22547599745571198, -0.2503848821901977, -0.04009027578562244, -0.07499701957327148, -0.2164497568569444, -0.12145836718634476, 0.02762550795229822, -0.19613602358107296, 0.1536225205349172, -0.1075582846754067, -0.052588972550438456, -0.08651883862182487, 0.2075812687898979, 0.1495860162779719, -0.047841572367383976, -0.10122977181250012, 0.20876963037882704, -0.18567968437642746], [-0.22789308388441612, 0.15934139280580967, 0.26268919156655957, -0.05316750881580057, -0.03599909022252658, 0.006268539852320232, -0.0327879409434797, -0.03976454309472271, 0.1519415889572906, 0.27374155731438343, -0.07952268362551833, -0.265522051072502, 0.16246430688129054, -0.2543005917890204, 0.04067510652504769, -0.10487836224823084, 0.09092713020104055, -0.04802894807346728, 0.15992588103417105, 0.007799334614409459, 0.1136359051134217, 0.10323218489344378, 0.22462192463617275, 0.25140481851856933, -0.030666141567097724, -0.08771664935032436, 0.21895335486500844, -0.09324969175121078], [-0.021440433514229862, -0.233510700507636, -0.18296986457070816, -0.016995270762951493, -0.2670185033617347, -0.06610157181532206, -0.09529803139876375, -0.2120838469489555, -0.06395336714951912, -0.17651451367783377, -0.1053728052153583, 0.09451029846564535, 0.07449864121118296, 0.25517894985787176, -0.13824338927147184, -0.2328454733566862, -0.20573043353515336, 0.17558949667450158, -0.22933098868056961, -0.1611971447720395, -0.18456866133517535, 0.03330434271484267, -0.19187678204155664, -0.2199855044296052, -0.03507898279413169, 0.18444892452790407, -0.15764097070398922, -0.08165676768400014], [-3.2422113602326164e-05, -0.2024940931346032, -0.237505058567712, -0.1778988106122529, 0.051567523932287626, -0.10287590832423943, -0.19153301889350954, -0.08529544212609365, -0.13489340579629258, -0.16615344655285796, 0.04691912170745316, 0.13026286223965933, -0.10955844781270578, 0.07364734077959802, 0.0866302513448371, 0.17055769094179069, -0.05206725272637444, -0.21611378533708347, -0.14369570561636802, 0.21256774888491037, -0.1240461519167875, -0.04580464948943447, 0.21110667320117188, -0.05794279848692403, -0.0698580581705049, -0.06135696938255336, -0.017882778399436312, 0.24750975003017983], [0.1804917428482356, 0.09009890716928524, -0.14299679932747747, -0.07251919968341793, -0.17730162024354887, -0.09614160615797293, 0.05436054995276707, 0.08688848517054049, -0.16164444563171426, 0.0017974202856582426, 0.20460862982666728, 0.24289285450263254, 0.019901170877337, -0.06921081272382423, 0.016229252090433854, -0.2432772092060627, 0.10292515362798577, -0.15992205943821458, -0.16934317977939445, 0.17952864268576157, 0.12632969373356295, -0.2556996641580651, 0.1331523199867548, -0.11356298502217667, 0.21379701438254384, -0.055389541409128815, 0.09562537922308387, -0.2340777630993459], [-0.050377942882877474, 0.004043640375606147, 0.12699129375528512, 0.08701856931320544, -0.0020533953294633624, 0.019873925483644198, 0.1983706855512239, -0.1206698455791952, 0.23094916663869341, -0.04516844023467092, -0.08431111379652537, -0.001444938114659844, 0.1856742593179376, 0.012350245098695973, -0.024190580456921962, -0.24107317216899343, 0.2313983612753166, -0.20986922498909977, -0.19078594581492256, -0.16908354061388958, 0.2096428522408502, 0.1362462590329807, 0.21455459277249067, 0.24595355465136715, -0.21322851203877277, 0.031667701018238445, 0.07304416719136518, 0.009948101025914865], [0.08019091420716434, -0.061661711746146014, 0.22024840714909216, 0.00010853452189085733, 0.11643084651914587, 0.06374820300015688, 0.08255272448887302, -0.11225555956856499, 0.25472352483918953, 0.06080198055141819, 0.1258339409828612, -0.26202269678932855, -0.24698695175016847, 0.17400560810476387, -0.09732161612307894, 0.14936433467796806, 0.22891301850286455, 0.029145502726238448, -0.2539991761963206, -0.26362412145241865, -0.18301714344542658, 0.1075559696321167, -0.23458025880986205, -0.17323397594993853, 0.12935043991999448, -0.08970097274176511, 0.20960738054287345, 0.13981638899343057], [-0.023428684443262127, -0.23504355737361782, 0.09329903312287266, -0.04333288826676915, -0.11228017847451922, -0.09123255294859502, 0.06878021794001132, -0.07927262604855705, -0.035682339815231855, 0.1899552736131249, 0.06784018427085015, -0.15553497980387054, 0.10782261592670739, 0.02134935478590568, 0.09499964098346853, 0.11499019300986286, 0.2505001523244801, 0.12367924002301145, 0.21972613189600815, 0.19705353422092742, 0.02099241729424961, -0.18530650591736098, -0.16998439260062198, -0.14104880624570468, 0.2427820413046965, -0.23601146597764833, 0.22148665256391967, -0.0609863900396183], [-0.14069676421400468, -0.2091835442026183, 0.13337716407039624, -0.055379080706251846, -0.2335661966769358, 0.10197930613166083, 0.1154759325637893, -0.0015771874666183929, 0.05315244568181861, -0.009536870297401539, 0.07391016367481368, -0.2269112420819516, 0.150646514861221, -0.09239576846728852, 0.20336893349766205, -0.0446926195772557, -0.09376890720468029, -0.1817497023994401, -0.23715112845653802, -0.21340703771087896, -0.2120740431363012, -0.23763336051107156, 0.1600422216643364, 0.20501758744719722, 0.09986382159473893, 0.11752766613436456, -0.05409157401329391, -0.11491252565188467], [-0.10322432916964971, -0.15662398404816252, 0.12666031286503415, -0.16800623500328282, 0.18295291057980662, 0.13115296874704585, -0.24618715829932014, -0.1603972115114018, -0.14676188077355629, -0.12856420426054552, 0.2177957005665043, -0.07138446585636901, -0.1485015176374136, 0.02139306511835246, 0.0283477915100478, -0.029106638743032424, -0.0775359081895103, -0.10695962094440187, -0.06584292886230417, -0.1207841586277352, 0.02347154036190774, -0.16263088350222252, -0.0838864542276993, 0.10807087074429783, -0.21532250894232763, -0.07408975525467897, 0.2631492771251591, -0.09120894499230972], [0.04739345954171803, 0.23375438582230304, 0.22105776957954668, 0.23628953178312304, 0.1913164581912255, -0.14786776847726724, -0.24593557075684933, 0.16809706434250823, 0.23961805162143593, 0.20417365609518043, 0.14768439047088838, 0.05561140743077825, -0.13773771588067918, 0.0856100691791386, 0.02204660368422806, 0.07845877020576855, -0.16371491077516018, 0.17565568331482018, -0.017503390641090827, -0.13077310044246113, 0.15278528736241898, 0.2355102054493291, -0.02255060715487356, 0.06454720526644254, 0.15030943151117518, -0.01227314366493739, -0.04610614337422846, 0.2461740850740207], [-0.26689846263143935, -0.12828588804099395, 0.22338031097278357, -0.23842522233653737, 0.010339978504668123, 0.012279811726022272, -0.13338137096475566, -0.07006269858654436, -0.1700703084653543, 0.13295728681102145, 0.2548628629847661, 0.08219310102555849, -0.25873423383043875, -0.1288537742536733, 0.10045616741548853, -0.23907475740056972, -0.26423670416361394, -0.03456048436444532, -0.1935585672881959, -0.04630230528962359, -0.20781968778759052, 0.04680007481868431, -0.035123094491748025, -0.0066666590892102695, -0.1478801872045227, -0.2610708724901615, -0.07594037254705541, 0.09878502745475515], [-0.08713949674536703, -0.1607085530807286, -0.10392544531768629, 0.12008021286769267, 0.06413727133987077, 0.028289776965455038, -0.10045141628956947, 0.03664121274348492, 0.18679091990448013, 0.03531269757632803, -0.25334993242114107, -0.12157458024809523, -0.12946904070964552, -0.10653952827639772, 0.12923887208081675, 0.012541591876049687, 0.05828881908374112, -0.00792551636971811, 0.12783745285774717, 0.1757821920414699, -0.10465690225921516, -0.02866236502816391, -0.06369865875324973, 0.157813574286366, 0.25772325644823835, -0.07403162316560494, -0.0671736667963613, -0.07918341132209814], [0.1611547981797799, 0.26916030143236325, -0.16526338337075602, 0.05528624192831568, -0.07400799793096502, 0.05709699099056248, -0.21049205723145567, 0.11707311979688935, 0.037877130280129435, 0.271603228414296, -0.13932436972247852, 0.03993588817122912, -0.22179598508161408, 0.24668068221030592, 0.1666041315427197, 0.04575276639605555, -0.17627206185350439, -0.1384408309001891, -0.12355491165184199, -0.20476005159928098, 0.15547067027925998, -0.21783289107684423, -0.21631477478532282, -0.14619386745319587, 0.12621730578116266, 0.24439886702824118, 0.22510788551319721, -0.21484254482748127], [-0.17423699250746016, -0.25201903067334663, -0.1010229489251099, -0.008384895866642317, -0.22267451436141775, -0.239080876744851, -0.11593949266629866, -0.06794883605445183, -0.22772222240877638, -0.17952003200128724, 0.11842856486828873, 0.04402867747518491, -0.1738336934370839, -0.0072193662961717794, 0.2546044645403228, 0.058434517587655284, -0.1536980386236573, -0.08134676528192199, -0.1274950299760479, 0.09977361101181331, -0.14319670666491702, 0.18088302053909808, 0.045469533772964255, -0.14381306875631655, 0.06004084152347077, 0.01704570253764052, -0.2053417964848608, -0.2614482920222613], [0.20976714106555633, -0.1580018124306937, 0.21949289756867368, 0.14147210251464387, -0.2452542876174658, 0.2062570362448426, 0.05480206564882889, 0.12234483066659714, -0.0594530698448526, 0.025798300291691858, -0.06598656989720811, -0.24645798566297952, -0.09134519325352447, 0.13584693782862528, 0.09839754813811039, 0.11126552461094864, 0.19417632490768674, -0.13597662767008112, 0.15934309272907038, 0.23081171900188563, 0.10129862289873298, 0.023137523311500627, -0.10624521406460136, -0.23616906346470268, -0.26742205591612556, 0.11152219837329404, -0.05978027576656432, -0.06593996697089247], [-0.09184957526322088, -0.05763267285402085, 0.15795542040900568, -0.049680225329523486, 0.18604180545050858, 0.174983832117933, 0.17597828525021075, 0.23121775873011755, -0.05260281290157395, 0.26734729488990333, 0.10109673623736162, 0.14673739544677478, -0.042804423416876736, -0.08566759474992805, -0.14294522488295525, 0.2457743193748963, -0.08288715764339684, 0.1321941579942957, 0.14097460983783333, 0.1960971333860178, -0.04964938575943756, -0.16454694191207814, 0.2411226012827441, -0.224591350093549, -0.0999891952513289, -0.04606896563194225, -0.16167663274699898, -0.09193631470483621], [-0.03160684845669187, 0.21794143022797458, -0.23058557010483186, 0.1501476816816139, -0.09303476969414434, -0.22672668240750257, -0.11754154973963798, -0.24620826382837635, -0.07998231036669642, 0.13738656200844065, -0.23450825792022317, 0.04482776379485892, 0.10834902504236789, -0.22462511365254859, -0.09794249713158337, 0.14509299370044726, 0.04815045162565934, -0.17930506011117406, 0.0847594809723658, -0.029636851603307562, 0.19003567996338497, -0.16033564382599336, 0.2174240861683176, -0.07721686431791276, -0.20931721796465655, 0.13935587514057998, -0.00894723085127031, -0.0019958613701725955], [0.21954993091713138, 0.1778245025859102, 0.026277433631972876, -0.21225410919640297, 0.2046059062252898, 0.1932709770016055, 0.14542271885517905, 0.22607868449546534, -0.1054027338130984, 0.036598149905829686, -0.1070980987521693, 0.22575968522440942, 0.24366400606300764, -0.006071355000687069, 0.06971333063854544, 0.041468120072051626, -0.11022305612425545, 0.19962728934700064, -0.11103228015630026, -0.23630289528911527, -0.07719332420031932, -0.17481385605152513, -0.2336203655844851, 0.032870400873995675, -0.028454432893787202, -0.06284590200294464, 0.07543768772660694, -0.1451548865481488], [-0.020355956619237336, -0.14889458323593324, 0.21081321187750002, -0.18153092882606256, -0.2672130922176528, -0.2027559427917477, 0.094510957243442, -0.1874100120391789, 0.24687581366608066, -0.11229563665882997, 0.09034943696892866, 0.2301475881048306, -0.21969695230457711, 0.06801968445135942, -0.08615445059089359, 0.2358129415892444, 0.17879979364768167, -0.12652994051360603, 0.10856863517977172, -0.04138535708616728, -0.09916169233142827, -0.11034965669171434, 0.06704392905444201, 0.10639469334541896, 0.023552663642977978, 0.003134203070483645, -0.23166051313948613, 0.0378004698469207], [-0.049327803649605095, -0.22086625894068973, 0.03204084733938881, -0.24186147182688808, 0.19159117148120422, -0.17107453873874395, 0.06442504159205115, 0.11207945249843702, 0.12154187812918398, 0.2562399224581922, 0.1990439120546248, 0.17779011999484923, -0.2056332696308507, 0.0034456577425773867, 0.20146220252578065, 0.13806416954847625, -0.09676410084599897, 0.05444875022365312, -0.2532807695240532, 0.062213673156199134, -0.11212280004696926, -0.022605439915345794, -0.25037489648418265, -0.1693940717845503, -0.23391809146448167, 0.009822117096187358, 0.09916305782494864, -0.15959112490127697], [0.09388594035746867, -0.12496866751288549, 0.1260048168553881, 0.08440890096876713, -0.19086761640626596, 0.2626093299324095, 0.07906245899289732, -0.12015481271621499, -0.15990210907338143, 0.19866726293440864, 0.2302618768472849, 0.11757511128095338, 0.16218714367858134, 0.1782626818818769, 0.22760593427224604, 0.2349903498083536, 0.05944178740380357, 0.14467065524762526, 0.14218197457711307, -0.007087112553221697, -0.19777250648611527, 0.029354297712886116, 0.1958842368545604, 0.18742758762989636, -0.11441208223636173, -0.14869589629705543, 0.050983736818310824, 0.1560024570183311], [0.07518664946174958, -0.1746477910023972, 0.1701310349426649, -0.14867566931102372, 0.2500810927826978, -0.26115151669559294, -0.009987058077335742, 0.19831774036820127, -0.05529802482312835, 0.2611846763103181, -0.17193689773822535, -0.06467380338156514, 0.004500176378215426, 0.08978158421866393, -0.2561958484256631, 0.22895674827236345, -0.22893729926579434, -0.17274900289209466, 0.15307763131644425, -0.006278351633524415, -0.21338981637760165, 0.14341045345619696, 0.028509054358995645, -0.26310409525999706, -0.18940455454642074, -0.08349841348102635, -0.04625040980548665, 0.01516875288013736], [-0.18352497591675332, 0.05217905407804507, 0.09103976286024608, -0.10868245668156512, 0.19285586800924398, -0.19394000220895774, -0.2508567993068246, 0.04084526894078963, -0.24524651958319477, -0.24012337150655577, 0.0960875090389024, -0.036777710636210076, 0.25088289370613504, 0.104452072159492, 0.12036229637376031, -0.2611001372550265, 0.04689124753821947, 0.128811585790124, -0.22732635416912267, -0.18071502813594803, 0.11569109058470789, 0.06923062269297821, 0.016414370491521835, -0.2011124836012662, -0.2629900323762946, 0.13957100835847955, 0.03582153532609771, -0.04499884526393863], [-0.13605006736834568, 0.03425639535601671, -0.26237787093524295, -0.14973043736463154, -0.07303051881923901, -0.14461277446980741, 0.11121043083380305, 0.035956663413373835, -0.09360008888008059, -0.10801211668445658, 0.21359839695333094, -0.14930331812279296, -0.12845414635454822, -0.10257354570324632, 0.05146733250290657, 0.056073678981428204, 0.05722057286130421, -0.12321640657680241, 0.05325423410606317, -0.20439448792878726, 0.01210243305322034, 0.05243605316221983, 0.16749979717863672, 0.10518202875363308, -0.09093639813831325, 0.10201384511329602, 0.0841654547035016, 0.012044699391917935], [-0.20467279567736518, 0.019640866319715955, 0.259253295886323, -0.23732785139207807, 0.136709303596602, -0.1372804622705726, -0.08300815594821367, 0.02647146914729732, 0.0021375764234176898, -0.02959758313735599, -0.05163536748582298, 0.2459486355372369, 0.20590423128485957, 0.10808679164031049, -0.11246865890863295, -0.16637441342156176, -0.1350007065180359, -0.16109880907012747, -0.2496286254110946, 0.20932776224245647, 0.20289476982509372, -0.07244931895925796, -0.15889960895653782, 0.07430232960345212, -0.004980038448066424, 0.2011406397603884, 0.003491748141763692, 0.021735315612267374], [-0.09828008587225381, 0.09073119444246464, 0.02807777945531792, 0.24999107508633522, 0.06870705516857425, 0.026334039898276096, 0.19810724994502676, 0.12812077329532195, 0.19020802301305892, 0.268778867946738, 0.12333425221847143, 0.16481029279016696, -0.047720159773242066, 0.2791077942082803, 0.14365196290372542, -0.028409723612952638, 0.20984935076967895, 0.13661741227478766, 0.1529706190405189, -0.15980272923787545, -0.12659100012801844, -0.08279834684444345, -0.04103957850826229, -0.19906934758320038, 0.22995967992883037, 0.03369589977282391, 0.28234285676918797, -0.2166970901886997], [-0.20740245929276602, -0.19753107319320587, -0.048336050184579024, -0.037255135004223006, -0.08218296605167394, -0.2189590329773974, 0.0474610437431241, -0.08781868215485232, -0.18395017389121718, 0.19458132351908922, 0.006437300222690749, -0.08906532553424462, 0.01857503605272315, -0.20770501066809915, 0.04969987146620293, -0.05662798739274711, -0.05290903098902948, -0.00031965586706512723, -0.09381917651893806, 0.01994067463916327, 0.16825678811434908, -0.20722428342026447, -0.05623326163260464, 0.24838025954904597, 0.07431758408403893, 0.0010496203299786297, -0.21300484183609844, -0.17948484363172462], [-0.0974343417934593, -0.07870871715311198, -0.2544002717077557, 0.09907844299570834, -0.12947533389125643, 0.2419587869580314, 0.14030497624034283, 0.03680362494748401, 0.054346809724479736, -0.24283364167447052, 0.12759787264159908, 0.08789670103481395, -0.22962335514240623, -0.011240756961850949, 0.06441497176254095, -0.227607998352396, 0.172128399143992, 0.18786812629769556, 0.25895825050430465, 0.2669538745270448, -0.15667252127543896, -0.11641282352523584, 0.1175032466630957, -0.14079918129000774, -0.17609061873083812, 0.13346392351942354, -0.1239435177107804, 0.15742230719695655], [0.1352255852217718, -0.1294961849699037, -0.08980895944180217, 0.06344889767983164, 0.1410891173169508, 0.19579630705425, 0.1382022668812546, 0.053110990633110415, 0.11696932920561862, 0.17958903196659268, -0.15131937526199551, -0.03705233743833805, 0.2272729254512455, -0.24357852586704662, 0.1691871940192054, -0.08340490564096151, 0.09033307025228275, -0.003856143594284085, -0.09718267493380131, 0.10826662045939, 0.2516185747875984, 0.21480490560944104, -0.03462316762154488, -0.25923975345220795, 0.03913409926130692, 0.25597910301716365, 0.27424363889194137, -0.016775554550237215], [0.25941118246791495, -0.24648327653196786, 0.01433245499775417, 0.20769668681554643, 0.07596108370960075, 0.16945747135644157, 0.05423759393321809, 0.22900787355405988, -0.13132119790878266, -0.2262059504518734, 0.04419810760165475, -0.050152634299610005, -0.06872967685041831, -0.2043366578851717, -0.1666191620983482, 0.07034105258721214, 0.12487978805452855, -0.13756037819328149, -0.25951481501219176, -0.11704380422143187, -0.08879468098320512, -0.15306771703657582, 0.15399486311336974, -0.025955370560328678, 0.23037276841686802, -0.05765109070435762, 0.18348967331312813, -0.16567397157066344], [-0.23789627314440936, -0.0823919233794887, -0.04026935249452825, -0.21932777706316958, -0.1888673084576579, -0.11011608597600357, -0.047306215753801784, -0.24575525641967855, 0.04548009311897918, 0.13071199080274923, 0.08816390469190333, 0.06312723566124662, 0.1729493947598281, 0.2604086031053274, -0.1060137726092166, 0.1175483884600878, 0.11709506546945658, 0.2406807178034307, -0.122650094764988, -0.25895818147394356, 0.2465683292544406, 0.020532295336944173, -0.2558331102030765, 0.14632784346957772, -0.07645222308014935, 0.035363973055372984, 0.16766009416244051, 0.2029321550531017], [-0.14630385707938506, -0.009282518078004898, -0.05074784556245155, 0.26724667365687216, 0.15303695622695254, 0.04127286619018433, 0.04198095765096749, 0.08849022794859043, -0.18924690681972833, 0.07140614014446121, 0.2609602782768095, -0.1822149869192664, -0.038709256114742435, 0.08956829908814677, 0.24115973562508383, 0.0951151232309955, -0.1158068579777987, -0.06488617502211429, -0.12096489856731973, 0.23262503219001918, 0.003235090870556512, -0.152828198556654, 0.03516684329258096, -0.030810930619067367, 0.20557407350366838, 0.11167834936470702, 0.04819892935015207, -0.12445252748407573], [-0.1272451313552517, 0.25999124323053996, 0.08052793870631011, -0.258371700959937, 0.21545027169191755, -0.2425144637586271, 0.17329946897829374, 0.025632139788052927, 0.0629790808184096, -0.12236426717812056, 0.16793261906593243, 0.008270938774481262, -0.10086528023009737, -0.22222260007207761, -0.1686339635153118, -0.018928576392194172, 0.19424589613290788, -0.2399570806026728, 0.19539264639045395, 0.03740575487577957, -0.04142157687182407, -0.2670177426200395, -0.24955443556821172, 0.24404065868392316, 0.18420538920593152, -0.2131538667915067, 0.07359310891126065, 0.23324952415907896], [0.10937033197313878, -0.1891062078053494, 0.09492758134719143, 0.1344867164025359, -0.047691076609333326, 0.2265006757556717, 0.027342862047143646, -0.11343565581146041, -0.1807894061437069, -0.09865527193027256, 0.2647093613857303, -0.1866726293645068, -0.1372429649777074, 0.1570194927252809, -0.09327014900437508, 0.10441513802438285, -0.22430724620936848, 0.1984347825629778, 0.11024521051338126, 0.13340025847953857, -0.018668093986608212, 0.1835105329617392, 0.16530093512978533, 0.06454577943244151, -0.07365412367417848, -0.06340580917202444, -0.010783313335810472, -0.25276008664005206], [0.06728087409355854, 0.21005298239978581, 0.27850637792108357, -0.15679912598263496, 0.1773335540316399, 0.05396449114852331, -0.1195461912249896, -0.21908158684979012, 0.052596348554298906, 0.24508497348399297, 0.1396406098074382, 0.04337787987740138, -0.1173386339237393, 0.12563731226409405, 0.10771842031279122, 0.05917063739422566, 0.04128990928794912, -0.06467599997173328, 0.01538745568237404, 0.006852313006349531, -0.19292732157305492, 0.2640867105592115, -0.0776657669274558, -0.023479834987989834, 0.2111258408654931, -0.10983848317094137, 0.23027568006239393, -0.18761982484763629], [0.17987615258403433, -0.10062017232891297, 0.24279987915750878, 0.05634803699369639, 0.10653844528759833, -0.048279074737012755, -0.07960472934618948, -0.17605255885164067, -0.2252742130360543, 0.014822484155030152, -0.20130688404695257, -0.1366677494665894, 0.2569751605763995, -0.02829425325353825, -0.21691783052792946, -0.22497949599282993, -0.2107252674631905, 0.23487559298486482, -0.09076810913445696, -0.24515580779660828, 0.09212325765215755, -0.15908373771214163, -0.2290466023424031, 0.17330774982216843, -0.18667763109428184, -0.00567783091791506, 0.22884983157950822, 0.14053382724003105], [-0.25906260974992434, 0.12552784335998868, -0.10186464283567356, -0.08578515776302956, -0.18059662963900763, -0.1173807396092498, 0.02714779287882818, 0.17286506513832692, 0.2741521898904815, 0.030589989636114367, -0.20795094048010837, -0.19976751807128207, 0.24443940679781262, 0.11079013119075537, -0.07470453575199322, 0.18917092425891846, 0.048483092880995615, -0.14127656114879983, 0.10137810126839641, -0.24770210801638334, -0.145980796927201, 0.18292692615818784, -0.23598050672286697, 0.013505666008051032, -0.08249375689752125, 0.06795558822706528, 0.12401200555159704, 0.2018980659263031], [0.14765517218639507, 0.04842950059532281, -0.052930407073535586, 0.17066709047951573, -0.047937801082357456, -0.22774530576325147, 0.0022155400134526992, 0.032481379430222, -0.0659229264202395, -0.22470849807755494, -0.25692268590158096, -0.15468852578181164, -0.11252478543677052, 0.22933045286427076, 0.006555527815594153, 0.06403526911374659, -0.0376394041853699, -0.19330100387941465, -0.2223514247599387, 0.07644707606728962, 0.004321841610422106, -0.055849198121558946, 0.1107215472007127, 0.02372454186689433, 0.11975736612868339, 0.21494908002974025, 0.05062856016576676, 0.2001516661044024], [0.21251644774173983, -0.1449610535241971, 0.24409924477166747, 0.12517813299180608, -0.1527745451167962, -0.2202191358263247, -0.2168671296577608, 0.15280179895229518, -0.22278673332351015, -0.0019572813487199387, -0.13633593412841077, 0.018141465431195325, -0.15157003842260897, -0.11557474264708477, -0.07902130867887555, -0.02735958562710238, -0.16457134274276172, 0.23445041422672366, 0.20467231655605117, 0.05101110168850587, 0.2197430262817936, -0.05724826515159709, -0.2079055352237198, 0.18140490751140692, 0.07790765987173538, -0.09437048724867139, 0.16501292853339913, -0.14546437885918378], [0.19137569601186233, 0.13705887605516498, -0.06781596044193393, -0.055620875750654636, -0.1729935318356176, 0.243813731244244, -0.12263921696793012, 0.05563252214053615, -0.1448907469626894, 0.24254416424848813, 0.016151472245480095, -0.21066397985888732, -0.24872205741047673, 0.011257843907917633, 0.07653936389607492, 0.05874719713455674, 0.0003178133717175762, -0.08095166674306518, -0.161052990479618, -0.1024824854910841, -0.1321029057355704, -0.006003436399539466, -0.21321640407004008, -0.1801372846180917, 0.029065438151232338, 0.02761950749772465, -0.227494686699199, 0.24764120433345505], [-0.13209976843076537, -0.00420005522540251, -0.24100304181626284, 0.026653343043616107, 0.2041597049253106, -0.11869300725976387, -0.086163735418504, 0.04977839506412188, -0.16538596928351534, 0.06296358287447307, 0.04878042173843022, -0.010329328697594897, -0.12117270483510295, -0.049562080180066075, -0.24072972313806065, 0.17891916842485858, 0.010905292800801786, -0.07174089635243161, -0.0890546480297702, 0.027724546893693525, 0.05391517519869754, -0.2375732350803864, -0.26625291114974226, 0.16655058768101816, -0.012320032264155718, 0.24984573020013595, 0.13406824216776755, 0.22491787862566348], [-0.2519392275918621, 0.18160500336578073, -0.13518721824582916, 0.27208136506042124, -0.076750090055803, -0.1922235341590043, 0.10489111572477439, -0.18429679615216266, 0.012706262078258621, 0.24572573502765038, 0.2025304022112817, 0.0380675953214632, -0.0988865782952846, -0.1420911431577187, -0.18250013183693858, 0.028663699794903286, 0.18168411653527994, 0.17638753767744675, -0.19293140319849295, -0.1613300532124252, -0.2303795600580995, 0.08845459186863147, -0.1118667207269764, 0.22965478041201237, -0.12476937818089942, -0.08829566508839425, -0.21081264869991023, 0.09265889977862449], [-0.24823816143991903, 0.2448942466447694, 0.1001780051122886, 0.19116770059955426, -0.10293986085618592, 0.05028786923135566, -0.14507248576402465, -0.020676902610288938, 0.024032324030923122, 0.022791022411805847, -0.14356528668444976, -0.005224313931939062, -0.2207180836111973, 0.1441301316044885, -0.2531559710578931, 0.15410439365207212, -0.024443268552546943, 0.1308485573405364, -0.0961788797995532, 0.057915213533908994, -0.046762311033195725, 0.025555170092900092, -0.13466371793698506, 0.19910821038845583, -0.00616187141921195, 0.1445804996257286, -0.04241482920498615, -0.24881499995708412], [-0.19054951001566534, -0.10586683575160868, 0.26402541366332744, 0.00038350857051627774, -0.04467837380616167, -0.11174339627433552, -0.07933019533317878, 0.22053803805623154, 0.009256326910960625, -0.036867497772113525, -0.0037776270875125684, -0.26100506541927804, -0.24185451176487105, 0.2500208502974258, 0.25228262740238444, 0.1872929643175562, 0.1151779604311492, 0.20424282548347203, -0.22144881578686704, -0.13949249431404828, 0.2628007534731186, -0.045997220920399214, 0.23457281036249755, 0.005986871520466508, 0.15275392883730088, -0.1307476443538969, 0.28553687277740347, -0.18953945630550384], [-0.05072249970699322, 0.17884887989302312, 0.2722491314876353, 0.2524501614854626, 0.157019668104395, 0.11749769802004292, -0.11464423168271276, -0.06551526410811472, 0.18455655486611494, 0.08019039347854622, -0.17663482720098794, -0.12004578045868389, 0.2128514426991814, 0.22077778674196502, 0.21933522464162514, -0.11238956073583271, -0.22935292366498458, 0.08876595811676585, 0.10573427639928806, 0.2570925287255248, 0.26715065777398667, -0.08831461729313145, -0.13145151223137364, -0.13618811256788604, 0.01662251868346766, -0.1837637008041214, -0.030321689862070136, 0.04075407490282101], [0.24665603830725635, 0.172027510946067, -0.03481369345686992, 0.1729332046653443, -0.14255674077358185, -0.1913180730165005, -0.19763463575244772, -0.05285070573877526, -0.1909151372434048, -0.23102546906655186, 0.09940143555866292, -0.03039827028160577, -0.22379559692229115, 0.19463830025607046, -0.033795381605398814, -0.10266701214383163, 0.1964983770079477, 0.11131115992766512, 0.011309972210820807, 0.2210642812542381, -0.08206444478152297, 0.22644294785484717, 0.03488985580793513, -0.13821472844932006, 0.09343025485576452, 0.25491447330998923, -0.015158653663825048, -0.0900241638197764], [-0.10668839283889495, 0.2814346695461425, -0.12528610134129317, 0.169120939444064, 0.07365882853725692, 0.21568127776381157, -0.2301611741716266, 0.2586170527519261, 0.05789224994317934, 0.23060219912446916, -0.19495084449210467, -0.19391593512893618, -0.18591918816510444, 0.16415498242595677, -0.18501387945779046, 0.1488542524112631, 0.09849485046893891, -0.23177847295084106, 0.08268026244923499, -0.11890725556956941, 0.2603063389512614, 0.0684780456401588, 0.018451745340612058, -0.012103970149864654, 0.17425451601936048, 0.05860116941588384, 0.2735320151207053, 0.14632604772220387], [-0.07751843948991197, -0.2284541313215686, 0.1768853092770936, 0.2765041064550264, -0.16243771540076124, -0.06924174379412357, -0.06431748589369268, 0.14420321925178461, 0.10573351756929737, 0.27067065691076786, 0.20603618817083097, -0.2205815258426324, 0.041304571545821615, -0.06881442398665255, -0.05432548142540167, 0.21350332014449144, 0.2508882271220322, -0.1607144334006438, -0.1236051050479593, -0.23744219565119454, 0.046985358238327446, 0.01981891721442841, 0.05889491391562346, 0.19646254139929079, -0.0135844233952503, 0.19388774877256224, -0.23304585923581866, -0.09684308281440421], [-0.09374112295580486, -0.2109822440930054, -0.09822996728544205, 0.2007153503481695, -0.2371487888820115, 0.07489059442391144, 0.21583730203395574, -0.044056024152086065, 0.13035314896227024, -0.026887417773855227, -0.10903508874292153, 0.2252496778060828, 0.08421711311337253, -0.12600648663619085, -0.14481639558477558, -0.10883839748936604, 0.098135218342632, 0.1924568072314553, 0.08918083595469994, 0.13406248782599756, -0.21944380855755044, -0.05231519021204903, -0.06686056495999168, 0.1989068413536905, 0.11039078051339354, -0.25298437010327357, -0.22363049793264692, 0.1951057775888177], [0.2342939322549984, -0.054851708537315774, -0.015216762031864301, -0.25242469262281547, 0.0240827241191464, 0.04658041580451788, -0.11063425301507182, 0.19994910690204667, 0.1869909976250783, 0.08527974330110118, -0.12702805419226226, 0.07270440978003279, 0.08948724543782649, -0.013712589589676779, 0.10000710227869469, -0.0072441262428019956, -0.14421162567472418, -0.06267156849608063, -0.004631031888757575, -0.17357171777793792, -0.2538452706095742, -0.1597898039587296, 0.13907344586910642, 0.1543571063809982, 0.20238970648212945, 0.08553843934099245, 0.20893154656204957, -0.21904090974329923], [-0.2664886412303767, -0.1707435220551877, 0.11991101313859027, 0.2500698543908026, 0.03695884779250479, -0.06355732474646043, -0.17082531681800167, -0.021274319240695443, -0.09552611290446274, -0.02591487247397468, 0.028728017847057308, 0.045742587567041415, 0.12052298439161102, 0.08922678015372304, 0.13944706823380404, -0.032641436407811295, 0.06331353306180298, 0.25193979334895256, 0.1717960887868183, 0.17456000743792077, 0.007948365550211074, -0.07865433380730624, -0.14931428564784377, 0.03315206631566663, 0.11567255396192114, 0.07193139839796647, 0.2423461404851023, 0.11788836229721285], [0.11573405652486823, -0.1327636370719353, 0.18646002141607892, 0.1095521978882526, 0.09408631116073003, -0.15508900776014586, -0.03888271078606398, -0.24785442003926228, 0.01804336496177487, 0.042470819145770916, -0.20375855255324793, -0.19716354514235432, 0.054164915415583326, -0.1780259258997865, -0.2548816772891434, 0.04142570581338514, -0.18626287603876696, -0.07832221235958278, -0.24625785311819182, 0.23417221015924128, -0.1911432029390319, 0.11840082984952785, 0.09424757818829727, 0.20430181609725068, -0.015189849319501748, -0.17740815336251126, -0.23629269950236712, -0.2335969027313199], [-0.18240741428094348, 0.2371895458443003, 0.21357485861773362, 0.21620345281481, -0.2136724671111242, 0.2616167591626686, 0.027384847434744564, -0.06921620132251387, -0.22794211990505797, 0.1673588560179872, -0.2391103328434385, 0.04352903325969942, -0.16206339277381676, -0.15060402596215358, -0.08736630301245935, 0.0430784187243988, 0.14528045595834427, 0.1904831138331735, 0.04643816455177957, 0.020285420571689083, 0.2474489832854865, 0.04135141579893409, 0.18093828025804815, 0.07752022566548751, -0.21806716608197274, 0.1498517947918823, -0.19169867642207383, -0.0046601413867524005]], [[-0.16465334621975325], [0.4892231277088677], [0.46788389512546474], [0.403518490543466], [-0.15811563327798422], [-0.1357631366360421], [0.043770117185734925], [0.0435706039100023], [0.13963719896048427], [0.5623230788604441], [0.33560039326805446], [0.08641932116417844], [-0.18770432430908093], [0.2707559425802452], [0.45878822562893257], [-0.18584661528680876], [0.006400754680769515], [-0.06597093461141965], [-0.39303099926278295], [-0.018686725141328575], [0.09364982277783854], [-0.14624518681272922], [0.11293341016449371], [-0.06370223894175849], [-0.4191325267198085], [0.05168835520827055], [0.4360467342901498], [-0.11443773292607944]]], "biases": [[[-0.012664056463983421, -0.021383278663881223, 0.0014207774201323174, 0.04413137851696987, -0.003927789775157088, -0.0035209617553984686, -0.002372015620223561, 0.013735637051458348, 0.03291589977222233, -0.0011661419431096157, -0.009789748358572357, 0.02528872147013265, 0.0183063545106477, 0.0386570501552522, -0.006301796968807457, 0.025727692580510025, -0.025232279880830096, 0.021539584164726632, 0.010017485269744787, 0.009567894201108386, 0.0014507471761637317, -0.011236317191862645, 0.04353528851351968, 0.043580300548333964, 0.005321792403575075, 0.00862479678405897, -0.009984323173644328, 0.0009688494252028856, 0.05506569230657787, -0.009699102501102735, -0.016182387780264644, 0.013067449856265347, -0.027227583632069906, 0.003614577831798806, 0.01682418453940932, -0.0041883881282869535, 0.0009483633092508804, 0.05363022515034171, 0.009889182910752933, -0.008093620731030956, -0.004115670151169499, 0.008243666988300436, -0.002035059524180397, -0.022286736948998655, 0.009473675630821847, 0.017976554631748326, 0.03624090122160254, 0.021330151952049698, -0.01549417775930908, 0.017185426602578623, 0.0051544937330524985, -0.005735613599751577, -0.002143433483951082, 0.004587148572092637, -0.02901536213210547, 0.02452778070689734]], [[0.0, 0.03141927407668065, 0.09396054299029791, 0.024787023584417596, -0.024655199814965965, -0.0014188230375150807, 0.0, 0.005077211545837395, 0.02745804728748005, 0.11293281487953691, 0.050878124137582026, 0.0, -0.008628568839477737, 0.05250305215970779, 0.03243411270178097, -0.04693859729146626, -0.002344299300308226, -0.0013820564317726628, 0.0, 0.0, 0.0038790784462838634, -0.007846037423104447, 0.0, -0.00564866080556133, -0.052803983017807754, 0.004555937830141121, 0.08846967844947405, -0.008540589245682923]], [[0.22862361633868195]]]}